-0.0200552839812278,0.00938154669676819,0.0230022535276656,-0.0087432409771601,0.0910789026419964,0.00473231303401615,0.10374085359717,-0.0376122616369833,0.102956179508043,0.0169520766951337,0.167022429866388,0.0378847366739656,0.473494355623129,0.479809022812448,-0.0704278261746937,0.303309368463417,-0.0377585318058127,-0.0378950216908444,-0.00554858664593176,-0.0796843294011128,0.00626295328744709,-0.0212388601232238,0.0203865544624615,0.12335640782987,-0.111373594023785,0.364785357730267,0.213110947556531,0.0628303015331172,0.128878724607866,0.131711016073169,0.0802609438783783,0.154212824897629,0.0739932043159784,0.0694181397423842,0.125245913136343,0.258330343772251,0.125155357842632,0.0275500728360484,0.238023386470742,0.0874824626593317,-0.0203921820211659,0.0699257453658733,0.0594484876550917,0.0302035396241248,0.212115871920399,0.0375214192525615,-0.00916602408421721,-0.0513016897773215,0.399130739804495,0.122743989742982,0.104368080574945,-0.0335943557159055,-0.0505411991695619,-0.0229764615154229,-0.215071503307174,0.0268472169904117,-0.0137054576132559,-0.0209820112852172,0.0104122671255405,-0.030201907926354,0.0427246643030441,0.037777710937344,0.178757324609903,-0.139032883892173,0.102132302262432,-0.0360687951152211,0.112604102252838,0.03205774674327,-0.494751825497039,0.0580294554292332,0.0542608361027896,-0.0186029993509836,0.156360437342455,0.0417459403485154,-0.0972249875620656,-0.0578739935845372,0.192501235956797,0.0586399947295737,0.406045687633185,0.14518858786344,-0.258021559118134,0.0432162392742597,0.640334937019273,-0.107742352618323,-0.00227071328805854,-0.12324207190992,0.16515564776711,-0.00237843311038991,0.399708892268645,0.118464065074375,-0.0528528660235873,0.0762536836800719,0.0204878569619696,0.0391033693782866,0.315380749506572,-0.17481907775696,
0.035872211119595,-0.0260052367816008,-0.0406155228104502,0.0204153946029597,0.0179543893076197,0.0517096578896912,0.0279528091636135,0.0428916704315613,0.0444316785426906,-0.0688526327369926,-0.0440288137207986,-0.0580322660843194,0.040413050249358,0.000586159480179691,0.00710062388403507,0.0292444628741009,-0.0199710472600487,0.0435980926277744,0.0451809871098774,0.0231867959022571,-0.018410768199492,-0.00376467988114756,-0.0341505479916622,0.00781457808590233,-0.0501141763586402,-0.0322554172377535,0.0781662542734723,-0.112427388929159,-0.0922850402298694,0.0364040222987569,-0.0483424277879006,-0.0344975149635792,0.051355187922514,0.0798501426297464,0.0183505297139116,0.0289202799659614,-0.00732003755382245,-0.0649543252377214,0.0907672736436237,0.00799508953437807,0.0268682583951096,0.0201990908771238,0.0475136084014584,-0.00860573623696075,-0.0069390326076671,0.0328835063728062,-0.0233874879242487,-0.00811975829663876,-0.0459183966550753,0.0676265004980604,-0.000758980416183281,0.0837222879232443,0.0986108262212767,0.0614927186668412,-0.0230251202425768,0.0200365460521176,-0.0342212935480689,0.00148366565066651,0.135723103353915,-0.044877462288023,-0.00870907688433125,0.0446851056429076,0.0599043695345029,-0.0138727990082307,0.0204571201761142,-0.0194493561689693,0.0635067597237862,-0.00994876392919189,-0.00328891933730206,-0.0260775564908172,0.0815894492130001,-0.00605921967543365,0.0910127452204778,-0.012019255867254,0.0538091287976335,0.126993587366379,0.0576018282754294,0.0554623025571129,0.0217297252466554,0.00342232317967799,-0.0883655186853728,0.021976807938168,0.0183771415693768,0.000987555947816383,0.028580584536422,-0.0078521725336515,0.0413527606044511,-0.00460342346048663,0.0142052349247594,-0.0351373381278276,0.0569039045681726,-0.0174780690243636,0.0555724990134827,-0.0128156486849844,0.00798270484335551,0.0213729491632708,
0.00179062749839823,-0.0421568350407948,-0.158053185304952,-0.0605836993738687,0.00211137854642149,0.223513447401775,-0.0499773783943955,0.164462251060497,0.0181932986022591,0.221028225033314,-0.161516806584144,0.0357102791684394,0.0206540551036246,0.157260875716531,-0.359202048097434,-0.252083113850335,0.0784940355690485,0.172699882145338,-0.197879938972823,0.323660410991185,0.0471719348944061,-0.0302843489060117,-0.134547179246279,0.199356738584946,-0.233928235275214,0.0109685726076273,0.0168638467021924,0.0641618995591949,-0.199746032437442,0.112599646331369,-0.272317636726398,-0.101588868573116,-0.224370944168698,0.0989693745912305,0.0738292125341869,0.0677338386210285,-0.187594339346484,-0.00474832498839342,-0.0887364427889075,0.0220113802713948,0.230263823985354,0.0272876475390962,-0.0181385389570912,0.237442565176822,-0.0420920624715547,-0.035646719946562,-0.000228650862857842,0.283904964429281,-0.201958922716025,0.0264441568725194,0.00968658325506428,0.0637487661798357,-0.230893878751858,0.299100825456425,-0.169242027998812,-0.186760838714304,-0.260322477988429,-0.0121459371009747,0.0306482744121835,0.00692743011751085,-0.0181684527129498,0.0727836938487949,0.00666325306325712,-0.107375378681852,0.131355750153802,-0.1602322018925,-0.144625694993404,0.196828385417706,-0.198972142969074,-0.038026568459232,0.0149931163282522,-0.00608394053198897,0.174909838739885,0.0439720917182084,-0.135348278027089,-0.0129472772887621,-0.0208871709090502,-0.0483334060848237,-0.128183366209185,-0.139345838494314,-0.317787598356966,0.0022990287576855,-0.135146501101478,0.0221825140085727,0.0292583152347773,0.00454887200679777,0.0296072218365368,-0.00933369284086857,-0.0264813528922316,-0.194487342604766,0.278731747624189,-0.218426863233662,0.0350218877833397,-0.0756831287010462,-0.0634323259713366,0.0292612036857829,
0.0415232982845305,0.0889169740927539,0.522331834057551,0.00918818115069623,0.0878768864293785,0.251008323325745,0.13406066778737,0.266137283870642,0.220124452029372,-0.0282836298417533,0.0726869435011633,0.161124923650632,-0.148448251241175,0.0738266877352617,-0.0151941752499821,0.0482967629690257,-0.250731630061774,-0.01713214931323,-0.44088000507008,-0.0624788474933197,0.0235115257744502,-0.0917335837360737,-0.0268030802841869,0.11164749589887,0.193635821959294,-0.193379921828367,0.337651019932662,-0.221791807579335,-0.0418722105357983,0.0804977043973764,0.397367482422791,-0.250003429679538,0.150659968177247,0.216073075115694,-0.248371789679588,-0.127401455526573,0.260398127124068,0.0410323463489822,0.200747662547096,-0.0626276162571788,0.103623761448298,0.0620563129760053,0.646168280527859,-0.331357476235486,0.00387055878748679,0.00280249421445888,-0.025129465977383,0.324199971397641,0.354731566787497,0.166900901170874,-0.302287641109757,-0.0546455965272889,-0.145917662972605,-0.46684262984021,-0.164286780020516,0.0257723692093021,-0.594947999917115,0.00770873641942681,0.455947289458736,-0.266382128701253,0.0449763812281285,0.00149687601848919,0.280050178559227,0.135482886744889,-0.189315901145386,0.0530428876026818,-0.0502081739462891,-0.0155144590697866,-0.0561844568261097,0.0479704295646494,-0.0589795396094753,-0.0727839811250285,0.0808826580903059,-0.0123200026535634,0.095216744398935,0.00758342684223641,0.267541727716107,-0.155774281616586,-0.261863181024525,0.494623653348767,-0.0895874126623783,0.132667450360923,0.0777663099375457,0.06182703886999,0.00241586679427847,0.0938576459223413,-0.172163874518624,7.37821370808261e-05,-0.0679769131490961,0.138244920677112,0.0211154054284771,0.143702914920145,0.041507810617437,-0.133260266255914,-0.139443935398516,0.147729139050213,
-0.0224125454097867,-0.00657995576715903,-0.0500479377738535,0.00343319729900645,0.0105680359007287,0.0765988535026796,0.00256672358962135,0.00263261247340131,0.0470335309376069,-0.0256714890085007,-0.00701810267985975,-0.00773416622280929,0.0757946693708788,0.0218736548796638,0.0492251410134721,-9.99153453081701e-05,0.0359776828918563,0.131632272767614,0.0502656349111035,0.0544213076116994,0.00825377314885038,0.0283744714955159,-0.037952018281591,-0.0587001359275331,-0.0509010547847489,0.0932037856951619,0.0118494151627248,-0.150417741211461,-0.0437145106441951,-0.0453741120601483,0.0025092284194494,-0.0546676723671859,-0.0907250757289849,-0.0136034234842083,-0.00348397165490542,0.0663935227164647,0.0936454879910164,0.00662803722341886,0.109841907685777,0.0507850697205159,0.0106054193980413,0.0252144367023502,0.0504309656056292,0.0730875462513042,0.129882895212024,0.0050642145727737,-0.0264647764520135,0.1267461380017,0.082881766223074,-0.0752979016940287,0.0915442666917495,-0.0241940840465262,-0.0124971112384122,-0.0477418960373635,-0.0348212609191428,-0.00114448980599828,-0.0286845747360485,0.0332157685214693,-0.113281862826141,0.0721880079665905,-0.0284260525430498,-0.00181249762886326,-0.0161429736007245,-0.0414683113422951,-0.112728456185439,-0.0112919328743693,0.00888835948035395,0.0923879154852096,-0.137982838199787,0.0215062742725473,-0.0599082668776101,-0.0405877747102756,0.157649026040168,-0.00240957622799769,-0.00418740743620527,0.0505497507124439,0.122320365824298,0.054595910269579,0.00638927634690322,-0.0299008797089197,-0.036702014142319,-0.0235794199422612,0.0808172709837381,-0.0605906131074068,-0.0485981506556143,-0.0608930139821405,-0.0255858053319687,-0.020652689447949,-0.0749454749543529,0.0111303212768378,-0.0197233013391642,0.00342273970786416,0.0102112727089354,0.0723716880943649,0.0542283809520121,-0.10314710074457,
0.0310658357911686,-0.0282473916522736,-0.036580978373773,-0.0316406505246385,-0.0123168236553043,-0.0157387386516336,-0.00996258551903295,-0.0205020556741303,-0.0249275445384947,-0.0162822287099787,-0.0238703697290334,0.00925156704753045,0.00950314961552249,-0.00527237880059415,-0.0330831409147367,-0.0221609309369914,0.0164707934153718,-0.0299825152675107,-0.025191952608927,0.0108751733260441,0.00759531039066773,0.0253859200378261,-0.0109409603716627,-0.0345399775813503,0.00103614925755346,-0.00356434145407987,-0.016537671870276,-0.00326165123078312,0.0221250739478708,-0.00193675647804221,-0.0306324439311134,0.016972215695563,0.0220368351050967,0.00538099873723496,-0.00698773171157007,0.000834424180012641,0.0152438388548763,-0.0117511486147434,-0.0355810292824509,0.00455436813004087,-0.0154024317341076,0.0337886687467316,0.0012279100063667,-0.031094845474323,-0.0264205833084037,0.0149641747477928,-0.024825251103249,0.0257260316577315,-0.0111675986589238,0.0157317728492405,0.0222260875373486,0.00310498828986739,0.0203718242135146,0.00630237164138152,0.0274945159145726,-0.011837287909505,-0.0312543393767607,-0.0198793384159252,0.0290142227158849,-0.0340238851652888,-0.0081327946899951,-0.0345080296878746,0.000905842219256509,-0.0273529999938739,0.0227952483483436,0.0272769685199093,0.00199406553132796,-0.0393594214351147,-0.00532180350374227,-0.010028072356682,-0.00818110921320281,0.0241434376592315,-0.0147656072952009,-0.0231207333636595,0.0164541416783041,-6.93516482375875e-05,-0.00568916437974671,-0.018622888801666,0.0159348882678122,-0.0196599255518032,0.00517246102718609,0.0254017787871931,-0.0231446512005488,-0.0270525907990392,0.00921687412940932,-0.00460614552135252,-0.0229503515870188,-0.0157348091997169,0.0102690634829019,-0.00514553707616892,0.0209092804644991,-0.0201444154364674,-0.0167736893906996,-0.0258094894173256,0.00376731135566148,-0.0240471459324524,
-0.0249094883457549,-0.0139701684703285,-0.0187779336823236,-0.0313884445291422,0.00252960934161562,-0.017104980352568,0.00316414432826817,0.0257796087063069,0.0286382684150792,-0.0301068818862884,-0.0312274252722471,-0.0338612281664562,0.0124572854834039,0.0191259295372576,-0.0341005020535525,0.00835830927829828,-0.0354342258232819,-0.033187149091269,0.0255822471289244,0.0348547887661404,-0.025497214434971,-0.0102487915699086,-0.0105669587243831,-0.0190483803511595,0.00290424071312559,-0.0260739928588402,-0.00435863218823132,-0.0260274737888319,-0.0211683543905889,-0.0261038253534392,-0.0119003458195876,0.00919182385248616,-0.028160144366285,-0.0347533976257933,-0.040321326822873,0.0224187617573512,-0.0123832132535707,0.0224922014288274,-0.022870759148675,0.00509820131700971,-0.031762860478221,0.0205692706059519,-0.03015891322176,-8.08973920715711e-05,0.0265226698483038,-0.0358378224074626,0.0245374657416583,-0.0198042352237014,0.00568291539658506,-0.00142568214902217,0.0150957670611388,0.0360631346705297,0.0212143720600702,0.0119785043758158,-0.0317407847042042,0.02392348514963,0.0161385157610626,0.0291814506584452,0.0185466448712464,0.00629097987609701,0.0078954196750842,0.00940549076992883,-0.0381861929768208,-0.029769744414012,0.0068854937159265,-0.00492057890478309,0.0141353894595473,-0.0117306029734236,-0.0293888486545119,0.0117957013540089,-0.00765870209543188,-0.0285143393021964,-0.0227463049701413,-0.0112666974570725,-0.0313408848586958,0.0107145888681169,0.00780469144786089,-0.0175546822677799,0.00210605514677247,-0.0339028091444515,-0.0159987970739959,0.00138992628663557,0.0226770053206883,0.0215564966604963,-0.00255630854042319,0.0245581408685635,0.0163253622981406,0.00699964147030963,-4.48383954652076e-06,-0.0115955629728449,-0.024489631598658,0.00877200530731443,-0.00679743170438117,0.00249364660665551,0.0126387962482843,0.0234736873555438,
-0.0275369222536662,-0.013993602872717,-0.00320021423805952,-0.0249129245922294,-0.00549300723065569,-0.0326444014489634,-0.0301488424885003,0.0133448348135983,-0.00828149267886862,0.0166595621131595,-0.0281450446467576,-0.022897804066219,0.0171088887967709,-0.0145235125817242,0.0197334455874686,0.020637556486625,0.0167081879465015,0.0277835762009616,0.0155506159226462,0.0165349197585012,-0.0159586670447751,-0.0351271247703785,-0.0104187735469525,-0.0304664488489399,0.00504671876241639,-0.021792828464712,-0.010304704286848,0.0192951837701663,-0.0274340520817117,-0.0347228207667673,-0.00554664387510572,0.00921275961102867,-0.0320077917726698,-0.0106193802034127,-0.00513869767949072,0.0248263304770951,-0.0168270607319448,-0.0026302386645177,0.0146337439018614,0.0190524405017112,0.0100466887806202,0.0219367509561997,0.00174070943084316,-0.00261980718501818,-0.0355049896151662,-0.034430133537662,0.032186020026603,-0.0189761441964414,0.000686100798908571,0.0102506065579626,-0.0162075051265158,0.0131264416600418,-0.0363194379724536,-0.0161704402439336,0.0317461574421252,0.0209241944154013,0.0307649760881435,0.0291576789936616,0.0104524793766841,-0.00140909371355008,0.00240361287827878,-0.0220213928232474,0.00976195463756061,0.027939795985921,-0.00218247447785288,-0.027301265583302,-0.0271555550550119,0.0216598763959498,-0.0319393788030047,0.0144768351371186,-0.0222062513856044,-0.00473011583970059,0.0215189085813866,-0.0305302071988718,0.0263064710492089,0.0320854385570724,-0.000737857588441423,0.00366440696860769,-0.00734348921916501,0.00329530253588116,-0.0198331326634325,0.0309220580721847,-0.00621141893201015,0.000882587665634232,0.00437421853794659,0.0115985807160929,0.0032502972566367,-0.0211845610407984,-0.0336953646741187,-0.0164210516271713,-0.0354942367779254,-0.0243705490334757,0.0136139505752574,0.0214449095950787,0.0247396930923144,0.0296029695310753,
-0.00539387466187261,-0.446276833812623,0.582866285077518,-0.106125158737823,-0.244181514418922,-0.359291608695015,-0.253451242386737,0.733348511823011,0.0649385403789387,-0.375943429410707,0.186671394063289,-0.0745152805838379,0.00992773885967583,0.156265083754344,0.328774681054649,-0.195239987994914,-0.0991236682464502,0.319294858518844,-0.0277464805193952,0.603106931768233,-0.163947277582348,0.562321055294452,0.116508715685815,0.125333385163684,-0.282942246324349,0.0732779903646138,0.750138645414203,0.0125784359361243,0.224792915884918,-0.0206796243551595,0.0628975989626553,-0.709264341766099,0.713533997714485,0.0207384443522251,-0.251659422602311,-0.0215160961621637,-0.614971862630185,-0.040734466898014,0.582503187675862,-0.212580825609604,0.069413965234108,0.70594046062404,-0.318043370943686,-0.422968296621915,0.155305697008513,-0.0190298338557386,0.0424028096361879,-0.226520880963481,-0.000959587021523169,0.409751341878845,-0.294003951502301,0.805267082341688,0.529825362432136,-0.086153468627944,-0.0962760451562607,-0.32086904458584,-0.0820548170420388,0.0113690252526538,0.891327694366118,0.602250781254713,0.17818724689136,-0.111075985320224,0.305413424168264,0.0408211918968796,0.15912071559791,-0.0603493366444413,0.903564879214626,-0.202865796774163,0.202860289634415,-0.281206173031923,0.139805820194989,0.551218705150793,0.358540423487316,0.0433074335027478,-0.0453047753674157,-0.344801298740943,0.557190971251412,0.529584037620571,-0.143344148332862,-0.434629545274248,-0.576721638172322,0.281419922624086,-0.133731632544815,-0.68821190444742,0.00324646253678515,0.492370267358762,0.590328813454495,-0.0184761444644299,-0.0108628697896201,-0.000546371559921184,-0.433898009237137,0.475596373272121,0.211513141122434,-0.234617991946842,0.342577915673721,0.248693127103218,
-0.00754415893663095,-0.00365430974652056,0.0178239047930488,-0.0272248464723452,-0.0367017114618352,0.0216197630369543,0.0249102458075483,-0.0207739792404975,-0.0196142610372877,-0.0356650606442161,-0.0206750004154803,-0.0154724716943863,-0.0178578435778626,-0.0192011870236532,0.0146125480553101,-0.0251323376868449,-0.0190278428384762,0.0329222090423065,0.0287413581900335,-0.0190464417442057,-2.89890680661455e-05,0.0300673821143286,0.0190834259974064,-0.0136576829127805,0.013876411679701,0.019260373737807,-0.025058525807433,0.0216948831992532,0.0325697162923876,4.05607068857394e-05,-0.0061961260922174,0.0283980268107315,0.0268341132556586,0.0260374021094062,-0.00154433485412177,-0.00811532749531277,-0.0165759227948875,0.00700699334944065,-0.0321259257127281,-0.0233886633943233,-0.020540996554623,0.0338051314272633,-0.0346559560144088,-0.00410847083257284,0.0144589022281843,0.0184069625841463,0.00990345678540606,-0.0173391689135583,0.001199335593902,-0.0350385114114437,-0.00990368596800136,-0.0064494717191373,-0.0131083601814231,-0.0270126478132699,-0.00615372939784811,-0.0102926827296094,0.00623927350647468,0.0111382061852782,-0.000275996215311074,0.0332366171648084,-0.0325692994078273,0.01358140495472,0.0257796669028268,0.00741624128559669,-0.0217125392663394,-0.0364938047719052,0.00402864411558476,-0.00791772414801008,-0.0362563864213045,0.0239589598684346,-0.016161782924845,-0.028276968692389,-0.00703403069665257,0.000266160319338613,-0.0284004364209156,-0.0251753965081935,0.0182873003207248,-0.00697529113034396,-0.0180009245306625,0.0164818663184789,0.0207095993787108,-0.0257263465823761,0.0288880701566157,0.00221922980770682,0.017888796215096,-0.0261527589686718,0.0286257258070285,-0.00699589379979358,-0.0312057361869236,-0.00982264925701285,-0.0116402526843898,-0.0356131373608679,-0.0245682712049851,-0.0236064376907412,-0.00639678274363778,-0.0271691117278652,
-0.00852787016707789,0.0264120711192358,-0.0458868266787825,-0.0373472446876765,0.0732262121135496,-0.0118813618372378,-0.0201643257727143,0.0581464166945718,0.0763410272875926,0.0237735435153109,-0.0490780685476538,-0.0811073380766224,0.0236573115746171,-0.00600673851173909,-0.0807046955121633,-0.0404734785710231,0.0618857920884689,-0.000717254043705993,0.0712165878168592,-0.00516665967938957,-0.0198023553909036,-0.0319050185332447,0.0206344802452603,0.0430481532798688,0.0776070916486675,-0.00788914825418347,0.0585102969412778,0.0594208217375744,-0.029571946337158,-0.00704410080233672,-0.0918522013466816,-0.0252840280419821,-0.0228462438072072,-0.0582210879405509,0.0657456560386373,0.000309868016368017,-0.0940567968684042,0.0141946806873981,0.0041203698337798,0.0149058221539708,-0.0342808645084832,0.0415398535696168,-0.0239000876856293,-0.0342675461101533,-0.0186861713098456,-0.0156437091080204,-0.00627021756628629,0.00487350089033415,-0.0973060114732993,0.0226937247337119,0.0404190385934625,-0.00412663498306794,-0.0167082389447742,0.010384481925711,0.006420442018247,-0.0959477158302239,-0.0278776638335834,-0.0334855805773228,0.0113683125906952,-0.0548756651148039,-0.0153426809100347,0.0265936786242323,0.0113499584832439,0.00609556339562213,0.00199494308073989,-0.101880186846317,-0.0369663944338226,0.12327061762628,-0.0290205661376463,0.0066222893680138,0.0769696986347678,-0.108468487141661,0.0598320154336038,-0.00477144709790631,-0.0691008374385297,0.0244241151070909,-0.0659432180044984,0.0290191150226634,-0.147972863081354,-0.0551173245904735,-0.0936245135220016,0.0120402641308123,-0.0393459483212697,0.0631139884845939,0.000663502841827162,-0.0200933224086939,0.0659727477156673,0.0219814525920505,0.0227521862883768,0.123962161604077,0.0724924665039889,0.0208324444903349,-0.00653474595156196,0.0740811461438841,0.0259038336042077,-0.0219442276515176,
0.0249974884427289,-0.00243035488712567,-0.0703865649623674,0.00327796054687335,0.166246987602638,0.224705343965122,0.0253824760552813,0.0711071355980918,0.0182242864727584,-0.0607618159696218,-0.0769479987046672,-0.225215492677496,0.0218837819084918,-0.0551321249637769,-0.26244718175169,0.0236268927179792,0.0379747513734409,0.117460041621546,-0.21130872935968,0.216030670587429,0.0307487219134238,0.157961312191258,0.129871335712526,0.108762412672263,0.191104197498546,0.0142789980192066,0.120362331645618,-0.228396964616906,-0.0651630650176777,0.00013992576261536,-0.0706090126298173,0.16073734173696,-0.0138514757881379,-0.0456036655070879,-0.124801244346204,-0.00924482731458048,-0.00199930454608634,0.0891178222105204,0.17785533817617,0.015620226177341,-0.0559174642201496,0.198943045022677,0.115317620469604,0.0393512539985519,0.107189432544246,-0.0316753272129848,0.034182790221676,0.22217076668732,-0.162251693999344,0.076386536396783,-0.0184885318443277,-0.0289575180719598,0.104400644033062,-0.00153959855566014,-0.0951474924685197,-0.0881572484079854,-0.160516371624659,-0.0172078224930851,0.208350646604364,-0.154473697547443,0.00958862012808093,0.00178406169371489,0.0358499319595691,0.197037388578845,-0.0182724030767974,-0.00335856329087466,0.0442188095821776,0.0565290944989245,0.0145068042534883,-0.00730068725168438,0.401414927285758,0.164996528493166,0.109167716734284,0.0348745212038575,-0.127698778184362,0.30755385185962,0.151047869123195,0.0245309598862319,-0.0239486992441944,0.0608337174676589,-0.00981402904168241,0.0487996249171391,0.00344088257300299,0.102424973095473,0.0154452352460749,0.159821261216783,0.134772524014428,0.0361581379156753,0.027646204043144,-0.00175686837874229,-0.0233867071364086,0.0326162281321972,0.0892062592137145,-0.111529522294974,0.30151996015556,-0.157015631871604,
0.00359833229431785,0.304048401443313,0.272687009120633,-0.04208743332087,0.0983595440172638,0.371902826197962,-0.12419819301191,0.357052243339753,0.435181578731479,0.047453080415194,-0.409881417857562,-0.149420567842025,-0.104117203453274,0.358126087198122,-0.250892414512466,-0.130735571340006,-0.212614663826574,0.139503720437982,0.0444252297363189,-0.0939312960209334,0.018548006629162,-0.15186165993702,-0.0638622716049776,0.328450020062765,-0.103909376065598,0.144013151995411,0.213341435151581,0.319261916024854,-0.347308949782535,0.255007210342148,-0.0142408275199433,0.39579831832025,-0.0351820494580253,-0.00753457371291542,0.193994295488107,-0.153913549039358,-0.320220228343879,0.080771558382298,-0.195114877654855,-0.0840166291401684,0.545417589673076,0.234221997842526,0.343018319566729,0.111045826882134,-0.061062285626589,-0.0398020675955552,0.0263747450077887,0.27135689049081,-0.09610656313679,-0.00794757506345792,0.417717503288892,0.174794931708852,0.143260225903836,0.320247768734197,-0.0630195917467318,-0.0523471858387666,-0.304951068557392,0.0197712314612144,0.0583528209407819,0.260301673016725,-0.102790999889682,-0.0218423974290743,-0.0514296022602048,0.301959241849039,-0.31109551583638,-0.0364491989856025,0.0708569356305911,0.0534039677326468,0.23068744825143,-0.135963952827932,0.148219770748637,-0.131780560651723,0.329370698998504,0.11601064194779,-0.134804639160269,-0.0690464760947714,0.06080988355052,-0.104568708336473,-0.328441413995129,-0.0357240776529782,-0.237413649978443,-0.0211127250295901,-0.59772768187631,0.0798889319668044,-0.0286751327432142,0.123460314758171,0.310390186661389,-0.0314303729437939,-0.115797053927633,0.206003442717271,0.357623476032812,0.0117668419456311,-0.032031602735639,-0.12076948595605,0.128038826327342,0.172563468906583,
0.0159159293037866,0.00996855811199763,0.0220016882231587,-0.0101207719217424,-0.0107864561531492,0.0216214182967065,0.00088915147087648,0.000899994752426609,-0.0164195121031907,0.000727046956649516,0.0234122838922385,-0.0221873862847986,0.00293050422027797,6.06411434318796e-05,0.0282830038187826,0.0115104263090706,-0.0244600967941938,-0.02591012388765,0.0170075916712494,0.0144476534556118,-0.0113101347457017,0.0138425840220194,0.019038265072146,-0.00231833609222622,0.0332112952091358,-0.0321295281354265,-0.0291629607245493,3.3778217690916e-05,0.00748327779415796,0.00446098207937299,-0.0315811016422353,-0.0325493887203909,0.0104306748948976,-0.0329366566775182,0.0155418874437721,-0.0341047864618443,-0.0271223578134459,-0.0311882736834152,0.00554700341153659,0.0311483666745996,0.0181088940655504,0.0262120626311132,-0.0234488134869402,0.0243081212670988,0.0103486403805388,-0.0276319193309222,-0.0239099860231213,0.0126256300485612,-0.0165247151125657,-0.0264447203406025,-0.0355377945438314,0.0326584060072597,-0.0107755011380401,-0.0312067125973595,-0.0362943974096337,0.0242436235602754,-0.0243354215350692,-0.0193670019064865,-0.0282763742822868,0.0206475983695233,-0.026968810226467,-0.022053240555664,-0.0103525794965338,-0.00644441885170089,0.0160011902025424,0.0243771951706354,0.00849419677188417,-0.0180460930890483,-0.0312119118633246,-0.020685901569756,-0.0110302245033526,-0.0123815089347614,-0.00276871965540489,-0.015467413581972,-0.0287006122210675,-0.0143201560480666,-0.020530901851137,-0.000200590417822402,-0.0337587775777837,0.0180937679623134,-0.0060011992874801,-0.0336201237825195,-0.0356692410102341,-0.0225260856288303,-0.00942532743562951,0.0329735018280132,0.000146008701330136,-0.02645941184262,0.0316869602679055,0.0107687731169715,0.00993050980752003,0.0125010179324012,-0.00937968712602967,0.0185364829349271,0.0117699511495919,-0.0328643913684485,
0.000427569587436465,-0.0442293879687313,0.105684916295378,0.0331428322061887,-0.182825997758504,0.201215807021085,-0.0886689619621303,0.0231906439750971,-0.412247486815637,0.35631042272231,-0.187519663567991,0.236185756860056,-0.422821629369259,0.273572091770409,-0.150895896906783,-0.0985091935972839,0.0208115576344019,-0.11425573857757,-0.441986567140075,0.100721161933179,0.164509764569267,0.170597210920257,0.219831911077517,0.321578125658504,-0.0419965948521917,-0.29712303015479,0.123891105659092,0.285647783521572,0.120441864215182,-0.192138293070913,-0.695891011510111,0.366108392727341,-0.240568495106934,0.215707018954157,0.396526009714636,-0.211840903245016,0.0643830896417787,-0.132836057944143,-0.298119951445954,-0.126720390054414,0.250764866993709,-0.0751459947827088,-0.0935678668525939,0.0230805138836042,-0.392024171319595,-0.0291210809652501,0.0338161963274102,-0.147032615209333,0.148264077923101,0.28872734571134,-0.291171171634365,-0.0609229640996771,-0.136382682166413,0.48802083864043,0.398040597535399,0.0219540453318609,0.0704940348873877,0.020566193931247,0.0625930329222537,0.148742284772209,-0.0314124859347791,-0.0463806702945937,0.086191512276626,0.125881115957898,0.207912254569684,0.174658944713951,-0.330308007647767,-0.139022781589769,0.302789566127657,-0.081140840697354,-0.201430664369798,0.518676469067424,-0.595271138215501,-0.119390329145472,-0.0739323932041081,-0.0332558876792972,-0.3108545538988,-0.0484668481364104,-0.113274604191121,0.247301432234801,-0.374856768557272,-0.0315200018626144,0.599031318946413,0.245493296378442,0.130911116638283,0.260273268314662,-0.32994163836646,-0.0233221132282335,0.172326044012098,-0.625960786960131,0.00606899248027767,-0.3074958879987,-0.00726778360874267,0.0344507651412192,0.206483072397944,-0.35170287035258,
-0.0209625946754821,0.311890309788928,-0.0636583477009194,0.0531372211166803,0.101330625412856,0.0644816817116183,-0.00175723799703242,-0.119926765040349,0.0117373080339599,-0.0851891574207937,-0.136109410093178,0.125887645775666,0.068376991581797,0.242546944867347,-0.108094138684083,-0.0255145800361578,-0.112435120365091,-0.0367666695797566,-0.176900797201988,-0.0983558400098888,-0.00336481336768337,-0.113813954628695,-0.261532356859621,0.202602678008676,-0.189547989198826,0.184883686761743,-0.0999544252926762,0.322632501578388,-0.116200009700728,0.32742087054599,0.291777190397274,0.318734336561271,-0.0648788896766828,-0.112644599960301,-0.0763209088249378,0.148240077913848,-0.041944421198166,0.199475043571749,-0.140008842813653,0.0341076663185528,0.285430426980313,-0.017853230265759,0.0203450921078692,0.148372515693326,-0.00398682639222797,0.0247837525177091,0.00835457088549307,0.1459130788474,0.202298440332892,-0.0866561917759922,0.106491384393283,-0.0902661988497488,-0.0963847929699794,0.0957737639467673,-0.0500127493337591,0.00250545686155222,-0.0193612343709611,-0.0306732930385555,-0.0745614958635744,-0.128740117976821,-0.0230027813316981,0.0319601795607868,-0.0822605688210941,-0.128085517161138,-0.165893594783217,-0.11226011149198,-0.0396989613565491,-0.419859578873871,-0.332240113477847,0.00651284560567321,0.0201612648024836,-0.148814377438183,0.195336716751198,0.0815450410176876,-0.0527836493435898,-0.142468063975271,-0.0175672407220105,-0.115729888605362,0.435362019161629,-0.134536962608249,-0.117002277960834,-0.0485338776052308,-0.114141473675332,0.0852323680485579,0.0428750655547432,-0.131293972296459,0.0961558863891441,0.00771818518174887,0.138809858038056,0.159938225213015,0.168811401066256,-0.0402026275359502,-0.0560241169109344,0.0452667926406266,-0.0441496179717983,-0.0114356213693486,
-0.00921746183515004,0.106016691140812,0.00504009407575255,-0.0245594483771874,0.0715195091039187,-0.101424983629341,-0.214321959054653,0.0562371796599541,0.130446312765408,-0.159375957528397,-0.181499882942408,0.0750220156693979,-0.0802069794399057,0.293363434121515,0.0572708251690492,-0.359585350650706,0.10450881569177,0.347295686796076,-0.213872408079873,0.36068499226294,-0.0618355930202129,-0.162584119451867,-0.0373122843408325,-0.0489250807648532,-0.0474470711836074,0.316258630281504,-0.206168788786826,0.111829921766933,-0.0834170313519239,-0.0927110720538344,-0.370172038394654,-0.0291435894947853,-0.267590024356959,0.290777018738752,0.603682603375754,-0.0430238538951482,-0.262893857466498,-0.381295281586668,-0.330100641861723,-0.0640272145801669,0.101988882664371,0.00719646326277833,-0.237183656140862,0.478312057387008,-0.039353107537225,-5.2417237170541e-05,0.0120051519453461,0.091154106179543,-0.0375366566072505,-0.21043178433296,-0.107621625597605,0.228360956234325,0.213923291900733,-0.0965792632781031,0.0430067558778705,-0.0990618962165923,-0.0654495154592502,0.00693979782578788,-0.168897694794117,-0.115060075329851,-0.0573117052950722,0.00110170965612659,-0.161678149232972,-0.168929804515036,0.117630326142237,-0.240860860408653,0.0600950100568352,0.102452798636843,0.314658154873681,0.00575565567574589,-0.3690118459068,-0.257974124552071,0.0978371328496469,0.00581542322628855,0.118288037946468,-0.295630835288969,-0.153795108820566,-0.152740785398211,0.248642531476162,-0.387573034060244,0.167094591830358,-0.165708007073898,0.0226810194555605,0.135390347472566,0.0156632108344203,-0.108271464058483,0.111329478778688,-0.013654035864165,0.140169841691721,-0.0463413096888828,0.0525521743270572,-0.300202301569644,-0.0472297331563316,0.0957469102683595,0.0514136311824949,0.315391922130792,
0.0056105001149086,0.0124564822240742,0.00553051778069497,0.0299111804478482,0.00374106714844477,-0.011544158052363,0.0246883557079524,-0.0344598202346257,-0.0322944061445498,0.00954703437358663,0.0117313318784365,-0.00832348118032606,0.0287869040970628,0.0220824887653357,0.0305226061125625,-0.0365746316580982,0.019243560097827,0.00750996440231846,-0.0388405719052037,0.0290405363085471,0.0145624989810848,0.00395631053692004,0.00246531152437314,-0.0240331129841453,-0.0363287701758415,-0.0262924903320928,0.0231252959703439,-0.0311045748481052,-0.0281471162261101,-0.015622885106356,0.0257961112888464,0.0196129258684059,0.0188481227536758,-0.031952319756812,-0.0304868536613416,-0.0207663765381343,0.0292847659240169,-0.0313070734442059,0.0243953551409177,-0.0213451783395352,0.0040452986441292,0.0241376813549161,0.0269042293794865,-0.0253609898423372,-0.0189089340172034,0.0222420734110333,-0.0140306814882157,0.0202914781496376,0.0140397225204621,0.00700408061321918,0.0190998406080239,-0.00363242865403077,-0.0195724846973375,-0.00967403761251868,-0.0355989952631269,0.0196726914811462,-0.00855010721522803,0.0118041887786214,0.0280946031229517,0.0267822488954829,0.0126627565577943,-0.0374931306641242,0.0053821579242338,-0.0322921742067895,-0.0245093644154652,-0.033179121818067,0.0206316592703509,-0.0181078898733423,-0.00906674338455874,0.00870970854652251,-0.0269749690701963,-0.00311404055050546,0.0237953804960105,0.0325096898062085,0.0147323386370356,-0.0214636867215551,-0.0304750322237502,0.0265008939778349,-0.0276214681925319,0.0021028868881351,-0.0052786960868548,0.00795272893628665,0.0051960333504368,0.000479903464910148,0.0164553500758359,0.029966717391616,0.00262620248865429,-0.0201463552276204,-0.0270810162573155,-0.0347823607730389,-0.015835775309401,-0.0256917927743137,-0.00112223838530377,0.00698865801063949,-0.0229587379835327,-0.0235982267889121,
0.00103770956438528,-0.0116232741728321,0.0287374833868556,-0.02692095583915,0.0256959609586776,0.0748168257823833,0.0985838815407743,0.0174326438952436,0.0575884491781379,-0.0198363832980657,0.0878790980447694,-0.129219618784576,0.176955327543078,-0.0129600538691023,-0.113433167330491,0.343749529788352,0.127019235180203,0.150907140061006,0.0389985238511817,-0.0581248828533003,0.0562248736165235,0.146580920634938,-0.117712835886202,0.0199735474766246,-0.191186770051292,0.0844596373518421,-0.0299314007968837,-0.0743143345721794,-0.0149196357760068,0.0660731639818774,0.104539531946884,-0.0944390308368155,0.0619891579598128,0.0637963611496322,-0.309846736122827,0.0871805578723055,0.0550929209118273,-0.0836841130033676,0.266105904698107,0.0968853581361677,-0.109905597275487,0.14360465924045,0.0138409178422932,-0.0334183122384596,0.107019800217005,0.0159831123969318,-0.01471638508495,0.0485397259461905,-0.0727167157721175,0.105510727143367,-0.115868114925656,0.0898233491237934,0.0276296992758171,-0.052659828495495,0.0448380575350145,-0.0424325910561068,-0.00269285460593835,-0.0304314370889964,0.115215393502749,-0.106615824064037,0.0783389936392186,0.0450485679536158,0.111397687768334,-0.0321789859512523,0.0784139142108545,0.0242947834330484,0.167457101816536,0.0963270198181967,-0.199865577745954,0.0500420024434382,0.0981969250439167,0.0947780241001361,0.0839039255037573,-0.00741994120239502,0.0906274873946821,0.194647831083367,0.180803152369933,0.11900603008672,0.158081054076646,0.0261570343667916,-0.0852610958977375,0.102152404433188,0.0578146357554052,-0.101285094760932,-0.0471599202293483,0.02030171658723,-0.0194370476391892,0.0297360080300811,0.0630276335531215,-0.0387672936391997,-0.0286179023679479,0.161285454499203,0.0710537932903351,0.0833087300063362,0.0688151037932601,0.0789937784336193,
0.015215072448934,0.0164541153480165,0.0278850093123363,-0.0247612160711818,-0.00219393209971494,0.0154591569068377,0.017355857105807,-0.0104020621586657,0.00645788169494959,-0.034561964534209,-0.00961397441615181,0.0143341083768301,0.0190492227745651,-0.0192692843117015,-0.00649141384291519,0.0175902601377587,-0.0210829284549431,0.0185274274527265,-0.0233750201777795,-0.0290796434168231,-0.0258733330806489,0.0237121629658517,0.00845908446125282,-0.0354879363802567,0.00568957814732011,-0.0266429956508943,0.0336174883435218,0.021154599195141,-0.0337715822468626,0.0148019310365701,-0.00830432339460184,-0.0175128453808009,-0.008791381145905,-0.033574757889678,0.0204962469098679,0.03361056999654,-0.00942844959558567,0.0269254232888137,-0.0225808805912494,-0.0361462213261748,-0.0123494509128524,0.0174405179721423,-0.00989067328727224,0.0197532650862443,-0.0160074115319696,0.00564041076357038,-0.00263368397008929,-0.0253079595646769,-0.0206952615048041,-0.0240351892685919,-0.0116995079348164,0.0331423919255804,0.0119592011826994,-0.00551043906355572,-0.018769094879759,-0.00995426199597563,-0.0348948987585709,0.0152138021422003,0.00708092406019981,0.0234726468429841,0.021932729942809,-0.00575580884221868,0.0173322189210735,0.0118411251210824,-0.0342406527393049,-0.0344955987028791,-0.0294734794097729,0.0204950205491742,-0.0412246468585383,-0.0343403213110169,-0.0248665379913284,0.0205347876860422,0.0258935027280242,0.0304094951239073,-0.0151111882356094,-0.0317654239806743,-0.0158928973181461,0.0264289706370416,-0.011654187014574,0.0170477779140993,0.00819694333413163,0.0349770811068419,0.00871108842052707,-0.0177015953111621,-0.00102673737202236,0.0178115282929907,-0.0109391634278442,-0.0225629197981757,-0.0281341660657086,0.00529867561710543,0.0173957121616956,-0.00798078868664457,0.0348134145023481,-0.027736968407226,0.00641512223993233,-0.0387281503009662,
-0.00967930115629652,-0.147185139959248,0.0461845018652372,0.0142555239422525,0.195485265526123,0.0501066045743079,0.0202224613849338,-0.210561649403777,-0.0355712541174574,0.174560271797232,0.223003959798489,-0.247679470533026,-0.0904155959820063,-0.191855759439192,0.246871413224215,-0.136626213894426,-0.114564298627703,-0.135980108614669,0.28443836228866,0.362687848813017,-0.00646073357067894,0.135978308937653,-0.26271535167684,-0.0231092896417259,0.153073324591198,-0.169153407976652,-0.0082002248257633,-0.323929429609893,0.0600360449541939,0.0873009145937835,0.121246313770588,-0.0930805105738392,0.309991302288127,-0.00624805433227798,-0.0799654841810122,-0.0602739809716301,-0.0582603198674905,0.0399761920079662,0.195793939042933,-0.0139728614926041,0.0721957856451383,-0.0109156146424567,0.0804500108658441,-0.175077458946519,0.0046857056224975,-0.0232301680887159,-0.0147839538812691,0.261640827091467,-0.174024052846479,0.0734124691563197,-0.221290271073888,-0.0560079837183875,0.18108865750729,0.137487488333302,0.116475151718243,0.260336270386488,0.25246156699606,-0.0122425338794674,0.0995720199890172,-0.0843680286082203,0.0974608475026653,0.0229983119239557,0.0341354387334076,-0.323844286844515,0.317538876459957,0.0617262401859727,-0.0292125657296799,0.384393165966135,0.259741096625887,0.0295232025948606,0.0675087635402129,0.0568129487131261,0.30651564248997,-0.0733667612888198,-0.286979618872601,0.127781104303109,-0.222342828490827,0.00872280816643276,0.127470148803046,0.00333322685404746,-0.0299214283484678,0.0138951711452323,-0.0014575498100455,-0.0855717301050214,-0.0209740818405174,0.227677391524241,0.108501141505898,-0.00819099879687646,-0.0264933707991049,-0.396628157585928,-0.0444134585802428,0.322351114299158,0.0600616559019962,-0.115424589021301,-0.189462536931969,0.0513698557034891,
0.0334195299150507,0.0163972938747388,0.0056550402303534,0.00660889447192494,-0.0160662396771949,0.000374266749094958,0.00627254829221175,0.0834125585890666,0.0427200280796502,0.00394117773570155,-0.0174097562749018,-0.0529891563619795,0.00923391998098241,0.00407765247292726,-0.0283686760449167,0.065237389928827,0.0431046689498771,-0.0115703354673045,-0.048686018220937,0.0710914488714643,-0.00241198382097422,0.0310199743407359,-0.0529011294824475,0.0158493123784204,-0.0496484049240858,0.0410786324691605,0.0559369969449876,-0.0327404525323583,-0.0425059020403884,0.00293158513627344,-0.0109481063278966,-0.051694756652367,0.00802321773953795,0.0224909242615812,-0.0510610613235668,0.0507949394048315,-0.0460786526189972,0.0111499777781728,-0.00565839365496055,-0.0304511696647031,-0.0248980307037198,0.0235388979725262,0.00540309869531381,0.0238529469585941,-0.0172032062857162,-0.0131292510432423,-0.0259508036656228,0.0214477745045954,-0.0141839839958666,-0.000507766317553946,-0.00524484796576991,0.00890041519316339,-0.0156448350516712,0.0504733187207879,-0.0133090347299214,-0.0378913745055613,0.000362613905111353,-0.000458355455079394,0.0669048340289157,0.0653579149708055,-0.00868898718540029,-0.0273671352960756,0.020729619779809,-0.0264776259132709,0.0395830700144973,-0.000719920450903685,0.0388445846888629,0.0769504019126069,-0.0828164951840743,-0.020098324739784,-0.0342659831213217,-0.0242172338019241,0.0268237168421206,0.004554511746721,0.0235242311248101,0.0342156821192246,-0.0101349068060283,0.0186088974951432,0.0173477497020477,-0.0167361253358506,-0.0361870222793634,0.0430190270081607,0.0216838854886966,-0.0307152803399025,-0.00891578439552499,0.0331717505084699,0.0406642863718319,-0.0352588425251655,0.0540303937887451,-0.0568980626494489,0.0539338745816063,0.0453332015381739,0.0123000264305831,-0.0254398711470546,0.022933690833762,0.0351856490569074,
-0.0214708627990264,-0.0829607945923024,-0.0173822229534351,-0.0440213562148102,0.0622220251421011,-0.0692468556557019,0.0403960674221582,0.213616459858314,0.11151687445577,0.0977864442289748,0.0121151532827807,-0.197721871908297,0.339770054646543,0.157476288304312,-0.0859319640142253,-0.0541424260898946,0.127551234120718,0.0870524480746371,-0.0794578193783668,0.293895865256089,0.0378816252484545,-0.0337012203092913,-0.226459422697872,0.00924621043264916,-0.265392488953384,0.196771153471032,0.00131386921295688,-0.153628416441785,-0.0520132614768916,0.0107253256091649,-0.188996548438101,-0.292714300964868,-0.162264246181967,0.00989611152563565,0.0237802003163771,0.244944249598514,-0.132170005596259,-0.0856755792528169,0.036854161358711,0.0111834163442421,-0.00856219329689827,0.153527051825638,-0.053290664634655,0.435140675068962,0.135000859863665,-0.0244780160153822,0.00480284757058563,0.084860046536532,-0.165010393508101,-0.095605601708902,0.0409366516831754,-0.00529056992227896,-0.13881007577182,0.304267623698288,-0.106190533850317,-0.069413484604079,-0.101175919178184,0.0288952184700996,-0.181855946603578,0.308016632520097,-0.0441189523564064,0.0700829605376709,0.0174233414024623,-0.169666845219626,0.117095135699864,-0.167072003822406,0.0434976152175932,0.256221374975685,-0.323526784973813,0.0086463034117812,-0.0746508080793694,-0.0368809848775666,0.115995655996232,-0.0308810170013896,-0.117343868123051,-0.0421429207983102,-0.0293332714914434,0.0368305129809768,0.0325414357420863,0.0400749485624443,-0.174559618217726,-0.0303756459682616,0.0366138597711745,0.0004476180886566,-0.0276647308094922,-0.0383364768785243,0.275803297950763,-0.00462234559836076,0.238289747278741,-0.0769008474370608,0.209088366135295,-0.0768054580002807,-0.0315018016422816,-0.0570171352511071,-0.118715122599275,0.148032406297143,
0.0228721072036969,0.00436450147823094,-0.00720463495521893,-0.0205390865827048,-0.0283668619040827,0.0176834856361662,-0.00185987373880485,0.0291346328349898,-0.0374510646624532,0.0249514217916431,-0.0232945695323301,-0.0109124830121131,-0.0371655603451937,-0.00429987050885074,-0.0129312588494701,0.0519685754854709,-0.0280869197223081,0.00124358573905072,0.0167887185538303,-0.020905427373347,0.0209974108879681,0.018712851525077,-0.0182153295367477,0.0426504174711821,0.000366065745591822,-0.0496251113747614,0.0245780229955014,0.0104389462477098,0.00872694013495092,0.0349240223707553,-0.00115717578771884,0.0321838079221598,0.0258668268705772,0.0244389281962871,0.0318926558749632,0.0246178645304456,0.0333203274780502,-0.0365416520539916,0.0394802329176929,0.0148149423314629,-0.0386511704105351,0.0271671986349078,0.00478251060136027,-0.0511855588877403,-0.0349367414879424,0.0328503946105825,-0.0206937104936829,-0.00973059411169313,-0.0147445250540424,0.0712002318026683,-0.0599372993771627,0.0508975940453879,0.0196934832474659,-0.00945717825262104,0.0371617555537119,0.0293807370488464,-0.0361555146444188,0.00380572023682592,0.0752136717680539,0.0216119275925286,0.0357986656983209,0.00217314393886637,0.061914468638558,-0.0160605355995166,-0.0134624226822887,0.0380600566050438,-0.00791738916566525,-0.0365280998060286,-0.0446841963815625,0.0363709720202769,0.019307956289547,-0.000112229896079329,-0.0459386551313604,-0.0148808771569735,0.0333269508393686,0.00211434066442993,0.000288217295896379,0.0192831489148502,0.00641829537452395,0.0335616343035765,-0.00719643857935585,0.0237928247989866,0.0156721766741163,0.0330013228839661,-0.0247026865574071,0.019018300787226,-0.0444123515805144,0.00664261117515818,0.00696698426228769,-0.0281998867316817,-0.00668605112015907,0.00935142180347968,0.0105633461677858,-0.0192317209258605,-0.0177800353271303,-0.000433877278706902,
-0.000307678815999522,0.0474163761797046,0.100167163870536,-0.023998972277009,0.0441811908339137,0.0231838046987508,0.00479897353410596,-0.0183216046887724,-0.0350344557797992,0.0149730378965164,0.062943880877759,0.0159358331270057,0.0478023133864166,-0.033019566453988,0.00835454850153854,-0.0239882752220394,-0.00388157744127214,-0.0228151805269637,-0.0248384846508916,0.00509393088218307,-0.0271201187941552,0.0281042780329757,-0.0117809287676808,-0.0138522977566086,-0.0308253022928888,-0.00656213113587781,0.00303774345708154,0.0570907128279809,-0.0102723510017865,0.0529392632390847,0.0462387993731063,-0.0258806486417729,0.0163514858936356,-0.048151701298916,0.00808386312072824,0.0226241951236245,-0.0485851468935104,0.036976174914145,-0.00795926757297738,0.0297802742078155,0.0251844740427318,0.0328427409963265,-0.0106084360679207,-0.00440434224463278,0.00380612589660052,-0.00257699006510438,-0.0245953549960058,-0.0451865830482469,0.00695726251468356,-0.0193106080154057,0.0197206923913511,-0.0317758979327203,-0.0159806189869612,0.0586151879910472,0.0310716616566229,0.0088487622677163,-0.0319192451026724,0.0201623793049525,0.00304359656934284,0.00501069039644472,0.0387908805473165,-0.0388303640507873,-0.0391558875294666,-0.0363780650599324,-0.01012063480637,-0.0337833755851564,0.0842899678233044,-0.074712462227317,-0.0463429338025641,-0.022314565407809,-0.0122300564281773,0.0105781767271048,0.015224931822363,0.000709346762531438,-0.022033299895576,0.00482956321140238,-0.00950255253166075,-0.0142906017942736,-0.0161243517254306,-0.0498591971494549,-0.0827117466707486,-0.0360716803059187,-0.00788964520492424,0.023059503338079,0.0153663108439269,0.0192271184972787,0.0215157673339971,-0.0221873568275515,0.0533315594127466,0.00456808569793188,0.0255702943951781,-0.0198343019068554,0.0293836912430429,0.0200549554329645,0.0345156731854123,-0.0464619889977029,
0.0388737491334822,-0.402841034274568,-0.287853392916193,0.034378066810602,-0.47516273820371,-0.244915386787267,0.178828215954835,0.345406979972713,-0.226535438097408,0.271458234340754,-0.0495345701428829,0.159879302737547,-0.127649854758945,-0.46478597931739,0.0611899280773072,0.267147382582072,0.803300264117031,-0.474943877615032,-0.0183350678994172,-0.21452177531474,0.128549675027332,0.235991212207372,0.257838014067748,0.284434955314884,0.146326230517751,-0.334123559391467,-0.383499407665173,0.108529268449759,0.535716488249058,-0.455648586895361,-0.125556840963617,0.0609938463048955,-0.321572588116308,0.408629674341267,-0.531798594512705,0.339384387031125,0.722412582565283,0.104529417949822,0.0970338976814825,0.246558551511996,-0.0540255282631869,-0.137865424625189,-0.496526456132542,0.277255640872149,-0.200754241528252,0.00870444769408932,-0.0369288505029081,-0.566638758093471,-0.358798916352496,-0.0215740922462994,-0.0606950009375791,0.095185380648124,-0.0293572999030571,0.430721924907157,0.31971958779602,-0.10375205057444,0.546732102779646,0.0177040594500896,-0.284246481913014,0.125979656196786,-0.0751943044982235,-0.0272955350531627,0.107330315639892,0.577374294220568,0.133857683323304,0.091907375694403,-0.18349122278638,0.0595014699523714,0.0897996951429519,0.0356579518243572,0.145652675610209,0.534735240630638,-0.418198763028603,-0.148657039727839,0.505042613699082,0.497359007848456,0.509533702990598,0.202487865378697,0.0837140494082893,0.182361400971876,-0.0704093580621709,0.0196638790296108,0.0254309666311252,0.157492097031401,0.00351809069715232,0.0153447764830788,-0.365102887867223,0.0349232147416669,-0.166140297811389,-0.0389687857626194,-0.42008446872823,-0.451343371843163,0.0210586711229021,-0.0674437190963014,-0.381616943062031,0.58554849414042,
0.0216728357217682,0.0938971064851063,-0.173415289279057,0.0500676341114309,0.0483506516214324,0.152069788172225,-0.0408825827905296,-0.00910363538176591,-0.0336705213777389,-0.38806583651298,0.00623186520630734,0.123373385754192,0.395180821807906,0.136122493004048,0.187032379614657,0.235866382545744,-0.462459719043694,-0.0599797724028794,-0.180007697185948,-0.294274444069457,-0.0519185932170514,-0.413377630429072,-0.392091174722319,0.0262840596691372,-0.190201145766774,0.600721416823749,-0.271004410498338,0.114264380936386,-0.0192149489514753,0.186488739914841,-0.163991007248211,-0.442024132494293,-0.0325806487628836,0.218886449992114,0.197999950318979,0.193636540018159,-0.140751803874345,0.212506748576177,-0.198369333668358,-0.149860293261797,0.181473567129242,-0.0179210872139578,0.362231316876843,0.448258302980561,0.186005342502339,-0.0353834388065298,0.00044727931946414,0.0841674259689815,0.110082858216056,-0.220618489090076,0.433602832437861,0.0605757731904924,-0.0952692688682135,-0.611838952296477,-0.622532149682023,0.311942159403966,-0.0911348500017722,-0.028311203828898,-0.290683738275352,-0.158346280043523,-0.0302180502719289,0.0239347497193914,-0.0303755236057886,0.520185979636485,0.290138040861998,-0.385307348576359,-0.0593317674906298,-0.000644586181580864,0.231837614946486,-0.0858880348618536,-0.574632498780368,-0.628895233159989,0.510525953834865,0.106671971632152,0.658854141834541,0.368680376175014,0.215551994772415,-0.342885052377486,-0.0512045218649815,-0.2353077940581,-0.229075745342462,-0.137815757806096,0.120804194146021,0.299237460932471,-0.0875682943020504,-0.543653262576133,0.38557624830522,-0.0274685323698416,0.0923865097952302,0.251692002166443,0.277634406375561,-0.108901281258296,-0.0784803285111768,0.12553861753093,-0.361974034516291,0.0582817119354684,
0.01616473666815,0.0369503419349365,0.0260407597916016,-0.0107415429287448,0.00774337699958404,0.0560840657711146,0.02648385097422,0.0437569393302716,0.0301478782473817,-0.00874681144031284,0.050184914794831,0.0795145401005601,-0.0602681612776011,0.0062935890306819,-0.0163780349634625,-0.0177060663244947,0.00544272072852923,-0.0322107788160591,-0.0298148035528693,0.00863179632603615,0.0267149625385242,0.0741269678558359,-0.00825689106627495,0.00344874458380793,0.0597882509583696,-0.0551178203001773,0.0162538084573855,-0.0179174769555952,0.0362281794621693,0.0307548233178152,0.0703909351807477,0.0217307166315564,0.0702312208109316,-0.0228098377909822,-0.0442041026443133,0.0135184460761054,0.0611569555739901,0.0442766300924634,0.048596106213116,0.0116916240437722,-0.00724889505273343,0.0232609930082175,0.00502199284686888,-0.0483523679346898,0.014109470696782,0.0258660990561449,-0.0301884428149156,0.0780306707268638,0.0483318119733921,0.0148333626899024,-0.0106168390334751,-0.0322564739008087,0.00421067870137385,-0.0169892081531513,-0.0441485365108756,0.00330462741674222,-0.00877385125098575,0.0265247535388322,0.00436667202931117,-0.0435848164935905,-0.00118205661216992,0.00943333930105661,0.0385480362995318,-0.0308284589138326,-0.0369960689892542,0.0757403027439578,-0.0126340078902354,0.00413764191428954,-0.0161174641303224,-0.00260131490960105,0.0486320183076019,0.0286097244401898,-0.0456630818642418,-0.0288189680849775,-0.0474999467129878,-0.00270187447545569,0.00262461450564063,0.0276295335246473,-0.0151807934797642,0.0752671420047595,0.0821917793386957,0.0554877084582229,-0.0001374164726269,0.0328748815355389,0.0299065551887555,0.0670863186098765,-0.053563795166413,0.00747685109891765,0.00834819359727641,-0.0155978149295464,0.00307144498860174,0.00302420372889973,0.0025110491356262,-0.0273926713868731,-0.0196828342688952,-0.00253261468258621,
-0.00731883883350249,-0.0106498455731594,0.0037422772331622,0.0176929279780283,0.012762930062197,-0.0332192116108822,0.00474237835565717,-0.00802447396950694,-0.0224609970387115,-0.0289096832660869,0.0310957041322427,0.0151558392690552,0.0726208906351576,-0.00302286623774736,-0.0199097228821264,-0.0329647522651247,-0.0463005921954856,-0.0175770854569105,-0.0228103299762283,0.0501134618667053,-0.00735201474077561,0.008801566513007,-0.000146034082194,-0.0301101785148512,-0.0202016642078095,0.0202205353946026,-0.0312966478050015,0.00232756708039946,-0.0376200355804648,0.0178837957970009,-0.0427433853856307,0.00604817355020156,-0.0435525138194659,-0.0569960912675735,-0.0226642957264085,0.0788715178619376,-0.0384199010297963,0.0796841456372608,-0.0194945819899075,0.0150346126079148,-0.0423163675512382,-0.0300897511133932,0.0125427068434435,0.0489349823672836,0.0698110828120043,0.00441064518248239,-0.0315675555699775,-0.00468997256305161,-0.0254344546921818,-0.0239215125789835,-0.00182095244226135,-0.0615007099944933,-0.0579996068864883,0.00538250032759221,0.00615044806230195,0.0325623298630944,0.0127904035299557,0.00187639266379071,-0.0432643621282297,-0.0141127078401192,0.0176364030203718,0.0129400719615851,-0.034531619622178,0.040867637485373,-0.0141885658667937,-0.0316267264422391,-0.0223335374821526,-0.0471569655107049,-0.0856976213388054,-0.0229770025647796,-0.0177230093667815,0.00798634730516375,-0.0366360870865473,-0.0151446192258915,-0.0375006737262876,-0.0317752141119803,-0.0116317830815696,-0.0165855557670843,0.0677061908543913,-0.0382365708809743,-0.0368210708221202,-0.0554368411778985,-0.0121342857073829,-0.00836696332362092,0.0300424060914391,0.00310681816293631,0.0859133214536103,0.0157396491692034,0.0870740796247515,0.0543550772696489,0.00241398492632504,0.0145888371750243,0.0190235484227549,0.0145119568516823,-0.00954248621868765,-0.00515703073379261,
0.0303790798967387,0.143948897919407,0.15297124591922,-0.0232403245799865,0.637580666534824,-0.186268908052554,0.0636078028397276,0.0386280258514573,0.189718197412168,0.000738806039449015,0.21353072053952,0.148171821719513,0.0390387240548869,-0.173395337892057,0.0926217922977455,-0.194953668253877,0.188166340889742,-0.0206654961366144,-0.562646938068566,0.514134154279106,-0.00288920321759812,-0.217012539491928,0.115945637523773,0.063581267546986,0.397623621082853,0.0481070188244786,-0.245097291714723,0.039995746007285,-0.0615517895252448,-0.00501463373724352,-0.104306856990746,0.0613084998226739,-0.107212794276691,-0.0761394957657801,0.058488361203681,0.0590136826472977,0.0499199884985252,0.249152781034425,0.127963476552022,0.113429784656285,-0.284626862763782,-0.155327080939029,-0.0636267496514605,0.145627976560458,0.0703640873060754,0.039635435667338,0.0366428700549799,0.202918680270704,-0.110749966804555,-0.189181350293631,-0.159322180311096,-0.0962250839056884,0.010655409137405,-0.41291703097275,-0.158163695035867,-0.0180312777680682,-0.183243335530468,-0.015758010701149,0.00602353348474123,-0.249815573329797,0.0270073130638663,0.0966111186156056,-0.0641017283456278,-0.224944705283464,-0.0629566162324073,-0.190981586220533,0.0364146433738808,0.780456326659044,-0.272834467916185,0.362839286933344,0.0585117772448976,-0.389882925198496,0.11408089930527,-0.0102152351312805,-0.43347976755152,-0.0730603630274784,-0.17535737838019,-0.0622818946680764,0.160766118291676,0.0127180557750479,0.135428311126981,0.00724886739875351,0.441182654940165,-0.039751459686134,-0.0696681829569194,-0.0804548205389543,0.069424431726096,-0.0309039025212216,0.292906529940436,0.15234893094234,0.0392970641953283,0.108258273758962,-0.03020103581213,0.248346555180189,0.123541622746275,0.206323694252231,
-0.0335814444553118,-0.142779235379448,0.157500520326293,0.0242314344226757,0.197689336178754,-0.18547394635774,0.187607092316231,-0.590218320978423,-0.0190930179034214,-0.0309056394516582,0.616839042055671,0.0986457241075074,-0.150321348994036,-0.542892541855308,0.501418400031025,0.0479855745662019,-0.348406834176925,0.156555270457859,-0.0515583464031194,0.133197194648405,0.00710493801157884,-0.00604990443480699,0.201476281005064,-0.310449086452039,0.0853445918600826,-0.123501001236453,-0.184172981258784,0.431460509804114,0.192824848061565,0.0633968997263771,0.345374166991476,-0.200760223321201,0.344657222547454,0.0442044372051783,-0.458869643506449,-0.145358851199386,-0.155650232908572,0.120227288500097,0.143878500513042,-0.00937677882281421,-0.0614320709013962,-0.23559774358241,0.117072234393217,-0.403780053756989,0.0918972553317554,0.0429806287263973,-0.0312768691029246,-0.148705169579716,0.462678346366023,-0.0513795698380498,0.246075640991623,-0.341862103477779,-0.15953518112878,-0.0624878446848079,-0.00325438311269387,0.382603383802821,0.233211461881915,0.0207374207920924,-0.0403570816812184,0.247678377234025,0.126792575920101,-0.0399803225514743,-0.0777126736342079,-0.516916972273124,0.12546907073166,0.26507144755816,0.155416942138467,0.263572273513972,0.243604530370433,0.124477597841571,0.143646563173642,0.0271436065051251,-0.0232902390571065,-0.0698951101138738,-0.32265799593119,0.0365354568947933,-0.509926058100246,0.0350255048900412,0.188254068496452,0.0742142337472058,-0.20538304598475,-0.0394028295810413,0.173733704915728,-0.305581938786671,-0.053515919519335,0.148059446186629,0.0448302538601464,0.00242904101070053,-0.0950571202948062,0.302745656542274,-0.189616634345966,0.512948237812669,0.0322370692336147,-0.102858297683052,-0.0843533496906241,-0.127399986338636,
0.018649774176171,0.108217815601565,0.237113084213048,-0.00724339813139359,-0.0364342197510706,0.228702321088673,0.110942474104882,-0.156322972163547,0.117935081807783,-0.0520115623057306,0.0411458351953958,0.237510306417432,0.102807772517623,-0.119473482298235,-0.00903681708824505,0.375528751108065,-0.082063652665541,-0.235484180845414,0.10302573069929,-0.2459949066639,0.0288213866607711,-0.165883784924689,-0.0302309638264901,-0.37703050239676,0.0737375435493328,0.137591238059792,-0.0975562071387936,-0.441057888276501,-0.0244463912568266,0.014832961061774,-0.267852115119653,-0.042923811639335,0.0446108398227458,-0.129907961802839,-0.0789578216537519,0.0051078112015375,0.285732442739516,-0.295528225492627,-0.0453759477557923,0.019401132636599,0.11935197644274,-0.135486040130873,0.196008152102625,-0.0437222491043795,0.0441990704222378,0.0308522187405352,-0.0110288963168323,-0.23584710276187,-0.322300761189512,-0.0560433025994719,0.161918171356678,-0.241185338786403,-0.0627958717430575,-0.0286277540540681,0.0150382610991639,0.26254086697196,0.0170469648461692,-0.026157965271887,-0.0248225693808043,0.18452116468462,-0.0269899634061052,0.00583778244455986,0.0440514062634465,0.121252581448662,0.296254661560984,0.114554424283216,-0.0336305398492885,-0.0223850044228751,0.345681880480534,-0.0111110318269229,-0.267995764872076,-0.0486817681483636,-0.117035387160403,-0.0137824066715597,0.0741895038641579,0.532453595374752,-0.0399923220903172,-0.139229797249354,0.191321140919517,0.255954253082447,-0.321432472121585,-0.00289751796667894,0.16551770813446,0.00515708013553837,0.0196543055778065,-0.209993525572539,-0.0554152853346635,-0.0207408006056781,0.0808237140817152,-0.161793858858096,0.029418784840818,-0.0426053473609053,-0.00266550872824074,-0.107578584636193,-0.000405627060611364,0.136814995743126