-0.226473995213846,
-0.051451922446919,
0.309499892182486,
0.300338272726074,
-0.00868798589930398,
0.272479928907312,
-0.152683633068993,
-0.23818352128422,
-0.424648907902719,
-0.181361957090418,
-0.201204973133357,
-0.109192923836518,
-0.163293986904433,
0.0840267676806461,
0.375404686475392,
-0.204814613202111,
0.234801704167213,
-0.205605322128665,
-0.294765592128117,
0.125814809746791,
0.109688173478353,
0.332988414912573,
-0.426609428569668,
0.679378737288024,
-0.342487855380192,
0.083954187920807,
0.213702847164082,
0.115245589029319,
-0.128690380272285,
0.125599391267293,
0.226923854369668,
-0.429044201128373,
0.0331508525830259,
0.586651319140504,
-0.371337351450796,
0.460476147525541,
0.104743667114271,
0.020228902538624,
0.386609374220216,
-0.0524960014550789,
-0.159033969719192,
0.241919936213676,
-0.562629912861579,
-0.370870409381655,
-0.293134163810732,
-0.490408560665168,
-0.227388132006054,
0.200837151406358,
-0.327119754419814,
0.321337732403,
-0.134755152373888,
0.00088189346010242,
-0.119492121255273,
0.742975288119756,
-0.593678977793892,
0.103369823627315,
0.363506381756565,
-0.183734719899215,
0.0981251785503396,
0.0939205986194211,
-0.504113762818535,
-0.456159657145406,
0.0422513359713763,
0.077992264026508,
-0.346115517296493,
-0.378074555356022,
0.0691216709968925,
0.195690481151752,
-0.0919863334898384,
0.253726935600213,
0.2313120292597,
0.554104984374296,
0.032608394416128,
-0.580896249668664,
0.171425047991629,
0.640146677172926,
-0.177182088968634,
-0.128344003038788,
0.44147828863988,
0.197348135690993,
-0.288449317963866,
0.447614487950525,
0.280925243004014,
0.138757789131257,
-0.239403707877805,
0.244588484790272,
0.592184177946235,
0.119974143547018,
0.364050839680319,
-0.479060690006952,
-0.347507483897116,
0.409539943773738,
0.152989135209389,
-0.318409302172686,
0.239406149026634,
0.687796194155542