-0.384818566548532,-0.447593952371095,0.222673861482951,-0.374858769060676,0.392008131579687,0.0971898393680613,0.227179626832898,-0.0499151809813978,0.145838754966727,0.310789328116727,0.310876756603223,-0.0280505095404375,0.366142340639779,0.495974052159517,-0.243490109327882,0.526479765131882,-0.216847989722875,-0.23325295366738,0.0225549801013645,0.0297895973702559,0.156655555847483,-0.331865519276945,0.334183484421577,0.1033310327738,-0.19194265383602,0.546524601239951,0.509448684740433,0.223483152432014,0.112833850783984,0.143156760712703,0.0579738178058912,0.480906548174652,0.245880401407183,0.299009725293438,0.30504535532057,0.542110949165632,0.158344431629481,0.173787446471486,0.657260851461273,0.237532846656685,-0.000976881780160099,0.181986990282638,0.373165460689592,-0.0085082265912299,0.307540185266688,0.500811250621466,-0.121561233823503,-0.252187043970133,0.387492995064426,0.418441032014603,0.145795356821808,0.193983087329053,0.0232065372502937,-0.0728731303792762,-0.48768199412885,0.244527919612568,0.245268878833859,-0.344675961699512,-0.239287475694329,-0.110758105297596,0.0719380516684261,0.165845014469445,0.271351532181159,-0.0464331692438334,-0.105187929204192,0.0626702727332861,0.146834236614134,0.193598617045971,-0.529416103588269,0.414148727483811,-0.238508124420323,-0.195572752155315,-0.231701914677927,0.14870752770686,-0.392142867272939,0.00454901407285037,0.594353110493991,0.340370570553653,0.405887264460621,0.412425059030859,-0.574988629525811,-0.122132874759862,0.679917847923778,-0.120036899502944,0.0487572752138965,0.0412357211609164,0.506538239762168,0.00474034659456853,0.592257397069696,0.311185901351544,-0.381204472788442,-0.226011095881525,0.233782053099843,-0.083025956780673,0.338676043727372,-0.355145581414942,
0.487082398956659,-0.319976951104771,-0.377640996347301,0.361079418883802,0.15594552452686,0.228242090971402,0.236646470299086,0.0110288938454222,0.326591005277329,-0.419267761912734,-0.487486574629468,-0.025544916112231,0.371753442681614,-0.353630089522661,0.21628861023963,-0.178419551021755,-0.393264261539666,0.372188093895629,0.5369461960088,0.558678700786557,-0.209276722148167,-0.476345560476091,-0.365585546180542,0.263815099266948,-0.311754429471163,-0.177855164433938,0.0148594896265263,-0.373361398377725,-0.421043704905386,-0.148337791254571,-0.237932467458424,0.101923554679349,0.0494480981839772,0.176088379476399,0.296636627759469,0.314819443558036,0.464169568121163,-0.518820266510086,0.305888273997078,0.102142967816139,0.125652480189843,-0.251084501117596,0.0857393370693941,-0.344582883985238,-0.171021681077189,0.519149626347983,-0.362246472854358,-0.499252075705361,-0.278632405045506,-0.119504925329773,0.278715498921147,0.413742768109674,0.174126473271601,0.0380201069453613,0.0891232326043005,0.129320010999094,-0.119853764328894,0.0162384732601188,0.341903863939028,-0.216105600737555,-0.203797098156938,0.524400041003059,0.0863954596926597,-0.444035945627421,-0.499689933621626,0.403113076719193,0.00543183102114219,-0.183409963455111,-0.25202880541457,-0.390723291273214,0.249801883573477,-0.133222507943629,0.489523005059734,-0.382347872112509,0.0392905379820076,0.348247423680482,-0.138245088158826,0.346982299701167,0.0153398848465843,-0.00970940868044386,-0.465048067355123,-0.3349236432546,-0.119876109907459,0.0619514534439758,0.422525658826035,-0.222768151619188,0.142863679345408,-0.0630513321091269,0.229346007592258,-0.023338210976201,0.295734134971118,-0.545165459742139,0.426494487782266,0.0329095557017753,0.0839185323008177,0.0646264379214918,
0.015423261505914,-0.537296985652892,-0.214852579809006,-0.488672922216308,0.300447710145831,0.186001398988215,0.0179097271882975,0.268615967166823,-0.0586106608460516,0.0167321144102575,0.230580402757991,-0.0676218153396366,0.477780723297879,0.290865791734501,-0.567990875776557,-0.346942858304115,-0.180335839049836,0.442196351565413,-0.133228651300485,0.38480597350875,0.234500642569176,-0.165720881645206,-0.017073422214329,0.398697975326715,-0.217163712935962,0.140581845966509,-0.0466799851622668,0.188938434572383,-0.556720135837903,0.193139935283857,-0.519510413574798,-0.215290250863794,-0.482547430293099,0.167222595937041,-0.355452696204768,0.489322341008299,-0.369204840032169,0.181472617781474,-0.116027090359255,0.431143106889756,0.516833167531479,-0.265256269931154,0.113526747666096,0.448107690258078,-0.170269609065683,-0.486273221348468,-0.0386046186921154,0.165120332701967,0.112372317653136,0.410802606352806,-0.0204021306241449,0.310522468867997,-0.449167099422297,0.691734342974982,-0.254490494089858,-0.12907550909645,-0.569593579184589,-0.187059477040864,0.379439338288491,-0.201505055360289,0.412506885847767,0.248304648670802,0.104268409054001,-0.288321833303322,-0.0225412027459563,0.16961149883766,-0.398182197558461,0.261605710236638,-0.346614449629608,-0.0935456539651717,0.0999887575892537,-0.409737513172112,0.472793931486027,0.200039718634551,-0.316485322091862,-0.021742571094932,-0.223971349276036,-0.212849079107139,-0.453519891973611,-0.230943479550091,-0.466305514894674,-0.0524064928673127,-0.316787052572101,0.239656251447169,0.272769810245909,-0.38322563963473,-0.0759985197584283,-0.142955275081318,-0.541268298662394,-0.240065748246891,0.274327013492314,-0.328983191167887,0.453824621888067,-0.0105750620656824,-0.150723902375987,0.200663192395625,
0.512066643365991,-0.255100562102554,0.52764750988781,0.183215336720384,0.23430605787723,0.081758605190001,0.329240419953187,0.355411235645378,0.531675243317656,-0.389513112582042,0.160374034186378,0.421691997294552,-0.0788524362089267,0.229448144958542,0.416206658914859,-0.102230105111844,-0.109965501203401,-0.424946898603314,-0.548058431721774,-0.124427988384816,0.131981185553284,-0.412947967896065,-0.442029454264343,-0.318554012270902,0.223164711508368,-0.454361041188194,0.199219719697231,-0.608634317852148,-0.330297863612763,0.412263530562348,0.25088386209082,-0.436069899437214,0.348118678427604,0.189201132440568,-0.0900682389635949,0.0487177136723684,0.188291056298204,-0.29958266524108,-0.0994832081971184,-0.0746840185612196,-0.0232014138374555,0.0856415588706724,0.300003345831305,-0.462505375533884,0.236847391718566,0.00998128206354115,-0.296129695535257,0.280843618724481,0.305643316817186,-0.275412532088814,-0.000262824642906011,-0.347986020115204,0.147335256425505,-0.452170939281683,-0.349497726137777,-0.422986232890926,-0.527178347960442,0.104521365897251,0.553445962265722,-0.51221845416912,0.104414108551265,-0.144065043067987,0.48976870030602,-0.0357414122259029,-0.172314823823734,0.124165943359367,-0.38976116247754,0.133953969229391,0.0293204490398807,0.466379735605619,-0.540629321508531,-0.31498916837743,0.306367909394573,-0.231604492194263,-0.357451874712456,0.286912263122262,0.0311869591435613,-0.0664800863626597,-0.426556605925251,0.585736485512175,-0.1095292929097,-0.308831151608696,-0.353395242603575,0.337504981847601,-0.135134827126333,-0.366704605774343,-0.202435046312372,-0.0104424049300823,-0.0904690841476928,0.359051626108277,0.492053071307118,-0.170338692797618,0.0280269991986168,-0.104676591576504,0.0682098526578974,0.52099962509323,
-0.350742136147631,-0.158164809808041,-0.104006981898618,0.00884942529580997,-0.335824035463081,0.344674528678989,-0.388901558599579,-0.0593612926797839,0.399241982400245,-0.336843523321672,-0.366820990599817,0.132781959984894,0.0478965121201134,-0.155113625266132,0.208570480838829,-0.428602846927197,0.322413863318253,0.330520091313144,0.0286349246309998,0.457243261287148,-0.0996862424371847,0.409745982215874,-0.253865546263723,-0.0647582752001715,-0.457427373019672,-0.155397037349313,-0.240292218761914,-0.599237070777042,-0.246885819469725,-0.411456520966268,-0.273366066282687,-0.30814380408221,-0.558071454240187,-0.0423983736484572,0.586214126320387,0.239301234675092,0.488775531861895,0.0211726929097884,0.508434995144483,0.344797382837612,0.255202900895809,-0.0318035141185991,0.486507163257408,-0.0790568560915698,0.3228445950924,0.0335237713281143,-0.400463763827937,0.355860080990495,0.273206298587087,-0.255646519531897,0.38300165823926,-0.457476930895104,-0.394661197753832,0.286506103021836,0.201055367748115,-0.0136976513567338,-0.293361312983217,0.49131402668102,-0.51275411384201,0.292731877292599,-0.47525539772873,-0.0805023622865711,-0.321153937621801,-0.52290041254775,-0.365376187340462,0.208552922577988,-0.468463359858672,0.335662671698852,-0.281755463524844,0.217423555846868,-0.237579212230373,0.365534276463119,0.225987334021312,-0.139167550796872,-0.161040226906941,-0.23251365446622,0.348890346638984,0.445089828646132,-0.0342841919776657,0.145581591808316,-0.263021539788997,-0.495156053808463,0.387271702154732,-0.0913262759670029,-0.348205597461476,-0.3077074784743,-0.496105326032773,-0.322826398689602,-0.404014242940899,-0.097902116806298,-0.23345546288168,-0.226586367106657,0.0502269079378411,-0.0331282099802374,0.0417358175134742,-0.60454485044346,
0.464832374508803,-0.422610676947957,-0.548013870262427,-0.471481769911686,-0.188286432286957,-0.194685905681559,-0.149358243637615,-0.306922516090059,-0.373162951655515,-0.243728627538936,-0.353025101371298,0.165392651255616,0.130628113982235,-0.055434678185648,-0.49011322110769,-0.33019860554744,0.274327106408207,-0.413123556888534,-0.324600348878464,0.213267622179097,0.122620351422884,0.391238963983036,-0.161626549459431,-0.520460845921728,0.0017243976611643,-0.04392966039354,-0.237102513475004,-0.0268314899564279,0.330009792563839,-0.0314561151963151,-0.441977027252591,0.243422858791181,0.347210189217883,0.0983368906449473,-0.0734791924668482,0.0201183592456231,0.212210198256759,-0.182846337097418,-0.534975828995889,0.0711552441207161,-0.211070658509356,0.522037964724329,0.0212699783939046,-0.472233005821738,-0.387739025398068,0.225080387215935,-0.370543839728108,0.428253647910133,-0.190735986841865,0.240075092087626,0.327465208320575,0.0321134001371198,0.322896002747527,0.174587967544081,0.428859346241488,-0.175559889224791,-0.477694175684943,-0.297578964016334,0.436009977992872,-0.517404996503107,-0.121691928683012,-0.516571979269963,0.00505946179429161,-0.401049584783955,0.390282813288457,0.402843514155812,0.0286604567786787,-0.562206610088294,-0.000185703787424925,-0.150499656486877,-0.126796456685036,0.365070782428903,-0.207726096741803,-0.345692609660582,0.257453496872417,0.00240767509294942,-0.0994585955582425,-0.273250957100082,0.258974384336672,-0.272879740133404,0.200491584265148,0.384342131390803,-0.347184466731437,-0.390772236215356,0.142623470298122,-0.0767920300086027,-0.327807516637239,-0.23553877271672,0.143887938831518,-0.0857733063802507,0.308583733189464,-0.300510439108853,-0.24890195636871,-0.364861759064406,0.0521094232956825,-0.329060376576954,
-0.374385350489142,-0.207841498685315,-0.258836022335227,-0.472820400852002,0.0286069921110929,-0.252483357122602,0.0504088385381251,0.415943646480099,0.469812980051959,-0.449820817661901,-0.470298859932463,-0.469777556172324,0.149137394183509,0.284070848017992,-0.516373857369428,0.117184335333375,-0.529668453630314,-0.500663233137843,0.365205034570691,0.50891354977013,-0.38409295984642,-0.155776071763795,-0.109846007510566,-0.282927079655952,0.0831713616493123,-0.396509062150464,-0.044151332355483,-0.332141604081851,-0.311837791163538,-0.401215163641539,-0.156071526018003,0.166830879642582,-0.427190155045433,-0.518363779970143,-0.595072025583903,0.37265695629291,-0.162507218874672,0.365162923695016,-0.341758128577668,0.0764621278105577,-0.484847986065778,0.298091570160433,-0.441620176329005,-0.00132698858099218,0.402939658787511,-0.538212785868251,0.365214186139396,-0.308924944016125,0.112038745062157,-0.0512846573740874,0.242162236376241,0.511060207542761,0.306648990696783,0.170199017123195,-0.48809571738642,0.354472616907335,0.224053831037288,0.436816460897493,0.255669515359754,0.0902421818351275,0.116981213022873,0.139182704063578,-0.566331693777054,-0.451027597964907,0.111480067398053,-0.0663045780157646,0.188552753833084,-0.171559096602271,-0.406844870160676,0.19104242654633,-0.128309788650772,-0.446736022732502,-0.34713726237509,-0.171760820339621,-0.472679217174783,0.161614326410677,0.117311136051165,-0.285909444167125,-0.00413641471744243,-0.490379774079382,-0.25455749240602,0.00938708812188963,0.339802253048664,0.358980725726248,-0.037899910182789,0.362548415590405,0.238962609901827,0.106022291277336,-0.00291170948384593,-0.116755646446036,-0.369063486412332,0.116752685289138,-0.114344002343109,0.0397416743561889,0.210344487499313,0.384825678207087,
-0.41216465014187,-0.208891599232499,-0.0389241040086688,-0.37560591640337,-0.0800480954239349,-0.491166669272229,-0.45271077567824,0.187963587695921,-0.120349832938246,0.252657513044956,-0.418904977274196,-0.347274113421765,0.254614183147101,-0.22901331613663,0.278673996199238,0.290744338997104,0.229933476021128,0.421395793587907,0.225440271683425,0.2408709238045,-0.241645363325027,-0.531534350008897,-0.148862343452869,-0.482913352585793,0.0807853191963921,-0.33089887763688,-0.147877558698605,0.270378071926537,-0.419855087186512,-0.519629700547548,-0.0978414883936903,0.1342027378082,-0.476440598457393,-0.183691138079714,-0.0873244910593353,0.36102005463912,-0.255347892510228,-0.065115414629631,0.221939537488975,0.281666417889847,0.116219201356352,0.326664337941718,0.0550277484961919,-0.0505680262889856,-0.529264562862769,-0.515441693532885,0.483225202313986,-0.286275055787359,-0.0112362609041394,0.148395791858441,-0.274080121542343,0.176460575886787,-0.542516846055134,-0.256942603736937,0.480196858074245,0.307698830940168,0.442356681065327,0.436872575235767,0.149157604585926,-0.0305138089045249,0.0388048263784272,-0.330130174839673,0.149890187716845,0.39544951732878,-0.0533226442964768,-0.412841625216962,-0.406002396819979,0.299349514730205,-0.492225178857189,0.217056387193091,-0.338767036571719,-0.0702061858070714,0.286266779173709,-0.455511950031386,0.370393789032867,0.472633326954306,-0.0220592180553711,0.0522640147995824,-0.13032895352179,0.0410691347577672,-0.310373260846658,0.462729649050695,-0.0943167291701849,0.014952581570137,0.0611569330746272,0.174033990412778,0.0475125507784653,-0.317049237158866,-0.509557329997213,-0.291796299939811,-0.536086579028414,-0.371068409376233,0.204073096457797,0.309767295991979,0.361839003733171,0.416621037412558,
-0.324541921063616,-0.0836420730725499,0.344992321576259,-0.387753040361733,-0.0797309501798629,-0.299507049272988,-0.228642931802969,0.560924867615366,0.0657080035684442,-0.478679176875314,0.331498335883265,-0.296709170470711,0.0147003960676813,0.0859188610256722,0.293003541803726,-0.134703325023428,0.140715535807783,0.0345672890636896,-0.226674071520862,0.223528869919185,-0.405025673781737,0.342938320678558,0.135579981139482,0.331322107534722,-0.489437573878523,0.208391036071989,0.475924971625224,0.303198768113993,0.359084296461561,0.075207923439006,-0.0296338307489932,-0.176767517594823,0.541141119816447,0.0751530628481497,-0.234839789390727,0.157728583439364,-0.319745312173451,-0.117982822211711,0.307943727557077,-0.170658380981263,-0.0629037974943134,0.536548078530173,-0.278344778996196,-0.175120870093598,0.181735453604326,-0.104487084976805,0.446037652153141,-0.208571337609288,0.0612610156072237,0.442839118616044,-0.464571928581152,0.416089358537648,0.0140357435128075,0.0978983135850418,-0.141899222421724,-0.231286152188764,0.394232038831978,0.136967611992551,0.799926712916856,0.241655843361473,0.0572045612264314,-0.308196460547288,0.186162796970264,0.125959086097001,0.183266929198514,0.022825384514654,0.500710807148561,-0.320113992261002,0.319350247642013,-0.299624849352536,0.131517944077183,0.326627727585306,0.459239000985699,0.183522176194034,0.0523135664342481,-0.0830474182943502,0.553596121055512,0.483525707653279,0.0959936543476225,0.066506519203369,-0.528102465779953,0.449592658457591,0.0849526522578107,-0.196805188137683,-0.224557204578456,0.155314197934657,0.275355034534849,-0.277281969769413,0.121069703584371,-0.12348750300258,-0.382462497801073,0.227121334668063,0.37487887409326,-0.236035138814215,0.330592141247917,0.462785863076249,
-0.112922659694591,-0.0475792528877589,0.274527034741275,-0.408046715626459,-0.540019005627616,0.327351744335915,0.375602169147687,-0.300820396162291,-0.285204103435864,-0.532584882803704,-0.304554534162449,-0.250086958093031,-0.263196331712364,-0.296053473531478,0.224143609658282,-0.36061109053553,-0.274240127918194,0.47185118315864,0.429968061733956,-0.272498112357602,-0.00193383639739393,0.455002555546823,0.348384289231366,-0.165885784944046,0.221816527787443,0.284998548009072,-0.34786492246957,0.367492867442667,0.500214696009806,-0.00134790224477289,-0.0774515630586815,0.444887913755476,0.394344220792126,0.38165459526238,0.00361427102165597,-0.117371403330112,-0.21866103508914,0.117348709218501,-0.476511555296748,-0.349639309178681,-0.301879649287537,0.498787906034433,-0.513515099729362,-0.0618353169013021,0.22223704518866,0.275924151539272,0.148341047631355,-0.25583888175172,0.0265286866226728,-0.523370957130932,-0.142209488407695,-0.108286558547507,-0.186496961807746,-0.415705130787062,-0.10103983077501,-0.152405483167906,0.100114663189939,0.166731910955086,-0.0022378352078809,0.47204141172574,-0.486973676038205,0.201135504960181,0.40049200041468,0.118463232409834,-0.31607327965896,-0.542771896324383,0.0739038229334436,-0.0991610431321731,-0.509576617865386,0.371646286722438,-0.230035912023944,-0.425781312147047,-0.111061857647999,0.00247038192595459,-0.426959654902275,-0.374573112645252,0.272948804981778,-0.104739128687287,-0.261864460758315,0.253631664658443,0.334092923825316,-0.383684653491972,0.465774881423706,0.0425480120711549,0.267767467603402,-0.389944519986527,0.445118752592118,-0.104826974368368,-0.460999959523174,-0.133162292065535,-0.175726672946027,-0.537405641633414,-0.366820310811119,-0.374809917312235,-0.0562723785801189,-0.376527675638012,
-0.129904066754061,0.236152598307912,-0.103585984797202,-0.429066823057737,0.298607195479343,-0.00644127482587909,0.271472884868808,0.129850446572496,0.0920279169779445,0.293245112878693,-0.202964086351921,-0.318795008933364,0.21630151416431,-0.0774101118148907,-0.359261743266611,-0.24653978146302,0.372441234101689,-0.0151155963006838,0.125275062687134,0.203600167220605,-0.315779446007873,-0.407308894684602,-0.463131284672408,-0.333947061692494,0.465118980807908,-0.217206606934514,0.21467710987123,-0.0918133393105927,0.141693055123589,-0.0966617126106668,-0.00182153309985861,0.0531816901029833,-0.0262477439176938,-0.0606289159827542,0.206214103311603,0.140338140285027,-0.0683500894089854,-0.336368443194059,-0.0884830903900582,0.398763962716144,0.156224058275,0.476731779750693,-0.315541760067951,-0.410481695955132,-0.43866081787104,-0.225159753570806,-0.0970845338872765,-0.174270401648422,-0.222629204443834,0.263947802981509,-0.051905417083367,-0.319431049440562,-0.467505267978133,0.0999580248729598,0.373589686332425,-0.531537653882287,0.0469151648021023,-0.502385250367309,-0.0541604731524364,-0.0350296739640841,-0.216453316615945,0.238208442488681,0.142795159455192,-0.078929095756165,-0.109865961442795,-0.281441875730054,-0.543317083635792,0.106241334796916,-0.306843755937419,-0.0425170543819934,0.376032288781714,-0.217769759217681,-0.340612542308092,-0.151368553971258,0.372566428445041,0.401466777263869,-0.105288397282238,0.432083688962874,-0.411517580551978,-0.367724757324038,-0.533487665156524,0.145505098594037,-0.539406876348917,0.044755031291866,0.0236004412049185,-0.0125047398598331,0.481077738138579,0.330559735022995,0.0292300669866643,0.239233470108,0.323631031123093,0.0881162083559166,-0.140464005948465,0.132887893543522,0.127009733739298,0.167224465519568,
0.23387808802062,-0.479149624929612,0.00605943148881991,0.22923158966755,0.456134109097521,0.200673973616314,0.114159462434556,0.305089949349785,-0.181895845665142,-0.439278591971263,0.178735740396918,-0.26644440283351,-0.190793346792906,0.244129520670745,-0.513327192016902,0.373222704224426,-0.109640213383545,0.47545138172515,-0.588538035620302,0.544104951878325,0.278545169153298,-0.00104779315879681,-0.153345090519193,-0.0871846945488391,0.185084637860236,0.434527691510036,0.0376662255794891,-0.475046069943552,-0.403734328617075,-0.401673492729449,0.0209289360310043,-0.106504323533799,-0.0951401903367385,-0.150629334169465,-0.194459427765001,-0.294078087780671,0.36246430489921,-0.239655370560961,-0.0751862186590948,-0.159290986023446,0.0613658143022601,0.282863395217075,0.352796584589546,0.37882398682566,0.331798418554363,-0.399892437027102,0.507889260722179,0.00437743689948335,-0.281503813151484,0.0168212213847925,0.0630383047294319,-0.417048611678929,0.177063797837078,-0.121682743838739,-0.190408528042409,-0.321091360681561,-0.151083325869986,-0.290086408426976,0.566605755057248,-0.00281209528157194,-0.207039796754354,-0.44916477859731,-0.0155366517118375,0.448418958163874,-0.0617568210496795,-0.408609068009271,-0.0857520500366882,0.0321368566155905,0.192238364045239,-0.383837847664979,0.260508150827968,0.268238855670785,-0.0280719490971217,0.199672817237295,-0.351900435708371,0.704173373869426,0.243202124462038,-0.463238002213764,0.00146013772576465,-0.134243986768723,0.259209614664464,-0.297211180477851,0.410587657381612,0.419290021621798,0.0262062361693067,-0.0112431757581131,0.40079340147916,0.511592185101209,0.136722178103169,0.0700512929368912,-0.381190490779111,-0.188764089772978,0.314656871831625,-0.290282660925016,0.751518933412974,-0.62004852938084,
0.0815521668458555,0.102789069959927,0.330995478476835,-0.100233024516095,0.12818996431782,0.18607944287569,0.184201245113272,0.263442103893617,0.793406287798906,0.0465377561587584,-0.445100393591169,-0.0592669190201061,-0.415103689044958,0.220119364393314,0.0235782379659588,-0.0176538601464906,-0.131788128727012,0.287343375243206,-0.143577576419853,-0.0241722349588974,0.500936043103657,-0.516570842522627,-0.146607249091806,0.388866227925726,-0.202733341579835,0.275070333395863,0.317719270267724,0.238847535493271,-0.0130171418486421,-0.215048150863284,-0.0728120310087175,0.724402095934253,-0.396020638141577,0.0728144694201844,-0.142203188212574,-0.437646981628374,-0.558831743423438,-0.0750285829054699,-0.495245465222165,0.508052397163038,0.49732391747838,0.174355876583068,0.212418429741511,0.183531844822894,-0.359782004384922,-0.404516429516654,0.299712592615709,0.221697139156687,-0.105825766085656,0.413280558353498,0.440089204596545,0.371675839031636,0.107038694457446,0.572735866156674,0.0202204492751628,0.386224479941735,-0.124557410367188,0.319658141550268,-0.0380971057460097,0.28840406307833,-0.542538334528024,-0.351353521908981,-0.281582559123801,0.0358373883308723,-0.467610874471049,-0.0278303798410206,0.214358289520234,-0.222515219522389,0.145696916480837,0.0505528963052257,0.0184298553913828,0.246359900289942,-0.122535916517589,-0.0177108869023096,-0.509515905713939,-0.312010783766637,-0.321447613731554,-0.071019758420843,-0.345502857250142,0.121198048768335,-0.156997134488834,0.0138273685703584,-0.509101761007716,-0.0393413515812285,-0.487733294775658,0.354717703550203,0.341373294258568,-0.471641270942178,-0.0316663970588423,0.24115869741156,0.077507652488329,0.135623161815813,-0.252569087560947,-0.353569571689088,0.220187508481709,0.168833673265408,
0.238095274816585,0.143843527540062,0.323293099437538,-0.151585593376253,-0.164550192712865,0.327748150536725,0.0120342014350174,0.0140926127134443,-0.246198904160057,0.00979753156750345,0.349650413633142,-0.331808487032775,0.040166762686542,-0.00567458632439982,0.422300551885733,0.166710017309338,-0.361032321965364,-0.390827299649796,0.253601533701024,0.200712982989984,-0.169909004394648,0.204995025865291,0.28935687472435,-0.0515010350018688,0.497158745355438,-0.482883529481131,-0.437179884420597,-0.00157855641984178,0.101386844214889,0.0616481656346935,-0.466987913446942,-0.486572328389142,0.153294124078954,-0.498007786392061,0.223045976157452,-0.511952347671024,-0.405585631043911,-0.473680830454384,0.0852564197675551,0.465586651388064,0.258529264121838,0.381965872954083,-0.347161616037577,0.348126849361851,0.153575084563783,-0.413607062274108,-0.357920927972923,0.182457472287619,-0.250439273237659,-0.396840265853584,-0.539638832580956,0.486938193241365,-0.161468865530413,-0.477512864957598,-0.547004235798672,0.354206562305641,-0.362512588937419,-0.289910084218778,-0.426022640020312,0.28344661826623,-0.403768541762951,-0.330143503064022,-0.155650376163007,-0.108336821547486,0.232270867376983,0.367523642394216,0.122676057844222,-0.278728725354929,-0.467637855099799,-0.308892914992792,-0.177013544598418,-0.204889702720663,-0.0424956178841826,-0.231087315770069,-0.427659879875306,-0.210568096515714,-0.311043470361686,-0.00572116632783743,-0.516872389859121,0.261455515750392,-0.0926086821481545,-0.504433780445193,-0.537941577385412,-0.338009643884619,-0.141101637063029,0.489949307665793,-0.000842944202647079,-0.396080327578598,0.463493332805424,0.16660032335198,0.15251667795352,0.177452240246798,-0.141063102553213,0.279876569472319,0.173781514396389,-0.499657552350617,
0.061558462031793,-0.471317190459434,0.231909045108517,0.372974492453497,-0.205415659552346,0.311141617819512,-0.182187362756635,0.339011832237847,-0.151991349139578,0.602460066995026,-0.171931353558328,0.0858620695775221,-0.55163322486381,0.0730228454803063,0.024629963543917,0.0306676100270761,-0.11930559221253,0.0425442455573161,-0.36038228293062,0.197732440593976,0.494920376196954,0.0399833326053956,0.253097890204817,0.412057115456054,-0.314203922131753,-0.189804103740856,-0.260635667075695,0.0219168565776206,0.242337653827432,-0.0434880454828833,-0.634783681958417,0.234102832528398,-0.00545860720723868,0.0349674090380884,0.376346527991973,-0.107970418231261,-0.176232699972896,-0.115421236379323,0.202229483642314,-0.5110170415589,0.208335087541306,-0.0280453360997734,-0.212561216039272,-0.0667699405457723,-0.19257399774242,-0.293760324184617,0.496665057770766,-0.0383731981738304,0.171850477532545,0.136183411336727,-0.209444064477744,-0.393474797487247,-0.110205812109225,0.362328483700125,0.408137689167671,0.42513031510697,-0.0290538734717829,0.345339881074192,-0.172790712302388,-0.105527088395299,0.050417610116473,-0.0631877092897225,0.260391683763258,-0.11283572650238,0.135563139879433,-0.0371598762496534,-0.570794975546814,-0.263082167304219,0.274262920001304,-0.0791716771298439,-0.0343786956694187,0.532005413606334,-0.553905989926872,-0.469628796354106,-0.192667779926052,-0.256978679240894,-0.158283272597335,0.0948179388515129,-0.296161993965399,0.393482050652115,-0.319835731893418,-0.153743537676541,0.659954652708137,0.221763698122749,0.455540625361738,-0.0780499153469355,-0.225184222143812,-0.330072923680214,0.144275355380749,-0.58042696010838,0.361382171273913,-0.517915961504665,0.120744367460966,0.0785392646625285,0.36271431991694,-0.419973436171581,
-0.281463414449951,0.21866201801929,-0.30740183875073,0.203693211352966,0.440783198885487,0.231217529807145,-0.280953687075567,-0.110433925921894,-0.168310780004297,-0.419622694666707,-0.510338019731198,0.298886184689277,-0.277972177703292,0.222363035003447,-0.275422349219926,-0.38677496643119,-0.321932859843677,0.00782487442544732,-0.253876037833762,0.488556767597282,-0.0547362309857283,0.0873531859620698,-0.463393573647686,0.17402977514294,-0.323474142471066,0.446840478317972,-0.441787767457767,0.411104583040453,-0.261483857953181,0.577751222995677,0.444129382113991,0.355063145204147,-0.395748876335209,-0.409731585111788,0.0513397722785454,0.466049502460177,-0.196532436921252,0.210454842536826,-0.447757839056711,-0.071547858496639,0.309460851142833,0.221042325538782,0.0827259086187833,0.43785220878454,-0.260778955996757,0.356362706616059,0.13090085734949,0.156486166432949,0.261752423149892,-0.131899867693394,0.16431233205056,-0.188720310169957,-0.13231140747066,0.253205051172919,0.209029463193059,-0.200647605334944,0.280504288078761,-0.459436615284501,-0.0566863735640082,-0.118686688332224,0.135553429208014,0.0781148569764513,-0.0745681595416623,-0.301360553547531,-0.12419692905769,-0.564787260998423,0.222516654753226,-0.642703284611941,-0.407838586731379,0.125145519232319,0.306079420115871,0.191592645819989,0.263532274667788,0.0293599973304266,0.0697544275237093,-0.12967301211436,-0.338769276830416,-0.0764972192170472,0.503629145883829,-0.450824135454194,-0.333075600857117,0.103021185327196,0.0238406252641097,-0.216434027240169,0.277207468038725,-0.436851706601049,-0.107775855189299,0.133039163483221,0.29102559695023,0.141741086645116,0.214669831764883,-0.0738065315106653,-0.330965792191903,0.0435621065060155,-0.148396609948924,-0.0747396800007646,
0.0489638807530894,0.011968438461536,-0.276694977473889,-0.370947872158803,0.308679350954935,0.37472894401393,-0.215173076377127,0.123414142626779,0.154991037174363,0.201800852889162,-0.285485956962841,0.155005620312704,-0.122289154900341,0.370151751911773,0.412739965280254,-0.237741246784549,0.0233748808275392,0.318065889695097,-0.595104776914796,0.0852004893191431,-0.307445562268299,-0.15140317457098,0.014074706043638,-0.022505267903934,-0.201991275550539,0.551260268942132,-0.0784589073377778,0.133486573567679,-0.15485323284255,-0.482884070074162,-0.462152176477704,-0.0562866000144727,-0.0126979520521852,0.439959140750459,0.544670921419649,0.0255886451245457,0.0747966349963375,-0.744586328960703,-0.458109141910924,-0.0548704421350993,0.04326372285533,0.310724256435377,-0.536212142341305,0.426779620612722,0.0766506349801044,-0.0476256646333085,-0.0323714218145781,0.180375701915585,-0.159225768483796,-0.269363060554056,-0.566295689124342,0.252953997453821,0.101055260116197,0.00690035947053004,-0.0332376456400484,0.286405488842885,0.00132108663228029,0.136346620206682,0.0698438586764697,-0.301421560897312,-0.222149732322419,0.425065457823975,0.342219658157164,-0.0132618395244273,0.299441061301707,-0.0866548888126984,0.245544541029009,-0.175018089183184,0.417891943998585,-0.134490754410994,-0.471913026719422,-0.074427429400143,-0.0547033603362001,-0.209468575292952,0.20001902433206,-0.0783491655080255,-0.0604419164502916,-0.385319763527537,0.0923097352627549,-0.296112296150742,-0.0949398840499489,-0.048373341112229,0.205682194814198,0.074023620503411,0.278233922163571,-0.301003977141715,-0.0112752725782472,-0.2109571989959,0.416905320470326,-0.1632395464849,0.147999992927326,-0.632011011631325,0.376913095548245,0.248333380286875,0.339308191618775,0.430315093082654,
0.0812767725457014,0.169375052661472,0.0881705679150554,0.445728634066135,0.0573886541218693,-0.151710163569413,0.370251994904612,-0.513785136437975,-0.481686971644132,0.143591783301858,0.1987965331842,-0.122524424281218,0.453014657145053,0.358342231488217,0.474599254258628,-0.549587325525888,0.294080997820767,0.134879162122011,-0.576720841275554,0.445034733439711,0.219296084965795,0.0568975147761607,0.0421017879092491,-0.332795594741451,-0.543021861670137,-0.389879804291335,0.344863042174852,-0.442337476841821,-0.420170430113798,-0.235252224477938,0.400675002182476,0.306102908641469,0.275446152658437,-0.466704360696322,-0.432436992927544,-0.309600613917541,0.444599845897977,-0.455170525852065,0.36954784836192,-0.318579616316047,0.0692440203529802,0.353511778312888,0.402839064494179,-0.37798988874024,-0.283804348421644,0.333011039384498,-0.209986951947976,0.340433935242771,0.22369046483015,0.107013194004288,0.304567852659123,-0.0491953659335775,-0.293243689314734,-0.111522599196711,-0.539183403072389,0.303878484289417,-0.12769826636301,0.176764854328212,0.423158901904869,0.430154501505854,0.193638076514015,-0.56114544395191,0.0812340046187657,-0.465778639456746,-0.358773008959099,-0.495321982253975,0.332230161011332,-0.261172471560341,-0.134295230990411,0.130798168248825,-0.405140184087229,-0.0231102900860811,0.387436322179563,0.479406049866906,0.229696412859398,-0.329572560274647,-0.453820920602823,0.395833323950619,-0.387205474158763,0.0362788920016217,-0.0712516676695583,0.119422107557959,0.0961137551909629,0.00218094490756125,0.246728002164327,0.440529248681698,0.0417676184738444,-0.29906983839461,-0.391118028958436,-0.490211443615529,-0.241898009333142,-0.375442590591708,-0.0173634993513861,0.129563008353857,-0.337375638631246,-0.333789490766183,
-0.123018748176637,0.209310003182652,0.101864789492835,-0.515757375280933,0.17009346134543,0.1495101759872,0.189779494603758,-0.359633559094817,0.083432944660753,-0.10720802557549,0.233800072270419,0.00639449605119486,0.137210997909366,0.00345132542730696,-0.334511040752475,0.612383756672222,-0.139213651597977,0.388683174950781,-0.327379176647465,-0.174429153511165,0.386239938530717,-0.0757074402117989,-0.353397785339665,-0.0680444923400476,-0.377245307097809,0.426251846074911,-0.406058600581825,0.0287275075901307,-0.205750842213365,0.349644208719535,-0.503132634582528,-0.0984082760339401,-0.387513510874913,-0.0983061638215829,-0.440731017200678,-0.436362746864398,-0.076770652364407,-0.38885858298583,0.255321902093322,0.285485552089844,-0.0370534219702735,0.488494016321473,0.420171726588601,-0.0993873111978972,0.0257631721579587,0.220824864177762,-0.175587059043389,0.507856100315477,-0.329952428906756,0.382882684851215,-0.296128293741556,0.172323132222331,0.113185979672142,-0.414600337798386,0.115205111423365,-0.504291383176308,0.0579936166355781,-0.48361582655648,-0.00342022896283447,-0.535380918584427,0.569734054481593,0.401060144110471,0.313250039726133,-0.221202079133177,0.377016637079225,-0.0215970376986412,0.521343587905369,0.227284028802211,-0.2902589736265,0.415170656498146,-0.276756394048308,0.388940054304505,0.127332555881802,-0.337780709290065,0.495745850702474,0.375403667228327,0.20310720570211,0.105019982350121,0.340427858850034,-0.306058480739679,-0.121088289297197,-0.0782695972110972,0.324244951458892,-0.356975539724996,-0.473148757081545,0.455199405652656,-0.505786305435594,0.404569314875643,0.229464728032647,-0.140867713807906,-0.00558320591338321,0.517684486051292,0.120228068489627,0.388219641971566,0.315198344632915,0.252325892847309,
0.226877501920707,0.243746604327136,0.38558081782456,-0.37089768864571,-0.0171928949538107,0.233153134908171,0.25680791803321,-0.127001413107715,0.105468303572126,-0.472688878958287,-0.123450215999266,0.245789121801242,0.309759166669818,-0.299545744898656,-0.091124084846174,0.272147017481438,-0.316403181749728,0.264991363412816,-0.341218957259807,-0.400767308897958,-0.387490753652185,0.342923839116228,0.108852577383532,-0.506757271590394,0.145766005382048,-0.396416126610496,0.519686603217316,0.425333428603948,-0.498319736035988,0.240212835646288,-0.12189694553163,-0.289121477191513,-0.131111154552154,-0.472462086969818,0.377198404097042,0.503719901156982,-0.115968122395714,0.450165336961136,-0.338646449309832,-0.540623645660889,-0.122560506394651,0.270434924713617,-0.146376991229876,0.308545307669561,-0.247092441996365,0.0844277665379035,-0.0394502126891404,-0.382407034987322,-0.324139513310471,-0.360705206701966,-0.0993555811525483,0.493209367481908,0.18916181270268,-0.0120104685495389,-0.249204322114892,-0.115870613086931,-0.493129473001628,0.227495512356408,0.12164129910245,0.400562887698303,0.333395864352027,-0.0842907528453055,0.256588021141116,0.171735822479826,-0.483034418638942,-0.498328540666392,-0.456891844676458,0.358769483221084,-0.578123338190497,-0.516069223172468,-0.306432184044144,0.327983469968014,0.420748348487846,0.455126809580732,-0.226750588612283,-0.476672407802989,-0.237022455801822,0.406081606499362,-0.155098631501181,0.269030092347457,0.166315020554075,0.522272804413885,0.189239106705399,-0.259285260164799,-0.0198149962217516,0.269985074635576,-0.142033544753274,-0.33729830918594,-0.407050739779038,0.159060099753441,0.288424130999398,-0.12030366621904,0.525193243084758,-0.371755119498333,0.07903732908002,-0.558191703652931,
-0.187254504080718,-0.274667868125739,-0.318956495813569,0.382030122734406,0.378280393197785,0.213436989548153,-0.479991329389571,0.0524313873461783,-0.340888756279251,0.419654835488624,-0.505707868051953,-0.418832211650083,-0.0522416542231057,0.115995661335793,-0.0552947446772177,0.0426704507028238,0.260980951590778,-0.37140253300948,0.459912325765223,0.174123606979273,-0.204323799870889,0.230474078395524,-0.350593648396868,-0.0441454597077984,0.255859556944976,-0.191664123873753,-0.231545950351537,-0.522498177746974,0.0107847553621373,-0.101634330111369,0.249131929224714,-0.429127844329223,0.153510138122404,0.0851396629703681,-0.103552474808933,0.305679080244282,-0.427999153629563,0.0231227666673074,0.546876367879044,-0.200067268310571,0.137757747244674,0.184872180232319,-0.336223574390351,0.377218324658437,0.197027492138369,-0.388947572030524,-0.192716355719514,0.540628673076759,-0.437190980930346,0.388991486499048,-0.179973075598696,0.0263988817987188,0.312943662435023,0.238508065490142,0.316300912425119,0.463199866740266,0.444288840483097,-0.189001337569519,-0.0517641617073987,-0.0548261283324247,0.499158512039713,0.475553556907521,0.0910083230912586,-0.302364961426981,0.278709686534926,-0.269859173918003,-0.518792625308411,0.456555678572062,0.122776316361708,0.348538880668788,0.247960037431751,-0.238813553876575,0.423401896358022,-0.38215233234466,-0.174754606325467,0.235425881465603,0.176391929529805,-0.24703426961733,-0.220506294696956,0.0459904121169597,-0.119523093342053,-0.3970965409557,0.306933285129849,-0.034848108241332,-0.0826625921427392,0.201707337083212,0.284479514616682,-0.115449606536037,0.0316705368387771,-0.229561137755459,-0.0805567873707344,-0.130675946656629,0.464005285718296,0.00729489563699447,-0.328775678171261,-0.0992527041691419,
0.479370080509486,0.306441214752975,-0.117356955218652,0.172916336438753,-0.374442190834135,0.0984754376463933,-0.0349332164038238,0.36181851013264,0.421058274122149,-0.00181764424956129,-0.352908013608641,-0.512219758422499,-0.469559631232154,-0.168155422836633,-0.0370385503527579,0.487883662320401,0.298705141283199,-0.342905568464531,-0.418251747509382,0.185285115033509,-0.0697683477283341,0.347014367141105,-0.592968399047367,0.216578521996481,-0.358047051515569,0.46045034139251,0.44125063868596,0.220594347465696,-0.463550606074801,-0.175084884573982,0.0988190730431547,-0.305465925871333,-0.016384174461641,0.188387379682987,-0.383574369198041,0.280365858320898,-0.409093720020544,0.448763116312607,-0.402463731541946,-0.535636840423367,-0.0901955076884592,-0.0671170674909478,0.0248969204612844,-0.347372748054697,-0.492165859716573,-0.195433151297012,-0.389262015834831,-0.102909591944902,0.109653114430616,-0.195678339449572,0.0246626765971826,-0.281947748112779,-0.0866765644483999,0.0100025531008981,0.144579612905349,-0.415011391321349,0.24662966482563,-0.00886063927332772,0.533978316428698,0.497819851464687,-0.148838120047185,-0.535217769130391,0.0731200768109101,-0.269913242639168,-0.00483735408730339,0.29256503448123,0.140439084071031,0.416451785253949,-0.570075626139547,-0.336084610594968,-0.51636017611384,-0.471861014569577,0.23204511720571,-0.0274573030172112,0.34602400398328,0.366349368456934,-0.503424188371434,-0.0259513005724299,0.130923581447219,-0.406703572864582,-0.460238850948304,0.364261168568053,0.285272220893863,-0.425445799276499,-0.0999419849403793,0.425107203045516,0.1829567902256,-0.534337478564459,0.516379622144835,-0.291156528281261,0.32167962546964,0.466496507234086,0.0202141085710914,-0.383618493872951,0.396415921688705,0.078088998035733,
-0.323754477613339,-0.510471658349213,0.119397434516436,-0.268883359912645,-0.0467859441434363,-0.055854378614727,0.371968697827383,0.464937552365575,0.108381638166837,-0.200115559197987,0.30453838092076,-0.378995161721015,0.513779148942081,0.465502204287746,0.145259866241561,-0.0213259671395637,0.334938985992832,-0.189025572486478,-0.312088903266252,0.474553983176272,0.336358950575275,-0.265655986411326,-0.370248128287063,0.184234741162963,-0.185583002132622,-0.402177329897333,0.509258264262932,-0.290979156943317,0.27973348702581,0.242591237468045,-0.199082237029602,-0.484922021848175,-0.276646185800294,-0.189967894278152,0.268979609035063,0.256151251068183,0.0488636449240396,-0.359333021281101,0.492992830990543,-0.34083312341145,0.192707436023109,0.366631717643071,-0.232928332244689,0.631601654095596,0.457228082956688,-0.38378441639028,0.0660816716347491,-0.0462696680975746,-0.349561815090036,0.0317686648558675,-0.417919782266184,0.0589267346217628,0.21467378477575,0.577797870492722,0.057882325334885,-0.314044775111656,-0.486564983236452,0.422676495269225,-0.502333118690294,0.417101621402247,-0.314523305138168,0.496586281115614,0.166427986587645,-0.475048433190002,0.0665769302641369,-0.375873746277866,0.491110198558415,0.38652231579183,-0.221656508374069,0.225326803073629,0.276222105326275,-0.375394943225518,0.0842697672411858,-0.480337514981117,-0.0995883475616391,-0.147247410246284,-0.410337543783225,0.307065187634047,0.159557181863738,0.472078767588413,-0.127739072047296,-0.170112771780762,-0.227796671071241,0.339011167504094,-0.246393595700914,0.169080826017626,0.219122291533381,-0.0946566431984458,0.422415638679213,0.0978367605216979,0.224006738169747,-0.317992041031411,-0.436185245514625,-0.00474015489237103,-0.389752812157586,0.505889459534003,
0.330593371189709,0.119342935425652,-0.427406345230798,-0.294411658155491,-0.284146467558534,0.366995519665894,-0.0713190101316485,0.377883562886512,-0.431634957743581,0.356392618775403,-0.413370064861506,-0.28171822405279,-0.327334436828489,-0.168473997818967,-0.0801727103447316,0.535559379472799,-0.53825425725422,0.0777881202602769,0.180613603219848,-0.547001986526249,0.297263338491691,-0.0259787891772079,-0.555038257102557,0.218151638391617,0.0183637689239839,-0.286789901640558,-0.216204148620586,0.386299287151108,-0.138429399796928,0.429007157859898,-0.102924369805245,0.447139257552689,0.094651431541857,0.305182265368907,0.447205265452126,0.370981669555163,0.313993789514365,-0.540592538063388,0.183660465316709,0.232566548866731,-0.535416745387199,0.229233602324249,0.0650186566059928,-0.270077729399304,-0.369179899120032,0.501663790907453,-0.304906221811335,-0.115323586748088,-0.395923433066646,0.388470987907315,-0.35103905934397,0.398065483697984,0.0378512097784374,-0.0307825520571256,0.42151704349031,0.424817359647616,-0.482190437452614,0.0565078185492863,0.412653771142858,0.410038938855109,0.493480324135043,0.0321372719823458,0.49228843328027,-0.216047938406247,-0.368415125183987,0.391297845403435,-0.415433382372999,-0.407014938639476,-0.481550131707885,0.534287409100584,0.0701667138996497,-0.290618752607978,-0.457131145502736,-0.215104451794779,0.491453810967544,-0.0366036053038892,-0.258893681431305,-0.0871409684484134,-0.0590359064652135,0.312156543770141,0.0213859164510697,0.0483752376639077,-0.104255957201235,0.514545969460384,-0.436923781470047,-0.107651043868297,-0.488576071040841,0.105358665518758,0.0509436699702415,-0.0581023099459222,-0.093513059972483,-0.103359802072635,0.0353023598699001,-0.329671545115931,-0.381934943425592,0.0065507079173394,
0.00274070732956264,0.240911469034336,0.248651079001072,-0.416563210558026,0.408364521431852,0.280207301422706,0.0456173539921095,0.210143374989201,-0.51568575621229,0.322495011109978,0.414921378198861,-0.264826850124149,0.388688346086577,-0.516071155596036,-0.000617749450994607,-0.437036424760343,0.283606847219434,-0.412811247353049,0.107099201378153,0.159367148189986,-0.360851248584159,0.331218754587749,0.0173590204111042,-0.263842352919686,-0.40585952496962,-0.256173097026598,0.170240135765421,0.481282062668581,-0.0946547638290609,0.344623118360225,0.453562559482383,-0.47744617112556,-0.16345384507668,-0.478050732764277,0.546758717393731,0.149011875423703,-0.528048681225725,0.346278470418024,-0.182393411461585,0.445377271092589,0.206141541626524,0.499238974110823,-0.0641845942052832,-0.160144914665871,-0.0430272342176021,-0.0479124241537534,-0.363503873639164,-0.516617815629606,-0.376139567197824,-0.19437128099637,-0.189840902360199,-0.391361614190856,-0.0065929820435144,0.242585539670029,0.383182720167669,-0.0855945292780276,-0.543775157096702,0.301962977104693,0.263377890433192,-0.39856146661136,0.388257487988482,-0.431023172686092,-0.537715848624616,-0.320331919059339,-0.0103155804017704,-0.280050214962985,0.462596836269602,-0.484734556420717,-0.21298202180692,-0.254253589535652,0.0403141522599839,0.0416798353194909,0.183242812838512,0.00235957757137352,-0.092993698035033,-0.0312078746465405,0.0591604366103947,-0.177876127258054,-0.525768177556388,-0.411217072165738,-0.576466487054301,-0.432254927636629,-0.367731154319976,0.370311304812339,0.19763807373212,-0.203833148301684,-0.220885634361968,-0.327014977052766,0.446112215153485,-0.122011596162002,0.465681906600722,-0.555058955669432,0.483889457373432,0.343783860169562,0.41917718943887,-0.538149717663336,
0.540574311801192,-0.425468397017454,0.0896083544390068,-0.255713556316032,-0.307954593541821,-0.100502065851574,0.303661991828004,0.429505854878592,0.0792011221450742,-0.340073064007215,-0.298342830505759,0.0390965709163438,-0.265915340388012,-0.215597487161691,0.127751133125823,0.117731026489673,0.669234149834985,-0.391946035410939,0.292648390181479,-0.308414281168708,0.379483995089956,0.343977156447993,0.395318281135922,0.344948049767076,-0.205892069447772,-0.307950665784374,-0.0907792507361354,0.0623921172342049,0.485696727099403,-0.286500066125462,0.0278844140748542,0.170790090634441,-0.462607717302471,0.513758691169601,-0.407774889144766,0.444231320926122,0.580733052873623,-0.0228606342641492,0.163183141293854,0.329271550755073,-0.0038602910974121,-0.0910350871639073,-0.318940925859122,0.2096447249013,-0.413942798272732,0.105936901139302,-0.409751874943535,-0.38176797231146,-0.518722203463271,-0.384649067084132,-0.111530367864024,0.527780448928239,0.0242070729759632,0.346699958572333,-0.082932561918735,-0.120387416598537,0.304693486569995,0.266284150641397,-0.434445886623898,0.0430377686073371,-0.412433370625621,-0.0973279928008153,0.472016205459239,0.460463067351347,0.0432484405878947,0.0622868865894246,0.153379936486873,-0.102268476945552,0.0475670261631066,0.251884142270256,-0.0584974104828335,0.268659991423747,-0.2446542870129,-0.0137866816255557,0.328936797872377,0.461502689734756,0.523529506015761,0.0659812834080874,0.0335951236664262,0.13189393590447,-0.26059517820393,-0.112914157560305,0.0416757704110079,0.0958133702334727,0.23709663645719,0.0509739821992075,0.190754377291665,0.48632261518196,-0.317184548635222,-0.384106283484509,-0.562439919543347,-0.209382005745917,-0.00114702563787948,-0.407067775611572,-0.479463759417044,0.694932010050665,
0.414172597095717,-0.173601971161101,0.161563974964312,0.372105526795902,-0.0330365159535677,-0.0223868493536482,0.00497769918217725,0.0743864716732511,0.00888847728348821,-0.323393713196543,0.186475590231409,0.409396639497556,0.283854856272988,0.00706242630732521,0.0630593962999828,0.160574377672205,-0.34962077032916,-0.147061603360617,-0.245832499793814,-0.141307041228586,0.145813713728749,0.0230100202345372,-0.405921043816885,0.00996290649710222,-0.157729359382997,0.28488838307399,-0.509585241543589,0.0711594861365382,0.0746553181412794,0.0852704030988526,-0.25947229969531,-0.30618449962192,0.345210701686745,0.211831662403469,-0.205741928052795,0.412476483595113,-0.155431542492151,0.270680926464288,-0.0981382817636353,-0.198868574245502,0.200303132063288,-0.125529995015397,-0.00634566696123248,0.429669792894599,0.00274674163291906,-0.522130424973766,-0.0590538921569044,-0.231561732899891,0.099327606730528,-0.0862101206994394,0.279556430972136,0.0536564519299045,-0.00257255373297835,-0.188149011414451,-0.438704280630758,0.270572523134652,0.0328538228802077,-0.414979085107012,-0.35909808075405,-0.150844964675847,0.426113594568701,0.308077680570177,0.220748866611686,0.455931792136437,0.151769781040436,-0.253594915648265,-0.152114285461402,-0.0870728638732445,0.294430007419031,0.325063045926335,-0.615889655208166,-0.570041157486122,0.392821671894612,0.334372875905882,0.474706323691764,0.335529689369861,0.526740595025601,0.160856396801783,-0.174613231623035,-0.171182964104968,-0.382296742432793,-0.420906939726504,0.360478577609628,0.25814925646251,-0.27472999786485,-0.099334022954578,0.175050975172645,-0.376437805184308,0.174124471733524,0.271634439732985,0.202622440518911,-0.183535328672708,-0.215279565695263,0.200866377742355,-0.179062021281694,0.148062218229946,
0.219552567448547,0.520241198792252,-0.254149616430946,-0.159612130011364,-0.142063935960457,0.258502219997739,0.0831361575848238,0.459750699738843,0.314207590674742,-0.252903256670306,0.499381930569549,0.359300049358968,-0.219644661227766,0.388007492444576,-0.171438569607746,-0.448041291400619,-0.182107066354402,-0.501004915209094,-0.24964083495569,-0.213381904400271,0.272332015565466,0.497031897009634,-0.184467594921344,-0.342062774197211,0.270460395276959,0.30741488143284,-0.186681426555468,-0.248915758921798,0.328310138255315,0.165209982702465,0.178346671007903,0.0244145891498407,0.527010261252206,-0.20601761040296,-0.311747304963399,0.425836675586755,0.0955103998201846,0.15134345834172,0.0408451310302873,-0.0782372021230568,-0.043645602875187,0.381694268178944,-0.242372798192469,0.0327589891701702,0.429349658916623,0.369691463767874,-0.429110078001302,0.473545072598939,0.3625999192442,-0.100200702667143,0.145872237207342,-0.269570927262804,0.0276540206536207,-0.159385228159091,-0.21082942924067,-0.163283866974104,0.193204348653257,0.395062757979402,-0.526406727799207,-0.463717024192221,-0.146472166188892,0.0792900985838724,0.0560191509418527,-0.112340421724915,-0.510496053920863,0.462012258982808,-0.111496035346545,-0.107410632663702,-0.268905136665695,-0.256177868792477,0.116010679065966,-0.188573491240769,-0.373754283404572,-0.471170899977639,-0.422482604596004,-0.282866128271511,-0.297589931424841,0.256098563244381,-0.51940086585393,0.376019244596252,0.201560333790125,0.446080457505784,-0.085943914106602,0.329589573075702,0.420178962277205,0.317098271242185,-0.0885707954639734,0.107135414783113,0.502750256349831,-0.0756077657260089,0.00573589864309789,-0.205773670757173,-0.0886345221772605,-0.364122022634209,-0.424471025014836,-0.380805879829329,
-0.0973140302278465,-0.296682712680239,0.229052813506819,0.222298818132689,-0.0858342701346672,-0.4986156998519,0.135085967292427,0.327017739931724,-0.00337639858900583,-0.434632313887904,0.459576358405757,0.199810517540763,0.255573472975251,0.0678019213948028,-0.106152838202751,-0.259643378264084,-0.519976975310881,-0.253905418748502,-0.045144208995293,0.234611924592616,-0.090081350523646,0.327683046534145,0.295531241562274,-0.520893815689922,0.0970829957221916,-0.355620667822559,0.170123539336118,0.118166648576981,-0.079438033807961,0.167900789881334,-0.518871116501665,0.0768045841372748,-0.433521149838188,-0.483387782352383,-0.243597396453956,0.316455465839867,-0.172351502813587,0.506507936017772,0.0436686576158238,0.114281113285497,-0.505613977357045,-0.33474508099892,0.258723209444348,-0.214891618090626,0.517022260204071,0.0613390392294889,-0.475582323887288,-0.0352673212401654,-0.396103456895309,0.0806291891973413,-0.458138062508739,-0.528888486418029,-0.524215994274711,-0.0484998827627925,0.346115775684283,0.516674795196954,-0.0949202402087133,0.0284687988890755,-0.226397458047082,-0.372176864921102,0.297757458524978,0.206524696818734,0.184144753647861,0.51304895676341,-0.0932908052158962,0.314488205151215,-0.185127757382008,-0.18976571848024,-0.57886404634572,-0.329977966739459,0.175714308293244,0.247578893899126,-0.364374954513489,-0.290207524017021,-0.418668841951483,-0.533373995966746,0.314900244384797,0.0234128236574733,0.0409259954780418,0.081704837478996,-0.291469020673378,-0.460364230930736,-0.292062324493677,-0.315746708679038,0.379264922791005,0.318504164694624,0.260514446366018,0.234860148371675,-0.0496243109739631,0.129225481637576,-0.0286782597660796,0.401303158532752,0.401735809594526,-0.00215512514427286,-0.112151978656472,-0.0512715800493608,
0.493745608603271,0.481415990150304,0.313876252558504,-0.414818425326718,0.446867836086485,-0.644473021567636,-0.211312763740805,0.250223903856435,0.378955027485976,0.118953440168969,0.159326257646488,0.0862764379693274,-0.330141575370167,0.00646344393490395,0.169881152635745,-0.31056416521352,0.496201046291598,-0.22101805898906,-0.39522636164257,0.496084632673812,0.254313729262674,-0.433095599981866,-0.216028166860812,0.345205205594601,0.303851948037314,0.0289340898261785,-0.133171275974803,-0.0777467003947108,0.281314223436472,-0.2512028630785,-0.238665121040326,0.393218145795146,0.0626773374667216,-0.195030243717388,0.0220085824964872,0.257060587805132,-0.103452192968518,0.481407666815546,0.309988963186363,0.357657731914439,-0.0634538395512159,-0.25218539937823,-0.26069199304595,0.596193773601622,-0.45208267627415,0.243167749447285,0.494513401129214,0.287853999178109,0.0519170794401046,-0.354715953646052,-0.1636393759447,0.0952852346158478,0.241961884560537,-0.395359881681466,-0.135851210671248,0.129513219641488,0.0238488191732219,-0.252088315394847,-0.0451251428266608,-0.371327540286765,0.110730401788296,-0.102204020600627,-0.336336571229694,0.0201739310067985,-0.526520393196577,-0.193713562286728,0.0787102974166867,0.456558474075205,-0.316903249393825,0.40104871414139,-0.122030037659754,-0.406969536172026,-0.326762121343261,-0.153126150482909,-0.464069869841745,-0.198294448473306,0.324469037103982,0.105119498435685,-0.064157521039821,-0.187365995035975,-0.121476345039814,0.364920454044709,0.445991958578673,-0.0775205887163689,-0.467405290234024,-0.00816810635740838,-0.0212243186728806,-0.521993454278866,0.368983664296467,0.362644770541908,0.0957917628585459,0.337596924655782,-0.356246730890093,0.310584644812914,0.293237970425541,0.435304565777494,
-0.434770204503924,-0.225682970701566,0.333192485865464,-0.0279237789469616,0.358714135712617,0.240573375548597,0.381921263041344,-0.0744023150748162,0.30845460895142,0.0769571141805887,0.483100764158096,0.124675993195216,-0.389165488472653,-0.533752325210033,0.0530843314275186,0.250763623473585,-0.284749718667678,0.0332203501775972,-0.484942240394845,0.377618902141345,0.264698546262854,-0.0680847727056087,0.402031844468266,-0.189970817628317,-0.0465164119694315,0.126012962337033,0.0369031740719736,0.80860980588953,-0.0557460809093024,0.220693764256536,-0.112802392631199,0.156279574911288,-0.478668485323688,-0.16624010996187,-0.463293741583467,0.0435383229925039,-0.259272656740114,-0.0642998239661468,0.294279472392556,-0.224756140390496,0.118947651000382,-0.547383016592689,0.392937304639665,-0.419819845886822,0.475379357715907,0.393892264660868,-0.409728898488241,-0.228771819847708,-0.0200438495959027,0.379515768025657,0.355885637061935,-0.378025269835769,-0.240584518107088,0.0599648128200565,0.0913062623078656,0.000639860274508859,0.204173194847409,0.31257376897674,0.00371257738916575,0.425040987429711,0.374631236473446,-0.164530300960721,0.00557434123428279,-0.332126870594915,-0.049343734287865,0.292760049148012,0.138945283295961,0.165181489548331,0.157155077383657,-0.197572296584304,0.333098697557773,0.0291615627810441,0.025507136241426,0.0874980658620356,-0.296766616563201,0.370248223067009,-0.302150673655352,0.0956426630942884,0.0469810725119416,0.126831264706858,-0.430336416612366,-0.409735684947549,0.263369556885515,-0.409509205176976,-0.291315055182089,0.177985242947293,0.225168379250891,0.0298859401435476,-0.263567584964953,0.303218682446581,-0.0325473927475305,0.412329479696059,0.47041180385044,-0.343393160258141,-0.10752872630929,-0.337733085146625,
0.273377610447858,-0.138571207052355,0.367231897263839,-0.139648021268026,-0.299811440932977,0.0239693022016148,-0.297263973141912,0.0706147640170297,-0.0769619046669643,-0.384896900149854,0.456439694215111,0.231371234990568,-0.34499989802729,-0.0221168021068657,-0.241744144388488,0.155524875880802,-0.43368185948109,-0.0693248073548638,0.154269689927487,-0.510998954903572,0.210582274319592,-0.216701528260712,-0.206570674102495,-0.638096450604571,0.197954339150404,0.513835586161357,-0.290022538364722,-0.0407836664093833,0.175670905719549,-0.0406662959100562,-0.302588108184367,-0.411372333844186,0.18416303539811,-0.214058635771407,0.263320179613291,-0.165544879952566,-0.0164673629232842,-0.552371625574641,-0.423165158439766,0.301057393341393,0.481619232649835,-0.234711794751784,-0.0536104448530808,-0.320025022506127,0.0704591575972097,0.436391502518518,-0.0237911737727362,-0.0632063520354252,-0.355900171348985,-0.328433094887942,0.322501336884551,0.465795443722021,0.13295587810191,0.179164523027469,0.438767076763218,0.455123166897895,0.0119676866346084,-0.392690215917878,0.11792427506722,0.215495999209983,-0.105394311631331,0.163928882331489,0.109592445286198,0.300114842015725,0.285457513753417,-0.419335826079247,-0.192692268811549,-0.345341078422192,0.210261415111333,-0.500994131170041,-0.307957346899471,-0.415724941264784,0.035416838099455,-0.0687168116635636,-0.194676548639922,0.342624998716521,-0.468658593220348,-0.14507501794345,0.117769413598636,0.445272831439736,-0.412477535887519,-0.0910842733371394,0.279967372148705,-0.434161093472885,0.439612509550772,-0.355962367669593,-0.106013647509042,-0.318555989245942,0.24746584892206,-0.502302088738479,-0.0459719375116198,-0.151999755241335,0.243038992597089,-0.00187192600727481,0.208503994691453,0.0704398726728896