-0.0364426379189204,-0.00640811759447809,0.00731733985292331,0.00736226480283394,-0.0239665896289423,-0.0274317231866329,-0.0194703685270186,-0.00873801750984062,-0.011770456974346,-0.0284235507729636,-0.026898095761559,-0.0327723339902372,0.0275362528383223,-0.00120792678476235,-0.000520263346863673,-0.0244394426106571,-0.0158457520936308,-0.00684947462440335,-0.00710688520514587,0.0334409635925181,0.0128977103263491,0.0224272753516222,-0.00564527685579732,-0.0138968668454368,-0.0089675146867882,0.0196749159876533,0.0320058101263249,-0.00915365264067411,-0.0189148129638745,0.00812275547757158,-0.036163053558008,-0.00875053244895947,-0.0349958083972911,-0.0012910013041241,-0.00630535208577631,0.0348629532143806,0.030955337687961,0.0202873486826423,-0.0041711227799959,-0.0182760617688111,-0.0271108696377206,0.0248787715036219,-0.0218503620924862,0.0116174497958434,-0.03410404828632,-0.0327554404711599,-0.0224913602571916,-0.0211928006659842,-0.00095363137330847,-0.0309156843676608,-0.00383850263505175,0.0266745067106122,0.0309323546758123,-0.00197744055648998,-0.0355176288940468,-0.024262269503439,0.00763346516025147,0.03285506564527,0.00958063802769359,0.0303510844034728,-0.0358876801786338,-0.019629979622137,-0.0230240762963378,0.0319926857891223,-0.0237590331375427,-0.0231429627847089,0.0236715450987961,-0.0324185766573177,-0.0227824169100991,-0.0207563896341653,-0.0137911002597013,0.0272669312932569,-0.0288037693630051,-0.0181477567211029,0.0270417364944731,0.0154791124616654,-0.0254202161357167,0.00676309784886247,0.0300163276962801,-0.0181316260947501,-0.0181835446658013,-0.0304273100896526,-0.0171983685538824,0.0265345256382634,0.00249288629310848,0.0265971601332914,0.0148155550445628,0.0225215109261793,-0.0190780189394855,-0.0156455168027455,0.0352232377956662,0.0182132708594733,0.0239018693804457,0.0360890384578107,0.00759284268651213,-0.0356233762922672,-0.00315985633727841,-0.032534270411482,0.0240255478511093,0.0208891087294341,0.0154102537788577,-0.0106545122087641,0.00642457486080502,0.0304426511996757,-0.0238398091577733,-0.0315373077665826,-0.0295305448482191,0.0170968025269686,0.0227174602993769,0.000833863714405945,-0.0330284385626866,0.0144090547852947,0.0088720000052638,0.00592578999003618,-0.0203628754213374,-0.0125053634751177,-0.00298654064742903,0.0267680169238035,-0.0317538253703182,0.0332527422395789,0.00273961783252362,-0.0164233660393456,-0.0176771214082815,-0.0256702062795602,0.00173249277299832,0.0162249283057566,0.0222407249430583,0.0343033133603334,0.00971107408960538,0.00145853627116052,0.0332850930120963,-0.0137657850245553,-0.0282333011070887,-0.0232659119789978,-0.0339634546845848,0.0354632578706353,0.0118489376781938,0.0059524398617075,-0.00746797304069466,0.0269732009537818,0.0126883066628365,-0.0361253654118129,0.00742876449170194,0.009227552737636,0.00786015979794102,-0.0203141487296658,0.0361990421884302,-0.0244448939761881,-0.0293860256393636,-2.43183150922018e-05,-0.0150457200231437,0.0156648258402469,0.0086287076694197,-0.00669471351948524,-0.0164202819023526,0.00304190026583713,-0.0338729411097658,0.0163583447592822,-0.0182116234191832,0.0353841414407818,0.0286224288324394,0.0167383264969919,-0.0260307700082417,0.0249530834970895,-0.0307679316660614,0.0125866726980094,-0.000800950042017767,0.0360486440203424,-0.0160848381571505,-0.034350122525518,-0.0117290103349357,0.0280602222032265,0.0314799130014383,-0.0131678200968885,-0.00499956032405899,-0.0245149629678545,-0.0286659886454206,0.0066598565198822,0.0190061798583317,0.0158272868556503,0.0325176478519709,0.011396396773949,-0.0100087962344301,-0.0214665385846932,0.0321424965566733,0.0360843575133932,-0.00675848168430643,0.0225578027395545,0.0333677397682218,-0.010086462164791,0.0262291347664123,-0.00231757727337448,0.0172891875131323,0.0334927689935222,-0.0030209353751337,-0.00947090945052621,0.025992486923026,-0.0132451587821854,-0.0310596456315441,-0.0184976674096103,0.00675766946068354,0.0137802661139993,0.000706945120607717,0.0195414694436774,-0.0243678743186019,-0.0341707292444554,-0.0357895874844686,-0.0308065819039654,0.0309626374203712,0.0302295230548542,0.00363571322439113,-0.0210420986640664,0.0239884075297798,0.00904767459266122,-0.0247125621619272,0.00043357503494449,-0.0199920666239543,-0.0175005239346538,0.00331567216544795,0.0170479685111136,0.0136368862208009,0.0328585537019845,0.0167604249407964,-0.00306618070715657,0.0142201194635379,0.00174995937671105,0.028133167617531,0.0199428915848303,-0.0345344128242423,-0.0058783063202289,-0.000555598678391099,0.0101253463673745,-0.0104221418730725,0.000899203926221077,0.0340929276251545,0.00552117511525625,-0.016366639131921,0.00387472904028185,-0.0236856841018988,-0.000832103546739907,0.000266963379031195,0.0271530268329623,-0.0294442299706238,-0.023063828316161,-0.01000044360761,-0.0193161170803057,0.0131245740753154,-0.00785907149896709,-0.0212248934526252,0.0115344055419391,-0.00536729836796498,-0.0198981500478767,0.0292824309245903,-0.0283654002018964,0.00513885742917999,0.0134447738596658,-0.0237133988095672,0.0169807218021799,-0.0304303499523451,-0.0347370505389226,-0.0343454264794552,-0.0022829703831799,0.0198832098276413,-0.0349776497877712,0.00804616536197431,-0.00893260733117179,0.0123196332517117,-0.0226570900561251,0.00538171716054694,-0.0156579858773502,-0.0301771535330752,-0.0211597837879449,-0.0173752852579849,0.00341168447735502,5.97802275651654e-05,0.0327613632962837,-0.0133487731156551,0.0268865813461059,-0.0256427535239245,0.022478006248439,0.027474691120948,0.00988587597573392,-0.0301979645344818,0.015123542096524,-0.0196254933475089,0.0106421940425241,0.0123463971814689,0.0150751270402149,-0.0331502084424979,0.0144828697508843,-0.0128839647366442,-0.0343824941487743,-0.00636410054390293,-0.022633949507945,0.0196389128474519,-0.0238687044393591,-0.0153614645740108,-0.00518674401590658,-0.0098207522237053,0.0235521812117821,-0.00646687730756289,-0.0310572712525987,-0.0302073474920002,0.0218013188879249,-0.0106971889791241,-0.00154157005568343,-0.0137512180576557,0.00927992540398668,-0.00703848498066198,0.0139594848806829,0.0270502303011058,0.00602518487634555,-0.0118224805288847,-0.0167550080024166,-0.0026509007159806,0.0359918806216942,0.020005625151709,0.000989234397720251,0.0345229117937525,0.0323021068872472,0.0108831060263906,0.025881398657028,-0.0216248569084078,-0.0343127071730134,-0.0303067402709603,-0.0207237532361871,0.0289817205110333,-0.0233325667606107,0.0356271229279932,0.0363709099570247,0.034303889831253,-0.0201412079645502,0.0137551269516661,-0.0053974204543209,-0.0310069345617123,0.0227124123867542,-0.0328823861295421,0.00708026092647831,-0.00814190064365124,-0.0287403328618365,-0.0163755395792904,-0.0244260706620952,-0.00788874200284642,0.00176477739149113,0.0221924350993195,-0.016293784359851,-0.0351498659056506,0.00306535172530265,0.00686479482094826,0.0182006584262131,0.00216641103409896,-0.0263314025782696,-0.0219786442404187,-0.0123073864135938,-0.0345994809318922,-0.0219686698883532,0.00478311340613117,-0.00972152078361656,0.0103527562748145,0.00273819264350963,-0.0291845041254231,-0.0264449228841234,0.0215789587967991,-0.00160560074649315,0.0190823128716372,-0.018313898404813,0.0249105759984256,-0.0180568119613091,-0.0220263491323224,0.00442453650308797,0.0166680017301879,-0.0277488207963223,0.0177335816279691,-0.0211765996247843,-0.0199246762185484,0.0181278625818536,-0.0328600100059007,0.0255448248741,0.0230283179295951,0.0239444935127131,0.0109624683469685,-0.024734438751885,-0.0187056442469209,0.0192991886231618,0.00897121035930627,-0.0226642521705301,0.0158438505101766,0.0240359841485495,-0.015637190955405,0.00962383211155009,0.00279407628682758,-0.0115978548315877,0.017285577056072,0.00369269689006379,0.00464245209056594,-0.028285412966273,-0.0322676988935996,-0.00563276020099955,0.0166324515456693,-0.0237580533318692,-0.0317168064106293,-0.0153332473948496,0.021271985840453,-0.0335610353850006,-0.00372615563609248,-0.0086246377625278,-0.0187265942927553,0.0316329575385804,-0.00413908401433917,0.0236644149230213,-0.0231660833637036,0.029722804566171,-4.22730875787474e-06,0.0362312573144774,-0.00818364602653222,-0.00531984644678961,0.011543667315146,-0.0324132730122484,0.00384126062691873,-0.0351671264830282,0.0073440133256629,-0.0108160064700413,-0.0045329315387744,0.0246592409176079,-0.0111976050801662,0.0192793465817165,0.01114686077918,-0.00173038373863187,-0.031497799594743,-0.0197864510958419,0.0110879773835677,-0.0243334448192187,-0.010284709284408,-0.0323887521507405,0.0198034468736925,-0.00442956587531221,0.0135151905835535,-0.00887712370525583,0.0253442412153575,-0.0296358132735644,0.0208294986054705,0.0168903415429462,-0.0177089521918262,0.0313385993336417,0.0161664694816871,0.0235957792441767,-0.015487459761595,-0.00788591758111276,-0.0308381409570233,-0.0125125785516217,0.0254436104732283,-0.0225636271264179,-0.0272990572820675,-0.0338558831966582,-0.0280396614878014,-0.0351769394355666,0.032855663314101,-0.0271267751111984,-0.0177569004597683,-0.033211499802042,-0.0207843894989973,-0.00845445843223039,-0.00941682632674796,-0.00838661986861069,-0.0200538984063724,-0.00236622516190032,-0.00627646182262819,-0.0298623443638369,-0.0359698391246528,-0.0232567536271796,0.0295991306007414,-0.0143676572008835,-0.0299357944937545,0.0325345900785817,0.00942549459315182,0.0248073284324177,0.0314834423864661,-0.0107844066944368,-0.0199695376301009,0.0278551783326811,-0.00326883822991163,0.0235376995296028,-0.00141739373395913,-0.0303107818808256,0.00620290535044214,0.0017268321346857,-0.00745741681990429,-0.0235520426209181,0.0329726386805572,-0.00355223315712214,0.00292836648417778,-0.00482954152974207,-0.00636841763025202,-0.0150452937370185,-0.0087339092848732,0.00238190819167642,0.0197258086924332,-0.00321023756772106,0.02078472038193,0.0289227827261965,0.0190637571419977,0.0263791607486342,-0.018449014618895,-0.0359592680688927,0.0204685146943818,0.00590288088304713,0.0164773727692675,-0.00503250691498472,0.0359004982325608,0.0138911284290234,0.00164242239696541,-0.0241135951306023,0.0240913427527696,-0.0122364225844452,0.035753137804355,0.0226101734766051,-0.00793842430622379,-0.026718345201367,0.0284075795809301,0.0163516944438404,6.07362451599586e-05,-0.0227586248181193,0.00394630901966935,-0.0326519550997928,0.0287014658387823,-0.00274529280505533,-0.0230333340772634,-0.0243083635703127,0.0366118204128807,0.0342069522608373,0.0270005051806503,0.0175606413299207,-0.0211090164932143,0.00714883588808071,0.0192910942275237,-0.0258401199591962,-0.0262529491929141,-0.024330635425173,0.0173870884587982,0.0326011395152847,0.00116530880732897,0.00381509168435711,-0.0260565676461583,-0.00725314866365974,0.0191435385830024,0.0207993435721081,0.0322338698622261,-0.029465125488224,-0.0062122994913835,0.0121949464596337,0.00644468385643488,-0.0253094457811465,-0.00841086491456733,-0.0166862785004276,0.0280150850562962,-0.0310970981160435,-0.0325576792188293,-0.0327003996934993,0.0162226239725641,-0.0197658277042183,0.00066848533794809,-0.0280337792533221,0.0244501026583435,0.00383793731892331,-0.0150526907385238,0.00626217542245735,-0.0261957337628463,0.0113218706088713,-0.022355896924106,0.014362597430091,-0.000470997516502786,-0.0309281816527635,-0.00635098712363884,0.00291015477311378,-0.0206465672271305,-0.0251286464935011,-0.0173133289006631,0.0318878553018441,0.023179751621084,0.0275157243764205,-0.0175929373651906,-0.00161500939029081,-0.0260125723459176,0.0211291975362753,0.0278786836702372,-0.0253948218304778,0.0345529559951248,0.0274053986337064,0.00803828010218054,-0.0336094828748968,0.0330368781935623,0.0184644075450862,0.0249070478327599,-0.0357895482278329,0.000835411156550719,0.0325381614510357,-0.0354268015809471,0.00238573977184528,-0.0313205657094583,0.0359125196238327,1.85170543170407e-05,-0.00433042564878321,0.0274204526606748,-0.000280269699851121,-0.0303741799019097,0.00184010070414547,-0.00360422242630052,-0.0206851929252391,-0.0104361123276496,-0.00503724930056592,-0.0333028534991769,-0.00164932034715233,0.0240814759924964,-0.0173783007196925,-0.00742274919329318,-0.025159558601763,-0.0323433748780618,0.000326948829682073,-0.000329701926817118,0.0185640583776662,-0.0105792292102445,-0.00982806194006079,-0.00190473722965696,0.0289696500194777,0.0361644181529336,0.0120468820201269,0.0272847648967226,-0.0302899302386922,-0.0120352378886481,0.0212151135081466,-0.0281338207193831,-0.0047648137616172,0.0234896585709711,-0.00285439039036369,-0.0282637106699732,0.0296194916546781,-0.0302348969960549,0.0144186348988649,-0.0125969400256418,0.0308698995619728,0.00594443031883451,-0.00907972662441019,-0.0252711505680955,0.0333495458766819,-0.00110445553371646,0.021447117603856,-0.0195016444578334,0.0167366478760444,0.0280971549711203,0.0113025405369437,0.015972880146537,-0.0183455492492394,0.0348469030645755,-0.0342548841168,0.029243975422442,0.00218742044509159,-0.0362685218703316,0.0278529102033339,-0.0238586194562943,-0.00183607826863033,-0.0305618556794042,0.0127053522041273,-0.0286458127787074,0.0122996751907412,0.0267076510610015,0.00129795797810669,0.0236911360525347,0.0241066674047795,-0.0278174738378217,-0.0270462107113488,-0.0274897875370616,0.0135928060315852,0.00632616586586367,-0.0158652962735808,-0.0249813815931067,0.0178324597333701,-0.0244378047504494,-0.00921878570214971,-0.00448899097070124,0.0193301596604801,0.00637084171334386,0.0292884012720004,-0.00721756679374696,-0.0167449549413179,-0.0348506431898047,-0.0252086163699799,0.0242403292626282,0.00789762347024699,0.0137401039981794,0.00949447495741166,-0.00679816398233798,-0.034267201464539,-0.0153948737810701,-0.012014725912702,0.00217669836779572,0.00652135690500153,-0.0184340402211009,-0.0307238688232273,-0.0215315273048924,0.00869064131024743,-0.0146787857055139,-0.00787157138902608,-0.0102796245640128,0.0294854239917673,0.0131732358676941,-0.0114179136011284,0.0199285322563911,0.0233044811477856,0.0215137777236681,0.00799264933581925,-0.00846991116039184,0.0133462192981964,-0.029267467428817,-0.0146276528142112,0.00067853161338053,0.00180382561128466,0.0144680983571658,0.036443040045217,0.0145875756028087,0.0167711421085514,0.000993810617708408,0.0143112673577064,-0.0300689565030615,0.0342887924780639,-0.0296534842348794,-0.00906064910894799,0.00297087178863305,-0.0317428247708238,0.00811017786600719,0.0261814965180165,-0.0204574550384202,0.0116647542566855,0.0135448926476092,-0.0207731625385861,-0.0232952424207886,-0.0350250400443046,0.0317802036883275,0.0056271823762397,-0.0153910246979019,-0.0285809974306459,-0.0336025163420611,-0.00539544114775561,-0.00779111241200072,-0.00335042889321269,-0.0271026526454666,0.022913107374657,-0.0236776556744987,-0.000161073170914664,0.0246601308010732,-0.0287116119004534,0.00239754405814477,0.00683462258790891,-0.0238026164887093,0.0310320099731184,0.00169113613592128,-0.0280167091381804,-0.0211905011204416,-0.0296289673728082,0.0122104469523321,-0.0208099466947213,-0.0348978706945011,-0.00549127406800525,0.0127667223270803,0.0114946465181619,-0.0321412489321685,-0.0246249209948391,0.0237823846664533,0.00110434782465391,0.00938683620752615,0.0114226740719571,-0.0247964321539776,0.0120276206092495,-0.0280484597680078,-0.00530837690029564,0.0233855154367779,-0.0329128026220788,0.0283072309336486,-0.0109538839586928,0.00358200990107485,-0.0325297588901076,0.0211464909610892,-0.00672960050297918,0.00434180568088575,-0.00614875669407109,
-0.0273866021696161,0.0241286798948047,0.0210910578179853,-0.0252428230977938,-0.03727626489711,0.0317001505588958,0.0190699636007437,0.00518356518185778,0.00370298237056082,0.00223538972085362,0.036827033677718,0.0576386225474967,-0.0738767392465673,-0.0409309688919648,-0.0434483940633485,-0.0908330299770745,0.00499882815473531,0.0592760364676601,-0.00942465992510965,0.0483727906329686,0.0270734007188753,-0.00404694706163606,-0.0268461423065079,-0.0137306807126402,0.0300385426074937,-0.0283925613548561,0.0194179972405431,0.015499629652039,0.0286921131633382,0.0311434228532402,0.0242845289904208,0.0106660183082381,0.000427684467734908,-0.0327461248366628,0.0133833314058133,0.0287383964015273,0.0457105555174673,0.00638644198360146,0.0750616856438963,0.0318336719745484,-0.0916667470724607,-0.0520102874414973,-0.0547848481613657,-0.0389900350359899,-0.0076117589851251,0.00547678146976504,0.012424403298439,0.034586868224476,-0.0164930576802488,0.0052815488637821,-0.0253166956000606,-0.00553750119464136,-0.00987716072039257,0.020422048443352,-0.00513995280903592,0.0218422792815442,-0.0192877060829701,-0.0369430560606587,0.016579145217355,-0.0187021520642332,0.00861097754449144,-0.0356665040200755,-0.0243186323838369,-0.0249983724804265,-0.0201397993713494,0.0171696605786083,0.027314237726883,-0.0135869366972162,-0.0389537417806207,-0.0397711627745146,-0.0553904742518292,0.0419825069306613,0.0335975614118363,-0.0508527155485027,-0.0119894638538704,-0.00785256584129544,-0.0170077502208352,-0.0302961018636029,0.0320197347754045,0.00848203772407327,-0.0230778426726062,-0.0185666846788359,-0.00496106698358329,0.0322466788502814,-0.00447494492986275,0.0237429332809629,0.0339073040433084,0.011170540766165,-0.0265331009934776,-0.0206857414048535,-0.0702135400756112,0.0025161728891723,-0.017943197379739,0.0130581247343813,-0.0351030358361343,-0.0701875673921929,-0.103408143397118,-0.0379243083898119,-0.0250752645039568,0.0344820343267905,-0.0105394419612055,-0.0134041849166761,0.0321560508055996,-0.0256562191192032,-0.103411975096164,-0.00931606698404378,0.00418289675337522,-0.058737098522937,-0.0295747462930318,-0.0252331844046118,-0.00157051114677164,-0.0364097721233881,0.00754409743508127,-0.0332044846715896,-0.0365255040646178,-0.00551517898863412,-0.0334196408768763,-0.00245835358022489,-0.0332385617436558,-0.0254127044728162,0.0184706309597931,-0.0466888448108945,-0.111072843077871,-0.0395271757360005,-0.0874999197028321,0.0586994868746326,0.0896205326242732,-0.00359014343087367,-0.0731407471460247,-0.104389537687008,-0.0736467740776388,-0.0666073732955477,-0.0222122846775083,-0.0246584347456038,0.030790991865642,-0.0344797431849486,-0.0200565431615576,-0.0374653850383015,0.022369534926086,0.0102221647858627,-0.0149321184891487,-0.0285527796744982,-0.0385944832736476,0.0123107566644664,-0.0259674527481825,-0.0423809157038124,0.0169091584776558,0.0232255893453669,0.0115183966237892,-0.0306107626460523,-0.0329342836909484,-0.00493967064134361,-0.0383500241347217,0.0349757246188805,0.107090495495228,-0.0408367261524882,-0.0321072695090681,-0.0745744805704711,-0.0339593146275364,-0.0333860421411017,0.0106473342794023,0.00370796012839875,-0.041039464047089,0.0286039969806641,-0.0309259059483989,-0.0124528746689157,0.0245914022888713,0.0344274395320012,-0.0339677235108251,-0.00764545643654975,0.0264827350724382,0.0285994596688363,-0.0252893987206813,-0.00355573529289497,0.0109196422587572,0.0714757269520896,-0.0100746817826392,0.0221300067890471,0.0120875145072101,0.00443065379573685,-0.0545245977998834,-0.0438825042865357,0.0314255153781968,-0.035613821359491,-0.0166382919555964,-0.0449002233148611,-0.072788794172842,-0.0314841470275936,-0.00676038959491996,0.0133485168110271,-0.0490128457151383,0.0184143829362612,-0.0532404504853814,0.00719724310061209,-0.0163978638465672,0.0250687501344426,0.00123227575426917,-0.0348159731183382,-0.010989299312429,0.0112920321508026,0.0057145614224002,-0.0236027459093569,-0.0102548555776273,0.0408154328456564,0.0492999632519861,-0.0138903251108231,0.0226544214473616,0.0282886724762934,-0.0242043700792358,0.00706777204259247,-0.0285489816177185,-0.0647423994046236,0.00487078881458481,0.0257871597052644,-0.0497030617191681,-0.0708393454783001,-0.0196815086334418,-0.0419146700004943,-0.0340952003038593,-0.0198821903689043,-0.0536668174246905,-0.0289894188776506,0.0022026615429858,0.0174051981812745,0.036580472180025,-0.0138076865850233,-0.0014293264188084,-0.0474203691187553,-0.0407299063055383,0.00227983578261935,-0.0173168171063901,0.00210368974963976,0.0320499893723404,-0.0034536056014045,0.0125996708084554,0.0279172605224147,0.0509734394761115,0.00192551379968012,0.0693157456686523,0.00885735658526739,0.0437964045791188,-0.0273978928498997,-0.0542006539527242,-0.0641082941540962,0.0337418398140783,-0.0125564853510862,-0.0362908927994706,-0.00857742733689414,-0.00241932289066288,-0.00164583693548599,-0.0442339655293319,0.0168448002889812,0.00730539066433268,-0.02776690094862,0.0391863406604399,-0.0264625306776765,-0.0447577358052703,0.00237115223218015,0.0021212003658618,0.035041996759393,-0.00890525656786794,0.0381872779855453,0.0155943137025959,0.0225545452879955,0.0167329106796748,0.0299807733768151,0.0917161950188777,-0.0244742854879698,-0.00470427058529186,0.034295254102879,-0.0527773150749752,-0.0463761831072499,-0.0281694130951971,0.0137610789999699,0.00851837952225606,-0.0352296617721474,-0.0319646284307257,0.0132010048104921,0.00983835065916918,-0.0087688795370083,0.0415181403910051,0.0510376117220793,-0.0274128331480527,-0.0556192134081469,0.0332233712472452,0.053459826234096,0.0547892445018076,-0.0299172824523559,-0.0882866225577092,0.0423036716317477,0.0232832630586548,-0.0285785588213583,-0.0311598793095031,-0.0351459358513966,0.0523747468780427,-0.0675766359224945,-0.0494382774155471,0.0116174324034722,-0.011249864647581,-0.0828594093522354,-0.0352853587452086,0.0160116716039423,0.0239357642350194,-0.0393959985022393,-0.0895894107289208,-0.00654978544395646,-0.0209778257490803,-0.0144021923994408,0.030000999078267,0.00946827272526382,0.017484192405169,-0.0235692832251397,-0.0109733753884902,0.0534626341041507,0.0171743540652981,-0.00820060991803495,-0.0254261092726532,0.0170580317414428,0.0082323284057715,0.0239731428694375,-0.0444827333338827,-0.0290155312167523,0.0721741163189553,0.0365708161866557,0.000109416991048737,-0.0443515204830911,0.0068513383001447,-0.0317380533031007,-0.0458296107019562,0.0455933207166656,0.0250403675929776,-0.0524240267219823,-0.0426704079870763,-0.0348543067091783,0.00754210553826548,-0.000734612040043786,-0.00780402018184548,-0.000982357855255255,-0.0112592120439853,0.0284599685707027,-0.0158651511263538,0.0403022938556219,0.0339325180486693,0.0525411433382517,-0.00113573682894373,-0.00096814972760486,0.0583754140352321,-0.0485231264584406,-0.0200110485135952,0.0163405479206463,0.0801495880072844,-0.0314775558707796,-0.0194677948255901,-0.00581999908004551,0.025630848522697,-0.0186602462422275,0.0300838906771819,-0.0355140359558056,0.00414563780135984,-0.0171826082927568,-0.00180427556163489,-0.0824011082904561,0.00594228699198628,0.0438567608546721,-0.00355608226651428,-0.0183099155637682,0.0105209712586643,0.0211227231329588,0.03411428361746,0.049220387627276,0.0524389526055345,0.0513721500208425,-0.01845283699956,0.0557008282307954,0.0424550486412427,-0.0242113235188552,0.012845495042643,0.0257701410769992,0.10789511301171,0.000697591077453995,-0.0116225566839716,-0.0108618615215552,0.00766886217794868,0.0349916420878192,0.0124133012083948,0.00853212758983154,0.0820061325434642,0.00273224584236942,0.00319565982463467,-0.0388384900689327,-0.0394436505510031,0.0236091668067097,-0.0326916048580165,-0.019996674445378,0.0214170838037849,0.00416461436327413,0.0127637676481621,0.0582176079250634,-0.0102013268933067,0.0420916045496974,0.0137643349769865,0.0399029982093779,0.0238233461086555,0.0203456063352172,0.0137641014142209,0.0258490206099474,0.0749712524033589,-0.0310648166133706,-0.0651713500781863,-0.0306227336382685,0.00223228720718549,0.0169200733520651,0.023739210624698,0.0460366687640533,0.00748398186327606,0.00982964925356037,-0.0190338812298451,-0.0485657002472015,-0.0477153694732147,0.0341643574784583,0.0143273400752065,0.00191527026753344,-0.0456091243753343,-0.0294519237457192,0.0651216411387886,0.0228661725152879,0.0385485531759885,0.0528343192099109,-0.0113216006884321,-0.0396296024702297,-0.0135045846070178,0.0215714863170036,-0.00986907286967492,-0.00275872661466871,0.0612751359498293,0.038224578874922,-0.102150750682965,-0.0707958723558152,-0.056518506892082,0.00424438683201101,-0.0129367299011123,0.0503615254088448,-0.0228537130615708,0.00775427877409453,0.044685029086116,-0.0472567738495284,-0.0378746705645547,0.0297131611384931,-0.0348633596994719,-0.0619471092361776,0.0169444541263995,-0.0792934771017354,-0.0152489409091539,-0.013605105760281,-0.0450618401306951,0.00426747964180362,0.030956327216354,-0.0184104801858156,0.0113721937310351,-0.012762876761485,0.0395702048715402,0.0343587489188964,0.0952415422118706,0.0772411320319108,-0.0515371585740337,-0.0284816617729828,-0.0304099577984578,0.0686980534549502,-0.0737101779623353,0.0264751480720986,0.00435284333021423,-0.0367811359515344,0.0370890406070414,-0.021902430138755,-0.0105594427058928,0.0248158030757845,-0.0183901651050127,-0.0241297537023102,-0.0674614803983822,-0.00221516680228182,0.0188296629351141,0.0137299326469714,-0.0483001575912563,-0.02204443026138,-0.0495586561573869,-0.0484491764180659,-0.00533265006117981,-0.0181313116485046,0.0170068588690261,0.0370780468459436,0.0651352040898235,0.0393353766720784,-0.00908188249239855,-0.0843912301244591,-0.0733303015027028,0.0308000296755646,-0.00791023598491587,0.00627210363144451,-0.0128306066807367,0.0315410148468849,0.0140593740908805,0.0129327036739598,-0.0290884758565782,0.0361695456844937,-0.0264180198827652,0.0268493139263478,-0.0466993274969754,-0.00248433045487243,-0.0142855100754183,0.00990105462701514,-0.0449470043467862,-0.0414723338706114,-0.0367364052745058,-0.0173553928967558,-0.0373532848480285,0.0219809280960163,-0.00844399724804422,-0.00716904406845674,0.106190526042148,0.0830947437773935,-0.0202174543438012,-0.0479134127888692,-0.0677229852009268,0.0599039960674569,0.0154171454665812,0.0563034721125078,0.0257626948468118,-0.00306374013938388,-0.0354565101355732,0.0019998922666143,-0.0543589361361278,-0.0437161034877082,-0.00634712601040571,-0.0399792415588163,0.0229432862380477,0.0179233403026259,-0.039599493412908,-0.0401125608393829,0.00349334055162247,-0.00118703180943843,-0.028817283560057,0.0178121024277313,0.0150150893826477,-0.00181412521461668,0.0157346826710007,0.0142651053699212,0.079503249231123,0.0669245288790658,-0.0201871497062287,-0.0532730896993665,-0.0512129434199985,-0.0149552860818185,-0.0502267089917443,-0.0410593524499438,0.0109575837104391,-0.0720807126238144,-0.046390090754127,-0.0294742399218764,-0.0274975217506605,0.0344578684048016,0.00103471282606968,-0.0361148782489627,0.0170636259033772,0.0244316707151332,0.04618855497893,-0.0370281485302317,-0.00659947271626902,-0.0278341891536172,-0.0156419178690747,-0.0128028993505417,-0.022828660655582,0.0118045594745943,0.0572009207599153,0.00194552820351342,0.124478327787006,0.0301732380070286,0.0161306724441188,-0.0523830544718844,-0.0713471323693858,0.0185584229669937,0.0386606410201036,-0.0156835837343867,0.0287106871932904,-0.00692790684592872,0.00753404865087486,-0.0165135890564058,0.0102915414132615,0.0351166163749162,0.0049809245638261,-0.0319005779047904,0.000671447283561143,0.00969174096567982,0.00486481051197129,-0.00827136224880059,-0.0126274481067715,-0.000305856238945428,-0.0353925340943177,0.0279086089436613,0.037301001575494,-0.00931615029250201,0.0324107565484858,0.0395344564021811,0.0985804806751316,0.0708449232295849,0.0442969222548984,-0.0380324766885738,0.00706099154456294,0.030228701242347,0.0420368121763152,0.0159078381095157,0.0664167875772881,-0.00277238808517383,0.0709490529569696,-0.00811877324419115,0.00313321794800491,0.0170692071020636,0.00286960881956142,-0.045622320257846,0.0336576687846717,-0.022154651643738,0.031948669887362,-0.00627515111685264,-0.00905563687782415,-0.0233228656579096,0.0252876596241374,-0.0264036198121996,-0.0205882850888519,0.00292746323184566,-0.00505301501384183,0.0551212578266169,0.0851481905024654,0.0588283934282241,0.0568682140548652,-0.0746406068258808,-0.0322603650428559,0.0407028117535566,0.0148701647843889,0.00330310373339024,0.0453113739542378,0.0601619723712744,0.0428169764243482,0.0233402495930335,0.0359582273278034,0.0513786547804835,0.0183843500404053,0.00848284330576079,-0.0419877505846877,-0.0424069714527083,0.00615285664486549,0.012268550960726,0.0125538780265488,0.0439469097094554,-0.0195701059582515,-0.0401169330930263,-0.0237594245917897,0.0460896453515528,0.0318670289417125,0.0476590148709257,0.0825362408116304,0.0592271917896237,0.0303333527677751,-0.0514824284399781,-0.0362390753036463,0.0256313711646896,0.0261771216808073,-0.00241818663328285,0.00478136130200259,0.00375141578268336,0.0272362904426761,0.00518453071342865,-0.0323661818899603,0.00832402486154289,0.0283213065154706,0.0197994258011515,-0.0281900285509655,-0.000693813711868774,-0.00778271794578598,-0.0378055568104956,0.0276472526710776,-0.0154182556801585,-0.0547541376365035,-0.080020589528098,-0.0396107846558993,0.034859261035889,0.0187614553358931,0.0131269670490355,0.0612953051396446,0.0646556960940476,0.00669471272238891,-0.0628322682868276,-0.00899594841778778,-0.0291397205515521,0.0254127572472708,-0.0133024490558698,0.0205208957468396,-0.00343532393563233,0.0449601505431136,-0.0221287150404467,0.0276059997758797,0.00900370732467752,0.0109135734174595,0.013601095135631,-0.0205113551051381,0.0183636966322767,0.00605264007486141,-0.0209973430222985,-0.00692237530990865,-0.00943378902252552,-0.0262379042902827,-0.00401006779031947,0.0189415755601481,-0.0404406614836272,-0.0108350998997469,0.011724787261745,-0.00536659657860223,0.0228649619552851,-0.0270826885291454,-0.0629359982903773,-0.0417287980474578,-0.052531358937656,-0.0215136850151115,-0.00584273859253947,-0.0139594589940713,-0.0166454843982756,0.0526642684397553,-0.000793033110776805,0.00906259024327524,0.0495399991015901,-0.0200824290190292,0.0275412210859703,-0.0256136274330154,0.0175970175570942,-0.0205086574151628,0.0137300397414343,-0.0258279299060514,0.0563691241027159,0.0027871760055467,-0.0368091311875533,-0.0111355043229315,-0.0455147624806197,0.0466903239705626,0.0390411376132492,0.0121446308163179,0.0991021788571552,-0.0285336858706333,-0.0314321549836298,0.000841413449913964,0.00668438932864741,0.00350927141784885,-0.0284698907793743,-0.0157923555601948,-0.0432975933496628,0.0386108186212415,-0.0225550816546937,-0.0159743486076195,0.00683910716791071,0.0012401032298079,-0.0245210560997896,-0.0016502985043261,-0.0131443429115481,0.0501051308989865,0.0382385272544912,-0.0174970371028869,0.0393373804212798,0.0478651011229269,-0.00250125306612228,-0.0126763223074883,0.0522320871866024,0.00950631370636997,-0.0988309685235354,-0.10444626754136,0.131022519636942,0.0266997409044265,-0.00940661252843825,0.0554135622838083,0.00813605678635319,0.0708106516632679,-0.035639569376969,-0.0219709946332814,0.0268612951099433,0.0240980301635746,0.0299487814787238,0.015955688537808,0.00806903184858418,
0.0193836790874738,-0.0158341362951371,0.0165752556857803,0.0206141948998345,0.0040830132959506,-0.0437949615957716,0.00775317045982411,-0.00752237317703807,-0.100299558710688,-0.0754426396072422,0.00353838481468515,-0.0605843044700028,0.0234442725846677,-0.0155499452443055,0.00367847333089399,0.0473107656321981,0.0509832795319805,0.00122809305773863,0.00674225211586313,-0.0347343762375426,-0.0691027588415863,0.0103896591958768,0.013111533559644,-0.00488796198657361,0.0212180860651729,-0.0042597175183999,0.0214179295056014,0.0115927575315931,-0.0267897411046795,0.0261564146030272,-0.0224542927989075,0.0150875903980961,-0.0406309458985952,-0.0590039334537546,-0.0459325773241567,-0.0659008708884048,-0.042520385257392,-0.0242164754290617,-0.0721756805411906,-0.0186789281723105,0.0415428423543086,0.0178776317711679,0.0910454943788648,0.0231383564784401,-0.00966722718438594,0.0033157675408242,0.0427748642650411,-0.0154815439455421,-0.0973323345110014,-0.0630945759497167,-0.0793218558066854,-0.00520600630221754,-0.0375096673578059,-0.0204580754993411,0.00913492024575155,0.018239011676695,0.0278788952292542,-0.022293206918086,-0.0332350199307557,-0.033502765695635,-0.00827929286898486,-0.0192955309389032,-0.00892128766230502,-0.0198583039222282,-0.0157446651680699,0.0661812921859359,0.0536066651766735,0.0338018489865761,-0.0162260083135847,0.0229821875744378,0.0537009109730295,0.0624624633415419,0.0369233112081307,0.0654277225957997,-0.0272198004571369,-0.0558394965778933,-0.00434062660816878,-0.0610584176497693,-0.0448046216519841,-0.00113804385701794,-0.0733844439047635,0.005900381576616,0.009956930269619,-0.0313801317259162,0.0343544822491029,0.00225615410631005,0.00683484530906444,-0.0482961802445905,-0.0238599535337071,0.0276505132122047,-0.121417280298546,0.0675385016369429,0.0288911176719705,-0.0566567182363555,0.0644704533505049,0.0290612865008558,-0.0394264747366796,0.00208556940643828,0.0157815254363743,0.0323852479812195,-0.0442306819410976,0.0710540774681883,-0.0018126520282332,-0.0438933940089193,-0.0532150244322305,0.00945794502986839,-0.0128129478566869,0.00383986350755453,-0.0543310342521983,0.0287472730149494,-0.0169252698597055,-0.0299896757034762,0.0166347152785651,0.0142582672425635,-0.023858397008457,0.0187558175021355,-0.0234273128810689,-0.011113397038721,-0.0857475704277832,-0.00466822256779646,-0.0121065407656607,-0.0983659009793561,0.0907191815896308,0.125817892499281,-0.0267751007635752,-0.000204735928822541,0.0421004746586457,0.0482838168418884,-0.00975250368885888,0.0850188637898887,-0.0220698649145892,-0.0850905330636235,-0.0706848042287319,0.0112333489000264,-0.0384441527728649,0.0363905520266509,-0.0448720999078161,-0.0068536488172819,0.0351046437190129,0.029100789053606,0.0217799387749477,-0.0279443652701956,0.0208169238025024,0.0490643825478748,-0.0122332694475389,-0.0219600386135961,-0.0845359767097154,0.0909510727208937,-0.0338578213748935,-0.0226074566248057,0.0803991703824641,0.105300103475429,-0.00696482766791808,0.0109198594002621,0.0649965951808519,0.0945672651857225,0.0585797680171986,0.00606497508577564,-0.0946348202978401,-0.0987044994781109,-0.065851601109954,0.0183077776381226,0.0341631204398228,0.0538718639849186,0.0230413871320207,-0.0308197856231351,-0.0269505541570146,0.00313846684662293,-0.0214970246386072,0.0153034470613306,-0.032596022138177,-0.036514953397736,0.0291770855195907,-0.0416326353792979,-0.0341580887509469,0.0416691294797505,-0.0949548313292129,-0.0106929793704085,-0.0222158973022506,-0.0408770862843672,-0.00176925399042821,0.000306310948948883,-0.0731668020103622,0.00896711669716338,0.0474089661672628,-0.0328592837071119,-0.0345203299908273,-0.0352154202395398,0.0221232739556555,0.0282121185554196,0.0451457844551792,0.00724262376001838,-0.101772542499186,-0.00369719196428872,0.00522418594981425,0.0270708549889244,0.042599466007519,0.0415340844407377,0.0127579727152352,0.0341496512253371,0.0180023670156538,0.00735422998771643,-0.0366589959293878,-0.0596385270347933,-0.044102611484035,0.0292792448159473,-0.0877517007859136,0.0517626667005199,0.0592275880290179,0.00954212626950258,0.0298678626430133,0.0636151650550427,-0.0143738021626678,-0.0566384236359056,-0.101756978872868,-0.0695072159926216,0.0197512026907713,-0.0573840128043423,-0.0172402087431864,0.0253380918016126,-0.0195220928108282,0.00294858021464591,0.0364980643589343,0.0165025367949621,0.0223836742273391,-0.00200659520675252,-0.0354218227140672,0.0469495257943006,0.0917420364635434,0.0459586515167937,-0.0169136217832809,-0.105574787856793,-0.0453976960217296,-0.0139812623267499,-0.0148262697771525,0.0681408568224843,0.052872700089518,0.0227539222691299,0.0940418811174826,0.0811086659619066,-0.0906722593609392,-0.138928368986792,-0.161128667789469,-0.116354080561232,-0.0740195915903631,-0.0327765815873959,-0.0272751500270639,0.0776226915365059,0.0144956835869187,-0.032345049982424,0.014982668175808,-0.000128186196242816,-0.00693105741221975,0.0185449133856604,0.026936471914793,0.0527755672244567,0.0402231995062116,0.0520565219013387,0.0634962088205086,-0.0857585932039777,-0.180519536986208,-0.0405602098173756,0.0421094534410768,0.0290307054258964,0.0489929026456243,-0.0217426697419745,0.0321168683900424,0.0498394503113465,-0.133125664238163,-0.154911239889452,-0.152614098676429,-0.185029375819102,-0.17514586084498,-0.0058106118619678,-0.0222029433335535,0.0379819380749787,0.0141967486060793,-0.0157895355543143,-0.0335136868184273,-0.0119403985072481,-0.0201319858420253,-0.0518243335450938,-0.0294299609590013,0.035990825787157,0.0141837938082327,0.0552214981700769,-0.00270509197982141,0.030427398062533,-0.035615115065488,0.013332486303669,0.0299198583395551,-0.0483084181542598,-0.0251169002108299,-0.00161848441219266,0.080643071669822,-0.0116282229813681,-0.0767704434567291,-0.0543886724709728,-0.0813450332365863,-0.0857082175974159,-0.0482235638512081,0.00773843249911511,-0.0453136755530065,0.00447476993932278,0.0288071947787646,-0.027124690091903,-0.0006860784164283,0.0566676930574788,0.0184733118559281,-0.019313992352883,-0.0101931656664031,-0.00238999289540382,0.0200188896974567,0.0715596724283469,-0.0485110589093976,0.0391507672706482,-5.93657128846941e-05,-0.0215696907485792,0.0587581580214182,-0.0694078038063643,0.0209507791919559,-0.0116468259737887,0.110500729303037,0.0301979116099923,0.00978253173436896,-0.0102722573277825,-0.000347856916030045,-0.0136014304610348,-0.031076529867235,-0.0291119257988699,-0.000716159826351823,0.0832935063996232,0.0233548453411273,0.049487531062462,-0.0218359778322597,0.00587190556360349,0.0240896478788128,0.0355238086139621,0.0559082366930407,-0.00831475601881367,0.0213159234560307,-0.00571002661664591,-0.0830415407891042,0.0270462165531542,-0.016448035924932,0.059651517020457,0.0163402945789566,0.0190648116318404,-0.00346951050024192,-0.00252715203398243,0.040661280322257,0.0261111724974639,0.0716789976440419,0.00901770428111395,0.0356770656841784,0.0794902308273539,-0.000257893100290425,-0.0213124431464683,0.0941499527630777,0.116264657189204,0.0854845064855639,0.0151982211319284,-0.0207465388374091,0.0327783347658153,0.037200111973246,0.0378478484443008,0.0290759256557796,0.00314584535454691,0.0223559106798617,-0.0260156331809511,-0.0269728560031554,0.00694014067881518,0.045358269567575,-0.011470338743879,0.0106541431001074,0.0743432583179057,-0.01374152802658,0.104861805819873,0.0757552889284914,-0.0121576665118995,-0.00679565712329721,-0.021670796649965,0.0514223852420456,0.0744156685266663,-1.87238544532232e-05,-0.0662607256086835,0.0153094521778264,0.0305159302647173,0.00142640432120755,-0.00437662149919043,-0.089426556674065,0.01097579375147,0.0271725528866265,0.0185339588055243,-0.00255041543519448,-0.00232994385084497,0.0515352643890671,0.0920250727973707,-0.0395184670376517,0.0602413812831399,0.057749911700432,-0.0603493619657683,-0.0147988326322496,0.0381638325910289,0.0211726682905732,0.000190816602762735,0.0379731212300956,-0.036421323297383,-0.0251881326276095,-0.0120397657492377,0.0153188378461222,-0.00695382395793967,0.104849977181081,-0.0609101580060847,0.0132038217053921,-0.00387401481067583,-0.0724311505499193,-0.111484308918038,-0.0398037492481926,-0.0369690824984812,0.0500755662886736,-0.0335773110340178,0.00673537218151133,-0.0163691523853352,0.0129969213526852,-0.0586918807839276,0.026782189000451,0.0248627368759227,0.0445581290799586,-0.0873504189373503,0.0701195250086498,-0.0139789852053489,0.066077792858918,-0.0042256340825117,0.0563908486328796,-0.0506597868102412,-0.0765179040103508,0.0245311188434096,0.0314232044735261,0.0344885270552691,0.0669215780293561,-0.0160463677059608,-0.0907952963066946,-0.106341411353302,-0.0311628561085621,-0.13821046015844,0.00743725622254433,-0.0193911481779145,0.0256648460475117,-0.021808561175053,0.00594193471395529,0.0264590639309215,-0.0458325644492362,-0.0527527174837612,0.0600685339792992,0.0875775585126487,0.00980468912360366,-0.0194421275989043,0.0181418028850716,0.0362812067974869,0.0661976434672979,0.08150671975691,0.0596878149701396,0.0473801804618652,0.0151082868007022,0.0803097935232374,0.00656290904547115,-0.015844965743613,0.0466932395226828,0.0191233160144023,-0.088983767645965,-0.0360528270800166,0.0202646469760205,-0.0891030032851369,0.028372661079439,0.0309294940640692,0.0538629116421841,0.0783332527247916,0.0793535244837435,0.0386951706373289,-0.0163550563388197,-0.0339492440161949,0.0230776703175416,0.0764533923950386,-0.0487198504722111,0.0243389117027003,-0.000271369549480314,-0.0144972914710501,0.0575174664284143,-0.0333051647695812,0.0134386564056681,0.0435730057606716,-0.018710234675905,-0.00695740946431342,0.0576899330071289,0.0787951085986645,0.0496148000648158,0.0831426355759706,0.0339323893778789,-0.00252237189537585,0.0798776563317621,0.025548100037687,0.0510392056131225,0.025203619384435,-0.012443411521008,0.0716339504096889,0.0498839748438048,0.0427646187516956,0.0188585259474445,-0.0696304329681977,0.00946528712433654,0.0334949756566373,-0.0310180628283252,0.0591653853434371,0.0487892345345384,0.0516854896398165,0.029648824775082,0.0331258693644454,0.0611102254183991,-0.0298974993424858,-0.00641382449252699,0.0292807376242232,0.0353905371852623,-0.00869176866090723,-0.0213540544709836,0.0473269940461196,0.0412881072482084,-0.010649386697959,0.0144253701560934,0.0632301637898187,0.0192101840673504,-0.0205321138694587,0.00522299685945976,0.0545609449675639,0.0237201213691621,-0.00359879478102138,0.0335099770657483,0.0264226357813909,-0.00758101181140367,-0.0551321839591649,-0.0184754612315118,0.0194843108513926,0.0106487277919831,0.0407566509623733,0.07336847367001,0.0315935080999165,0.0294336693646106,-0.0204046332205026,-0.0853297814085518,-0.00742930801006295,-0.00308231778682618,-0.0134675227404213,-0.05583533276498,-0.0172537846542917,0.0242918050233344,0.00540328609847385,0.0121432071948704,0.00826866973925306,0.0132425642370892,-0.0365893115448998,0.0444256373692958,0.0421567569745259,0.0801387115041861,-0.0128730643775332,0.00104838091764661,0.0316621926485472,0.0116802476285828,-0.0434099781314863,-0.0704664405601978,0.0719899081394714,-0.0139891912319518,-0.0192853629904277,0.0346405312553056,0.0364910188098183,0.0694750806791669,-0.0784688254144253,-0.0364598708681051,-0.0544638884560954,-0.0598394337865057,-0.0123390230915834,0.00214570799207618,-0.0473224205598261,0.0126561256325457,-0.065519170586881,-0.0724484790037816,-0.0288179855954981,-0.023949887962524,-0.032067008866113,-0.0133689452883935,0.0720099242315327,0.0498299023967406,0.0117696430976412,-0.00852458392108363,-0.0857397519575297,-0.0197477541935024,-0.093980257371784,-0.0455636381912024,0.0942547397674526,0.085523947280253,-0.00214965207209042,-0.0192933118611796,0.0343148725562257,0.0432520834838743,-0.0375338264572822,-0.0342750243681617,0.0233336902560797,0.0241455964532638,0.0661734029107284,-0.0321044227662139,-0.00156160522742074,0.0302374155612973,-0.0512192517977719,-0.0325308894899283,-0.0274955828622286,0.00129542285447556,-0.0191985166545287,-0.0219720164823914,-0.0154400788338956,0.00842009654036164,0.013131250272608,-0.0739746583011338,-0.00208678025169318,0.0218380089931346,-0.0132063975747462,0.0655748070379979,0.0536898297684468,0.0464531962948142,0.0577042471637509,0.0870613920968819,-0.0374513951125535,0.0688717670983455,0.0181322499846274,-0.0639423229411735,0.0068080119339034,0.0144501096958955,-0.0095173282925228,-0.065291796948498,0.0148201605478581,0.0250840154409273,-0.00155447467041112,0.0169609078637849,0.00600894240491179,-0.034492247310055,-0.017755434913929,-0.0312434046943039,-0.031685592016989,0.0292608414692107,0.00412701321724662,-0.0510519812013737,-0.0236066003250546,-0.0198069216381364,0.0087112096752409,0.0497508006072972,0.0663525514270935,0.018121259090164,0.0575047380341739,0.0462084507200705,-0.039301721257758,-0.0188852522177467,-0.0355180843511891,-0.00880265452084565,-0.0221942892946529,-0.0271549920486804,0.0386831885526083,-0.0680527343275642,0.0192107144906702,0.0577738461265138,-0.037880935618721,-0.0145867523445952,-0.0270001281987409,-0.00490668108737547,-0.0526908442656047,-0.00254853469584908,0.0438023562452678,0.0115728920781074,0.069801821449381,0.0296430247370157,0.00684842461884699,0.0185369626065029,-0.0386448944747998,0.0443149390619183,0.00962846055301188,-0.0245119166734187,-0.0078702579126626,-0.0528419390571726,-0.0497593133489752,-0.021781506602266,-0.100217901506495,-0.0201555027744423,-0.0774746503900996,-0.031930189731768,0.0494987566610864,-0.0715675277414085,0.0857641928486171,0.08309904968652,0.0445423027480339,0.06415202426445,-0.0408754531774916,0.0113130086574285,0.0259159915257167,0.0129780158495337,-0.00245848598984983,0.00269299922862948,0.025935431155914,0.00556328983303743,-0.0219880099441765,-0.00794917111010629,0.00315958579083122,0.109414696596032,0.0234026213116303,0.0160737403384952,-0.0346889638654933,0.00924238109132984,-0.0219712436993661,0.0300854292353518,-0.0384727537355864,0.0286800447477901,-0.0328792747896606,-0.0281235804444954,0.0784169959993452,0.045927911915027,0.0168900393619515,-0.0120784175254587,-0.0236617079495197,-0.00228062991595774,-0.00635921654470519,-0.0135967904229279,0.00941975215701389,0.0256467242529871,-0.00814484236404783,-0.0365243599450056,-0.0867505194485532,-0.0253407516793696,0.0513817928624408,0.0694084489816331,0.0490876463226957,-0.00275091342467156,0.0366375915890914,-0.0229680910261082,-0.0051155528289999,-0.0157754933710729,-0.0218400541579713,-0.0178376857754165,-0.048650102528822,-0.0511687741032287,-0.0509141227556475,-0.10229947044541,-0.0422307117440895,0.0535638807287365,0.0715181694443953,-0.000498894283491072,-0.00173322208877145,-0.0279578686151101,-0.0268973402170978,0.0125277552477107,-0.0303761658184756,-0.0264821397393683,-0.023029994940635,0.0152861221835169,0.0155209813774716,0.0578560181482589,0.0574535631007435,0.00547695450505393,0.0148143102726278,0.0107998074124876,0.0681084272078376,-0.0572804342615067,-0.045736910109117,-0.124203680017322,-0.0756090007426361,-0.0153195909575544,-0.111823657870479,0.0116325060764466,-0.0497969226212015,-0.00342731011870953,-0.0102186201604147,-0.00734425453650869,-0.101850902580755,-0.0351102881032008,0.122567445207796,0.0042516652951011,-0.0239733406070767,0.00610042836316201,0.0246823449840927,
-0.00281376478237243,-0.00598109107415919,-0.00258156561241497,-0.0248027089530074,-0.030349758104663,-0.0301168171061402,-0.0367600255749198,-0.0311537233110498,0.0129574886496291,0.00779819264897891,0.0274493740858885,0.00670003196012819,0.0352993580313988,-0.00471732114111624,0.00921013060784685,0.00315322446478008,0.0210753378538172,-0.021751997467399,-0.0174202796042571,-0.0103969366610809,0.0132491807335183,-0.0236168576189387,-0.0257896118283195,0.0240968966104861,-0.0290768534161194,-0.0325328450717586,-0.017050809663787,0.0125640267177452,-0.00945404525580243,0.0305996317052774,-0.0294400328601525,-0.0066351387737877,-0.00742322456016779,0.0308724703985998,-0.0225144159797019,0.0423831684514041,-0.00394762812690374,0.0291438243630427,0.0392575058894566,0.0356202114770752,0.0311299922878459,-0.0234703647539074,-0.00650413110870529,-0.025934590651669,0.0402793171116621,0.0414386056986944,0.0187818926976642,0.0290246826413171,0.0304926645671175,-0.0222854899036293,0.0143498784467443,0.00297805413869009,-0.00759347849485199,0.00934903201587898,0.0282402218731744,0.0143544795948379,0.00941378029435015,-0.0185692912866789,-0.0315718436202394,-0.0366995590452405,0.0175561893537552,0.00243024965010454,0.0163750819336319,-0.00804602766269928,0.00294718854793305,0.0174043320231173,-0.0169681362772411,0.00520615455768321,0.0386586828916853,0.0273470710948503,-0.00851408486944856,-0.0310478494384314,0.00232737910544522,-0.0271619380425289,-0.0280989651289576,-0.0292563980094204,0.0380517690456317,0.00293077244485951,0.00389950235787874,-0.0341127889825787,-0.0239462212687904,0.0137884229319289,-0.00199134016640404,0.0240130745947559,-0.00449532894064847,-0.0355048888993141,-0.0344189655069996,-0.0334495318000974,0.00301944653180883,0.00690347066275958,0.00680215823241656,0.0110880968971862,-0.0289374112957946,0.0232803250291393,0.0147929723130754,-0.0554033588473258,-0.0187749065543934,0.00184767264778326,0.00385226815620609,0.0130200847869607,0.00252372144609959,0.0296861795021604,0.00333941098978916,-0.0303033136289243,-0.032766965915494,-0.0153614369820397,0.0305034877263095,0.012022479178494,-0.00778309321182879,-0.0277003127804873,-0.0362869559913675,0.0198141736255864,-0.0104300664048368,0.00696612119262936,0.0176173677164309,0.00405557237430822,0.00886119408561204,0.0295596339723716,0.039097571440712,0.0237796611912913,-0.0112853805971939,-0.00947296253791506,0.00254293044858973,-0.00317032210392525,-0.00492454175749301,0.029304492736265,0.0113763263196323,0.0269800152299405,0.010799050910013,0.0163036804080566,0.00429673791145791,-0.0109769917545829,-0.024178901021354,-0.0101571052008566,0.00130319534269309,0.0184730581854037,-0.0391414154188812,-0.0134810048277722,-0.00277735170367768,-0.00588919780845365,0.0296564136703376,-0.0180336691597769,-0.0217702277042881,0.0312061606798738,0.00427734084655658,0.00979871120598663,-0.0181412487898417,0.0350821153670192,0.0303846656202066,0.0265174667379821,0.0113535738187139,0.000927138305877576,-0.00588146912128976,0.00909914669633167,0.011594940145958,0.00581506238540475,0.0320900232508903,0.00201492462545502,0.00341775459445006,-0.0235566628249436,0.0234651992974682,-0.0144961605796338,0.0389923776727144,0.0121284391258179,0.034038601899863,-0.0176056827705763,-0.000426870340637629,-0.0368766198511025,0.0331787621001019,-0.00473014067326766,0.0273383167691826,-0.018990706104487,-0.0108547905862619,-0.00625877430122641,0.0244842876698237,0.0245257524603539,0.00747770117389463,-0.0332037324652381,0.00987326354722925,-0.0305960590074179,-0.0309630582113694,-0.0319730546010966,-0.0207264434738336,-0.0219409667814528,0.0328052370152485,0.0312048225565864,-0.00710465580428933,-0.0345159786946993,0.00509822153373559,0.0121802011741055,-0.0292880081359865,-0.0358521427233413,-0.000698967547691079,-0.0241338061651042,-0.00205527422494398,0.00768293771322648,0.0035403296485692,-0.0350043957544382,-0.0286973529948935,-0.00651185350508456,-0.0154427261951016,-0.0279819449236154,0.00178045249826637,-0.0223136347589971,0.0299425789880553,0.00166223892349129,0.0310614662752927,-0.0117899114741732,-0.0192322019291459,-0.00571113333429487,-0.0214547822624532,0.0292361227325321,-0.0385495234657787,-0.00753927427534852,-0.017983329721856,0.00147633361210182,-0.0153540590994694,0.0145298481091264,0.00900105754950322,-0.0277292119406873,0.0324281311578323,0.00938890875652933,0.0140763303485955,-0.00178373872360972,-0.0135980814343241,-0.00712849523054696,0.0244323154088637,-0.0228638341123378,-0.0284018896241863,0.0249035398952923,0.0180719540589662,-0.00833464298046456,-0.0274473774453528,0.0102277088877722,0.0287488427434927,-0.0244673141154008,0.00681009262773628,-0.0270232402725988,0.0371283912108577,-0.0288570503302946,-0.0340546709912574,-0.00196003481877016,-0.0388004180351677,-0.00895021126985421,0.00605712501077483,0.0341824836174198,-0.0229690279852389,-0.0104334271638995,0.0269890905612588,0.0244847788119634,0.0330027053068971,-0.0308288169009798,0.0104742249220434,-0.00607026104345629,-0.00633674669679486,-0.0388238941496617,-0.0156770799085111,-0.0363296293439302,-0.00490802404724601,-0.0161614017917413,-0.00371654686784488,0.0288115551356013,0.024726140343684,-0.0207798442923375,-0.0326998440535215,-0.0343004036874446,0.013666665192716,0.0344519177506723,-0.0315373241901548,0.0297976115713526,0.0221783557859323,0.00191346666253406,0.00492926026451559,-0.0189653115422892,0.0322728619614399,0.0307700139373296,0.0150624150003877,0.0261522148252009,0.027822920167971,0.0198556771676253,-0.0173919655049459,0.00350811383191106,-0.0202608458419628,-0.0151218351725328,-0.0372438107184447,0.00652455905396279,-0.0223041118519974,-0.0146040777379638,0.0179657496298512,-0.0262358606348236,-0.0277266834736029,-0.030235544228632,0.00666306799420184,-0.00532875768854106,-0.0219558583700602,-0.00436753260067642,-0.000416685058806717,0.00488931682286288,-0.0222668462269687,0.014894645225668,-0.021192505738166,0.0291441983637682,0.0139887797159213,-0.0184214439503339,-0.0178922144836816,-0.0135407396962259,-0.00613898177638089,0.0302576278561791,0.0256969977770594,0.0333774776705238,0.0290042903982353,-0.00974019286842895,-0.0178974592917809,0.0118928312491913,-0.00975548043764859,0.0427037268011503,-0.00297842388325966,-0.0148905495648852,-0.0315115729208545,0.00441958340610217,-0.0332982105624463,-0.0193177405792579,-0.00530142906409658,0.00479894224459612,-0.0270141706231337,-0.0309914965339229,-0.0290732669985044,0.0031901645528234,0.0241956486466397,0.000229047702187303,0.0341037695743006,0.0160092007369691,-0.02039333049323,0.0290121995314398,-0.000189020545105735,0.00764690288434125,-0.0172322352972726,-0.0088074410331712,-0.016083338606307,-0.027279796342127,-0.0328696712663063,-0.0288782384630472,-0.00792041897535758,-0.00404302502425114,-0.00711629464615185,-0.0259854354953708,0.00598747446938946,0.0325327526808135,0.00301907769394389,-0.0290783385829919,-0.034096758099353,0.0277704301948848,-0.0280766358922561,0.00658746750409095,-0.0340374504966249,-0.0107348480930539,0.0161419997278859,-0.00809980127562281,0.0279343079526427,-0.0384479340601539,0.0292371391706949,-0.0278280544810421,0.00375772830789873,0.0161551347522169,-0.0310344110504565,0.0285860077696598,-0.0234611064465195,0.0303678135185106,-0.0275601687974953,0.0184163194801867,0.0201431583096334,-0.00191593332276322,-0.0129636383705129,-0.00992860561525609,0.0176408858363655,0.0202890856014435,-0.038375335931534,-0.008669208670343,0.0094092927391399,-0.00828855714432747,0.033156753695016,-0.0060028726777759,0.0084080345962656,-0.00780398170649706,-0.00334050048672176,0.0288464321241179,0.00944824927407496,-0.00972891523254694,0.0117852824662533,-0.0237608424750186,0.0091684623576504,-0.00828671120497012,-0.00802024689592716,-0.00126227302685662,0.0111128135287702,-0.0199278566117143,-0.0218576431140985,0.00209097461196096,0.0148171834616595,0.0199553803656788,0.0308553776477638,0.00802776497802395,-0.0329503520754889,0.00186669661484633,0.0203219460108069,0.01379811348382,0.0247373901593613,0.000842636124726346,0.0236342189039925,0.0305657550217486,-0.00371794479144812,-0.0268844697398094,0.0152261770712747,-0.00822112488610314,-0.0266941221749732,0.0156535623462712,0.0209894476849533,-0.0308501545642707,0.0105974232862016,0.00952734316056029,-0.0250674539539518,-0.0149038184167757,0.0284912951468229,-0.00521104645270403,0.00135151934575032,-0.0439055956092768,-0.0401539460283329,0.0104694714724777,0.00113461449328396,0.00537984559564711,-0.0361379003353815,0.0162617794965146,0.0346083241926833,0.0126500402001278,0.0014419464205629,0.0366307068580907,-0.00540625250603324,0.0350411497094253,-0.028597088724735,0.0245400915351963,-0.0269757800787929,0.0133589561343162,0.00754461946749541,-0.0226670322033469,0.0206310180148901,-0.0190242292293267,0.012718586284165,-0.0107407050005771,0.0279735154130511,-0.00918441277377849,0.0335389043605465,0.001561404072927,0.00491048040341669,-0.0289854591449213,0.022947136301905,-0.0119337861021181,0.0219290222433122,0.00478239484265825,-0.000606867201604885,-0.0282789870650937,0.0398586587660129,-0.0274537664814362,-0.020505907728715,0.0234329232479659,-0.0247184347702816,-0.0275095509381133,-0.0110249988042281,-0.0302935386526401,0.0207487807768081,-0.0357212707926144,-0.0374590565030519,-0.0191317364568107,-0.00644509939618705,-0.0275417183021698,-0.0146451974514749,-0.0126604148559719,0.00982480469122723,0.0352357435131598,-0.0153053381358367,0.0202967760852736,-0.012950827498421,-0.0293812727739031,-0.0253955999901312,0.0210423513695233,0.02124492043054,0.024826550603805,0.0185255020927747,-0.0100012006209093,0.0156233273851759,4.08746905002336e-06,0.0395836915305486,-0.0144673230542803,-0.0397972794594111,-0.00880714890558762,-0.0328885656316039,0.0292071115988952,0.00554444180625838,-0.0220202536816995,0.00227681217657774,0.00561647284038104,0.0246945985788993,-0.0117160610021707,-0.0331727737463328,0.0134288011500672,0.0310255693085238,0.00774822324576535,0.00127155838209493,-0.0173477885380218,-0.0313349041124887,0.00910579999381768,0.0264681509888861,-0.00864452950094509,0.0100863895242372,-0.00353515216971211,-0.0249314624682637,0.00238482418250248,0.029659488890622,-0.0313659439124911,-0.0118589795155563,-0.0244680210818518,-0.0385873996119567,-0.00111468118133825,-0.0192352040345582,-0.0328304950551894,0.015520316808981,0.0356915791546338,-0.0181234015083369,-0.0178466220360218,0.0264781305574131,-0.0324765138140624,0.0120997826016695,-0.00571982250498622,0.00631829442549129,-0.0242354397820498,0.0219552262178458,-0.0249984235154608,0.00456817488054084,0.025391984924037,-0.0268878211732906,-0.0284077135910237,-0.0316462392005399,-0.00927990187949971,-0.0196865406851899,0.03174032847625,0.0115926395438739,0.0259639659483997,-0.0156228349521967,0.036568783286791,0.0276119719951879,0.0166215179742669,-0.00307092540384043,-0.0262824508703116,-0.0196648238186658,-0.0014244647519156,0.0173898440532876,0.0182068188062076,0.0181379369416773,-0.0313108633526985,-0.0380140539402029,-0.016457672986709,0.0286775445498123,-0.0100282259042601,0.0329890589299324,-0.0224499317594453,-0.0261738983190167,-0.0187506750539049,0.0253345456961268,-0.0289942966112771,0.0300337335363312,0.0267915404370562,-0.0315538537900136,-0.0343385228703891,0.0103761724439518,0.0137027642814899,-0.00887296482980425,0.0290095129545384,-0.0193120621859807,-0.0385943965386893,-0.0109333082107337,-0.0342323869395994,-0.0303348962413124,-0.000324377203425429,0.0333733895991753,0.0133549704801194,0.0247006245183216,-0.038671634833645,0.00971850605579398,-0.0176456631410735,0.0349980973461183,0.0105711578200748,-0.0363100842317975,-0.021150367574816,-0.00704734623187228,0.0187923063697554,0.026650474689015,-0.00365054999666284,-0.006114284992364,-0.0233525882684779,0.0245639457193447,-0.00123666680662266,0.000397599564493951,0.00574867101712865,-0.0148550800424995,0.0164582769940048,-0.0316687579751491,-0.0161414188843624,-0.0363918044210903,-0.0374687665874848,-0.037139301734926,0.00954562927701101,-0.0306886917487012,-0.0210714754613244,0.000825681367002211,-0.00758883240562489,0.0170823897712793,-0.0166774445381009,-0.00662817959161804,-0.0374029715270041,-0.00785522982305349,0.0317572679379887,-0.000324144719250949,-0.0359719200980333,0.0252742021688193,0.0338313704635496,0.0310540258621041,0.0181967374758791,-0.0292884912071228,-0.0263416316093636,0.00725530019625926,-0.00364109102201477,-0.00736671552888506,0.0252684114983414,0.020644692962544,0.0224017714021061,0.00248121452245143,-0.0163091023140719,0.00391027948597147,-0.0199074063900817,0.0181306858335018,-0.0111015508082446,-0.0369213551920237,0.0135177255824262,0.00366207471127048,0.0214193425963154,0.0208468416677996,0.0215273059796881,0.0153186547293379,-0.0343784691211462,0.0289870080983643,-0.0249433964300613,-0.0220469989084802,0.0287884253531042,-0.0397515863601152,-0.0285055829687053,-0.0237927687439622,-0.0284678961776599,0.031956307143512,-0.0316926493813078,-0.000570092240487488,0.0272931520249484,-0.0230296982384148,0.0121271679419616,-0.0268265512161451,-0.0140838073669975,0.00158901779450664,0.00280045897066795,-0.0178756724586374,0.0138570929799197,-0.0170714681250725,-0.0273959840188181,0.00970300488712032,-0.00409698541500557,0.0302208391825643,-0.0188437859117799,-0.01989183841119,-0.0332667235977531,-0.0217107532756971,-0.0367333961524639,0.00252858000068682,-0.0244000354067765,-0.0234001371730017,-0.00779830908273763,-0.0336536288741751,-0.00900291652426436,-0.0160207610301263,0.00492110988634178,-0.0374244514599952,0.0294599374977603,8.67577127401279e-05,0.0127065008963565,0.00429737376502751,0.0362341496472742,0.0102203053253619,0.0180260245128854,-0.0267047427803379,-0.0340743660999462,-0.020205180305608,0.0192878592082569,-0.0264047537028497,-0.0028097397478495,0.0334210078125385,-0.0200344973048492,0.0212701158267774,-0.0369319377896007,0.0215264450878797,-0.00147125740520984,-0.0236963185437124,-0.00591595754990282,-0.012788869575759,0.0305994797519024,-0.0269365748828494,-0.00693422293446786,-0.0139863702381218,0.013460225949484,-0.0108553056185949,-0.0182603577525019,-0.00529047630881848,0.00502075829391509,0.00198019929005183,0.013343559343379,0.0140139826270607,0.0120907353509543,-0.00542557503506584,-0.0130958838517846,-0.00426888907335118,-0.0106641906002993,-0.000323825393019908,-0.0244475035838101,0.0123963835216714,0.00673400270191233,0.00233326945366949,-0.0326657582732233,-4.24573129104428e-05,0.00824104454384704,0.0260464591063442,0.0206329481288226,-0.00237294866372253,0.0241116000797215,-0.00780910171611644,0.00132109904338527,0.0110231059752986,0.0111569699473138,0.0135900460092305,0.0223519540912046,-0.0171063100718204,0.00317382943213429,0.0312639151477273,0.0115690209201801,-0.0179845551064388,0.00236187861953903,-0.0220521320469021,-0.0174436033088802,-0.020329657161084,0.0244360435005396,-0.0166047147123789,-0.0176943360728966,0.0334444783359883,0.0206297845223938,-0.015865232903242,-0.0141889442842991,-0.0113456843871416,0.0102666340195105,0.0367323271806596,-0.000149756781990249,-0.0292822175536635,0.0114981580372454,0.0332987320751817,0.0112378978954042,-0.00388456101523378,-0.0151026675379415,-0.0093232571200356,0.0170657801930299,0.0111218272107127,-0.0237928119591023,0.0324117519943564,0.0312742914276337,0.0376938107175811,-0.0332503034621923,-0.0115525620021221,0.0152993251073662,0.00633381290298846,0.0100314512180997,-0.006459311616488,0.0315749402210202,
0.00238992324092155,0.000604525768388721,0.0208411765064431,0.0216388214806285,-0.0487898830999539,-0.0246619618532406,-0.0301158788008588,-0.0124258961599611,-0.0517356190824316,-0.0733549041392947,-0.0274363698497692,-0.0547417722286576,-0.0732930075441103,0.0129516078460048,0.0654719026760785,0.0790408648652252,0.0424123805293611,0.05255570371799,-0.0369019819436167,-0.0914737047765383,-0.0226404965861834,-0.0392646446020255,0.00765917036980631,-0.0328410982214959,-0.0392424967754946,-0.03112723249376,0.0204668950875717,-0.0401217569577436,0.00020553655684608,0.0319639089806849,-0.0462470468216801,-0.0623790761516171,-0.0123674427713557,-0.0485358098647404,0.00358691668731323,-0.0949557010005714,-0.0849732486087422,-0.0164938680643416,0.0365485915402861,-0.0316029331682545,-0.0755167293156562,-0.0471551587352888,-0.109639460245178,-0.0595931309509271,-0.0105089517082334,-0.00885096869882711,-0.0186968663612167,-0.0915565604055635,-0.058905979403463,-0.0661946534749013,-0.0137765767880734,-0.0502961831899768,-0.0409461817980504,-0.0379196782857172,-0.000347573598396028,0.0137649685590471,-0.0134295681313757,-0.00463123807183383,-0.0257298050170647,-0.0838802450675424,-0.0289000911096658,-0.0650726616594228,-0.0774829109583388,-0.065848844084139,-0.059318953687887,-0.0765256897599502,0.061727007369696,-0.00964133816515405,-0.0224869236343459,-0.0771924268070647,-0.122480801776346,-0.0260796322871807,0.0110955548764707,0.000706503657883544,0.0502937942372803,0.0124416619000541,-0.100236228327089,-0.0507078285110495,-0.0328553975673152,-0.0526253993359433,-0.0568320764873927,-0.0202055595712048,-0.0095543536116423,0.00431594030795837,0.0280582583494108,0.00504067053076797,0.0138511436906633,-0.0257983307486752,-0.0158442291616459,-0.0660255093151723,-0.0267705316738094,-0.0593057174982445,-0.0609793840338806,-0.0365763830236098,0.0112974400786605,-0.00751650157107934,-0.0358958027157385,-0.00461169758148397,-0.100905017042431,0.0582708528866172,0.0542933914103559,0.0138909638509076,-0.0154021848484158,0.0239708786615805,-0.0414204275438482,-0.0260384063405578,-0.0442947866741097,-0.0585180137010859,-0.0335238442914852,0.0170061936443767,0.0061513611347475,-0.00279549643963106,0.0099987725360987,0.0121244376486677,-0.0378367658390057,-0.0264422466255974,-0.0350431755986482,-0.0265800236260584,-0.0556762147029316,-0.055019368414205,-0.0430682703758723,-0.0121330332553208,-0.0206983460796994,0.0529661239885779,0.0402721237346174,0.036142425131237,-0.0609165534703236,0.00936462466224906,0.0370648241128347,-0.0641002627946787,-0.0652714664183362,0.0147600282104615,-0.0844248814344122,-0.125113489896163,-0.0416922381169349,-0.0403703794081447,-0.0795500030434292,-0.0409218496653958,-0.0504646218351386,-0.0341015213408523,0.00265202183874607,0.00919302736276022,0.013401718241216,-0.0493051640861409,-0.00984559789066156,-0.0229599070421182,-0.0725610022799059,-0.0203360295591437,-0.083718698250499,-0.0777775797061658,-0.110723679813247,0.0169450872148621,0.0120906550225891,-0.0446539390674526,-0.0122666133831326,-0.0546081678226001,-0.0426088860638619,-0.0381475975560591,-0.0742079563789456,-0.0187425193849807,0.0235219876804475,-0.0648196261275332,-0.0835886671885155,-0.0692720555396582,-0.0693115107003644,-0.059103002659637,-0.0288031109391827,0.0312618237831863,-0.00247774656804691,-0.0225392841425254,-0.0212029427417914,0.0228684102946444,-0.0351658983195482,-0.0217385441149347,-0.00700020754681224,-0.0148959144608893,-0.014047459041838,-0.0272286608203695,0.0109633667535327,0.0502990179259502,0.0357278096284716,-0.086936236842608,-0.0636754993237427,-0.0593585108116576,-0.0088213700868894,-0.0680669918202994,-0.0487090098392541,0.0461288496074324,0.015949387947878,-0.00265610818636142,-0.0280811812104149,-0.0631963732011289,-0.0650927720345971,-0.0746666407592692,-0.0122202091934291,-0.027297691466177,-0.0167829981002088,0.0201441783388178,0.00141456066265771,0.0185406226686256,-0.00245197732353383,-0.0670675905519713,-0.0253104920881758,0.031742585036766,0.0523712054887752,-0.0103634600059291,0.0351915268208475,0.0184669923668434,-0.00401470565404787,-0.000473870640483057,-0.0999359232484409,-0.042904170194696,-0.0285098057933763,-0.00912762614494732,0.00255463606157632,-0.0197348504717283,0.0246074857743747,-0.00783601044128217,-0.0936454140331249,-0.0520591172097011,-0.0915008305464163,0.00779133487851605,-0.0554997153192747,-0.0202369987375193,-9.69294303379647e-05,0.0185928691754897,0.0380482925216443,-0.061508302289818,-0.0176149880432948,-0.0752317453217339,0.0145999601510631,0.0267172473638507,0.0576727997169936,-0.0437472650683641,0.00362529257544684,0.0142252787943639,-0.0105220210727433,0.0436370960529017,-0.051621572430385,-0.00756530606361229,-0.012571928201179,-0.0515361008317554,-0.0216869312969448,-0.0183213463420342,0.0123824926220192,-0.011658392560134,-0.0473918021235426,-0.064587031314586,-0.0706335612852713,-0.0514072010789306,-0.0319341472072318,0.0223351447645141,0.0584259572959036,0.0134750527350388,-0.00204951090144742,-0.0216929495824726,0.036665707127655,-0.031591050549764,0.0405888198531669,0.0398634825378906,0.0647195764225914,-0.0646252837408274,0.0522225999650327,0.0273166585426549,-0.078089216149617,-0.117847313815394,-0.040434993731579,-0.03032558070628,-0.0403639585890762,-0.0644536628611216,-0.0421012454449268,-0.00944076754350346,0.00761694179940098,-0.0449173288608779,-0.0783847750271489,0.00879216250087686,-0.0146237972028395,-0.035032888649917,0.0102289901894363,0.047037321916995,-0.00412828254050764,0.082931853793839,0.00335754314807665,0.00182532999206845,0.0267725668685731,-0.0867688847585662,0.0268080514380211,0.0671609890981668,0.00760824879613961,-0.0199165870242462,0.0352551917526417,-0.00497436490328333,-0.0375786527578155,-0.0890683526505743,-0.0267574326549308,-0.0960150989858487,-0.00230526679617459,-0.10624387284023,0.0163519278244296,-0.0932669067584596,-0.0163635780983391,0.0346127121172889,-0.0306311069813663,-0.0538565661383066,-0.0281834985968635,-0.0262332651590575,-0.00492494752639307,-0.0313729136435704,0.0525522523729261,0.0925363392202217,0.05014605498603,0.0133177568338722,-0.0306052389224151,-0.00397412995807171,0.0635242156229095,0.0330706244076009,0.0242733686384481,0.0124110965475444,0.0910821925611575,0.0554335523658533,-0.0313665877420813,-0.0349007795789089,-0.0239945650812786,-0.0165164209798041,-0.0783485773116637,-0.0373481719718322,0.0184306358458681,-0.0789408247484749,-0.0121007371413465,0.0528676326997022,0.00424032700940856,-0.0782294115499873,-0.0399833989919058,-0.015163211959588,-0.00319425732937828,-0.00319570945022531,0.0292415659273222,0.0498350081390483,0.0451396832878031,0.0123899329683532,-0.0599200893088055,0.0227336017936588,-0.00653619241108002,0.040328013957404,-0.0260283279840361,0.0151334591875414,0.0287187133779729,0.00904620456317062,0.059407618253077,0.0137494149086756,0.0356454608792901,-0.0283092923100776,0.0141636678898767,-0.00684047496256337,0.0727330081656212,-0.0310883577814351,-0.0383214241621304,0.0127703133188768,-0.0499926528626127,-0.0321696954617103,-0.0237214331093551,0.0217043497202456,0.0107021040490763,0.0264070375725471,0.0387530429971023,-0.0220234326191847,0.0081250611070668,0.0135119197715747,-0.0274707529181834,0.0223523654916535,0.0322870483895201,-0.0189942431680573,0.104023277957123,0.0295742661482786,0.0386441325704874,-0.00745243558844155,-0.0504949152056476,-0.0496557290775354,0.0202614707332609,-0.0102887445633807,0.040715239275446,-0.0164604812250679,0.0518592026397047,-0.0195435399191626,0.0116108973886188,0.0106094026488067,0.0160586314850838,0.0284930692371422,-0.0462380894221024,-0.0211442714678346,0.0278066223975743,0.0952976743129275,0.0290884738529411,0.0166376956721455,-0.0615114465866715,-0.0301536705958238,0.0285013179887434,-0.00455169001066297,0.0208311309739448,-0.0155695623236074,0.0887686183422443,0.0411189071322954,0.00715974014082109,0.00690828365255389,0.00504897291305657,-0.0129888897638921,0.0148586117699104,-0.0460716500644843,0.0106481417722675,0.0293813841643634,0.00271335316035811,0.0971659067237291,-0.00168756606508467,-0.0603686793999343,0.0135392486965315,0.0278077018185142,-0.0024513950058415,-0.0122503727481547,0.00655410786314205,0.0797174997983227,-0.00693670380276764,0.0507624703138001,-0.0235303943969159,-0.009883816759432,-0.0691489316259632,-0.0331013522580655,-0.0579430852757607,0.00337820883874057,0.065756599281657,0.0350786173170466,0.03680620764864,0.0313350877294899,-0.0046896879309991,0.0687944733875941,0.0262516821309769,0.00976869585672046,0.0120221681378789,-0.0719888881714518,0.0454470069307207,0.0264341852979901,-0.0242814537710299,-0.0254149422980948,0.0243372273593349,0.0247382378945531,0.0194873607431301,0.0175393159588327,0.043484360344912,0.00661888831724663,0.0105516055702692,-0.0250189662661655,-0.0422836212427823,-0.0364252122083551,-0.0489226364039828,-0.0770393377046276,0.00866375309566019,-0.0192184676984459,0.00886098362201446,0.0296352669459988,0.0464098086382104,0.00454659280891177,-0.0391958337133058,0.000983853672861646,0.0438463898094312,-0.0275039301218365,-0.0290868148642318,-0.0352693724232882,0.0844311863080406,0.0500123666485648,-0.0185948466231309,-0.0391780891884165,0.0148912553153321,0.0418493055602374,0.0136717028549273,-0.0204965120767795,0.0436618237452454,0.070153953541537,0.042931633592836,0.0165547750522449,0.0127281705694899,-0.00131315133608334,0.000123541978028473,-0.07311950097131,0.0141645919518248,-0.022107900469062,0.010398544439325,-0.00903478904581134,0.0198106342971071,0.00661817334824032,0.0387837661952861,-0.0219563895602216,0.0183089017961165,0.0391782884308215,-0.0109684320915378,-0.0177939884768728,-0.0165453672547101,0.0766996263621337,0.0160717969980134,0.00707681121666599,0.0174139800794912,0.0224789553681172,-0.0147165789060433,0.0206728656200876,0.05602641747635,-0.00910762895793264,-0.0065152436266448,0.0396376270442078,-0.027864489152329,-0.0432505190202433,0.00997952930070258,-0.0611463886306053,-0.0432270618057317,0.0383617506644416,-0.000744624553839079,0.0732645441170156,0.0580581508694634,0.0355777957523126,0.00857781161659027,-0.00428021083299989,0.0348682590877615,-0.0291155743815719,0.0166729918244983,0.0173480065511359,-0.0133618396676516,0.0127416527931208,0.00379502005962893,0.0450459626289903,-0.0230399362717357,0.0152895474914127,-0.0147542202490006,-0.00690412463666721,0.023544635302167,0.0240788674750138,-0.0107381693367015,-0.0126435588858236,-0.0325323987374229,0.021537530249178,-0.0280610576116978,-0.0338342209898747,0.0485481763774914,0.0155865139243107,0.0350536488752683,0.047998172231602,0.00824955819132713,-0.0470999724183398,-0.0248311509334486,0.0175129123961096,0.0460846659021785,0.00630802039363076,0.0396436153402775,0.0173893214194802,0.0180012319084862,0.0656102882865585,0.022548782866824,-0.00421257333256702,-0.00359417402527515,-0.0123158137617894,0.0199761390045062,0.0546755206563044,-0.00956423883972423,0.0509023339944686,0.0417074059209787,0.022327166884248,-0.0387473589300535,-0.00786713179347998,-0.00517294407978637,-0.000594032043613836,-0.0136515006920445,-0.0322135057905869,0.00713803919918163,0.0371750548417542,0.0626099596073623,0.0611026088152449,0.024854866051909,0.0353511344679197,0.0660407066892012,0.0621320275335667,0.0521181353301106,0.0862931247384676,0.035350768822468,0.0296344828843801,-0.0257433336402328,-0.00411477428983363,-0.040267360104921,0.0670635735670869,0.0113783422987761,0.0373503700696076,-0.021679951021727,0.0888256047919329,0.048834313795109,0.0695655796735835,0.00135789433613871,-0.00516441520511223,-0.026010827041617,-0.0266765415121271,-0.000443183012390722,0.0505284320113423,0.0149752719007365,-0.0204715165998756,-0.0197694024890793,-0.0355826997620355,0.00264834824229192,-0.0437794981870854,-0.0119924533282666,-0.0266018280473089,-0.0233801543027443,-0.00976102392322466,-0.0129098095772355,-0.0240348144744073,-0.0653578759790196,0.0143575449627761,0.0402080152953083,0.0428190048069423,0.0268146368100108,0.01497455470404,0.00443666807830858,0.0248088073997913,-0.00987277198534093,0.0237243570838061,0.0412324730534329,-0.00901838243927442,-0.0426163090743498,0.0196022072732862,0.0140437815202824,0.0187671123261702,0.0646874113360044,-0.00594656185077598,-0.00631558832426344,-0.0241116455975986,-0.00664653772553287,0.0289190792385161,0.0629832220569928,0.0243551363549334,-0.0378725202334503,-0.00572145008592733,0.0230604172573711,-0.031662667229902,-0.0361046852990963,-0.0173373239694156,-0.0504675781920362,0.0152885334669606,-0.0252580693519839,-0.020120437825376,0.0107383671563387,0.0148501855974414,-0.00961180413214564,-0.0154921936362017,0.074760543995918,0.0327835060014959,0.0104573932553164,0.0164340130863915,-0.0324305467901605,-0.0163196600846535,0.0628243916946058,0.0102105444647168,0.00671755154252627,0.00452564700690522,0.0348935747995993,0.0427873909740935,0.0161917437861698,-0.00620861151166268,0.0264623761727994,-0.0263242039322635,0.0203246544118129,0.0476611836125056,-0.0239725023122195,-0.0249579400866069,0.033068877432746,0.000151776165847793,-0.0294847006667205,-0.0209607613994759,0.0405941082908986,-0.0122643105638387,0.00141477125240046,0.0317138419105697,0.0153937957648785,0.0116596501150932,-0.0358106243408716,0.0373631975261526,0.0117748990344166,0.00805593193281239,0.0883843847918213,-0.071042908575323,0.0189059879258684,0.00961969488868294,-0.0166241815025433,-0.0599787519838062,-0.0494901471852931,-0.0250916094289617,-0.00780762665768735,-0.0188146265049136,-0.0460551907876625,-0.0106153452513174,0.0779379492764279,0.0630052063362181,0.00247854774174041,0.0675572991253105,-0.0310861034296565,0.0058718268165566,-0.00239002751895055,0.0240991772230555,-0.0318181935569375,0.0316496601725962,0.0132161162897247,-0.0104416702089217,-0.0362342885903902,-9.41224538056735e-05,0.00898741453248757,0.029718389519925,-0.00192308704560026,-0.02104036861924,0.0384397607831012,0.0534149707426375,0.0305893973894239,-0.0436378327807704,-0.0256740891234583,-0.0301990422293768,-0.0280381535513382,0.0326202938859945,-0.00415914004272158,0.00966827007344664,0.0307991271899233,0.00953883422152264,0.0117275141125831,0.0576918187834226,-0.0415529383093578,-0.0160328997260175,0.00892799738520763,0.0249175291780008,0.0112733001432833,-0.0227317419098525,-0.0400203153732522,0.0242874566252349,-0.0337232145333045,-0.0559441168809489,0.028076787094067,-0.0246323109052844,0.0482476788918715,-0.00591385974562104,-0.00449154194079879,0.0361823363802624,0.0390422155085639,0.0136440714564579,-0.0212404538327529,0.0592434405036341,0.0618349647624096,-0.0223338640115265,0.00494939707669824,0.000975170842313256,-0.0598759560587471,-0.0262444824254935,0.0114807531121393,0.0262594417090269,-0.0649461727666462,0.032756690983562,0.0198015018450394,0.0247391176863153,-0.0308355525346472,0.0136799124341179,0.003344293619363,0.0234576422186961,0.0230648018997591,0.0325675048139506,-0.0180184375960949,-0.0280282028981223,-0.0147255869820189,-0.024515118010304,0.0377128578752414,0.106823496918531,0.08819229266033,-0.00745959622823566,0.0125422240511298,0.0231057646913194,0.0244039184352003,-0.0085409092582799,-0.00581439417958053,0.00130862768857499,-0.0189137338268798,-0.0161717578041986,0.0124918715537533,-0.0183871368638606,0.0161329011424696,0.011851722778323,-0.00100503161223098,0.0015639208310823,
-0.0206856245168101,-0.00212922890680798,0.00812525161938176,-0.0247221582837262,0.0223186920191619,0.00294387756622937,-0.0121566647643376,-0.0450862296214915,-0.0347682203379214,0.0483947241154302,-0.0669091982903548,-0.0561444986363647,0.0704502995095558,0.136483267057134,0.116493068304206,0.0832860798788717,-0.0107527047692225,0.00638868769627174,0.0239704135479791,0.00393650797166329,-0.00372879404057644,-0.0425184650634169,0.0204453782228378,-0.0109172113451475,-0.0442575913518913,-0.0423179221467803,-0.0303492152778766,0.0176153198870612,-0.0351892360254462,-0.0348509895334471,0.0238441054496563,0.031574061510119,-0.0234684221733129,-0.0477482178150043,0.00445273516542714,-0.0422656088700447,-0.0271563118815655,-0.0570084762411234,-0.0552522048939328,-0.0321256626413842,0.090044205243887,0.0790934539877368,0.083581161163075,0.0537743360172149,0.00313302662626166,0.0416342626985784,0.0848826496889421,-0.0390691951899162,0.106732715550379,0.0201678419238997,-0.0228977371574298,-0.00330189267067874,-0.0312940219201714,-0.00627213742355176,0.0316315009627616,-0.0238892620299769,-0.0192263371807033,-0.017385623229292,-0.0431671371797465,0.049162349601104,-0.034001396785346,0.00774962119127004,-0.0590233816113691,-0.0539801697113289,0.00915164510906243,0.0191932282494268,0.0307742844082717,0.052272622679695,0.0874782128011099,0.0875032595374281,0.0692120678926827,0.100897785421499,0.0359264228179008,0.138492040670601,0.0585227003646482,-0.00546614323507769,-0.0389405685288023,-0.00190459395820571,0.0773488813625228,0.0399399296898511,0.0190210500456327,-0.0525939586950033,0.0125014759354993,-0.0176225439311723,-0.00359745661733749,-0.0391236563939288,0.0217898235391037,0.0471238987530443,0.0195461784519839,0.0337527646838874,-0.00578586942204433,-0.0327747140246405,-0.0123457549974176,0.0207469689824852,0.076566444727834,0.0684014959055694,0.0745776759870466,0.0599351038342212,-0.0432754001516295,0.0613132190555489,0.123487694023151,0.109526937458087,0.0786514259810566,0.0224792184697647,0.0552898127027745,0.0381267035883374,-0.0148252780887537,0.0355727505484014,0.00603716008020694,-0.025278746429814,0.0205141649480734,0.0198457513279878,0.0262347823284024,0.033205074111503,0.0352555806124315,0.0286603475554332,-0.00697993720576863,0.0309326395270299,0.0204275567307925,0.0198561478878213,0.0490733105808129,0.0851460029629457,0.0751453077886571,0.133204985986985,0.205113226751169,0.0272694135682951,-0.0118107584133824,0.099839428486577,0.146794434221828,0.0533787301704802,0.0632591114991626,0.068519463297521,0.056142686563623,-0.00118884478385169,-0.00729323722489854,-0.021971902849954,0.0251260931701838,-0.0161600926796481,-0.0406335170385068,-0.0112576598928147,0.0320743718379676,0.0102092437167085,0.0174630259454986,-0.0346858702179833,0.084423042940484,0.0156318550969005,0.0143359281117054,-0.0265622068172208,-0.0435569022665498,0.0318065173030769,0.00151241303512917,0.0478819831112242,0.0298509140190977,0.0738483094382458,0.0276673228288262,0.0420798470680612,0.0457389600986167,0.0862896202536467,0.0317323341138697,0.0351193014117207,-0.0404583364469311,0.0144982208661443,-0.0529262814773401,-0.0355880843264781,0.0429130339185474,0.0252955022377265,0.00222756006857839,0.0348150722564792,0.0281742202675799,-0.0250828617779524,0.0329383593343099,-0.000413383399207225,-0.0101183703476234,0.00683502976496595,0.0294780018100101,-0.0736792746047756,-0.00533458917464984,-0.00564204552901964,-0.0212913947638311,0.0893430686763423,-0.00868409912320388,0.105769817196906,0.0347922838414933,0.00499598979748713,0.0219423522688849,0.0101932610918868,-0.0169860907582124,0.0048840776435313,-0.0608881746695895,0.0361264024376882,0.0175424686425057,0.0285431453519836,0.0448748858854554,0.0341488543759562,-0.0355892578749472,0.0156854325283879,0.0224994383125166,0.0126223140470321,0.0468239784468533,-0.0334305677260153,0.0618584878470281,0.035042201574384,0.0058821173383659,-0.061675451646878,-0.0474059214773489,0.0316368629146912,0.0529475591891049,0.0376366087217658,0.00288918465915494,0.069634861468816,0.0418577979825951,-0.0158493282199537,-0.0206429188749373,-0.0128296784137843,-0.0298689224362493,-0.0253299344362648,-0.00364500393384967,-0.0234437171406834,0.0516521116704335,-0.0153440243953482,0.0159813886462306,0.0803536010672583,-0.0188837137500107,-0.0273694955661901,-0.00142529933965704,0.0345148280176223,0.0705509336236234,-0.0261961702841131,0.0534397809175356,0.0549313544748176,0.024950480486671,0.0111777785754444,-0.0338390986460167,0.044567290550427,0.0623589527699896,0.0232258390723907,-0.0300154021034926,-0.00022808175978917,-0.00985126511670933,0.0315630520611482,0.013996143168237,0.0262070115814684,0.0595181852794774,-0.00153029830223135,-0.092572590613301,0.0256734025386983,0.0343167774573522,-0.0042107424326904,0.00398659271985258,0.00898323426536301,-0.0352919271863088,-0.036667197964178,0.0164416005567977,-0.0189350526586724,0.0453482963356729,0.0339952318976661,0.106158145788457,-0.0529139960488062,-0.000170605291706199,-0.0292255474357319,0.0483615648511103,0.0219302408442639,-0.0413713239524597,-0.0773520049909706,-0.0779641962613194,0.00317396574738177,0.00990020675540756,0.00721333715826091,-0.00541962926985151,-0.0573405408717639,0.0168100297782641,-0.0256742561264261,-0.0621659135265922,-0.0247570790457074,0.0283711401619251,0.0162339919599011,-0.0144544787019856,-0.0260227655850738,-0.0440439412414737,-0.0115346181797416,0.00439745110657189,-0.037028000310134,-0.000612115076118921,-0.0146860396707136,0.0472105643777781,-0.0225314751431483,0.00766236957349911,-0.0216026524435564,0.0323474766839198,0.0652227876057172,-0.0151451991277783,0.0286603169032691,-0.00244737127727385,-0.0337718591791495,-0.00474593988628637,-0.0196715371164552,0.0128221564217276,0.0580300343034707,-0.00709248691965018,0.0484074656608632,-0.0532233255400378,-0.0727787093951149,-0.00813780220287939,0.0290095925709668,0.0391218431472891,-0.00804130659943165,-0.0137869826846101,-0.0245368677100975,-0.00210954573116764,-0.0243046774165167,0.0220846041555095,0.0113130082307028,0.0445621161286016,-0.00582107054289678,0.0375224980122846,-0.000485979873538308,0.0375915043817157,0.0089494699956503,-0.0590352043050601,0.0478983498876473,-0.0691515373371855,-0.0557784862366516,-0.0439548991812989,-0.0183872556592409,-0.0202769365419597,0.0225132755060319,0.0239498050280948,0.0433311531430485,-0.0509162225044223,-0.041736066853757,-0.000403768431763627,0.0744831049029608,0.0553071387057389,-0.0329164856135298,-0.0699838857294363,-0.00347210156783945,-0.00563486610517579,0.029253452928326,-0.0026340074178235,0.0160130494118619,0.0297005780439405,0.055828301681353,0.0543310908540435,-0.00987339944418165,-0.00851904658467771,-0.00254351721829417,-0.0100246509361099,-0.0193106083055765,-0.0289398133199702,-0.0979980256209451,-0.110871581955459,-0.00692835538800637,-0.00743506981617549,-0.013707754336865,-0.0322594170333536,0.0173554301609143,-0.045291193797769,-0.00654148367977855,-0.0190304443430769,0.0527126433670979,0.0154862316110675,0.0187848975184572,-0.00312898854221319,-0.0454061211471967,0.00555131894448887,0.0160539558691776,0.0606913499857792,0.0138731203755057,0.0166571294337991,0.062910665922148,0.0274447671694389,-0.0188094879360066,-0.0262413720861315,0.0027086913224446,0.0326684134252772,-0.0104379196149247,-0.0222606367137112,-0.0874560819720727,-0.0456572787988739,-5.32238884841672e-05,-0.0675828605980672,0.00682836317511295,-0.00349362148239407,-0.080702596123181,-0.0850348351477161,0.020910884989462,-0.00763144663151849,0.020790606596633,-0.0300035339940096,0.0167871394143919,0.0337182224321909,-0.03255814485668,0.0042337479220991,0.0157839282258896,0.0523944593506198,-0.0273640107216571,-0.0014474593961939,0.045185945223393,-0.0301369871613679,-0.0203943670411337,-0.0143312424708883,0.044399345697496,0.10495312465757,-0.0618170146304817,-0.0207341096429145,-0.0104887063461106,0.0142613937511342,-0.0462344001573284,0.00381874443018228,0.0626858632989519,-0.00571185130440182,-0.0463836563451925,-0.00802571063038969,0.0437640161983912,-0.0787842011817759,0.0208990867926628,-0.0204797947762892,0.0120738064318091,0.0235854715237307,-0.00620897500557739,-0.0102532832184592,0.0120944751569216,0.0411025187792557,0.0187920348158496,0.00600342055373356,0.0525009136566821,-0.0125049122472433,-0.000782639645368138,-0.100903051312854,-0.0176849101803579,0.0438864954211158,-0.0577367374711611,-0.0257465729901566,-0.0015878634305403,-0.0124615221230879,-0.0141885194498619,-0.0110941811061762,0.0346553228845327,0.0381982154250676,-0.0375893705861686,-0.0782636779115554,-0.0156983349658094,-0.0690108261066806,0.0520267941032604,-0.0671146738725781,0.0287760236210473,0.0379346885293139,0.00835861227310878,0.000461628627912417,0.0435976592840936,0.033805205913504,0.0106397479536084,-0.0543452639782303,0.0124896982627677,0.0570985304562949,0.0176868416409318,-0.0921160952689595,0.0175530809776358,0.000334512821775345,-0.0288672040378445,-0.00641031780643289,-0.0546638684423994,-0.014364020402912,0.0115099568586935,-0.00895381694964039,-0.0575033344262502,0.0304274957268043,-0.0261083110973976,-0.0767446592903798,-0.00684771955519626,-0.0100381470618701,-0.00108976916278185,-0.0660787678556286,0.0166715264396839,0.0424024324561481,0.0581703301829066,0.0189654483520382,0.0319744694170781,-0.0193414640913205,0.0412574658526488,0.00987070352630608,-0.0412690774328809,0.0334892383413651,-0.0571499829247538,0.0118771198795061,0.00951556943740182,-0.0248980643478821,0.0310550539581209,-0.0305736271599288,0.0133376242791338,-0.0718042331263693,0.00716770755043708,-0.0435829299886455,0.0179188398433337,0.0312103056933498,0.018260880526745,-0.0365050545471644,-0.0013675128153551,-0.00395807881846272,0.00658659073297726,-0.0339525833956625,0.018839915859893,0.015660854220385,-0.00772917509507444,0.0362048813238629,-0.00383335347565944,0.0134926717900726,0.0190440075607451,0.00521603486669195,-0.0076065955979413,0.00430597899145693,-0.034610142401538,0.0457355969362203,0.0347659251018919,-0.00173430240539043,0.0286533058215078,-0.00782229550165638,-0.0287452961626681,-0.0872870177359156,-0.0620782034733859,-0.0213979211334939,-0.00794791356352642,0.00459219662802629,0.0835972811181299,-0.0456190445627704,-0.00673315390374639,-0.0463038896019795,0.0486769889660055,-0.0813196355996645,0.0432303067178998,-0.0342035127318748,0.0172942842359182,-0.0349759117160575,-0.0163091930534013,0.00642532843777735,0.00844801447466292,0.0240758767153042,0.0816438056657798,-0.00276892246269527,-0.045092446661288,0.0220790163401159,0.0294225407051144,0.0107707344616328,-0.0674971432543593,0.00228873872415885,-0.0245328518565252,-0.0852587520608251,-0.0587260326241024,-0.0332158390250958,-0.0051017025362406,-5.55679970392415e-05,-0.00969548883178678,-0.0149389835304959,-0.0457533185442104,-0.058895704753215,-0.0348602619460005,-0.0402738426537715,0.00319697322499628,-0.057675745968437,-0.00377459039146716,-0.00690821382236107,0.0442970652645739,-0.0292876585710467,0.0323979196617554,0.0357269007254536,0.0869298542951413,-0.00154979836149093,0.0398760966414807,0.0455746139889174,-0.0133976463392406,-0.0271725875260595,-0.0028156876579343,-0.00173079332532527,0.0258710351058993,-0.11113094122258,-0.056839920046911,-0.104079921519804,-0.0410136332004476,-0.00106260341245521,0.0245351813320577,-0.00245587197934858,0.0128867829315053,0.0315328388747584,0.018591311308336,-0.0510907148189201,0.0401963133850477,-0.00656758808833003,0.00899171133063949,0.00220209058513409,0.0111939392342227,-0.0159458301525486,0.0338744137324725,0.00875923505810332,0.0994345155771209,0.00171643327517548,0.0828771581082244,-0.0215800594497843,-0.0449112772387609,-0.0273551810314378,-0.0282447494251989,-0.0238512691857719,-0.00550726241737133,-0.0708454902711185,0.00586163914684362,-0.017591841524394,0.00319399082591103,0.00448910414679231,-0.0465556634149641,-0.00731752340075837,0.035588906502262,0.00347885433516721,0.00668683597825341,-0.0479681099349734,-0.00622413792911384,0.00700494365037261,-0.0328801830257296,-0.00732396974490114,0.0124059858055662,0.0143224897230482,0.0561289428232715,0.0102638771750547,0.048813749822451,0.00158595450928182,0.0151205008216946,-0.0255668870075623,0.00364399370034843,0.0371461597344792,0.0165305057881955,0.00730880571548554,-0.0871924598742096,-0.0893700704132932,-0.0671608337400415,-0.0140782775453808,-0.00906664904656977,0.017272512222708,0.0277446045738136,-0.0740788530481329,0.0494752829912141,0.0155835452161636,-0.0388880512146669,-0.0502435835080034,0.0186856585307443,-0.0391907443056939,-0.0321090080922379,-0.0111573408379402,0.0143998125980842,0.0464889998981582,0.00257591443913077,0.012093010411348,-0.0515313348924843,-0.00818341734786379,0.0778488579331251,0.0206710630330788,0.05857321835066,0.0578967372268824,-0.0618364735786703,-0.031435450449981,-0.104318574487438,-0.0966286954978511,-0.0758826909853092,-0.0515924330712975,-0.0182966554460797,0.0126922676405224,0.0328486405620775,-0.0287576722372831,0.0533507610883775,-0.0241519893546151,-0.0133803428626928,-0.0360247798444563,-0.00307829876365565,0.00129502880199402,0.00697662939783322,-0.00964423644823582,0.00906273167522237,-0.0289316246903053,0.0193369113217333,-0.0616475181511107,-0.0204142094864384,0.02733917222314,0.0735725883616835,0.0521082657871355,0.0512543916115466,0.028893682272374,-0.0264701937018719,0.0120410899300323,0.000403283706342479,-0.0554326861827134,-0.0198086411063272,-0.0311051791735997,-0.0506474561826905,0.0306556060182101,-0.00389383487480315,0.0016526726203917,0.00616549453587238,-0.0554909590033034,-0.0075897934969983,-0.0272086644094084,-0.0667818554848381,0.0148187007969629,-0.00582279868449673,0.00255982514980677,-0.0312847573455228,-0.0228105368497678,0.0302925809028753,-0.00533911336726375,-0.082549124499818,-0.0872821254293158,-0.0358749763890341,-0.0209584470290209,-0.0265430560760964,0.003349272240979,-0.0147269989950223,-0.0516923780220614,-0.0562947292932508,-0.064973057580468,-0.042707225712476,0.0288778916444005,-0.0342708331777496,-0.0591840241742158,-0.0511201650058142,-0.0244775635176004,-0.0689638101610957,-0.0908447549086478,-0.0686596973776671,-0.049674819882248,-0.0121189679357553,-0.0156273334465818,-0.0391662012890167,0.0308625648335772,-0.0106196016156569,-0.00562949177804119,0.0422501451113649,0.0441477995177332,-0.0964399696110878,-0.0485435321847761,0.0440921577779586,0.0864570096084103,0.0472827277909547,0.0133917695669054,0.052587962654892,0.065178296848091,0.0577178037773251,-0.00601445711681476,0.0505803164909255,0.026223774142928,0.0223117584114403,0.00518554984875397,0.001287202290082,0.0824239393707178,-0.0470158429564326,-0.114513227824815,-0.0354548172742519,0.0342116065680856,0.0718203027673229,0.0336829834925573,0.0062149573662189,-0.0167742061761763,-0.00967411974442705,0.0188783397534685,0.00835827280257181,-0.00657930272530893,0.00306483452802933,0.0616120897038891,0.115593587044466,0.0217243396253739,0.0524660847991159,0.0101127895378147,0.0750091689951912,0.00245289183493945,-0.0323336661024833,0.0136113132712265,0.0135307014704698,-0.000491114135491978,0.0128237734236938,-0.0910335885948359,-0.01875176525725,0.0595952259332169,-0.0892641090689358,-0.00247234815233022,-0.0177988229563966,-1.57263136299647e-05,-0.0445679951152044,-0.0235649201310107,0.0303962741604797,
