-0.545520069613168,-0.0959249098269622,0.109535312861585,0.110207807038793,-0.358762603076776,-0.410633159314154,-0.291457408157112,-0.130801835225457,-0.176195272205923,-0.425490930557197,-0.402593516439942,-0.490556130500803,0.412197480480084,-0.0179368004172058,-0.00680276179827303,-0.365262781469265,-0.23719340863236,-0.101654406595177,-0.101445510314037,0.500534780519019,0.193015665360861,0.335673540644895,-0.0840836247025982,-0.206146106921814,-0.131509886454384,0.294647110013012,0.479103738837508,-0.137023606028479,-0.283141141092293,0.121613636894216,-0.541320338474784,-0.13098917485965,-0.523818409415759,-0.0193091533598479,-0.0943693427338985,0.521875529095088,0.463343122067422,0.303660178701067,-0.062382105005824,-0.273487009852878,-0.405940738818619,0.374447683477489,-0.321956883863923,0.174870616143808,-0.510156650132525,-0.487033509447535,-0.332571846750432,-0.317471210889514,-0.0141003957520186,-0.46159996230426,-0.0551615684427242,0.401926755582208,0.465552963306572,-0.0270586063109146,-0.531681039386057,-0.363188968740692,0.114296590089015,0.491838525509347,0.143416486207212,0.454341173491981,-0.537181963069514,-0.293843665755672,-0.344654023496862,0.478900014174275,-0.354646895974692,-0.344932914719323,0.354902695624599,-0.484716132340971,-0.340765021868653,-0.307364894039957,-0.204277890225113,0.409379180160649,-0.428449993350313,-0.269891500128346,0.410037253237834,0.232326443838763,-0.379139958306784,0.102491852205894,0.450291231808225,-0.269648540161965,-0.271878142972353,-0.45506359104278,-0.257551250184324,0.397192924643424,0.0373224791327148,0.398153481398003,0.221785211581194,0.337128450092129,-0.285651571042833,-0.234075622015137,0.529538623700575,0.275743857891566,0.360411968513689,0.542277625608829,0.112471460721014,-0.537365884090429,-0.0468559630977517,-0.482983543693004,0.360194024108169,0.306851004993062,0.224808743706206,-0.158991831639037,0.0998527890660799,0.457022270998064,-0.357152004445211,-0.47449524927129,-0.443777980929508,0.255515898788853,0.341099020133874,0.0117865609058598,-0.495117803883259,0.215593899959668,0.132824079255074,0.0887098597391681,-0.304821122076433,-0.187479987595443,-0.0437062198882233,0.404239632221239,-0.471800881486346,0.501361700272178,0.0430398000118204,-0.24438123032188,-0.2615838871803,-0.386341426653209,0.0179563399064898,0.229488853299614,0.312447469990512,0.494478186063951,0.136297589394396,0.0233006136412169,0.499682914628344,-0.207634496564927,-0.424413988333237,-0.350478557782059,-0.510120535322527,0.525551480938516,0.172099845666003,0.0879549626445831,-0.114019383009156,0.403294383805962,0.189934097844432,-0.540780800767596,0.111039393385682,0.138444164613532,0.12075870043736,-0.300693255533234,0.54484467214759,-0.365899187956163,-0.440436249351366,-0.00191002743482025,-0.223865245026798,0.239566131480169,0.123952181027545,-0.119616135160851,-0.265821540399299,0.0349665624596331,-0.512061766616732,0.240801111402349,-0.285225299142342,0.518203715881554,0.423461522753625,0.247975820897627,-0.397904405649609,0.364395691811705,-0.473120245263971,0.182980924443747,-0.0130114847851476,0.539613731357566,-0.240747046651294,-0.514274082232144,-0.175839032141429,0.422474403150154,0.47374742184262,-0.195636682392595,-0.0738274153267654,-0.36853854889362,-0.428469243261592,0.0983387011002429,0.285976766351385,0.240180065511259,0.489197655210012,0.162508630945071,-0.15580949120556,-0.324906275387406,0.465716630564088,0.53452817348754,-0.116452230701399,0.324152248107523,0.487346994336261,-0.164981532590529,0.380859342094185,-0.0398640923935011,0.244398674362241,0.492865912897266,-0.0414342299642319,-0.141531918725049,0.389162228564947,-0.198349023963869,-0.465458579942391,-0.275725339059364,0.102531397217845,0.208710910711558,0.0122233664280278,0.293558398590132,-0.36342971499505,-0.510880679386381,-0.536938541003975,-0.466388276370089,0.465129297948011,0.453127541739112,0.0500532568324139,-0.323276764491721,0.349095194446603,0.13005609035966,-0.377052281310718,-0.00447400314881651,-0.309610411603074,-0.268484605633245,0.0456412718537951,0.24895258188447,0.189569970615438,0.480430690813701,0.24917749863295,-0.0464184127712099,0.212817473010648,0.0257706688638312,0.420014068208715,0.300563477076908,-0.514578732507015,-0.0873460446645408,-0.00722846350591905,0.152668080572922,-0.154983229464189,0.0141856541610591,0.512425219968045,0.0869740294495057,-0.240985747385442,0.0572812760455962,-0.354770564870991,-0.0152335786456477,0.000376999169672957,0.407776596660339,-0.439998901010269,-0.344168564661031,-0.148165835399494,-0.291146987759608,0.195514219603047,-0.125377508129174,-0.328405681290927,0.170080685967898,-0.0824456025824813,-0.299443957455429,0.438235702283224,-0.425956835356116,0.0772288004466739,0.203214077366464,-0.353671675037059,0.254720472057525,-0.45477552864067,-0.51912404481667,-0.513528935554224,-0.0317158750489248,0.29994844940309,-0.520401788478919,0.121860371917431,-0.136824697176108,0.185744273998682,-0.340370473517591,0.0819234068520813,-0.233090583667739,-0.460999137266222,-0.3245098297455,-0.271410098558369,0.0416996503019459,-0.000868774489433444,0.482926922992346,-0.205583500772793,0.400700679694313,-0.386878102483467,0.334989162461081,0.410834180524132,0.146434323077857,-0.449940035534886,0.228311202019863,-0.292748203659884,0.159456165873739,0.185385192006406,0.22651784467233,-0.497184306202255,0.221784226377634,-0.191492096860943,-0.511821591196788,-0.0983672412910365,-0.343428273290415,0.293445959631114,-0.367934387825402,-0.233280133945006,-0.0734150032114922,-0.151971276027045,0.342034599046631,-0.115202654025526,-0.473273418129484,-0.45988418392625,0.310804542515478,-0.173630544275793,-0.0301451085261385,-0.207499607103146,0.134780031479786,-0.106043802500508,0.207856719226185,0.406677253015466,0.091256212206411,-0.175091839027779,-0.249604738305626,-0.0405863805528382,0.537439649725774,0.297208023099674,0.0177428170660058,0.511393956092998,0.473826820423093,0.150854036536632,0.375038286757093,-0.329999062346335,-0.515762842406829,-0.451470393164342,-0.309431525063226,0.430565669181626,-0.358695979775368,0.525359155390118,0.536067080282514,0.501308112019373,-0.30932662084436,0.196579357405321,-0.0918548413772435,-0.478067556133378,0.334972507655386,-0.492972652127604,0.104760146502665,-0.119856171301528,-0.429616197912202,-0.243822578769996,-0.36667013410832,-0.121656823147483,0.0223052232315939,0.33025840363434,-0.249056227684411,-0.536162388731953,0.0396144351300823,0.0847272478372131,0.255672525537488,0.0223475454215893,-0.39721439825245,-0.327712706317183,-0.183293547504692,-0.516269910676393,-0.330780208528465,0.0634523121018493,-0.150389294670178,0.151475193730734,0.0335385789912658,-0.444274659283072,-0.400439850299459,0.310760700740897,-0.0265280636125091,0.284476828433282,-0.273627017258682,0.374918794498375,-0.2704328935252,-0.329318996691389,0.0637249662830273,0.242124026634619,-0.422498966475283,0.259118459645881,-0.320449333528225,-0.297842294122739,0.275495966975482,-0.494331160727127,0.370866106342942,0.331690998657149,0.349996701235999,0.152833537906424,-0.375377681447245,-0.279991061041385,0.281492338564311,0.130223617475483,-0.340444905353722,0.232846499625362,0.353824745135007,-0.233953068804676,0.138839167385931,0.0310272460696602,-0.173430983185677,0.256942274930834,0.0568379332573927,0.0710248292321582,-0.422690504316102,-0.483152549210576,-0.0892850199314114,0.241569217382965,-0.362043291197063,-0.473792710767962,-0.228383080900796,0.317601770124497,-0.50131344296184,-0.0532231206481499,-0.132529184654363,-0.28528171499372,0.458248511663303,-0.0734419495801821,0.344811994292437,-0.350357433074054,0.437881336638457,-0.000259692298346626,0.543769317478211,-0.121709514015404,-0.0833218094757232,0.160250056500529,-0.502176473595292,0.0436695160847282,-0.526821995757798,0.109398502806398,-0.159556198182623,-0.06724099882477,0.369116065830703,-0.169614042121306,0.279396032126649,0.15790973724249,-0.0337120215384039,-0.475422291468498,-0.297626498487804,0.163893799066484,-0.362771334562529,-0.152644418077197,-0.484387159040619,0.292466291171187,-0.077939585037344,0.180956839872547,-0.146275866145045,0.368238167621486,-0.453854218258493,0.308633808037662,0.256128143802255,-0.271863828101573,0.455689621608603,0.230182654619528,0.340659138612799,-0.24881704090324,-0.119205601144421,-0.458847293242537,-0.185865401808912,0.381580381249393,-0.338199737438933,-0.412265445082686,-0.517792839691709,-0.425067104457126,-0.534255038537861,0.484244348710309,-0.40746459516777,-0.267598199382564,-0.494542988829568,-0.309178412158344,-0.115263668366249,-0.136394647734042,-0.12643379001159,-0.308974245466434,-0.0455159717726755,-0.0954153988602408,-0.450635014284587,-0.538676886643648,-0.345541665360364,0.442042487784288,-0.229052524573463,-0.462163544318648,0.471615111515032,0.124348305460515,0.370134256226436,0.473474170920356,-0.161051543036918,-0.300191631507995,0.41214599107593,-0.0512270562298023,0.350655248818426,-0.0266154304311259,-0.464404976089341,0.0885910738893399,0.0219250791430036,-0.116999515852461,-0.355542122103558,0.486478347630646,-0.0514962848415179,0.0344919947940595,-0.0925443340348673,-0.118440560453555,-0.252112479014516,-0.150173578430694,0.0215001542060776,0.277125729784529,-0.0599211561341842,0.297064641307457,0.408261947032526,0.258262896249098,0.367954759904473,-0.298979432387771,-0.542031487581307,0.303300566109521,0.0838164969737453,0.243789063966912,-0.0809338052095538,0.527699926735241,0.195999822223692,0.011954155972256,-0.378831832489481,0.347580273160191,-0.199885498863184,0.521040602713534,0.324814567271456,-0.131515872737865,-0.404170191745338,0.416903034751016,0.236234082222,-0.00467008501396116,-0.343894259718731,0.0617822034212043,-0.483156617232457,0.434167737885375,-0.0447209588133366,-0.349011463457163,-0.379858550640096,0.525200894762447,0.490147550187518,0.380977090947371,0.260001663865025,-0.317566843361333,0.114317424182263,0.292028969814354,-0.387074155221319,-0.394083044004376,-0.37127130216758,0.251081706350091,0.474694014705503,0.0153306192745544,0.0627489111513634,-0.387666719315272,-0.101698446578631,0.300853821939919,0.32407898054308,0.485627896369259,-0.443253691335623,-0.0903966476008199,0.190166255571066,0.104687545321053,-0.373352149542849,-0.124675404045083,-0.252522908504238,0.416798131963872,-0.468829585041013,-0.49724965204245,-0.498097544167148,0.236099174125312,-0.295050829605039,0.0111548870371615,-0.410841863487441,0.372990679953942,0.0614675931905713,-0.226465568719757,0.0839425320426491,-0.405685386772783,0.153049569209293,-0.348385194444352,0.211082057551529,-0.00934737185245074,-0.466234716792017,-0.0993916727338835,0.035640820661899,-0.318234949655456,-0.380206673433505,-0.251650724784357,0.484154073172695,0.35455901830109,0.419926270599848,-0.259746830351669,-0.0234713222028566,-0.388047691844425,0.316077249115474,0.410380601183427,-0.388024290111076,0.508796800158036,0.408879933205421,0.111589725191629,-0.512702633410164,0.492390602240321,0.279332084278876,0.375941715422552,-0.538413542229377,0.00541699661131874,0.481558678640694,-0.536809179699364,0.0286234704715688,-0.474263486591971,0.531839352095675,-0.00977415205143182,-0.0668998631806974,0.416572378545958,0.00634753764009478,-0.447660916130858,0.0348934813530226,-0.0457972983600388,-0.303657065579435,-0.152803425828011,-0.0773112006944608,-0.501947556754613,-0.0284995518861647,0.35588757976919,-0.269313838210808,-0.120250707692318,-0.378534504955958,-0.487531256035396,-0.00660450001723154,-0.0161038194218758,0.268351498976232,-0.168008780606976,-0.158780939635467,-0.0387225858323325,0.42784780599531,0.536263270045434,0.178565701684124,0.409937149709525,-0.449810418056828,-0.176424446377357,0.325965371676519,-0.415705163059318,-0.0705390167814122,0.352974548520088,-0.044836535443454,-0.427650667922948,0.446039817325657,-0.451798137504753,0.213493727946536,-0.191001738404486,0.458261317087751,0.0835993911494917,-0.14409950343486,-0.379207471641204,0.500223502635245,-0.0180280315179188,0.316300384321781,-0.299141213858394,0.243410322310154,0.411440482714004,0.157121085418043,0.228867219181859,-0.277694177307115,0.519044163673683,-0.514713764640778,0.436114515915494,0.0320462706986363,-0.545144662995135,0.414546848827313,-0.364610021048726,-0.0366874486106526,-0.463183154964534,0.184101263395769,-0.435482011423496,0.178256681888504,0.39617349026023,0.010760405554657,0.347105216799327,0.353384055553407,-0.424296180337802,-0.411577081031962,-0.413314237674125,0.202882145433786,0.0946377799519311,-0.238591246015913,-0.376157347255358,0.264365473823003,-0.370483652749427,-0.145878257472953,-0.0745934571807879,0.28766899638438,0.0925709318153044,0.435517378262185,-0.110115332960058,-0.253938763060248,-0.528114590967717,-0.381378684948184,0.358612374371008,0.114231958887677,0.204054218826052,0.139857950321547,-0.104461858773309,-0.516156974486834,-0.236882736418986,-0.188417125547964,0.0241829650307191,0.0919836817586235,-0.282225971003558,-0.466325702124894,-0.325381759027438,0.130296876040997,-0.220075166071526,-0.118816385052398,-0.155206437141026,0.440432125582102,0.196303670666306,-0.174922501107497,0.293695609282558,0.350663866274819,0.319925159082947,0.117855429103648,-0.127847443344294,0.196443349203849,-0.441864664026494,-0.217498767972994,0.0108028614095792,0.0272310066638768,0.216757306029501,0.544117619238974,0.216945445928335,0.250378368870311,0.0129753599223969,0.21096344532387,-0.454690494491677,0.510623557768114,-0.447133135947697,-0.140143923403619,0.0423379327315294,-0.474611690335566,0.12199838267289,0.393516170467248,-0.304779139639238,0.177283501522346,0.205788735403496,-0.309100892576167,-0.346799299645125,-0.521779724404978,0.480117675716666,0.0897873702376179,-0.225200153532295,-0.425915338347937,-0.501818884205683,-0.0747575793150241,-0.110149355622917,-0.0459584576881654,-0.402027634874409,0.345886474403916,-0.35109123468604,0.00157303681187821,0.371072174625083,-0.428610231207203,0.0355426813697902,0.105278273788685,-0.353610850082991,0.464484266778443,0.0261332431593229,-0.419088596267909,-0.317242688375343,-0.443418039563448,0.183009887343948,-0.311171460666109,-0.522360244984705,-0.0820750984593137,0.193009347029151,0.174614885188141,-0.478172686866144,-0.365029128745404,0.360816056658816,0.0204658288248116,0.14405557409979,0.176479509500394,-0.367249497943017,0.181863686883561,-0.418017525102617,-0.0779927100122969,0.351475597784554,-0.489601378550143,0.427003406706166,-0.161791707741696,0.0551078926879009,-0.483965099989845,0.319588853684968,-0.100867304259145,0.0646489539507963,-0.0920425063854266,
-0.402013355533784,0.372607647945203,0.346478505112565,-0.35254503542771,-0.540402666009733,0.516895617783037,0.322505612497408,0.0943514789390956,-0.183750196138257,-0.456544436625155,-0.425802709947957,0.506667208544334,-0.404969313343404,0.421236457063709,0.124046551993784,-0.425837858998968,0.0589509641388892,-0.241862878494474,-0.497994688934638,0.515795175673199,0.366037344738816,-0.0444632408153758,-0.488548596772098,-0.298937184519199,0.50489704469652,-0.417362703876941,0.294347251381815,0.266039113973031,0.438423347644611,0.47625043141006,0.399221323449583,0.218397756142309,0.0571770082686033,-0.440746311198464,0.375626997388738,0.152899755866485,0.491070173204825,-0.384789587633682,0.359053300588134,-0.0384339300461001,-0.417718892111284,0.275995706233666,-0.136927895788673,-0.151962746364567,-0.437332655257997,-0.0710205089253349,0.0427500983294734,0.184662637344657,-0.0232988049563099,0.502643941073887,-0.326825399010481,-0.0871981964344873,-0.0707470403984202,0.306524342176165,-0.0904983249806863,0.346996033775031,-0.280939196595942,-0.544413862790811,0.278080282527546,-0.175353026015163,0.169738505821104,-0.505219904673767,-0.177859813841008,0.142313126255181,-0.0726801732188299,-0.149359666491916,-0.365949533668577,0.0641910765419584,0.0491155797913103,0.0609754730600966,-0.274293903765811,0.391159392472334,-0.127377987504102,-0.332614053408511,-0.451319893314477,0.24936681618768,-0.102475857162522,-0.357891266830591,0.534500315343661,0.291362941793578,-0.193032973351956,-0.23254560045733,-0.00299362636594671,0.522938449042771,-0.0568401770742546,0.355809061009485,0.51459750108272,0.281170637998243,-0.35829136957798,-0.0379808176072092,-0.151607095127641,0.49096241027366,-0.269728773438067,-0.421234543584471,-0.503962640880276,-0.385075768558895,-0.140121529251765,-0.0215111636051516,-0.463030096133333,0.182587553968992,-0.420272064462186,0.135063458453148,0.18869375300778,-0.207360367581233,-0.46324769240175,0.219505653776389,0.0196335892558172,-0.406879685267388,-0.207385066532335,-0.355995838192113,0.0456118093168641,-0.514888891418023,0.129522662042953,-0.506592696682382,-0.540387185382528,0.0253091183712657,-0.361401965336117,0.309023663767087,-0.172614921582724,0.0591417746059502,0.148195047392758,-0.503005910799952,-0.204099807180376,-0.0806699911194529,-0.463506293130257,0.408893245668701,-0.0687823873384505,0.142414655627402,-0.522797162261036,-0.532580780830676,-0.342073221035362,-0.403705169398984,-0.0966045482391995,0.435651571392459,0.448275536461897,-0.186470348147904,0.0794079348527365,-0.494534423239089,0.386464354875002,0.185945653878351,-0.211035327764458,-0.372211751644154,-0.543402378106884,0.264318403829638,-0.145234903393729,-0.337207266186183,0.388715059624803,-0.0128163016675481,-0.14423187606372,-0.494470222676544,0.131475992430377,0.460042397175323,-0.020128130618519,0.210019477447656,0.477476121709934,-0.456290266119521,-0.273342918851658,-0.187021738450458,0.275944016111102,0.248976240149852,0.0830385017857135,0.017390558196849,-0.500261338843006,0.451244443962042,-0.208187689493365,0.0309876948239493,0.461721747396898,0.508709024103103,-0.474628742945382,-0.0192055903609256,0.52860744040257,0.52502862083228,-0.189887449942737,-0.0824268278622798,-0.0511904964198846,0.490543041674329,-0.431398518071404,0.359968471387391,-0.150266714763192,0.0670179882695367,-0.254760216578018,-0.289083926225673,0.248472506780642,-0.394476287859283,-0.0272651388269807,-0.536124495575312,-0.476923161407634,-0.0887674081314075,0.169189882667465,0.0488303013774396,-0.471938001005295,0.189622899311375,-0.450341506834644,0.504120788429219,-0.0988444141562226,0.384416945206594,0.025224881132428,-0.464856551779341,-0.0623336273518723,0.260407103948387,0.271567996361102,-0.395412542506399,-0.416108871728775,0.39046260294829,0.460131953114799,-0.31893308052421,-0.111434011217164,0.174870590717116,-0.439592603296792,0.295913459481719,-0.517865375704011,-0.473346360186277,0.123552427303262,-0.294520385929943,-0.330391035789743,-0.529961424751745,-0.197921866605707,-0.505684088134746,-0.365189028701885,-0.455842389246091,-0.336289636918628,-0.0654435937169716,0.325220303410687,0.259467670996689,0.522200846270331,-0.197306874600325,-0.0552302927455557,-0.505000908815696,-0.342224965503435,-0.125003443470967,-0.415855341099864,-0.372264222497243,0.0112315729378731,0.103648560530883,0.321018016130744,0.107551418772999,0.366910836142682,-0.120639119532175,0.502197651785017,0.317950452628385,0.302875537811644,-0.489605000114336,0.247974633962337,-0.334540613221134,0.350011680046463,-0.22381522703896,-0.275867610872833,-0.119670761268153,0.495837810684502,0.37650838916393,-0.339602079315885,0.267222726955774,0.0242716817614391,-0.530850371795055,0.489338303840273,-0.230074839080605,-0.433661165453931,-0.240681234970981,-0.302515846196472,0.506391942381626,-0.129087360968846,0.41455868004164,-0.391543296362263,-0.137757891770096,-0.493778775521981,0.095313194590896,0.556108803830825,-0.447130393912021,-0.388432030738142,-0.0388830409048344,-0.361356942542594,0.316513657217858,-0.540871565459704,-0.0606470049563737,-0.231729620666797,-0.317513881818043,0.20618227773217,0.342473058315041,0.255402582015023,-0.0431553695166726,0.527318026652784,0.508372378991392,-0.445340015288548,-0.446756227375675,0.481148825156251,0.532779123793402,0.303658190101252,-0.498560053584216,-0.515405172022704,0.445007916075752,0.393895825541041,-0.296686707733147,-0.355658007472245,-0.29409529040518,0.401006509469743,-0.286954952684927,-0.246129718469332,0.301948526313293,0.223068544462174,-0.278063966909237,-0.295711852359062,-0.198916964232467,-0.371658945013615,-0.2048638574282,-0.436794574269872,0.320575782127665,-0.264159653764037,-0.194161472306166,0.356304435209616,-0.117302115570014,0.230560309881559,-0.124141062048903,-0.241166452229885,0.403124712472468,0.0950998124938469,0.290652945146425,0.254544388506068,-0.1190037611495,-0.0948618825062815,0.302188925130217,-0.118039562372224,0.233776830037514,0.396895452111833,0.416779771848701,0.0317350784427298,-0.532104368058365,-0.161766020343791,0.235584191245196,-0.225831214706972,0.358043401532737,-0.077894270498817,-0.340762301072009,-0.304455851517083,-0.173764628194594,0.0344801782042185,-0.0916357146105816,-0.229993034976787,-0.138795057233944,-0.0220480562966566,0.411083412747222,-0.382274805189959,0.235086823062466,-0.208655015509437,0.417720564966013,0.453512379935673,-0.327854232530884,0.162472336507084,-0.447045629671042,0.129246360158889,-0.320144160954023,0.276910439578513,0.200280741777323,0.319735292275389,-0.284146405834256,0.203323115463009,-0.440823505877289,0.423420186187103,-0.448613968731978,-0.129336572085512,-0.097207743307942,0.223682546443158,-0.422385992449961,0.0984063102158954,0.522759758588364,-0.0420817837832623,-0.161438230243293,0.382432599135275,0.355589186901513,0.154582267820763,0.198929235388165,-0.193118885675018,0.324236803582977,-0.381064763706103,0.402264882029847,0.248653900870338,-0.252763332207027,0.211804183137328,0.364684054759701,0.412835044746908,0.24345280312438,0.396510113548976,0.15082523738326,0.353893638914965,-0.0789107830535613,-0.264260620846992,-0.210366670172108,0.534674228482724,0.0767808576146693,0.333054598350351,-0.055864118487983,-0.464718822765995,0.0268886863784472,-0.411834395990945,-0.23445310895359,0.167750161565899,-0.197634166140619,-0.514159403411662,0.481606489938475,-0.495083251344386,0.413381787650444,-0.403333344136412,-0.343128926315069,0.129624950239298,0.217924143324588,-0.0240483877806279,0.290864473070484,-0.149368730023673,-0.384033607848539,0.163517377337434,0.176096518917319,0.244041349046623,-0.236027549599614,0.386667261899503,-0.0442351084028048,-0.287614935585769,0.265111728500776,-0.403822324231638,-0.309676232506156,-0.208191634712014,0.278801992007724,0.298669721676417,0.322749248406104,-0.483599120627266,-0.109764571457113,0.501735385023658,0.312500104844687,0.384508889902513,0.00294029506359819,-0.269092592164095,-0.375114646560222,-0.376050838182937,0.425004737105441,-0.100245979427441,0.102266496306478,-0.232680817754194,0.408248396526201,-0.463904048938577,0.117574792701363,-0.374322940569948,-0.493041937442137,-0.106048808949834,0.523020295164334,-0.445515108765359,0.197565083383568,0.414553197114784,-0.0739580763534105,-0.203511496393774,0.0153926974543346,-0.334488568736336,-0.48128950261564,0.516881235498232,-0.531527338978599,-0.548490987206298,-0.34434422736349,-0.554894926362515,-0.519049902328148,0.229622276507524,-0.319063061826652,0.0737808717283553,-0.073445371298159,0.131031236863921,0.2925793872107,0.470820927387845,0.192228390636331,-0.346214146543426,0.264966183820383,-0.0574974445150668,0.483917652933847,-0.253636903559291,0.495015617259345,0.11501797039407,-0.45452740077777,0.127386769795063,0.0514089123717865,-0.0458748918478901,-0.183131654527801,-0.211876563723139,0.250125956064151,-0.479451329841664,0.32921435566509,0.181973670033067,0.445755002343683,-0.217059942123259,-0.466626851378706,-0.483694162955321,-0.107796053219421,0.484566346388631,-0.314407267280996,0.368512367132032,0.319353511964089,-0.361406568922712,-0.00921598768768157,0.411540529570045,-0.474311565982963,-0.360574594979929,0.401662689643912,0.395943786452374,-0.110300300117245,-0.475172138950889,0.0125896224999125,-0.236811599805191,-0.0518836749077792,-0.302481282336689,0.191581487220551,-0.424060792718111,0.285033071872232,-0.531383258315768,0.132539684880682,-0.393850979614205,0.226921264249122,-0.232167906505995,-0.529878859039634,0.172316217333394,0.167496184400502,-0.42173015256988,0.271694821193434,-0.358385617693825,-0.363581856431983,0.279278637198476,0.312864697660629,-0.197625516886374,0.066750379802604,-0.537479981483735,0.361768501751334,0.426674181248454,0.346111643030292,0.213673174993316,-0.0594480546629873,-0.445613671251887,0.302347524954583,-0.319708054748821,-0.474227292820812,-0.228044338911126,-0.492296645228175,0.460257217331123,0.333734258535254,-0.48463184982369,-0.277146746056522,0.00605402956832849,0.0815868617172395,-0.0310215087907651,0.195807483304727,0.364120700420738,0.071527457055337,-0.0574569958546419,-0.0236781076923224,-0.240571004897929,0.277622857198248,-0.185728235309787,0.138360804094805,-0.352366736045421,-0.485507719942245,-0.425980676741721,-0.382369281858056,0.527270042467145,-0.262635455520725,-0.225382168539899,-0.13431292585567,0.052155866487109,0.543206432522007,-0.196288776544938,-0.488237322225553,0.359026722649979,0.368110692693541,0.386489170489159,-0.50622646211368,-0.0183871366002181,0.275139343351331,0.402167742269969,-0.234957884459285,-0.143153501437044,0.17366764220442,0.50118678338922,-0.19529586547841,0.389279492751917,-0.0768884644533303,-0.0139259019037822,-0.14910763510739,-0.448148416692656,-0.158361946357197,0.269563065327981,-0.163961903953583,0.21560270619667,-0.0848468858421379,-0.0301422189262242,-0.454190953799699,0.249893704392276,0.299747827547076,0.162945149741048,-0.324366159070769,0.0488430282007094,0.231115163307584,-0.0672107894052589,-0.14077531250363,-0.29623886967686,0.278001220560014,-0.451346645307918,0.318978141394263,0.522642302353645,-0.292071173400172,0.0219680572448227,0.0312993936900371,0.0584217492649122,0.487815077790379,0.0899757517073139,-0.378014017272036,-0.164527859611669,-0.236838754625637,0.201791112250128,0.130487274846661,0.370689740443133,-0.3275134994971,0.527719237638778,-0.22790205978547,-0.233773339760833,-0.0652734908594692,0.11264235516109,-0.481997742269493,0.50027911175951,-0.179727862009623,0.54594938368122,-0.133176526240323,-0.300631394298869,-0.428998827155504,0.318647179677759,0.0555274208937938,-0.0838544720244794,-0.127333267635397,-0.481425158211754,0.051553307473032,0.215882714591761,-0.136797650095124,0.0128120000310543,-0.520041972233203,-0.391584004625668,0.378616201963342,0.366563649470277,0.0449194732780536,-0.103011995259472,0.238091916366115,-0.0243217098299376,0.0964260910389551,0.187899739610653,0.505189331999567,0.457959302794367,0.367141150908215,-0.542219438428064,-0.48221299309032,0.304344835993605,-0.127563440561159,-0.18620856363715,0.424236843048842,-0.0491277820262092,0.0782697608312243,-0.0868611695409317,0.156739053547334,0.311551052262098,0.0214674930448285,0.489788980649504,0.13872698832401,-0.121594324220052,-0.170807985822197,-0.299891277088068,0.324869308381551,-0.0535350547430435,0.150699684837512,-0.125147327709744,-0.0697721610022905,0.255144383065233,0.310426812749076,-0.137959478981761,0.171108132517474,0.360687268185651,0.158823677749281,-0.402267237844358,0.174641226388437,0.267815324503571,-0.349559212296044,0.351005734424356,-0.25608517900952,-0.481391797595266,-0.432556261426184,-0.430327987935339,0.19578819443586,0.396205216622355,-0.151403686877003,0.541931828168845,0.137640099816106,0.145887387324468,-0.0359595778230653,0.249789620852821,0.473669366932925,-0.322886454394904,0.0738644273170269,0.349749404141544,-0.262605048192914,0.546562090792067,-0.331561543252235,0.41802784523648,-0.0445726017452234,0.154852666089035,0.0963643739852044,-0.267644972052065,0.213133141703728,0.262182923148403,-0.0791073481769271,0.131379276647972,-0.46090324177139,-0.150989444601848,0.204698740853919,0.455738746562874,-0.498291359530188,0.011843832517268,-0.237835998734626,-0.154835291557538,-0.248844939914206,-0.330186139081874,-0.246694394224373,-0.33217020779377,-0.446406113113949,-0.474248036567682,0.369641565381961,-0.230307112193747,-0.215138728652691,0.0688831261438629,-0.204571470869852,-0.0533245846690768,0.529759489116389,-0.232967152760141,0.426629625121691,-0.38807423133649,0.0882393247408617,-0.29692710119799,0.390248442500307,0.186286035010955,0.354519367444343,0.00361235054397319,-0.220915371034527,0.0192334701932762,-0.249482347675385,0.377862147997223,-0.2243569828658,0.228247944721182,0.426153588152492,-0.515089999601306,0.534558544098361,0.342203011035212,0.399932826165592,-0.295384827163645,-0.118433228677077,-0.117398254687003,-0.537329151681024,-0.185333365305457,-0.528325702234684,-0.128858049107901,0.104238772834286,0.042303386230908,-0.336811916150594,-0.0346427005335017,-0.443404075718624,0.263537473852679,0.135717889224353,-0.0640164002862409,0.521060914590982,0.346297661973405,-0.122982951913262,-0.399488847466824,0.209919860028337,-0.351398045517999,0.0528829379442189,-0.0953153829871516,0.219219526293397,-0.000671013615251228,-0.00112079204753722,0.523330874504729,-0.446330890988855,0.514170007468449,-0.283454483663114,0.182541972145945,-0.0417855465739292,-0.131695285459064,0.46436163633769,0.246706664016603,0.160368702764351,
0.278890520249282,-0.251815016910041,0.278339528722017,0.354190532607461,-0.0106119380784059,-0.515435782201631,-0.0046541644619975,-0.363530843575271,-0.518166553957819,0.450247573669781,0.114365832581248,0.142900623149798,-0.124602930106962,-0.421156387576775,0.474539080780331,-0.103964956638654,0.486252855221092,-0.168370194845923,-0.0278727791971998,0.392519435127045,-0.506630962897834,0.261932459999813,0.371241902953708,0.00549879271853838,0.355996365910642,-0.129279229661775,0.290454048225953,0.166325670118033,-0.419247268653044,0.345039070928551,-0.291951089807359,0.364651953869384,-0.21653485394714,-0.472878041557846,-0.51684528216533,-0.515825486347481,-0.111316494301134,-0.289281559842197,-0.0228037465482394,0.319985373564052,0.0263514179840526,0.064890394095772,0.243261842406703,0.256945774871786,-0.0131573545978374,0.281523849025041,-0.31018285978245,0.307677146146621,-0.11946055858396,0.188549811753465,-0.455727201875462,0.466448997085708,-0.125650616280768,-0.344527867057158,0.0264251469028328,0.268298645595199,0.350476418674857,-0.35844622208128,-0.411226080758446,-0.220660285484262,0.18709391739328,-0.335370447697276,0.325175050893816,-0.0699627942241575,0.28386808985044,0.40284272751964,-0.0375566563040745,0.3944407946929,-0.158645883044631,0.210765858740252,0.45160036722847,-0.262421167777861,0.343809322919233,0.471324664978997,-0.19640343262272,0.387209371437181,0.064935434075503,-0.621981540697199,-0.188002960106867,0.362869630148991,-0.412011102589536,0.217213478992934,-0.0563059283783164,-0.517761768600959,0.45320419165014,-0.00335710716779968,0.14401939776064,-0.479740973935806,-0.446099983000685,0.332841624270251,-0.414861418403356,0.110246540849218,0.245129039098984,-0.0487497884770983,0.235656194357576,-0.30845086625228,0.208041671173293,-0.288287452363927,0.0496718484306621,0.283660433793986,-0.442010742273009,0.327243550569892,-0.369734005460148,-0.136472782045151,-0.317621914296921,0.161242027570427,0.0198588063113389,0.326980673019856,-0.336325636473279,0.351906991636379,-0.477460182979856,-0.514549167991919,0.217946410901062,0.256752536923828,-0.0132195389842915,0.341237939169107,-0.274674716714974,0.0238183244806452,0.250220943773253,-0.117906794911285,-0.389391637819444,-0.280158230873349,0.402959443077896,0.510355961517583,0.298995128466574,0.148127381871428,-0.17487815624241,0.21288023034128,-0.560010861679943,0.0752543290628786,0.259032744597516,0.31721152473219,-0.193243765936121,-0.407991306615294,-0.468648356756192,0.433349689617765,-0.304026101625894,0.453108863851448,0.542979198538009,0.414309879552285,0.158117084437594,-0.0936802500504756,0.38331207014449,0.259411116707428,-0.125468392682119,-0.243487931387027,0.233575687645321,-0.268004924395752,-0.336389166932578,0.401656256823726,0.390934211620744,0.109204919839861,-0.36433450750912,-0.0371726146170314,-0.217745134398093,0.0714918873780416,0.483746993938649,0.254078455955484,-0.343374319433869,-0.536565534353157,-0.343260351958374,-0.297224461938273,-0.307071949724507,0.451352311788564,0.173375316212877,-0.43512629283696,-0.147653731062944,0.0627755682170349,-0.406025502758726,0.369244729340189,-0.459840161968071,-0.438568303943784,0.295731503999674,-0.0739123954374652,-0.353317336057443,-0.19681411090001,-0.344546482892521,-0.0432002667959523,-0.0265592870861313,-0.53085198960298,0.317437507249793,0.48867361832697,-0.579117710451753,0.0489216942987702,0.398612757100506,-0.409102591936443,-0.460396431596744,0.151192644248655,0.0076214085666204,-0.292556016809426,0.283061640458525,-0.141311714299406,-0.510370823722163,-0.0324169699258769,0.00225983273770359,0.388502931127123,0.31451409099473,0.26286727880001,0.136109072688819,0.40117368977058,-0.579327938382417,-0.0526459471449262,-0.171761222439013,-0.360463831102324,0.215742828880921,0.215881946303597,-0.530624943056155,0.016147913806869,0.248050677689851,0.241075476080567,-0.22496472581765,0.366148727391287,0.242739391955922,0.216943506834192,-0.455683912472623,-0.503990135074199,0.358949366119844,-0.463158868955686,-0.285363423420152,0.186574255795947,0.0246947822833358,0.213453337841953,0.150981539313839,-0.104293348772748,-0.0204402976174414,-0.321255361335265,-0.339651058354714,0.497632180908974,0.298468540556535,-0.221165501986905,-0.0984910213556509,-0.51429639933144,0.0579311736838675,-0.213720728043476,-0.146315820411212,-0.515089499846251,-0.327589458737337,0.230861819986084,0.503088817730413,0.334778452490928,-0.23459905391494,-0.0396581266351569,-0.547886212872742,-0.350117191907849,-0.18977244123645,0.185122732899905,-0.483734229009599,0.411702340449328,-0.248468805967771,-0.313413779941514,0.133870326526642,-0.471787745613847,-0.162576761162847,0.293519602288302,0.270318387283302,0.204688005189071,0.0914266667250894,-0.455982882026058,0.347276973042966,-0.0571655434415127,-0.472564919219472,0.451838291841032,0.428171395988596,0.188049496048071,0.365702379794598,-0.121101811848244,0.263218398607798,0.0761286457355663,-0.599261188461072,-0.332419826758589,-0.370349756546821,-0.505074192390973,-0.431917081689242,0.334931655210192,-0.00643977854440935,0.257713086570204,-0.379208627215015,-0.0886002835773333,-0.48923687931254,-0.333157894849985,-0.219400685233205,-0.404120210618462,-0.415268832252418,0.358551211812259,-0.237483660855406,0.23270992200019,-0.0667494277533805,-0.431539651208353,0.456038258359006,-0.526326048265151,-0.22917356407701,0.101089138603674,0.234533499361971,0.45195784454093,0.399712176991262,-0.24069984980643,0.143996800733103,0.0987016716956001,-0.318131318205303,-0.339392947802527,0.443075658341807,0.27027274091908,-0.333137861074658,0.122016695353042,-0.180815100124492,-0.0431098584271373,0.0971613786101568,0.461471633400904,0.293220712781162,-0.0987806744834224,-0.225790851920812,-0.391387120309503,-0.315181063085516,0.0697447757561233,-0.168607829518946,-0.426330952389861,0.0742693113822607,-0.552506918791275,0.444979474328986,-0.0954764777237651,0.0201569706894313,-0.476577150705156,0.279288036708229,0.0151800665092282,-0.480537937171861,-0.292346013913216,0.0815100680092405,-0.0651046349679699,-0.39367383889645,0.048625084547405,-0.32947296643189,0.205703825296517,-0.26395481194353,0.107397306287209,0.041651594339262,-0.341594909296584,0.292744309651285,0.467399206424517,0.273697068433573,0.0295839032084686,0.0216026296769936,-0.143938468056115,-0.40901088374412,0.531591035316808,-0.482331026043196,0.299047091230391,0.288805417259772,0.183976891992036,-0.112178100678818,-0.273616677804164,-0.407105169465701,0.413522938567619,0.434601679149053,0.160793429239307,-0.204519969948662,0.122805631898429,0.202439574936323,0.335079198113984,0.0962097223115387,0.406824418023283,0.512725374575368,-0.477710619281387,0.221721748886543,0.435519203469261,0.291502506318614,0.102274488657806,0.327911575547098,0.130739158020299,0.00712001185108061,-0.488936725169137,0.50042595715488,0.406417125610938,0.241193000933968,0.291339181182845,0.264577080901773,0.22084537308448,-0.201074937421197,0.445151980123423,0.0380153394628939,0.136480261142232,0.209010757177485,-0.341395526421603,0.0209759636150798,0.270207971726089,-0.168508109521925,-0.306855832023187,-0.284630758991939,0.201927726470386,-0.0393347301995775,0.484154702258708,-0.381909307843966,0.321137250823365,-0.194123765302218,0.0491399567246136,-0.0487118059743103,-0.160463017095823,0.376507484677546,0.350008951081259,-0.319388832678385,-0.308044372669743,0.427877277863473,-0.342643872382256,-0.279271600999445,-0.0861986468455185,-0.356043391372966,0.427457247411182,-0.432693857012736,-0.132400786881765,0.354332701678181,-0.234462530860777,-0.391071249893452,0.0710847029570108,0.485061315236331,-0.211965065675031,0.152341514977068,0.437998193145452,-0.350263837339811,-0.218055240244967,-0.0464093163779674,-0.199992294759244,0.324765739555086,-0.549102911889202,0.178679571485187,0.12051595824307,0.421947973242279,-0.133979585746865,0.464800536032802,-0.423366148979511,0.365221791382152,-0.482525517195386,0.428186222827967,-0.49379027609673,0.335463855105558,0.0648323153867369,0.416441954459874,-0.262615695335206,-0.40720449049326,0.297902633729337,0.304139095297031,0.11114287222763,-0.158265792747658,-0.120451487331452,-0.570323805223481,-0.602372725319391,-0.261987961804238,-0.239255049399373,0.04492144447893,-0.25479652463699,-0.000696421712444137,-0.278490879304835,0.264389716193266,0.44598764560751,-0.30401680737104,0.227716621841243,0.10686414468582,0.536657197973141,-0.327938024286788,-0.196993082310671,0.19378699351993,-0.248485551623013,0.32794171377447,0.444592944314494,-0.370058044437237,0.0262107530754326,-0.185749668563658,0.523029707496661,-0.350672435534856,-0.305307291629062,0.398197589971065,0.506701263376276,-0.344817373596187,0.216590496179462,0.208680004343142,-0.549824071429581,0.155781633155328,0.0121240380918615,0.256142050639851,0.0247379094807169,0.15620672966943,0.209887260413277,-0.191135141047403,-0.220655304910462,0.136098975676404,0.41472401320505,-0.274919107276852,0.313573754238563,-0.0730894980167907,0.156826257430453,-0.126091094534396,-0.225095843278913,-0.267035858675545,0.215851823403633,0.176697645941126,-0.0168667053841432,0.0329005141230349,-0.00384613431486799,0.523308021517186,0.512146119451568,-0.365194800054222,0.358701308995567,0.506051113575018,0.186496052614428,0.491761061162295,-0.461532957152032,-0.235000569566205,0.531362394440106,-0.0988509285641383,0.431200908750992,0.142018898643935,-0.422653050215068,0.193522102384508,-0.0228736066496699,-0.241915104303636,0.532901293502556,-0.161323629775906,0.357190024755191,0.385551826733586,0.196137469904379,0.0238715761603731,-0.282033594905498,-0.266913289578441,0.306269175344844,0.151247929725407,-0.41597431586341,0.309040140232748,0.440929950302868,-0.149582815158721,0.261562241569846,-0.122135778908379,0.462750780274494,-0.214435637758378,-0.431985193462574,-0.188522642318425,0.374577307500692,-0.513294677012503,-0.367968369179895,0.386986780562585,-0.472128494047524,-0.242358066853614,-0.507496802145342,0.405637779036198,0.3650277810728,0.00466024976012073,0.117664789572004,0.303621105706993,0.110912441303179,0.0522971920085743,0.0535437315111142,-0.303577893377095,0.40091361118296,0.213613750362389,-0.0255203881204704,0.116869397128346,-0.0738163401989756,0.308015425316441,0.183099698862923,0.279952983058207,-0.18171028017798,-0.194415657232541,-0.531226600257918,0.463299840186805,0.434976070488776,0.345472540493437,-0.489062075945079,0.0393327334234875,-0.242421790646218,-0.220725281993173,0.14650647217073,-0.100712051393422,0.507413087407438,-0.117083100175889,-0.124339458177707,0.444988103302669,-0.0464406705779949,0.329958661612958,-0.272356292434105,-0.243271878709124,0.116741536964496,-0.153946214263762,-0.25871863551859,0.46462285749723,-0.162403476771578,0.0477555617071294,-0.0168749396160349,-0.101284205063715,0.114132657400024,-0.434531100699739,-0.543751951626495,-0.149974506037098,0.514822573525948,-0.0410213495169114,0.0479852685581654,0.39145484579077,-0.527035101411244,0.307524447426555,-0.20754278927696,-0.0566990676341649,0.347446784186866,0.233591040535772,-0.235271314013034,-0.377042470553498,0.346612156372087,0.303119925633604,0.0668551022681407,-0.174918815970444,0.278989617388358,0.167057573593501,0.455497900604037,0.468964759473956,-0.255167331510971,-0.409868017626369,-0.436837522061632,-0.483279548319157,-0.347480883830977,-0.249128570931681,-0.361057543051208,-0.040451234388887,0.163077367142384,0.0499691216758162,-0.0951607233382817,-0.446886605795171,0.156543074792824,-0.226596086349086,0.298227862297801,0.173611115173148,-0.559533322082719,0.246288266040392,0.135528857611806,-0.140971213216247,-0.0247867554677828,0.429121120923451,0.457134373778126,-0.536771746934035,0.203097824931968,0.163620794471465,-0.0704877288620227,0.0605961013145982,-0.496763171967307,-0.1321045248381,-0.140591220054988,0.374215146225047,0.432936531987118,-0.534947424173451,-0.0100795113626017,-0.00220968110078502,-0.176487965530495,0.282461076420337,-0.228480419840341,-0.166536479506206,0.341075296568633,-0.420448445578303,0.527452182368556,-0.00955961474550505,0.328002839438438,-0.249615391961474,-0.449566853106758,-0.52151977957589,0.119220583950629,-0.269932133171524,0.165605168942275,-0.306941813416892,0.268356707255516,0.134818469928811,0.0958264111195676,-0.399411206063952,0.159694228425132,0.216555905830236,0.044772542525829,-0.542521815711828,0.372847614118554,0.238274595975869,-0.303759560771351,-0.235187955278993,0.492250116010658,0.110852060517312,0.21876218807708,0.250513549504464,0.381518244456156,0.343306215318037,-0.338745231548035,0.282302391319277,-0.114262267007548,-0.121405536687295,0.416646524780319,-0.541128137786103,0.138352307442576,-0.280831668754466,-0.502412382386151,-0.173853657354273,-0.231339335566307,0.0135952193429535,0.413373113230274,0.0728159525596227,0.467041225071453,0.0165137215429667,0.340465578319172,0.0510419958727546,-0.100323576626061,0.32515208261617,0.367189510966509,0.272077735026936,-0.125923526844259,0.089693600899823,0.0829561949236632,0.422893175933808,0.354355246753649,-0.0432398319327393,-0.269162217276948,0.525708027971053,0.367449889128122,-0.125800198391297,-0.186979818910149,0.0445355280812981,-0.0770970536667004,-0.14552508828363,-0.463770757691407,0.401038063148035,-0.0401888791603863,-0.0778773683541963,0.25954259294637,0.142202991504326,0.0694834374770595,-0.118233177625607,-0.0444322394294876,0.0478677859529595,0.168206580666816,-0.339711781506908,0.396050815587811,0.508861716844974,-0.431275218376833,-0.0093586291342072,-0.162416296863657,-0.0643781124057295,0.0720928137109001,0.354583693984094,0.0608545482808305,-0.0206293281048234,-0.0292384449993045,-0.266397555088277,0.0850452375440307,0.301162365419448,0.0887213420551336,-0.118347533157441,-0.417926232869295,-0.49038595628044,0.318868221992545,-0.38824291637347,-0.434866324546822,0.270960923954845,0.387648684797083,-0.509399987244287,0.158584086047613,0.326247327863718,0.30724476485857,-0.152424943313418,-0.444875738296726,-0.376286536891958,-0.388443817631895,0.383300825217183,0.276997862683573,0.451266391182244,0.0981698250870592,-0.212669510493242,0.415121001242158,-0.0734822985619942,0.146454649392005,-0.36095084563394,0.49432788625998,-0.522909809560423,-0.485781538153785,0.336035440710842,-0.279540480411319,0.443103596886663,-0.352674753838576,0.0368120106729732,0.0513046379538948,0.135661167449449,-0.481303726189163,0.0801964747300932,0.521070270905935,0.00322590137974608,-0.245540339917589,-0.0254475117226827,0.415530101387415,
-0.0450833298010124,-0.0922777903038703,-0.0411611438396827,-0.373449175362747,-0.458561767581155,-0.45812115519042,-0.542992235637537,-0.519968300206157,0.0740509258514953,-0.108315860937601,0.348828537539841,0.0669627985625266,0.479272789921531,-0.15191033757418,0.117318341537744,0.0636682450870013,0.385043079898003,-0.227302122242778,-0.412757782008515,-0.389767664300299,0.131577065404188,-0.370909507949117,-0.394927917393324,0.346721956806122,-0.436918904209866,-0.48967305430104,-0.25773945358472,0.185534472686305,-0.144472334756584,0.45673166575232,-0.442745495937139,-0.0994226500519594,-0.101724493033563,0.496020310633505,-0.420724089732409,0.449996832434134,-0.0879358739879929,0.4683197536683,0.370860798592849,0.228666718399146,0.289420320248669,-0.290338370985284,-0.165452789431517,-0.488672385278545,0.487699656914644,0.428889442882259,0.0529479666990083,0.431301895066515,0.346689720443007,-0.459616152665587,0.232623358948371,0.0206738359999194,-0.111308718989645,0.137571673088711,0.420302065308967,0.212336264270765,0.138033273214185,-0.27847397769282,-0.471901333163563,-0.537620390324924,0.335341177086766,0.0782846019250949,0.17870758825937,-0.195522547694407,-0.00135559332002734,0.389565727533551,-0.225292809353128,0.00102336252651925,0.454939338345523,0.451009589217128,-0.0805850041979143,-0.526227415345718,-0.100453382547135,-0.493348715538376,-0.390291097862407,-0.32473673290665,0.495331301794498,0.00278168567048712,0.0808447923892451,-0.502976555098098,-0.367892795278309,0.215063094763115,-0.0321185883974645,0.35708207491256,-0.0700612797162774,-0.530761337175726,-0.508373998306708,-0.447964653916942,0.153956534991674,-0.04793491921473,0.0344878497785371,0.07217308636492,-0.443193078479284,0.410109203143371,0.363459161902327,-0.554018371172225,-0.0940209518533648,0.110252677389829,0.176154957012635,0.320279393861137,0.234230009858002,0.497879115911633,0.028686088360209,-0.276570218436911,-0.542280967446638,-0.253628012320171,0.361609233004066,0.153507467809194,-0.0702777434392945,-0.398237425734855,-0.544059992170778,0.294299834040951,-0.158045091202001,0.103039107110152,0.268856967594988,0.135555057226566,0.218827324842502,0.254119155712571,0.455800322896536,0.311960396250823,-0.167853546322189,-0.104378062141923,0.115214744164598,0.092565986780576,-0.0340900204626562,0.444813062419798,0.0834135048262666,0.464236808921983,0.265920092011823,0.145738892274089,0.0124679336505026,-0.0285809130995398,-0.295365141895255,-0.182323288149667,-0.0406011644127729,0.246986236415431,-0.537355814865789,-0.20966852849114,-0.0399696932371069,-0.0903199645271363,0.443016562556892,-0.25139913134332,-0.307679976405685,0.524944718729152,-0.0197962504818535,0.057853243238831,-0.239192947423975,0.433570351658418,0.422571492801962,0.476416671556727,0.152539067325607,0.128575415456573,-0.000376323273149203,0.12765084643235,0.0718340686037427,0.0767291942397358,0.482212706403678,0.0976381496951225,0.125075628290389,-0.358267752673906,0.317712275769535,-0.269442378147479,0.539356357855657,0.219928661249147,0.437248426896098,-0.269271293446842,0.00787473361496717,-0.5442508228671,0.491447398659279,-0.0587978731236114,0.436538116385464,-0.282145969164119,-0.287566099412299,-0.14046107367874,0.355689938743227,0.305927059256291,0.16519692818751,-0.409586157114402,0.210718099446591,-0.384964614353435,-0.457600003952715,-0.537366614523485,-0.493412271676978,-0.364929150235686,0.475350492207043,0.387954972915952,-0.0112417256384846,-0.532261103919516,-0.0153654644091123,0.137583709431357,-0.456503534382642,-0.477592221020387,-0.0640617261798282,-0.354924783402135,-0.0391471734704751,0.111264175133735,0.0483600640113105,-0.525265439230546,-0.421436267610182,-0.0063066160905591,-0.292361551012434,-0.528717059564948,-0.0140115734085155,-0.307582509699264,0.4616011139144,0.0851068813783441,0.532844186303224,-0.188687376402989,-0.273297532975715,-0.0663326192467898,-0.476003068758888,0.327266185826587,-0.534300793767811,-0.040647996868162,-0.225928241751033,0.125938922241257,-0.269061027471793,0.182960362170615,0.130862644832896,-0.36374533368725,0.525632923708862,0.155656380639262,0.185522725992972,-0.0345777465103208,-0.203309995603768,-0.125014737399221,0.380246402091955,-0.223784036228174,-0.379118907532699,0.281315516658236,0.18196749542705,-0.0760465082569305,-0.372769853485527,0.171654867175786,0.459964393116771,-0.415562118536473,0.154891631961473,-0.407335155546679,0.405599865945866,-0.47998224329521,-0.377508501264232,0.102924168071086,-0.534516302501919,0.0304931083524736,0.0714233003596685,0.516677748267135,-0.359117180008125,-0.149855024188716,0.521757689788055,0.36645446427795,0.463411272255235,-0.476893433675462,0.157084527899959,-0.112002011779945,-0.0716369985688579,-0.532451701908539,-0.248402810291777,-0.514162690157012,-0.216762115069689,-0.369048683830469,-0.0542604733218901,0.520676343307979,0.355145070081319,-0.308789163695252,-0.416071594301347,-0.516494208678031,0.135194915900513,0.421173040962279,-0.486761775594351,0.508733478284475,0.279617211402539,0.158333592532924,-0.000126591669139244,-0.408742943231375,0.407943911498641,0.475883094724618,0.313665974427279,0.405358141461433,0.351022900578312,0.270253931735975,-0.253948951423746,0.0499022951267549,-0.25049218989534,-0.208288335786068,-0.523338284880728,0.102451162242125,-0.527585763107938,-0.334612074831225,0.317006852925869,-0.267502598472788,-0.442653941363967,-0.355241463586147,0.152188786577936,-0.0687081166860215,-0.340388606935996,-0.0594789870291232,0.0233851784891229,0.0528821532639816,-0.273733277523312,0.317562221471452,-0.486667091082272,0.164540528977153,0.076562211882115,-0.306564215160402,-0.265921059450516,-0.230148099031816,-0.204726601571193,0.431115622313897,0.397364615045652,0.514203508103027,0.497571099786033,-0.089487322061284,-0.231060281677402,0.140924392551367,-0.302204800372138,0.468467311530911,-0.116760701066607,-0.165435934200331,-0.50506744742044,0.0712291602587066,-0.523711795395628,-0.303483517173592,-0.143441741706638,-0.00991866712253424,-0.388515702067877,-0.542975108274696,-0.385684009572718,0.0417352585860632,0.100471584046114,-0.29753340421391,0.225318321719344,0.180601800502089,-0.290551990728777,0.39971041249938,-0.0898534561717741,0.0899218037395713,-0.267932114644301,-0.147760185610674,-0.204241799219536,-0.378258140725327,-0.474155035394586,-0.446495789579775,-0.165752401908345,-0.103708382095291,-0.0497480325691981,-0.28139160857733,0.105306948487602,0.469052981465976,-0.00383682525876912,-0.448295717927366,-0.507981516513924,0.375860435422316,-0.455871719832191,0.0332729004642394,-0.461894947492416,-0.0913644818340423,0.000140288228490037,-0.252474446302009,0.342717000699575,-0.548134442741201,0.515617128007851,-0.389662254046656,-0.0103392363970052,0.198767940547575,-0.456382094345444,0.430631373177306,-0.345806663687039,0.466903407998553,-0.379480603028303,0.383377114906235,0.353109154313248,-0.0112336191446822,-0.178170737611062,-0.0608189835677206,0.299433327739833,0.335213643219641,-0.506539206339147,-0.0838081618357191,0.172717505689279,-0.137737605486013,0.494690564368023,-0.0536265480997866,0.153675655299828,0.0478352397362083,-0.216183774348081,0.440692851125388,0.238194338112867,-0.045671414129513,0.281600126603908,-0.322914174451197,0.0809672140428726,-0.164727420529106,-0.123127819970999,-0.0384716580355434,0.154166167786738,-0.313291936393081,-0.305776814205651,0.0582994870572002,0.216858021559779,0.23212659743743,0.463422091857559,0.132459430841711,-0.462682478312016,0.112750610635489,0.24852553173324,0.182904485800149,0.283745346033267,-0.0556879068630258,0.295132601940956,0.448713204306909,-0.110169840520508,-0.33019317329925,0.064263108948759,-0.152224516273585,-0.341632509084301,0.326209361216529,0.349107255172657,-0.432081562910353,0.143024658030958,0.142209267461926,-0.407185506542021,-0.280255339446095,0.423910437687716,-0.0601782260626785,0.101321581076137,-0.560142554881182,-0.543225709697195,0.143191016270603,0.0661344709788985,0.124306956966343,-0.484096842424571,0.216033266814957,0.325480549621858,0.0573514764443346,-0.0451021302712568,0.472464206953463,-0.198639248918176,0.508479007256835,-0.406726266996849,0.386135391949373,-0.540473791831279,0.156324577225877,0.188877649865156,-0.274685140400804,0.362287489294442,-0.201375393947535,0.217448648969593,-0.169030474567259,0.368976723647036,-0.184895240326048,0.514117826708122,0.048862586175211,0.129329019129646,-0.361836540716088,0.395056965620252,-0.226495761722849,0.319185975627331,0.128506778067652,0.0683273493612464,-0.45088910382238,0.466233695649037,-0.539090432212814,-0.273619060573479,0.296982626457259,-0.367381264666184,-0.308815639378091,0.0200023108844796,-0.377779653584279,0.272252012035496,-0.434034737414144,-0.411775436344042,-0.151296064119384,-0.00114861562252286,-0.279561749513618,-0.155864539849087,-0.187473348738516,0.146439578715737,0.528189235926997,-0.212974580397505,0.306553656979641,-0.176925691276476,-0.400728821871223,-0.318905647105384,0.268457427624162,0.219081719228915,0.471156274974914,0.391998938214348,-0.0835075563280272,0.23917572845498,-0.133711383810605,0.500425687974337,-0.319578445058264,-0.541258818292161,-0.0227676239678978,-0.305962450803204,0.513655562822315,0.0664747883269683,-0.255658475651466,0.145234223190519,0.212712149561635,0.465334320253825,-0.0756403237286455,-0.453170445189805,0.200275016602589,0.469437603107334,0.139834934152127,0.036318370874532,-0.272415335678747,-0.460414640474433,0.224687993305588,0.498123001810301,-0.208219960058667,0.157778648404231,0.0913956647888347,-0.307339759119997,0.0861473299452178,0.482506764559163,-0.458312107057632,-0.180113515303344,-0.468179781602809,-0.569024166884911,0.00943922381900665,-0.22454438066427,-0.458795128587709,0.303564440379653,0.474407569465841,-0.372165446942859,-0.316699405315452,0.375262518134092,-0.488689809999376,0.147959027558133,-0.100134339221809,0.118632259904296,-0.314909907427358,0.374653199698586,-0.360273820600353,0.0876298923415782,0.417156388975078,-0.362970824973616,-0.485178903561911,-0.449895209510022,-0.00579433943652988,-0.269744639739964,0.433190191600466,0.0531916726303078,0.341390510928547,-0.231426823597537,0.44926894292393,0.464908952021787,0.284235069952719,0.047707771780603,-0.394480404219911,-0.177901536793159,0.0249322459967293,0.204508121627029,0.253897220594378,0.27356940605718,-0.449763540155802,-0.539627875725504,-0.23683554147436,0.43800985455812,-0.12170557790537,0.535890049992225,-0.288859865120856,-0.318582132353614,-0.168371776642871,0.509215665248826,-0.408152550969525,0.463515337362961,0.473324705420092,-0.378362036931911,-0.405737568809594,0.0700793100067367,0.206561752110501,-0.123216265495323,0.347902082779266,-0.297707020393671,-0.512005130817814,-0.0161530614256588,-0.47447627755959,-0.289961556334812,0.0670280285520879,0.502258584465894,0.302406067589652,0.446503243204827,-0.514228931610928,0.188572603427851,-0.252568357846286,0.52794701418479,0.180501762803131,-0.509620674790421,-0.298337273075621,-0.0938365810761893,0.336213732054142,0.509326951394283,-0.139676052295269,-0.0663593719883544,-0.356989799404744,0.390468256425505,0.0490920590874907,-0.0347149233262342,0.0380184968181817,-0.2260042625391,0.239394841006117,-0.478119652104615,-0.27953319700084,-0.441416318445726,-0.530868818485518,-0.328299934264493,0.280798203326278,-0.455776971113208,-0.263575816073688,0.0539720598182457,-0.0585992852152091,0.295495725460319,-0.242612797678669,-0.0981131613485105,-0.545454521672221,-0.0755187448736273,0.497408191873218,0.0313539741037987,-0.482222214418249,0.414915379830087,0.415712383187109,0.441713252072996,0.295710100100716,-0.471483156675245,-0.35056331657711,-0.0291252255173583,-0.17072622197838,-0.231417820851459,0.260161674378505,0.295520357621027,0.260271040362981,-0.00430490444321956,-0.279514784424818,0.195456371872704,-0.211762230659967,0.270701208910625,-0.140235532094385,-0.511059894191105,0.242718793150918,0.0809982666552931,0.318540911163722,0.310605706270079,0.330742308840395,0.252770727690541,-0.505126128766014,0.4483333618706,-0.347104970468287,-0.309042282239979,0.42418609720248,-0.539740650160292,-0.41629547527006,-0.468165895884488,-0.406350500153407,0.421033461460026,-0.522565908623462,-0.0598114418539299,0.342610586418803,-0.344822698294576,0.149747736474869,-0.36215995812512,-0.215312945654653,0.0860597234633974,0.156585466838586,-0.25912058946574,0.206868230319534,-0.246801144481391,-0.388946532129092,0.156426298321783,-0.0633123690761465,0.450016116702538,-0.280336572938613,-0.273312226780198,-0.495524965698373,-0.346045405344133,-0.533297622498186,0.0403330716578082,-0.419834234635534,-0.365825844705852,-0.103525463935717,-0.550243307890282,-0.117537256361436,-0.231756837919869,0.0239464974141306,-0.537755495820526,0.395176548053666,0.0024760813258846,0.114600809399014,0.0779967884425312,0.504909510034615,0.212331675847939,0.353476146828839,-0.43259104380612,-0.537694723097133,-0.319900684692532,0.306850315355415,-0.392664176673435,-0.0444298410398812,0.498684796340848,-0.291772971392785,0.35374908769818,-0.533868595093739,0.338496432161243,0.0386075918678902,-0.320024977938074,-0.152810441259195,-0.253515629853293,0.502570004755846,-0.367649604709826,-0.0355961846254715,-0.185888207685434,0.143960067209895,-0.143639871778481,-0.337357927911759,-0.150140622044707,0.0215671272574421,0.00289598376347526,0.131462203398067,0.239914859610766,0.360411315479669,-0.0186443602739852,-0.194219552645883,-0.0897303283389178,-0.141796683724305,0.00615574509711116,-0.36797113776914,0.18323104112895,0.104406422982205,0.0618054411139631,-0.466890601343978,0.016018459352074,0.246268797526339,0.314774550135506,0.229113262491287,-0.0464944355988982,0.352135232801337,-0.240178063040957,0.00735559781229576,0.0824516622407995,0.114879795221791,0.132828562872534,0.20013010775805,-0.407939886651459,-0.0832498815979428,0.333195668683685,-0.0287493830210841,-0.330040744903851,0.176065922955899,-0.317104927072208,-0.2337554111194,-0.309802817207593,0.393676191477376,-0.235033441558106,-0.265995203369073,0.497717417371749,0.307099759460906,-0.229281835016687,-0.19755703375174,-0.169130143652038,0.240086973941147,0.497511794715555,-0.065795903804501,-0.474773086503494,0.183058642376492,0.404130382562926,0.0681089043857251,-0.158051374883668,-0.299629442023242,-0.279558694502958,0.0321614853044297,0.0346796870683434,-0.438974873672207,0.390489314952551,0.336351388144745,0.512905637814873,-0.43735476976802,-0.256456755319637,0.201425926109809,0.09121618628192,0.161711131030696,-0.0949683421314462,0.470418924037716,
0.0357754313960058,0.0404770491076881,0.491151576199975,0.529289611719769,-0.370327141484895,-0.00930015800706215,-0.256759857808033,0.20370591897301,-0.0283688456301008,-0.300838241195528,0.0721520645044321,-0.393394959967052,-0.144977689551745,-0.386081026743537,-0.198871714768044,0.541063454310172,0.196625247531369,0.198233101719192,0.058779635956527,-0.27725743103229,0.133456184331665,-0.195841748011669,0.458468679884665,-0.305518567879196,-0.402213342418663,-0.413006007253039,0.302622228526395,-0.421045115722825,0.015951990174574,0.490005436482361,-0.277024903138559,-0.278156839765436,0.30241977562165,-0.267735329472772,0.419139806067091,-0.409806344603425,-0.0115424606240296,0.00910259480799632,0.452690028349174,0.0136174670374873,-0.357719757805977,0.296156828215149,-0.556991065399005,-0.384771871346984,0.140941070318169,-0.0119925262346306,0.105856186274319,-0.591471651015539,0.258946221156457,-0.232326753524609,0.338427162162921,-0.472387072157172,-0.0108395273782809,-0.309478437507261,0.0240057281132403,0.512460859978342,-0.193297447881152,-0.0675687835170064,-0.0559469971629235,-0.447648898480359,0.037674558164252,-0.279852747655728,-0.486928430934764,-0.26372829794196,-0.0198348638265821,-0.549611656442161,0.378348362309741,-0.0116499263502999,0.0203409449456459,0.0989278415409856,0.183908086163772,-0.227051785352358,0.0425357520607967,-0.552507581173763,0.320952396778175,-0.194567515857376,-0.579468413331381,-0.0967813055184776,0.208718654644037,-0.219116771561647,-0.00824632514398214,0.00731231674877853,0.0968571666687893,0.300233035832362,0.420940770284951,0.0468843810863531,0.386936934939761,0.349672413294495,0.372686904177023,-0.387981482609597,0.153984534493456,-0.325813210348479,0.151575363737169,0.0244861758391158,-0.00414633961965638,-0.419106684134012,-0.525212850998774,0.017720245364729,-0.53662606759886,0.255485649943796,0.0218861945773995,0.343984349522693,-0.163230922579849,0.493614108763317,0.471576997450156,0.0562412416506125,0.0595603084368276,0.098689971048027,0.327854318488522,0.513489605618975,0.421143121232333,0.0776885686940164,0.14603794832506,0.111786302158592,-0.329323945372024,0.175880724018335,0.138476881488343,0.0764962600816787,-0.0640249969208607,-0.126022621196453,-0.463288077930475,0.149559622823845,0.0411412182893351,0.330093083219885,-0.0248913410014675,0.266489657963691,-0.465919454897206,0.475641648108872,0.355079289631824,-0.505212841905276,-0.247336144325368,0.184617465791186,-0.478102942592273,-0.561487654528781,-0.0346287635466035,0.323538451934987,-0.260890706950598,-0.144813759850928,-0.330582508844317,-0.459394778732439,0.0428135771017958,0.0914386545406981,0.294995107522849,-0.46839847169131,0.441208501981146,0.126914883195562,-0.510368051903311,0.0907425096860994,-0.557069992733123,0.118647895992946,-0.586038659186551,0.510255286132055,0.170760999892124,-0.402072234112191,-0.364720455417395,-0.381810273885181,0.172576731375163,-0.345890386484794,-0.43258160877171,-0.00844204598921128,0.266696939541311,0.0258573427115852,-0.500283739798455,-0.0919667195747494,-0.323457228444737,-0.0473870142937844,0.031210579687442,0.486141730058876,-0.0583037134985649,-0.382619673916513,-0.140379123788563,0.481632314865562,-0.269924582447234,-0.220768438113804,-0.166056723216555,-0.349214072629877,0.0901357057603182,0.269273222812394,0.298099154593846,0.508516361258171,0.380043868164593,-0.22729660730183,0.250228936228955,-0.482649243234021,-0.0931927113910158,-0.571273496476419,-0.43996643705659,0.330424632423298,-0.0167553197411261,-0.37506809793341,-0.270238640539827,-0.165240028358228,-0.437412689282184,-0.271728113557783,0.362685712215844,-0.263072300488027,-0.34652723318266,0.14816729471833,-0.0748525658107916,0.408658370745083,0.328419774210447,-0.466208504983407,-0.427052417769449,-0.362510920162166,0.445232729186018,0.313924109270374,-0.121648741525697,0.299221792226718,-0.270417832234434,0.223218554917342,-0.568086589831155,-0.157612517889384,0.271515112013147,-0.402260490376734,0.387140348810659,0.0252895785215297,0.295759675902481,0.349780126569677,-0.54396874441153,-0.21451794190084,-0.526251675648675,0.519701418651052,-0.218544565345963,-0.383131276033686,-0.180030510338387,-0.205909123915393,0.183317227778365,-0.409901219833347,-0.0968158030530793,-0.506686539887788,-0.0635471152749923,-0.334501696637837,0.313525584225308,-0.248142646750226,-0.31647764118766,0.308330478557966,-0.11565797469202,0.428877512620818,-0.222499908223582,-0.193631494717119,0.343550616449375,-0.34102980921284,-0.0893953165689047,0.0352722316882101,-0.236711601612125,0.331975328229394,0.455123213859034,-0.322969380644225,0.0946500619504549,-0.000834962878177594,-0.514855263535625,-0.0251940904330709,0.53562017124068,-0.520419691706784,-0.004014231400801,-0.195044578041825,0.332145473789671,-0.401658398943171,0.165619770076852,0.207947130216678,-0.00494333435733172,-0.405663265458552,0.526356270155284,0.205161283226667,-0.471155878351691,-0.0184571539263174,-0.46003595394914,-0.33238167880524,0.125467168236169,-0.356318064170475,-0.184396005489661,0.489554728468907,-0.00833138020787289,-0.203290772186292,-0.296654794637982,0.366657809405278,-0.150158616491222,0.0578951185903449,0.27173548819366,0.271089712352222,-0.442450825139976,0.360362628545571,-0.181903536388508,0.114843168924267,0.30579108838226,-0.396158691647952,-0.467885477113208,0.138617136754706,0.12848858878517,0.0882133712503216,0.175973788383103,-0.442322241320816,-0.0809219069965829,-0.206530415836688,-0.264303289220064,-0.572645961949304,0.208682547608974,-0.537274893891983,0.357847295300881,-0.438556445142015,-0.0420155226419023,0.156690496214923,-0.522438534893439,-0.548014411580135,0.0191574028914363,-0.274970563804518,0.0254881928422035,-0.411010860774695,0.276546850482455,0.497700406136884,0.447708892703194,0.153453349348125,-0.0482135698638105,0.286289533297851,0.376278303077103,-0.450919902393372,0.526827393834756,0.293878193341243,0.542452285866777,0.246081475428192,-0.0233029916333184,0.0266909063455312,-0.458782154118285,-0.129624858409948,-0.426901632071222,-0.380357603597394,0.158406679168481,0.142530179884024,0.0084088931303698,0.113728581632448,-0.146983577093281,-0.566311893002995,-0.319591709870834,0.158221920898289,-0.417985625314056,-0.459668706679349,-0.120044368851653,0.0599268082478976,0.0109365590666754,-0.138744461531404,-0.162446897451057,0.467086284224036,-0.188308454822643,0.277556579275612,-0.326833089466958,0.229667370134996,-0.347754333457802,0.0311714994674039,0.286557987677288,-0.498832584342593,0.427406539360749,-0.299008316265226,0.343812370117599,-0.519516461477244,0.186624501071221,-0.0217909841896013,0.0478911437520999,0.361154857847663,-0.485880273889997,-0.0546739927501868,0.00519645632623338,0.410044153544684,0.0111698536645538,-0.449516373030419,0.0214695232192766,-0.479175235683595,0.189312756754634,0.0579263585706792,-0.415191988707965,0.127140566608126,-0.0260480967594884,-0.0711934354623155,0.464136413669305,-0.293765174867634,0.216994431814352,-0.207618385928137,-0.399986295284265,-0.500073002657298,-0.151973276083906,-0.210448447806742,0.486195636439315,-0.21441233596245,0.100669909357959,-0.522442678925005,0.391048940580913,0.220693282014509,-0.223324968063597,0.35506398833008,0.172107262554831,-0.103714467131144,0.00660842302071121,0.520741849233674,-0.0319223692826763,0.120581008291202,-0.507856228495891,-0.49356553167452,0.33926957449213,0.11050903538821,0.494619888774611,0.0544260142281404,0.210634502998584,-0.204041291622018,-0.39735575802186,0.577282868982787,0.455917949080984,0.117178699442669,0.535625521227121,-0.396319410780197,0.298676006778871,0.526733833388611,-0.518827258055521,0.555977068064597,0.151448710587286,-0.498461198926899,0.158882581489875,0.358356643875895,0.224803699794669,-0.232509040428084,-0.00369975637275787,0.363221665666038,-0.155939683304505,0.252094428946361,-0.254066727578501,-0.0246806638844575,-0.438450470782001,0.10051928980685,-0.181386049880442,-0.140298431054854,0.543300569197728,0.0351977176126274,0.557002528868016,0.542156803645277,0.170132042643057,0.519163583327949,0.180057019889176,0.360194213544841,0.517359730642306,-0.512627642554318,0.321834781190258,-0.324294796779172,-0.281804814133777,0.146520930782531,0.450084919670334,0.344072953102761,0.360613698162054,0.350607600058039,0.206613825780723,-0.472211600450636,-0.453061199336178,-0.511070426197794,-0.425561029302144,-0.0736867198643654,-0.379267940868357,-0.488370973997568,0.415496315096385,-0.0924962329214838,-0.219340040101192,-0.228712482913179,0.231151933794161,0.307517420770655,0.126282811641008,-0.0665613641742202,0.54021656079709,-0.435760820702608,-0.391808392549225,-0.35931586591067,0.522183051236617,-0.403383853094484,0.107893503390855,-0.074883554212244,-0.0105494637431225,0.369051870986821,0.34591203043538,-0.0208381888327266,0.270322714702584,0.20503562927232,0.192712195618578,0.134333688112157,0.330961675303826,0.222477415039022,-0.0779417891351546,-0.526336184111957,0.215564386289223,-0.279166516575298,-0.0438554433373021,-0.517751986201521,0.137572502298558,-0.472861424896274,0.508609815125628,-0.452770999424079,-0.374503063458721,0.344478361055853,0.0315253286632498,-0.180155121751456,-0.51889686790067,0.371723578237081,0.016974946601909,-0.00986093449714371,0.347073671343163,0.14037379999852,-0.49844495001047,0.153799414456527,0.544740708499927,-0.366572205568755,-0.480777393200981,-0.149474348685502,-0.201962486963454,-0.152640509496426,-0.0470675553759833,-0.257074032445048,-0.351530698302201,-0.0786126227778092,0.0521461343414301,0.519739505161701,0.176744002139304,0.191242102769225,-0.0623425762439565,0.197829604828941,0.314376221806345,-0.0758843983640462,0.403387286753531,0.498286507013838,-0.413286306725781,-0.50143992891825,0.191460239280669,0.292832773594709,-0.417130410047007,0.208556682910861,-0.360855350752236,-0.171816527384965,0.551308817407766,0.161745802645965,-0.306863651693653,-0.352899290255573,-0.40120079640361,0.515448076615387,-0.415890614415149,0.332881285192811,0.49507776121484,-0.216328229615657,0.0741391540927601,0.268265497026635,-0.269331382834578,-0.440744108662169,0.0021016288663054,0.165791876865808,-0.00330071532413599,-0.378776281892256,0.270751934167698,-0.191403103921576,-0.202353330219995,0.553694681048951,-0.023280985499481,0.326427967106536,0.298863595496921,-0.241088486686306,0.174305983809934,0.308603297289929,-0.14920256479307,0.00160141787640846,0.162281455892198,0.02876089675497,-0.394523052457701,0.12923113949919,-0.0339042852894447,-0.0316796862126821,-0.438099801962685,-0.361213130703299,-0.00723313330512328,0.491714731993522,0.493857508038977,0.448044236585307,0.348042459404793,0.267798353724031,0.562711712453409,0.406317820335305,0.125735166586508,0.288269768021609,0.104400698483451,0.467443263989011,-0.355855843960656,-0.0409783704351446,-0.302448835475862,0.28733616351502,-0.0424858709616137,0.491238170102788,-0.393387724891828,0.560696661967413,0.388586373470029,0.520680002465198,-0.484009701452874,-0.0385395549923317,-0.182421557290465,-0.34157693010699,-0.18126766637931,0.476552642193119,0.0669203964554731,0.507374764828887,-0.336176186932758,-0.450098672192611,0.523246083084572,-0.488294320744051,-0.171507632422391,-0.319723577563571,-0.14156753459591,-0.0340584429468434,-0.149475008562672,-0.130780018890572,-0.297072329289355,0.432099139492201,0.459028696797608,-0.109570968501182,0.444468517615835,0.370125951470805,0.0684678553251916,-0.160110313555946,-0.190616526548152,0.0635909207772281,-0.157122380975169,-0.293526999849697,-0.482908013093691,0.189268875865717,0.379318359251167,0.451144390821391,0.06487299684492,0.0133962333088808,-0.133524141402381,-0.104590221568742,-0.371581132675228,0.340880922453036,0.246133101564919,0.357534851753275,-0.443899459185903,0.0340466508322925,-0.409217859097553,-0.355234065654107,-0.261044455442691,-0.0372296372430223,-0.42417721811079,0.0691671489948542,0.112939640743474,-0.107875826485431,0.107386411798349,-0.0926286646814184,0.0206635922518698,-0.415109931579759,0.350714709720012,0.0584400499270203,0.377635358814615,0.0177236255444536,-0.486376410308335,-0.028884339467798,-0.00439927842731214,0.306512486677449,0.368849672734211,-0.22703397735338,0.0760599040221634,0.510723363378837,-0.247305168202609,-0.0667406992561102,0.425729010037478,-0.360528326652234,-0.1789083304191,0.364485492228168,-0.229332684480016,-0.487676251029339,0.436397758042887,-0.367479205500068,0.0130833908991961,-0.346963359274002,0.31420677951051,-0.306657830296427,-0.0903101487813015,0.31588024136358,-0.193791355445312,0.309409128848352,-0.072183205618948,0.299652238192419,0.497807363995379,0.044080158633665,-0.140362574614736,-0.284273562610478,0.571240480987469,-0.215736471036203,0.168828123376326,-0.389598696464114,-0.255914965947948,0.565192470801635,0.407773949146486,-0.479893701725248,-0.370947845940263,-0.404345222628829,0.142036134550527,0.131810683087798,-0.0621773633849475,0.424142874406586,0.116004455131732,0.0288886914076557,-0.50074995329489,0.22189969431464,-0.512854980523314,0.283158032709978,0.24989345369283,-0.219572742482145,0.371517392962557,-0.21488480215923,-0.111860613679057,0.213321590796438,-0.471197218348152,-0.354135787202335,0.0341819946556203,0.207552042358497,0.553150574823077,-0.409830094963582,-0.34197298035688,-0.120737778457636,-0.0226014570091543,0.544184946076563,-0.388180510040729,-0.2815312608509,0.50337403790085,-0.0371828829388508,0.0425123222985906,0.390403827278276,-0.318690090039252,-0.251752811599959,-0.225804210320998,0.175218443121833,0.259410969805543,-0.381349744468057,-0.440703391677631,0.00962242575578695,0.47053987438528,-0.541132492501163,0.252575669573907,-0.0704711977019925,0.48860965762413,0.00997026195938462,-0.402907683938879,-0.141387018227117,-0.069589215530142,-0.289706924235125,-0.443971637458061,0.140157307976205,0.135581531165518,-0.398301187491974,0.0338468718289187,0.518777623818049,-0.359037485662103,0.0763151323369412,-0.324502382260694,0.4838578071322,-0.484488782690269,0.511129553284604,0.382277143423848,0.279557714440273,-0.395485289576096,0.24653121187545,-0.0382175496291007,0.0714712747253117,0.383384501023228,0.111716620644955,0.0566842881278648,0.533533161331392,-0.306254904078714,-0.340949063691468,-0.00258204287114814,0.397117806992957,0.566957495696308,0.0905686181989003,0.545613241979075,-0.279233500473122,-0.203589103041524,-0.159960424698619,-0.0513191680502216,-0.0156640509104254,0.0288412830321107,-0.0395250777671477,-0.308693904588478,-0.41227710824994,0.388921231258284,0.147136239883729,0.0575649577592691,0.0799035776703269,
-0.306588452547115,-0.034911344462309,0.145140473491585,-0.264213628645074,0.444316994632996,0.29205579944325,0.169646284695961,0.277577066810953,-0.320012040519256,0.510188345885743,0.141614329900766,-0.418774150858929,-0.131815173511097,-0.164730760116257,-0.45022744890186,-0.258613180150939,0.0256130037445193,0.454804244125213,0.542755171760225,-0.0740531551880363,-0.0352235336552875,-0.539101558494437,0.389900904498306,0.0479425831149528,-0.430143768923235,-0.493687512093738,-0.449177701953506,0.261473083299618,-0.527184498756365,-0.50690464566656,0.39560646490509,0.440144259879353,0.00104310684302887,-0.127348892569499,0.190336481996225,0.2837046431844,-0.509781936019727,-0.164072290468972,0.430202207803142,-0.223728622933049,0.333555594980449,0.521546897038559,-0.39129012320699,-0.0123276647881809,0.355141304071551,0.460139597104145,0.018484228778012,0.343426596711255,0.554573565290908,0.0121873131534991,0.305320668078678,0.190107808050994,-0.0259957553105803,0.130632564416675,0.486434850326848,-0.392095769761073,-0.251517624772919,-0.127491519758879,-0.471557215181341,0.407248385355295,-0.0998101757998239,-0.14438574603186,-0.0844290501060743,-0.234933087926508,-0.395138317023578,0.351283558875762,0.365104631262325,0.352908864471026,0.0755318354616128,-0.291868221326498,0.171594894334804,0.437018959789687,-0.325612379280364,0.0284066997003742,0.209392268836536,-0.0146929527212209,-0.455841113006531,0.17740528433471,0.576222616847667,0.452652590975095,0.483304926018498,-0.522826527416011,0.317519502462592,-0.232854767161603,0.047577847502914,-0.484201198182937,0.131088543391868,0.436034100877777,0.351736781325133,0.275846381511706,-0.283604556168164,-0.0968123091541533,-0.120792400019189,-0.319612232490768,0.323668496447428,0.0217867790033898,-0.0243210956058624,0.376998297231589,0.488937286019795,0.527763838222427,0.517761798509287,0.263439044895561,0.292480606179836,-0.00206879880469972,-0.398512964987167,0.130718479270003,-0.0522628013955355,0.488214548867323,-0.0562997778820314,-0.324645917677569,0.414358168440382,0.395324681664342,0.408753447227204,0.529554571786022,0.41849249200731,0.157397489468559,0.298929128830412,0.303478772365953,0.119022252263829,0.411005962952865,0.344128416207217,0.415691654569387,0.0283752605581563,0.424424835581066,0.576463303529723,-0.10217930083851,-0.434793230565804,-0.0391672380765737,0.519102961185277,0.298225602968345,0.0849495578053605,0.270863412412754,0.363782942533085,-0.51164462943526,0.485102652997871,0.0858614673488097,-0.198941000933876,-0.184995868326127,-0.340597607180069,-0.158935579527137,0.478632810789531,0.230092993602917,0.221885815759307,-0.0995097221383588,0.487542443707257,0.426837216893901,0.126037686266328,-0.293713317133463,-0.218159188952079,0.0943338070379747,-0.142022504620341,-0.305117846495543,0.158395844909205,0.228826678962511,0.337153231340899,0.131153548985822,-0.155478062426876,0.229093488279273,0.396310824323057,-0.29992368216022,-0.0598305805670881,-0.296716692130684,-0.330800034660208,0.302757942090433,-0.163692263132394,0.49653522470618,0.215922087973339,0.431831085417826,0.366506546099659,-0.371116040033609,0.0523450664825504,-0.00819458186461711,-0.181216438328809,-0.189827940767989,-0.447749134053791,-0.191439735903697,0.196574037142895,-0.0695808182426598,-0.292530308785642,0.30798144766164,0.325360138390038,0.14628381738668,-0.316682681884734,0.309358659264959,0.409050575699819,-0.223926833865334,-0.0799732487650284,-0.108158782302384,-0.0145254115492607,0.444561078634187,0.0401495685528098,0.309656906563559,-0.158444224431896,0.295095276922168,-0.438971110808506,0.2858212496803,0.145117552333084,0.127012272914872,0.350538127434828,-0.451885018630499,0.458356804375666,0.401008682335373,0.140345829976645,0.174292096959432,0.182825371291155,-0.0839529027565904,0.502541750319311,0.461519617108996,-0.16501616915577,0.417474748698985,0.23275316390634,-0.144308159459193,-0.458193209938803,-0.514937026612088,-0.320732989523652,0.139834996257955,0.326212759588574,-0.361388279725664,0.220241600544898,-0.0139682804313563,-0.402997811930841,0.512571573363221,-0.0934244428714799,-0.376650769366137,-0.0642325345716462,0.341857092354266,0.160942699156297,-0.267816613459043,-0.284078506494512,0.146658071931149,-0.288973220080058,0.044523132364968,-0.456443998235658,-0.110797076035081,0.215533814200067,0.388792399677906,-0.50363575557588,-0.0541512201605816,0.320312894996042,0.526877728795098,0.496736178066836,0.395184066125952,0.373529694100454,0.426839703518257,-0.548528541777718,0.339367344501995,0.202138185594299,0.387844052567618,-0.201897240994412,-0.231629680997858,-0.345197827648148,-0.422699356727959,0.268319375114457,-0.29856220670141,-0.072394355849593,0.503476824951117,0.58077165692281,-0.453056449340635,0.261782704152385,0.0275154170418559,0.439790861541172,-0.254676837713477,0.147191382463508,-0.518070913006164,-0.0617030938624927,-0.384746822286334,0.52053197988118,-0.279443732351303,0.438968615503385,-0.432507876646274,0.455406100940352,-0.28369223831163,0.165647496762226,-0.00876985198059797,-0.0284074264020641,0.349168632069171,-0.337968742171705,-0.402166920389893,-0.496033359932231,0.118659566548314,0.321932775855519,-0.54646888828062,-0.162121594613985,0.275763809245241,-0.230748476067413,0.113830032387631,0.329283542957618,-0.0279510139791839,-0.364294128213795,0.48907528315952,0.434312643864537,0.0794050253082217,-0.170788816551202,-0.482718150462373,-0.174609724841803,-0.474506706772296,-0.441744270412824,0.256541404228466,0.26705304886792,0.0906063992953763,-0.380574886429136,-0.454717575808784,0.0343881749841216,-0.0455289624737485,-0.0323528396738419,0.0969944794770907,0.44321728779982,-0.0416993685285532,0.137387571960102,-0.359488980984605,0.238389394232383,-0.0369305300403882,0.494593927644922,-0.0379450815889732,0.331031332004023,-0.472735935784397,0.23430793231716,0.190762332896492,-0.345041560855755,0.449914807550101,-0.254019708360944,0.16183473605163,-0.182554693343368,-0.460542205000694,-0.410740621857641,0.0746787361318024,0.274882987972223,0.352854631157215,-0.214301740755625,-0.174911117030925,0.0259446029427977,0.266716385889101,0.425583281940529,-0.39683313214735,-0.375691672874747,0.29695613054589,-0.132742495533986,0.273461856737924,-0.494845132832327,0.105914904084782,-0.172921213840704,0.330293742517178,0.495819874054962,0.325452614036538,0.216571755669266,-0.0530853151277363,-0.258370153629417,-0.393443992184886,0.120450410719485,-0.183055434063673,-0.242189102817628,-0.282396840905099,0.0568434946304524,-0.0437909941393816,-0.538336770110369,0.320019141628804,-0.0794025010291598,0.0319835588421007,-0.163400307348727,-0.128459584732993,0.0148634436610492,-0.0465950495108922,0.270081509427272,-0.525319745894191,0.228689056676368,-0.102976489877874,0.468878451854984,0.373189815212792,0.359200638714104,-0.0284917036562429,0.0431264691242374,0.44784120813223,-0.164977669396176,0.360392222877081,0.0761649097744439,-0.0419976355684883,-0.343541094941088,-0.408698223491305,-0.549816463094529,-0.343892998179166,-0.210872216789051,0.372651886020569,-0.278117798145507,0.228978565671596,-0.384072496974871,0.422112953746427,-0.247255528105896,0.049310007998502,0.266012862580734,0.36587468973601,0.261266676957104,-0.421278939109013,-0.0401385583549528,-0.0998127777633557,0.451008607602818,-0.540475239450529,0.0541848767678508,-0.0173727381868005,-0.0921714212990201,-0.427753565492732,0.246035109769312,0.394210932758593,0.414665293337619,-0.169265382609024,-0.37358878196364,-0.20525938708942,0.041824314493141,-0.314101541254252,0.281788822339228,0.418823908655628,-0.489964452434192,0.275343892653414,0.0949019322387599,0.219521077285937,-0.254616250769298,0.270732127023046,0.419662837499983,0.037117565128216,0.311756157077175,-0.0968548232859604,-0.296999104002853,-0.366850573485718,0.0801035476981339,0.280006396502223,0.250354492231372,0.147143835250939,-0.0739432231284247,0.277757099467116,-0.412179436290296,-0.558059520911169,-0.226345261307128,-0.293358913991409,-0.525585432195969,0.416799438793016,0.150377021713091,0.322786149699829,0.0490356509810814,0.245296717721583,-0.133394464281776,-0.249410079133249,-0.545387329942049,-0.211019091393965,-0.523126290511883,0.24064223343324,0.381108026959824,-0.0042599587900075,0.257604712494918,-0.00269067310127134,-0.243232988755987,0.0021523883288213,0.158036232601023,0.168240175775199,-0.454380212539056,-0.493069609024593,0.4159293533482,-0.083327219964076,-0.552652147697989,0.22534621270675,-0.0607638594635294,0.00221446294004132,-0.299914017266029,-0.501803823398849,-0.114715079104255,0.448638965414698,0.495012413417883,-0.204586623862542,0.430900060377746,0.148722587690562,-0.411232688558344,-0.304540789658211,-0.187758693760336,-0.330987972411128,-0.0119881863336206,-0.27877759965298,0.357652139949276,0.5194732882705,0.138679133667335,0.260415647087539,-0.355487335587267,0.42264425684308,0.476486232639738,-0.396859799011577,0.289825933824565,-0.303033983441092,0.242294362848932,-0.305679035377856,-0.371529919808252,0.178961690869382,-0.547081839507848,0.359506491241035,0.139239066506861,0.374190422299454,-0.347196223265164,-0.446866408792616,0.30680923039458,-0.330791360718494,0.116940710765039,0.147085637243488,0.507382255542411,-0.5637239814717,-0.00549434398323684,-0.301541979498046,0.305930745456294,-0.141298210140829,0.405344042097833,-0.035322732463408,0.155803623751687,0.0926265042060246,0.0453999769754762,-0.296054436528408,-0.254363544751657,0.30672858175058,-0.0645298229687105,-0.016568636384746,0.0486428185719642,0.509685871110544,-0.0891826242121051,-0.46868957994016,-0.534644074259688,-0.35540749311114,0.389225555220303,-0.229945442868791,0.290490326266417,0.460430695504643,-0.140125838462283,-0.123948202919931,-0.397380795783348,0.0743838447043903,-0.562523359788792,0.267934313377949,-0.400311201662818,0.457938899736037,-0.535095052928283,-0.345797684044974,-0.367544196311436,0.277595494439855,0.345063713183048,0.22908272868744,-0.257096568749542,-0.235945709571632,0.338547552549118,0.460910217775388,0.00860408842236788,-0.244757607533552,0.0998010303964172,-0.377672989086884,-0.0653313723615868,0.141268890278841,0.475512413950006,-0.354936294205374,-0.249944861443733,0.167913597050049,0.168460315968397,-0.466649693029669,-0.499648207279307,-0.359315532583086,0.282794629185874,-0.530648779458466,-0.483476988933445,0.194017584210909,-0.0973424046025532,0.521931674132053,-0.443100800644476,0.472780395538283,0.180605523169516,0.0103401948963482,-0.07811829293591,0.207675342577982,0.395647235827694,-0.315129805521163,-0.351585967628687,0.379287298255028,-0.0721267808999396,0.358074369015761,-0.574033441217419,-0.430302356171103,-0.477224100836025,-0.35225692434931,0.38726588022645,0.116872503618295,0.0655154967035268,-0.0457073944928147,0.242805521933601,-0.134952920565507,0.00651228153657589,0.244698119831117,0.342632734667293,0.410831866996776,-0.227102851388211,-0.0310616002882283,-0.501376369529203,-0.174933126998924,0.0437526252428614,0.319615689807678,0.180222734899607,0.244276815769902,-0.324740383553237,-0.232858794174321,-0.558857914929365,-0.142316732978583,-0.324332463841926,0.230438416626352,0.179206058608344,0.289094155229776,0.327448516577434,0.409464981365496,0.336799760937884,-0.392417382582232,0.177531799197303,0.287949430863005,0.257855669091536,0.389769159751505,-0.135389289461813,-0.484797453694886,0.228489982913753,-0.5311769489247,-0.238394162764287,0.141271801438701,0.0707388636802238,0.464440157983339,0.0256317251794438,0.341061714577024,0.200403843855932,0.277021514712016,-0.0573355368051623,-0.254364308227254,0.476066602746575,0.445626205147372,-0.106447391261726,-0.29212923693553,-0.116668984184455,-0.254105196835902,0.154517787797022,0.0882160845291863,-0.383299189747049,0.214628199633328,-0.276715287929633,-0.0320934260816906,0.216414101020211,-0.543207612192924,0.0300471528993432,0.0396180941340117,-0.173773180096365,-0.384914250096267,-0.26273669712586,0.298277716985742,0.417591266591766,-0.0498638451304613,0.0800550519278027,-0.372688664118689,0.078335809758187,0.404625124894026,0.401745001196478,0.189385967105352,0.230860792772082,-0.217421343592448,-0.227875533025269,-0.549519337131935,-0.359991992398501,-0.1969573100968,-0.318741684597406,0.351257631230561,-0.158108288360737,0.34278424985906,0.250279879424631,0.326274284730689,0.218470851378846,0.278132600903879,0.175027487783636,0.405544212933771,-0.0498770943217649,0.466309247203615,-0.408416351875468,0.191729358688919,-0.169739976315708,0.361563999689752,0.202379316616845,0.0611475117322124,0.235323362977209,0.262541247389982,0.451803441991545,0.0921506841119796,0.0213453883919599,-0.0231686374843553,0.169175315115825,0.126910656562449,0.401802204478923,-0.475349708986788,-0.0729390012458081,0.0117140663411931,0.470279295218579,0.0257131268818171,0.230396985363756,0.387574393472199,0.16308074845629,0.132563414388376,-0.0804988436454094,-0.491382764426106,0.402301674903995,0.237959218791214,-0.0783863903115309,-0.419871225371501,-0.417745875763618,-0.0850757887393718,-0.353688107171807,-0.129814912470741,-0.530322166083773,-0.322813532424953,-0.0519127620165294,-0.519142565124724,0.477008735257143,-0.0761053502660399,-0.381367438375091,0.0730727880094389,0.050583879143222,-0.337819143818149,0.383310268976832,-0.10420077941207,-0.274066854665912,-0.246602801097328,-0.129053682313817,-0.418457102749559,-0.0737356194333433,-0.0941396691859218,-0.201281049376754,0.0114029287032018,-0.0445725167503893,-0.335759635399479,0.463615005587418,-0.200076031407784,-0.125351130395958,0.241177068650252,0.119457171038964,-0.267244578802938,0.197644791014496,0.224224734711687,0.222606404672925,-0.552397236851421,0.426101119497055,0.316399748287446,0.49347769250867,0.435931877193469,-0.259680930550395,-0.300560938533266,-0.0767135699167879,-0.195756826536541,0.461763208866616,-0.257391968796091,-0.171059679457239,-0.538291865257779,-0.316342604769368,-0.0176159284744799,0.210072722292479,0.443723507615759,0.115271312603818,0.171429915675232,-0.28026946832956,-0.255733305770132,0.280502774417386,0.0163094204381628,-0.492220575577748,0.0576762260661951,-0.229754610012531,0.234753475399496,0.492705265406105,0.462149450579632,-0.344120656030772,0.565609654171044,-0.336577805416887,-0.188713760235611,0.0632982025423627,-0.286487740381427,0.0127317953327278,0.167460856235421,-0.411774724328876,-0.387823585150865,0.422840029829023,-0.389369677230327,0.17683382375097,-0.420003912157166,-0.313937141351777,-0.520404759758106,-0.497522753101405,0.501939162581514,
