-0.0125534213492834,
0.0536993555241422,
-0.0272307386748325,
0.0330850715989305,
0.207616467201801,
0.0248740258473589,
0.0934798548625647,
-0.0898749056633667,
-0.137004022903634,
0.0765623871123906,
0.192113932321427,
0.0409801134425843,
0.335017936662534,
0.145269926327018,
0.0541100948146169,
0.0521009021440102,
0.304363308999426,
-0.0852107074133735,
-0.110698568765744,
0.193677983869704,
0.0692351003962579,
0.168433994803432,
-0.0239676266897314,
0.187364351368291,
-0.171201802071999,
0.200098925844171,
0.127876608083195,
0.135878808426056,
0.0317673883189755,
0.232621251289458,
-0.123974422211358,
0.0159028269684474,
0.0994069073119615,
0.183433423979485,
0.0260473752686193,
0.32551567091612,
0.0819893357255039,
-0.00261278161631499,
0.200929023120632,
0.0959926706509987,
0.164645630794448,
0.173700188231851,
-0.186186064985565,
0.253038204796899,
0.0592514589291727,
-0.0238525656089755,
-0.019844733014138,
0.126217607123164,
-0.0976187589324047,
0.0840385692216246,
-0.0425206535169112,
0.143917779437476,
-0.0092826964378476,
0.388443572479795,
-0.123356872043343,
0.13286707671417,
0.174583649396733,
-0.0172540000596066,
0.062218084370943,
0.13945070631093,
0.0104688482405175,
-0.00542451812618451,
0.0527988113084078,
0.0364717840923546,
0.172252723990369,
-0.167525034629885,
0.166042226480183,
0.199764519641903,
0.086525108420461,
0.136828982141953,
-0.0361529250739451,
0.244380824896651,
-0.00143796185957694,
0.0185698321590301,
0.150065858584941,
0.144479733359236,
0.165216471144507,
0.0440144618307342,
0.157264101150837,
-0.0253677269226558,
-0.321584760250868,
0.0830389878324312,
0.270215015196616,
-0.0607236105465921,
0.0134907667185606,
0.0152062531304814,
0.175127815907278,
0.0064394314759086,
0.294086855652911,
-0.00487401640671515,
-0.0879362475488566,
0.275075575645143,
0.0490078220675405,
-0.0271624097866455,
-0.0230529260254575,
0.219771076120848