-0.0489364357539677,0.122056480222343,-0.167181016005887,0.292627985500648,0.217901754884934,-0.230099346200112,-0.213287525498793,-0.0690838065843012,-0.183775784270004,-0.116471194344162,-0.0943483706111552,0.0438229243672094,0.23220501318846,0.0570119706814493,-0.217528682313999,0.0322424943731422,-0.151090146333533,-0.128799489264705,-0.148749492503018,-0.219796938584204,0.14455631842996,0.143903485163946,-0.122112403690187,-0.129210445325183,0.0393601408850683,-0.101252405997152,0.130510932681275,0.141913411920314,0.0517720827677822,-0.278688087493845,-0.0773707234953485,-0.115988206711056,-0.0134324118212485,-0.0996905973620748,-0.158018068480391,0.150499607203894,0.0085619700127429,-0.0176474039896083,0.0415941284502098,0.207485974586752,0.103101876349432,0.0894312061748952,-0.201718930621344,-0.0169593671451112,0.159310811034973,0.140269514701386,-0.0549373029869442,0.172261414233627,-0.11610233465577,-0.224149496418602,0.00331268651799265,0.196611012018135,0.105197852136281,-0.13998574754348,0.110758590271805,0.0622665313418971,0.0585076056217597,0.153713479189975,-0.0222392647293766,-0.121164799773956,0.152362247164118,-0.0225925868765582,-0.291564148000669,0.131692842167835,
-0.0294187002951397,0.0314347467330271,-0.0755662654534264,-0.158835932613432,-0.0386231624625451,0.0821379191027848,0.261086976375777,0.138552331297991,-0.0472281971711603,-0.110627818381489,-0.195922970311527,-0.283347794308114,0.278725945294879,-0.200638495863154,-0.000925157458787244,0.00137989539019056,0.244240201375004,-0.00765466541187204,0.0037584682769319,-0.16497410765599,-0.501571089346817,-0.240596179631573,0.090126056231464,0.363243284181846,0.169957244805072,0.20488679487765,0.102901869352882,-0.148612368073499,-0.131116613500354,-0.221505982073977,0.0709908446325907,-0.159026609381049,-0.010320977234258,0.0495744461618247,-0.145498264502104,-0.158318047114218,-0.250561577647057,0.204352949800953,-0.00654849165418298,0.00403829845609855,0.177117785499512,0.145479669582714,-0.273253291536641,-0.145024109029154,0.110424255057863,0.150407827884049,0.333921011906313,-0.17074706871626,0.0488165907233946,-0.206639250178413,0.0269399663039017,0.0890799908363634,-0.292866040017984,0.00904496569367683,-0.0897267009402614,-0.0451230684258751,0.101070795753419,-0.145234860068699,0.120982391033171,-0.0068845780158573,0.178929637150712,0.0679035207548798,-0.0562746837020356,-0.266888386070739,
0.135582572767785,0.195524905646806,-0.153763300927195,-0.102714873126211,0.194179828949167,0.483549346721353,-0.323030868092174,0.319092044861067,0.0930557563204215,0.0247743118489803,-0.195581197216758,-0.19542543311425,-0.225946835310228,0.0135488968792193,-0.249954580570358,0.0203347823730036,-0.112668713109512,0.176138713253184,-0.112010680662878,0.205414747740182,-0.0475662756824632,0.168619213129236,-0.277237118429362,0.156690334334394,-0.129832861964417,0.134151373850314,0.114864947592753,-0.111881888388555,-0.242370182420595,0.0868853511170367,-0.21076309485267,-0.0568958947695227,0.126898916308319,-0.153650625181346,-0.230046684206141,-0.0735601022768562,-0.408366275721513,-0.0864986749929499,-0.210112138792333,0.197893135352617,-0.14891119820111,-0.220369164764347,0.158101827103946,0.386199995807707,-0.113191332612529,-0.131592111382146,-0.0566437647156191,-0.185090079866756,-0.158824898281458,0.21406133696491,0.231823823648511,-0.0244750768817236,-0.153855845109321,0.27315631549673,0.162491663843821,0.140940168902767,-0.0737224599394602,-0.479205735548467,0.0736642507878846,-0.118623530553935,-0.449943063313841,-0.0448389795809451,0.156746967311321,-0.180987580633874,
-0.00653484663884367,-0.295568410838932,-0.0718444136019359,-0.432496421202696,-0.375685654142096,-0.312070838364261,0.125442290521525,-0.230604083304839,0.375397209379423,0.257039274716662,0.616728502658518,0.0140287720548694,0.108682395342512,0.127668674724309,-0.368778218009363,0.182653172612699,-0.0996981188341929,0.0956722859474496,-0.0387556338067786,-0.28213301096286,-0.0376228420723956,-0.222483299784962,0.0698582465674044,-0.0986650004529456,0.0708869864927621,0.265237622834678,0.0324022565421544,0.0325323605465236,0.288766552377313,0.0189858135534021,-0.0670297595699254,-0.211018223100027,0.263732696176975,-0.308302473599681,-0.160731957958147,0.129233871219284,0.224250817263669,-0.261170033046787,0.129823620264879,-0.0150842539352332,-0.0753076309565276,0.248479052444956,-0.333433763116526,-0.302625630096911,0.0783569205469923,-0.0947596239448088,-0.10826993795976,0.143479977756874,-0.270686497108654,0.0101928847879656,-0.15278976904037,0.0829486321021081,-0.25618927917393,-0.302414251261508,0.459232319065372,-0.118155971653723,0.240929454214066,-0.326082088251472,0.121870323583673,-0.0915549876904237,-0.385338716495239,-0.238943122411792,-0.207553324122839,-0.214092032593735,
0.18634059332093,-0.00641425354080523,0.0194411304661791,0.000753939584333071,0.173114492233208,-0.00517428723862815,0.187755190714606,-0.339453307286416,-0.0564859217016149,-0.154934517186532,-0.0706479891054659,-0.223856133764337,-0.0514303463806835,0.018101668046181,0.360169395166065,0.179844109384402,0.181955275675378,-0.0697145234985492,-0.24191069450001,-0.0272369089974314,-0.0399633673394021,0.238323551681255,-0.173804616931777,-0.0274450445772198,-0.0980703050882695,-0.189731996688338,-0.0702936755889002,-0.126081222513784,-0.153675623550013,-0.271259194788921,0.184667116378961,-0.172212774676246,-0.140948143590682,-0.161965818655854,0.222525464456897,-0.0252912369664299,-0.415301959178827,0.00086203202744037,0.296078855697747,-0.275777614001582,-0.00409726458129351,0.0438304783291927,0.104738592884976,0.212118678880563,0.13560337764731,-0.0701310886706934,0.213863596765369,0.175686650038499,0.125466866785017,-0.190570259372413,0.26300065761088,0.289981171191421,0.104329454777621,-0.144873594737411,0.383970802291593,-0.183770289508578,-0.111082953277919,-0.273011148025557,0.0945924320752381,0.0813566038021882,-0.20730104419061,0.148695603522878,0.140737003308704,-0.0639506967557853,
0.107260091109739,-0.00210740926710194,0.112217165574745,0.252329354677308,-0.198011558404516,-0.043409610025376,0.0028871341091022,-0.042357860302622,-0.145609832047199,-0.279005685463883,0.137704736876574,-0.200333400907393,0.194813522394262,0.040513076739575,-0.202583127687131,0.156565812054269,-0.199516906101428,0.0359896575323128,-0.182814022152414,0.103252343304193,-0.0376461900713164,0.0383197865442279,0.181822615584231,0.238364743587171,0.207203044930808,-0.121301280816609,0.0665758146859852,0.056860272847041,-0.168061789012849,-0.147303369992638,-0.230744754093368,0.188020256083729,0.0798241936161186,-0.162363024328243,0.0452709812688228,-0.0524282707698864,0.111803220354705,0.177476815018905,-0.0559970177974879,-0.130931644482434,0.112080093158064,-0.408731888046844,-0.0399633952682723,-0.109516845937222,-0.252819429159676,-0.197696832056304,0.1653257304652,0.156303334043816,0.193842539740538,0.236915093046489,0.0777883317533708,-0.0739447861503929,-0.225780251825015,0.0284038437282296,0.405670751349012,-0.147444793887216,-0.19209305940266,-0.130142540171793,-0.0880634901827022,-0.202346208859473,-0.00573406450255302,0.352927241772974,0.200004388322294,0.019267372512453,
-0.165996330663664,0.11698502960959,-0.160524446849049,-0.172585421286428,0.102930631142425,-0.184980998027145,-0.228820614516041,-0.139300127070668,0.162367188342601,-0.0252546488619598,0.0822619310387844,0.0211532824085575,0.06037803775437,-0.160306096559982,-0.188125315692171,0.0704112968755189,0.0858222829807958,-0.0566943838083585,0.117908091251668,-0.140291662320234,-0.235169470606402,0.149950267087825,0.094326631934463,-0.206173568491097,-0.0461567907479359,-0.114142418347205,0.216729201688339,0.0312267061179966,0.0475855513996535,0.027636854132775,0.170564784394995,0.0652986186695736,-0.115680166817352,0.0499062287992354,0.174387558126805,-0.129681776286345,-0.0193861859667664,0.183875527400817,0.0794195020600875,-0.112622411068583,-0.0405838570645048,-0.146276486601684,0.00921338676034822,-0.0417806200152026,-0.0660633581175208,0.0702161395151339,0.0424944771293252,-0.154877116041715,-0.0381139417008563,-0.088743180024135,0.0995860285950121,-0.0904031337261681,-0.0499953692682384,0.17679180702151,0.173390717168582,0.0388795241140834,-0.0900531102828607,-0.0291986551400333,0.0274125146908026,0.164088613171874,0.0749246436027566,-0.032693547838421,0.00893813541233725,-0.083678893528453,
0.0695448730987246,-0.079992316964315,0.137171513474399,0.158045259775097,-0.204186121096514,-0.0807914901475495,-0.181806397176089,0.0157698654904106,-0.142512309290073,-0.0421571095563864,0.0859159375554186,-0.0583118860242588,0.100891416169184,-0.107271945216295,0.11304597690107,0.0467196181126293,0.156820669989575,-0.0518247103729217,0.129349029582164,-0.120991021194869,-0.0870783001380302,0.0196329814968035,0.162066155207753,-0.159525422333504,-0.175156717600155,-0.0714404940974553,-0.159892159024302,-0.134289502652823,-0.0693539046131833,0.0214874946378951,0.209052783765493,-0.114414006577296,0.171544573068072,-0.193222802709525,0.153997909700289,0.105256266105383,-0.0862830136065997,-0.100407104845429,0.0859904974001154,-0.221224914950107,-0.11231383819638,-0.0772006236220163,0.0819838482668946,-0.0232474631671765,-0.0444260510373041,-0.106058553793765,0.141797560737642,0.174933064700036,-0.0109192673211105,0.0630389928730632,-0.117791357740606,0.238200522175151,-0.0559352513653311,0.193078268818878,-0.171123140530575,-0.00996540749323076,0.163481338828908,-0.126237475937962,0.196514765533589,-0.193553870878526,-0.11921161829338,0.171510992568269,0.126912513078409,-0.0534099052632435,
-0.108359544370206,0.089633726485412,0.114161326711625,-0.188112186946519,0.212793716451413,-0.153871458169699,-0.122480170525388,0.0304483220689483,0.12303678125993,-0.224602938143252,-0.229882804725518,0.11532450239388,-0.0912583370160708,0.122693399935353,-0.19414403104014,0.0570731328016572,0.242725122377804,0.0434625929071852,0.0612170860211116,0.208635230637117,-0.167814074978795,0.0262220756969602,0.126378908552762,0.241610005138675,0.0628635742297032,0.0187723654158338,-0.0329468416471193,0.0254935141744308,-0.237035099844636,0.0200001460729579,0.0369615633028647,-0.136610773666609,0.107212770340423,-0.167665528576622,-0.0332333829532209,0.144457378002466,-0.263515671753156,-0.0695873589652094,-0.0136672468535407,-0.165673517781113,-0.0725451513082339,0.122481730448371,-0.125338211291736,-0.0974969711248604,-0.00521357254288207,-0.0968879854750955,0.0752108482298476,-0.144108929800757,0.0944358214340806,-0.175730562390942,0.0705652409176771,0.0910908489546726,-0.299715652536191,0.145481417696051,-0.0403659514041071,-0.0763013157463704,-0.0790776833113521,0.180298704555553,-0.0804441059766821,0.212775112194875,0.0189535863755047,0.0304991835407195,-0.115487296820164,-0.0790311411685762,
0.0667802874715118,-0.0750127131395657,-0.0143078975099008,-0.156446585850915,-0.0852681720299381,-0.070054495018605,-0.0979947324710691,-0.179540710208777,0.195699281808384,-0.16401606981912,0.141616045569006,-0.183602512031094,-0.0733221445862021,-0.0936742157990999,-0.175648185112483,-0.0452466597469415,-0.201478880549456,0.13480433129116,0.156507526170897,0.0499214531682011,-0.052473207920542,-0.164352430086106,-0.105945035408553,0.0739069043885082,-0.0794159726489036,-0.128464856947108,-0.0017974170636495,0.171176091254849,0.0784040419108169,-0.0271459017335528,0.107749631402453,-0.0439404987591461,-0.037856519210988,-0.169090524933433,-0.159452327480193,-0.0579805428244209,0.0604175909654947,-0.0082528909983996,0.0300529489360457,-0.0680774465051469,-0.177529358305342,-0.0830435866518976,-0.193728101424914,0.088191530746012,0.0388298534350001,0.0209433857770551,0.0933946562048004,-0.0930568713754841,0.112203666023627,0.11612083557075,-0.178415917390455,-0.102832791051697,-0.202978632730652,-0.144504011618827,-0.134368329884516,-0.0200794866469066,0.129681696021665,-0.146506628631153,0.0316813103120166,0.0488257448609722,0.10404763516065,-0.0903358906575303,-0.128892296827382,0.0626156835909406,
0.144703124988838,0.187245677028569,-0.186544304095076,0.0749601412603843,-0.0122857817435051,0.163472276249121,-0.244318937908056,-0.0319804693301049,-0.16247830586586,-0.0133491843703031,-0.0058251390938371,-0.224491341150455,0.0997756802513417,0.187395555495429,-0.135822945926558,-0.116519918359162,-0.046078459390236,0.0700353155448889,-0.19472813116707,0.0387948939387603,-0.231177072370503,-0.172701654469414,0.112674017250291,0.137998612923221,-0.03719917556816,0.0859669222096745,-0.0409375922084006,0.140409629721724,0.0120518079801626,-0.206086975987553,0.120165254730222,0.143246697787001,0.129137760761944,0.0696774999877871,0.0203913244757117,0.0824672846252217,0.00681656621891777,-0.154125364123656,0.0195131003305158,0.0115429457699081,0.087855680959936,-0.0226936265079846,-0.0930982061191246,0.00438646144198322,0.0214981954894301,-0.177776960149902,-0.00127804277610196,0.0474561240445284,-0.0805165180098648,0.207649364060098,-0.0478182750577235,0.0586893906395985,0.0746164493225445,0.0472680705336481,0.182137351402639,-0.0777592385854673,0.084273830598912,-0.134533972440681,-0.106450812267296,0.158593315677575,0.156756820668355,0.0541501398648623,-0.0549711060230186,0.0885115267544055,
0.0638628346127665,0.0789696015001908,-0.149050339533341,-0.169806603773427,-0.101160018007618,-0.0221688299071424,-0.476450479894183,0.196165691425651,-0.191230569228898,0.0442702039604969,0.0600815678789726,-0.147057999788785,0.0711838390218943,0.067752082906602,-0.121199389201361,0.079773095591871,0.0649621985117294,0.100961717989746,-0.35266240230336,-0.31506156388062,-0.213673269877298,0.266057151080954,-0.0815714170677607,0.281997706204641,-0.303144999986084,-0.18699882948659,-0.0730035690542698,0.0347882963672512,0.405010796136161,-0.199648471783476,-0.077353679787201,0.0488122265081117,0.312856835459979,0.206647698947879,0.121963356890289,0.0757777705022463,-0.28485669597584,0.271124692755233,0.295117283844749,0.0180202213753431,0.164735184751826,-0.172020307418558,-0.27732581633916,-0.0333888883738706,0.246858851384523,-0.245041869192311,-0.243845783302817,0.134397471940751,-0.110036706835641,-0.100754409961784,0.236514563916998,0.16711871948901,-0.23525151809546,0.249402857929005,0.146738551576311,0.219888795618997,-0.0832854074951123,0.316212353655403,0.106769244448592,-0.183810051302844,-0.186476910289996,0.183338084348321,0.0482548135610396,-0.0350141033147715,
-0.189001865524409,-0.135765835581873,0.0411822461945785,0.0773907734781829,-0.134067660292385,0.112571479854308,0.0769901495736139,-0.0925203998324391,0.10322453851276,0.0337353502182359,-0.0192103793565399,-0.120153047947821,0.205481554955075,-0.169931384632092,-0.270575393349184,0.0743316107192688,-0.250130140368229,0.0567901134568423,-0.0757237619191185,0.334876669108979,-0.102092403545924,-0.100969619799802,0.138002698631774,-0.151075656584968,-0.223500860934669,-0.0946950819419786,0.00575848088654281,0.0399161452520238,0.0255893504762968,-0.108758284524158,0.0437227949772297,-0.0544400204913519,-0.00441479189064683,0.0729175594211369,-0.103549569084995,-0.132956819035662,-0.082687835059204,-0.10488386562445,0.0246056924159753,0.0366324021400843,-0.13877442074229,0.292881635960732,-0.170980059200813,0.0459809220068181,0.0554123357195058,0.0956933484614034,-0.115670252637132,0.0551967490489163,0.177742849949325,0.115365680073942,0.101412192206607,-0.0312798393834955,-0.125902415474075,0.177355046512436,-0.0545629046072367,-0.168560631037372,0.00288708178535033,-0.211464105933279,-0.0975219140496443,0.24630127680843,-0.0229948584499614,-0.206977300038461,-0.149042302893648,0.307349976787884,
0.00923492430387648,0.173728903011616,-0.00232185829571223,-0.145918306168119,-0.00239439279944639,-0.0209420352116667,-0.304637742328463,-0.316071161905723,-0.226479171271379,0.0520976017586232,0.0792875660089479,0.0729046748089784,-0.0245757501124324,0.0951791850772656,0.0491944792073175,0.121906787270227,0.135156914038853,0.164996580613748,0.278090504387969,-0.264368591023671,0.144069512095819,0.064921499787528,-0.237647988265969,-0.0957576365501438,0.241331512804194,-0.222486912771375,-0.246361474915006,-0.117411005495236,-0.312796975276505,0.169062087407779,-0.0692841573507061,-0.037341838324407,-0.17765680281923,-0.139592327982569,0.118820268217567,0.171305386857798,-0.26003227132791,-0.109725143473898,-0.0136653013708164,0.182229873181917,-0.161392359242518,0.0406268620647678,-0.0529007408368957,0.102151878705128,-0.0479182158291621,0.425601338122108,-0.090899603868581,-0.193347723053976,0.0179240073189695,-0.000934810807684537,0.409941833880882,-0.294699695488089,-0.475745529395134,-0.0287195053123461,-0.0176937748007639,0.0125378305805178,-0.0971731274721421,0.10624601346834,-0.162577700229035,-0.0121712264514305,0.387428173682148,-0.0694133311321192,0.11900331333271,0.223504364444942,
-0.195045254154133,0.179470453947163,0.0192811340923647,-0.297804422162525,-0.183755886020848,-0.383820209033711,0.238362926185391,-0.357653391691739,0.0141621386045708,0.281598592810299,-0.0532604549475365,0.0889988000848928,-0.0571002308416072,0.0742426617475125,0.0878272839362453,-0.101992274057923,-0.25312062715788,0.133548328031946,-0.299819716386742,0.30982883346909,0.318809651030194,0.0428080148303005,0.159025284119031,0.265115561599947,-0.162499179493544,0.239502022135697,0.550615996662755,0.113088883491899,-0.0357996964349961,-0.160041030468712,-0.322296826413921,0.0727626189729347,-0.0406524937114039,0.421341471111694,-0.282020568373087,-0.152058892031359,-0.57746809268217,-0.0383711509786309,-0.00759987169575971,-0.116174659568345,-0.0319950077555364,-0.253755505130723,-0.0950478880486925,0.147659397550267,0.236234028478159,-0.21924197719288,0.228805497996553,0.0681982168958234,-0.264616314455163,0.301294017114429,-0.0181610657693245,-0.119254917953233,-0.184795713089701,-0.0908618178403626,-0.307125522684978,0.192811906826494,-0.162977790469259,0.228832024731814,0.0286183154392765,-0.0820502514787357,-0.00294859386023626,-0.289905623228269,0.145369971153449,0.0666601890911123,
0.103359315610843,0.113932257999906,0.157150479971601,-0.129717908886747,-0.0119623093917547,0.211735576154151,-0.296858889528124,-0.0517101549068006,-0.104147337178918,-0.145269600636483,0.00479167084724016,-0.193968339176074,-0.149908684657424,-0.0512328706481458,0.110819658320191,0.11722350546768,-0.137350763639275,-0.126146955138467,0.0936858682954658,-0.155167149817099,-0.118465520119452,-0.163945038873031,0.166877285506109,0.0416180624228585,-0.124053561351681,0.0820337814567301,0.0825683358586629,0.174027297001372,-0.164449943585159,0.0165404852591034,0.0588488236492157,0.0110855837223993,-0.189513238552554,-0.0909901877925272,0.114139571843619,0.105359841762502,-0.08019118660854,-0.0275646023709204,-0.09295712180113,-0.0923641868955491,0.0814674539918674,0.330267719023757,-0.22656043250158,-0.175685589297538,-0.212815292379669,-0.0753820889441859,-0.138746446076403,0.144764476251024,-0.189542086937042,0.0966785966612623,0.0453573124829238,0.017884841664314,0.106809965252841,-0.054095166323506,0.0207749202217268,-0.111979743449896,0.00661701326523321,-0.237708295567431,-0.164696179758548,-0.0221624843437768,0.0131582589867643,-0.0309835745477552,-0.0620983984076,0.294002681690051,
0.0142481783845028,-0.0675097118347632,-0.0779136566844449,0.0768340702757853,0.0925337898982075,-0.37793539044729,-0.374150078025708,-0.437139178018679,0.0173993553518412,-0.402035569789027,0.24300580668751,0.374424005293248,-0.162004232957668,-0.00881832269773438,0.149831905262507,-0.00066794681290742,0.193470105276617,0.143820113342548,-0.246777642033369,0.0668962863589239,-0.0126878613179611,-0.0935702149201354,-0.0589030982032522,0.0341393021262981,0.378686142378219,-0.0784011696003262,0.120314042655818,0.22494510874978,-0.506784924219876,0.219794150635726,-0.255366285378528,0.088954829594701,-0.147592043494929,0.19785281000023,-0.186934196733122,0.114101928342865,-0.0855822864835506,0.166171616012309,-0.174365253674027,-0.137377877911834,-0.0166674438437392,-0.0784451834017548,-0.0207090446738432,0.402670537738066,0.19047692208243,-0.268370267092799,-0.026449770685023,-0.146927448148099,-0.120294017006831,0.145697742920562,-0.0313129654546092,0.117297755752509,0.182021788004594,-0.167469902652259,-0.199256215421436,-0.227150644834866,0.280616689035793,-0.548155659809005,-0.102613261361106,0.0847261547345333,-0.117431726722647,0.164164795253849,-0.0987267889190353,-0.181560785171771,
0.025112331024062,0.425120389806717,0.114426656367118,0.307717462556257,-0.213744435198131,0.191996961465287,-0.315690803981358,-0.262634891319607,0.297186984091899,0.0275422103458267,-0.0416934467367596,0.0611646932491941,-0.262257147897167,0.210275934312882,0.209370562477929,0.0955544033654171,-0.314101822706987,-0.188652014783854,-0.00197401915559991,-0.0213508299571083,-0.680590854844086,0.090107486391974,-0.0440590466249571,0.135167245141856,-0.180110439911612,0.376389289450617,-0.0653987235742951,0.00443497001383456,0.220374442813863,-0.0408562807796299,-0.00427835041922651,0.0267855029430493,-0.213523278140463,-0.0642520766151956,-0.13695466275508,0.1376739939956,0.0835168158574617,-0.0294677827742461,0.146011249425117,-0.209774690942811,0.298107953857816,-0.269974916490747,0.169813639567862,0.0209599176729067,0.0663893831761386,-0.152966970088673,-0.119760009932349,0.0136930347861246,-0.0693055421108967,-0.108794742684233,0.153482753845103,-0.181667287228245,-0.167339914695265,-0.126019940126019,0.0471405335953494,-0.0264549860058797,-0.0977460976042568,0.00517430856233398,0.00345677627893717,-0.0712516092278197,0.153839333030287,-0.161062938898336,0.0876723812639161,-0.201970157772548,
-0.140673904553076,-0.0714778167246894,0.135479161820903,-0.118830731394504,-0.0589456364532802,-0.203930203954024,-0.225250440071264,-0.128139435074824,-0.172144124348454,0.129568201605708,-0.0423884663433238,-0.215401786361426,0.114066285044629,-0.150620131720607,-0.213661332135009,0.0751803937830368,0.0283931365651725,-0.111239707347254,-0.0631729411020379,0.186892730307383,-0.0990062838475187,-0.0902546647255392,0.0529428841244363,-0.153196501435559,0.137184526555901,-0.15183805079634,0.155218056860103,-0.116063455324902,-0.112958627597911,-0.279888509674902,0.0667171189101813,-0.11232190862365,0.0957034845299778,0.139920963523934,-0.147150766274248,-0.0384383383866477,0.0833860625517587,-0.0790514407167284,0.0747141868914437,-0.0769914826918236,0.0789156504629379,0.122016527129582,0.236881133289949,-0.138965975582053,0.132859785112992,-0.18407925837985,-0.206998713614669,0.119729904189819,-0.146932853682382,0.149849258964617,-0.0625076839562066,-0.0959286437104935,0.0125053063518279,0.168789790329473,0.103303122699434,-0.108025831219801,0.050958240037996,-0.185247506319891,0.132146230568973,-0.147800865489406,0.0520637620976691,0.133328094461111,0.0949525364725609,0.0803978201656852,
0.207136312898764,-0.159418019505195,-0.0922966502515523,0.0496449765347933,-0.164777140044047,-0.370767393646975,-0.0871589262667036,0.190173348492855,-0.181136603814732,-0.190119253641524,0.032847225767323,0.311485398933733,0.0900580349496233,-0.00880171500324862,0.0355045448396344,0.0792183482661784,-0.265767090667299,0.125871580624371,0.297728578479473,0.327494350619713,0.0499270487123959,-0.0613551436073804,0.097291993807712,0.139167588048405,-0.0137020259591851,0.0196402747823051,-0.0873732305508113,0.108121988766813,-0.244210927257286,-0.153121263334931,0.0569491763216459,0.181545926538171,0.231196180660758,0.236048919533168,-0.332553621926886,-0.202007308892798,-0.0214093522362983,-0.00585448685870265,0.348388007098975,0.0916207550443707,-0.0250256552994402,-0.20594453837214,-0.448563792530786,0.383939222894343,0.00257620573380856,0.0911658398578446,0.0652970206411266,-0.0267258297929508,-0.161942163279616,0.202248892806291,-0.0756519788486483,0.0726056331481207,-0.113680883980422,-0.318415270874872,0.0785663672720902,-0.0371842241428139,-0.177185465015224,-0.131804358609668,0.210599676138102,0.0214170835552745,0.207886316200379,0.0130483707278827,0.283563347406521,-0.121949518033107,
0.180322473792766,-0.195982576155459,-0.187249545979112,-0.148068442732564,0.188349156669305,-0.0764665542718084,-0.0608651487874141,0.139473107898881,-0.0408858578700704,0.0245301701705079,-0.0440899412644742,0.146502147140614,0.143111262032254,-0.122516575766556,-0.0484654884028866,-0.0749653730253768,-0.139913393675408,0.0345991985862651,-0.13565636141167,-0.134838942092452,-0.076449774060255,0.0387080439864577,-0.108507915907027,-0.191520706916026,0.13711427449549,0.0490658115622456,-0.0998172153621853,-0.156824771446524,-0.137451991539411,-0.256479817217703,-0.0806537903630446,0.129338755128901,0.214742314250484,-0.180374086176854,-0.110555539632491,0.020792547524445,-0.149383325328914,-0.177074046294884,-0.168114309732415,0.143711770504164,-0.0421661122803119,0.0599629776043023,0.104882234585109,-0.00428620881484311,0.0961116571908529,0.00459737802333322,-0.171078276041642,0.17189624665842,-0.166606475756941,0.103729920385311,0.14071525255282,-0.0295682384236357,-0.123753677412436,-0.0301575945149668,0.03024048428798,-0.111806649114943,0.188564860433949,-0.0574350349208214,0.0131589894917189,0.0666950185194011,-0.188091299165435,0.0856410835965241,-0.197564179724807,-0.182701414809925,
0.114249027430732,-0.0145196235101557,0.00728660009085884,-0.0338815711728747,-0.261246208410669,-0.000771055286267302,-0.271721647059568,-0.456179207333492,-0.308184232490028,-0.225343923538675,-0.133649784456465,-0.00397381611965904,-0.212779001575886,0.120472612622699,-0.16887047407244,0.0699849229045465,0.164956019042946,0.160795380747118,-0.137507647594346,-0.232123750726866,0.293559733072204,0.0107652544247521,-0.12306567061349,0.0959525843162795,-0.453083507976525,0.177746328122733,-0.131811910972261,0.0258413561760599,-0.143436043941034,0.0280387795083773,-0.205020157134881,-0.187323815079159,-0.20954950310744,0.316778494455047,-0.037947401673958,-0.138187072219392,0.191681452318915,0.0279285664805208,-0.0919188878215527,-0.245009927913927,-0.0367208526935642,0.171272391690504,-0.0210973794334396,-0.166540809013236,-0.246478499838077,0.307226033613874,-0.138127514745279,-0.0118283803624516,-0.30154415794323,-0.149580911238441,-0.360589482541551,0.306140489350661,-0.346664831097532,-0.173561943499027,0.20310299920067,0.158419340851782,0.00686430466341263,0.250545404251346,0.0325642902408991,0.0535438414948671,-0.255005864474336,-0.100670190451562,0.286284804169608,-0.0277274415723421,
0.0486668465080191,0.153796921202903,0.0268505759496937,0.117853043846203,-0.115823503629021,-0.148453585120972,-0.193663692397602,-0.197256959173155,-0.176914569017963,-0.144336628529471,0.0275696631558136,-0.1902558075596,0.109009330025324,-0.0578047679105462,-0.0987527236457244,-0.109598325434949,-0.103748702120664,-0.0931305667773061,-0.0986942949936009,0.0380339057085945,-0.0744767461260775,-0.025630911538871,0.116595447958267,-0.188646620809648,-0.196283462506116,-0.0406328769150084,-0.0274741970833426,0.0889995865319536,0.0317599497286831,0.0309178966835861,-0.105593120584736,0.0751353822485207,-0.145609342668013,-0.161672708332756,-0.169906461297884,0.16312487799823,0.0333971935140212,0.086301041904372,-0.202030264259287,-0.121488346849456,0.0600490885272544,0.0102593726981218,0.0830289944329242,-0.0463872667929664,-0.228180718809364,0.164575067617402,-0.188170012498177,-0.119153009608608,0.112970580137779,-0.100311082101972,-0.197068254233466,-0.196354452191665,0.0675400872805925,-0.194374272237052,-0.115393554485497,-0.0791531013654952,0.0474031644206897,0.0889031608540524,0.0386591522157463,0.0983675714042186,0.13364109142439,0.0257509139691424,0.00518822380009868,-0.122469101532602,
-0.0601655039538652,-0.0244096734093541,-0.0311270419102942,0.172238572698049,-0.187051795968824,0.408513596575464,-0.0840143248042551,-0.329113926541838,0.0318986104823274,0.107950107590675,-0.0296419011690056,-0.224255485987521,0.0187432532738004,0.156154913993213,-0.166372852218624,0.106730357820889,0.525660334913228,-0.151080694863769,0.00507000060262858,0.327910700204724,-0.288035955476287,0.222014737070536,0.228266672742515,0.00772172033509777,0.246277619986749,0.00595191941260256,-0.0536156672431386,0.00434193551376248,-0.154984100998732,0.0477277630948559,0.133011193976047,0.143830264626679,0.191607172105092,-0.0031944048319668,-0.18604242502505,0.0541834889158469,-0.043070158119719,-0.0989825441320488,-0.247786357230507,-0.00575939413062194,-0.283007210378052,0.114065120693554,-0.080061183413265,0.210884774179761,-0.0556563584773407,-0.222023997623697,0.31121285572864,0.0106211997470725,0.240535098336083,0.141246291463998,-0.231943261441096,-0.108059976911717,-0.0681921710173215,-0.194963777506959,-0.151354746161364,0.212984877162201,-0.170112873827242,0.183732387319305,0.238513528952362,-0.203464733317173,-0.372114146929548,0.103146550053543,-0.0371375454666559,-0.0314276234552415,
-0.0895287146090573,-0.0902476986033053,0.0721438220536084,-0.148432484780098,0.226363588459198,0.0553971168387449,-0.243210296198663,0.25528703977186,-0.0334767073677474,0.563270017222033,0.158419280805274,0.2532487168288,-0.20485823294706,0.326613912925133,0.302114041568412,-0.178149854194824,0.204176924338067,0.149080148964546,-0.383406479633576,0.0153411028781979,-0.0551259400286207,-0.0546624486647994,-0.264443092074688,0.542254999246507,-0.535418429113318,-0.139560054134793,-0.300751195985942,0.255868616069293,-0.0860482972247077,-0.534169412348311,0.482675182880166,-0.0167386157778262,-0.0871399857482724,0.145736583126906,-0.159328860397262,-0.139459415604266,0.108633828143192,0.123184230942548,0.257043972693712,0.265928466220812,0.457518235436534,0.103419951904291,0.185326229504932,-0.222875113275567,-0.192472505713208,0.219064797105671,-0.245261654359728,-0.0473125953841843,-0.153065061223665,-0.100524978501823,-0.221502992365293,-0.134323083244964,-0.0763507114070422,-0.508000862310674,-0.304865454562897,-0.11965936301522,0.117560189579741,-0.179259722126956,0.35366186254911,-0.116476108670585,0.196879404778687,-0.00747172274857051,-0.151649187229861,-0.497488537224579,
-0.0590933412871806,0.0791224017124601,0.0381091511713632,0.260828338839242,0.058657681134928,-0.158814210034663,-0.174616917452128,-0.0968730599177542,-0.126475300866399,-0.0701386169974589,0.117603470508819,0.0912178394270989,0.169513700286666,0.19579489664123,-0.137186015810633,-0.175513382241578,-0.051632394566146,0.0589384832914763,-0.190994720715599,0.162863930646451,-0.0673898788340285,0.0538558371112802,0.143697017334551,0.0130936062855991,0.0874361329333656,0.107263964200562,-0.117744394219221,0.0355616245304973,-0.108450558213734,-0.225080042907804,0.00875917874840894,0.114830370286528,0.241160646216381,0.272237080252334,-0.168158420778151,0.0858558932143225,-0.168229666766651,0.0211660118667037,-0.0765831045885723,0.0677486914618078,0.035646734074826,0.00178343601403142,0.156801561619546,-0.173456111531811,-0.134188132044245,-0.168256211845783,0.214488883851277,-0.0175389751746723,-0.0336680437952049,0.298231084005012,0.149692432666135,-0.0407877821495689,-0.269190447131136,0.105282815237499,-0.118001794519539,0.0863112984014169,0.149470842111957,0.000349954968769377,-0.0381318389983201,0.280623531809851,0.152960605976381,0.256338553026682,0.0858784055903998,0.189895719734954,
-0.0336782010334713,-0.126618486168248,-0.0641675232829325,-0.225064712932463,-0.0673139570744754,0.0169336075697725,-0.0398460702894596,0.232204099976328,0.0867762007189788,0.115768124451833,-0.0890550869223178,0.0564101963835682,-0.0796645175148612,-0.0149863184846088,0.169424630549241,0.177060804549579,-0.12696682094302,0.0353977466341242,-0.00968601166706503,-0.0964193095434611,-0.428016731492558,-0.0696367580897108,-0.132300685777605,0.126615662466933,-0.0562056175114806,-0.189063568986127,0.280779193886211,0.0592379475534066,-0.165109808360399,0.0433960278490984,0.0113510497203323,-0.173380963067569,0.207867486888121,-0.154288847813463,0.172521028573607,-0.187892150056352,0.0231492436816918,0.0795249766676291,0.134164513929338,-0.00779903290794288,0.039355840802572,-0.207142509415241,-0.0793412458723831,0.0867101518200255,0.0395111565744266,0.0232048790047445,0.164636764875265,0.157403032907212,-0.141769433228641,0.163868788863059,0.0963653862961281,-0.183908392340761,0.0354447932864569,-0.0747958462518477,0.0586929160650076,0.122496314117494,-0.0285585740133045,0.0280881557815734,0.150147890952798,0.0378098995701262,-0.131067717169088,0.120336491353818,0.219123929944593,0.133136868126521,
0.0806200376307981,0.0795839038973096,-0.0573341162532138,0.0307439368007452,-0.112083540987504,0.0650085679265694,-0.121543554105778,-0.116756192152466,0.242200376043019,0.134661197955821,-0.119046101159088,-0.127016340256987,0.0408682951390031,0.174264028301103,0.224208611482068,0.0771913613088632,-0.171896174566416,-0.207876994071683,0.208871677384003,-0.0632384078462588,0.0137384494773227,-0.0724076282052627,-0.101777311344476,-0.099085214478098,-0.0465076466855606,-0.170173765168268,-0.107775412481471,-0.128546985736714,-0.318758773680958,-0.0693727277659064,-0.0244712056936927,0.0322595977419428,0.00885381983274688,0.0652882644829628,-0.161580658124852,0.173011777532978,0.128492342184614,0.249362446565091,-0.158313315048013,0.0875219262806883,0.11902919103446,-0.229615044737662,-0.126813971502799,-0.0726366735388817,-0.122383933182073,0.140439047588815,-0.160297682595966,0.0919370846967115,-0.126761454965298,0.156196165993099,0.0237152818747677,0.17437567206967,-0.330063700072262,0.20240330133303,0.17021896744949,0.218385812880704,-0.0599599161406711,-0.100875885219869,-0.0297092356964598,0.0402022407488293,-0.0202966639138419,-0.137880042503006,-0.0947198520356513,-0.0609936432676044,
0.103304066286572,-0.103768134592488,-0.0893220335122371,0.144610313981502,-0.162558710359228,-0.0923691496308545,-0.0285596729974617,-0.168207139168242,0.133424510631712,0.165217660689278,-0.0244856146543763,-0.0315573302103895,-0.095819271442814,0.0857445164176568,0.177700739964785,0.0592596513412085,-0.0665797994552109,0.142658728649814,-0.108435116011168,-0.00611876676112688,-0.115295746219028,0.133472158357077,0.11489336035605,-0.0753311783427053,-0.182323725219834,0.139098946420956,0.0136346542345711,-0.0455000002548064,-0.00293684595340219,0.0282724930049179,-0.104738076196103,0.00125797709488124,-0.0817751332008694,-0.155698807827921,0.01815203425115,0.0833573506979593,-0.036288421502851,0.0621902644183265,-0.10827067514575,0.164927039761638,0.0962955985602707,0.125969302199444,0.00263489824676856,0.0533874796392456,0.131344025075726,0.054370035003083,-0.0108911670166644,0.115375237068627,0.0244850912893557,-0.00777142116995537,0.0968110846887588,0.0115748115643033,0.179689711189039,0.0879973185278104,0.0656778621614309,0.149713269272189,0.110186862622906,-0.0392615597716912,0.0696898023286465,0.108630393287986,-0.221877573951524,0.156765623285908,-0.101847458605445,-0.0891392986246303,
0.0655383635679613,-0.140277089381933,0.0373894651079195,-0.279999034598112,0.209404213912606,0.109674853613391,-0.174141487550585,-0.0152567806685591,-0.157801533785155,-0.179792799352797,-0.0741918984612438,0.098634051997665,-0.141582380882026,0.0274301669610093,0.0691816406215718,0.145101648529706,0.191927498895572,0.103396092143673,-0.128400157137834,-0.133877148843365,-0.144472594438516,0.0740019592567426,0.144695920969493,-0.00311526089084981,0.210007534076196,0.0892338235973413,0.15702726944898,0.204298803268929,-0.277034294710556,-0.00975031527300499,0.0909081257206619,0.169250303448426,-0.0274085216296068,-0.213161439667079,-0.0548557889518583,-0.134745399911934,-0.115544344763905,0.139397975255463,0.0308840225951862,-0.127734920136572,0.36146924700941,-0.0219885463652092,-0.107717035056981,0.141426420415135,-0.172496097740655,-0.150473083785199,0.039504492709757,-0.120569444007067,-0.0248747634811949,-0.0923395800743649,-0.174966859433905,0.225622406758165,-0.19170862176406,0.166308161574096,0.198525781960689,0.00611756536537895,0.00203547462527393,-0.179383001369582,-0.130298310699764,-0.0805163317579246,-0.0780008053751639,0.111206278473125,0.189578972099339,0.193432215539034,
-0.0476635061507834,-0.0330438113233136,-0.0704360353018063,-0.0712553798683358,-0.151900902334936,0.0824900379138404,0.10196696791704,0.114699169320876,0.0600109456394564,0.0208482863346808,-0.148938021515551,-0.0144646166523715,-0.177222476415462,0.0684753153223451,-0.0788486933741073,0.149279105811103,-0.013689028663616,-0.167509809429062,0.26156325665984,0.0423262810913385,-0.102371180528643,0.150144871019813,-0.177665655921759,-0.141560941269453,0.0983715608118053,-0.0116778204209008,0.127768411086725,-0.190631098909728,-0.169165936614291,0.0189589611791855,-0.161405230000148,0.0045042309833528,-0.0304273224470691,-0.0592574795151633,0.100799922441609,-0.0328246127041078,-0.188727511202694,0.148104528521197,-0.0296861797823363,0.130847913424877,0.0446531259657503,0.0217224475232544,-0.163309732833383,0.0632474423658935,-0.129641761425754,0.0583402731151051,0.0882581876773073,-0.0532958666374912,0.129910540427981,-0.0310652837868611,0.185941440117387,-0.000783531141670638,-0.214143560445108,0.0429593343941827,-0.195165184884537,0.0918682539401653,-0.0362268815867103,-0.144327118250838,0.00639586312633025,-0.0729145838144292,-0.0407470461030851,0.027993279787337,-0.129844740995594,0.0959666687491322,
-0.135749960193432,0.0852169415008272,-0.141996524616283,-0.185226002322151,0.13997641037337,-0.0492039431525928,-0.231690125660312,-0.00347493430027813,-0.0935720508595738,0.116923002466223,0.0261137589326721,0.10524671722525,-0.0822943215135702,0.0559525226621564,-0.168633389708418,-0.168444599598764,0.120328394811941,-0.101501399091681,-0.0233506717873101,-0.120321062022016,-0.0172548054051886,0.158629755679987,0.122632089990708,0.0779685973101243,-0.185761308797114,0.127415686904784,-0.129977430539225,0.0711186691259026,-0.200569613139458,-0.0832341187365631,-0.135130442588081,-0.111629448361057,0.181148837450465,0.0847588278361976,-0.0868464913236253,-0.120102545646319,-0.116958489456447,-0.104090749141947,0.000376485679267636,0.097418872029424,-0.127001272516551,-0.0784370514968397,-0.0119291107925834,-0.0970864299441047,-0.0557532042584774,-0.0354593612179533,0.112396038486884,-0.00671656654095922,0.110685231532618,-0.0608021690008293,-0.0850559003672743,0.123185341499475,-0.116526774070641,-0.0495810751446058,-0.187347167594054,0.0160408291072855,-0.17629749945585,0.00123574807900331,-0.0558880968229574,-0.0516571071221025,-0.13358290848428,0.145781121331808,0.187514186467613,-0.0555390965732209