0.0194070383581287,
0.00416988854647791,
0.00785912699377322,
0.00326538386384433,
-0.0310111804869091,
0.0119472051917084,
-0.0131320050478125,
-0.019252726873385,
-0.218882648149764,
-0.0125804372979421,
-0.0202247698110194,
0.0188851831204386,
-0.0208605288063338,
0.253191250536607,
0.0305672587075927,
-0.0478516793945313,
0.00493044341866541,
0.137208689824084,
0.0379979941519945,
-0.00472256742803513,
-0.0434520090080034,
0.00377522664216184,
0.0497123188757713,
0.00840632823584972,
-0.00724868122077162,
-0.0123651939757657,
0.00107534732438284,
0.0194455737530158,
-0.00159059640036955,
-0.0131333637509705,
0.0056720565714654,
-0.144087191535519,
-0.00356812161106108,
0.0211719273782888,
-0.0130081188631384,
-0.083560307694025,
-0.00368768965821395,
-0.0371621958076107,
-0.131045104872976,
-0.191315819040566,
-0.129609911970381,
-0.0566990101930103,
-0.0200646884147057,
-0.194647171652748,
-0.0574728148874989,
0.0325372026645847,
0.0446521475355066,
0.0407123246084783,
0.00166422089007225,
-0.0118047163416413,
0.0352401082930591,
-0.00564450815486927,
0.0143372040208644,
0.00649138813233833,
-0.0707531713644529,
-0.0156831361093802,
-0.0443025212365083,
-0.0104394010140579,
-0.10849699513993,
0.0413870243342833,
0.0265733918090732,
-0.0604503992595939,
0.101316794840833,
0.0366995491593555,
-0.027153140618539,
0.00716395030981455,
-0.0701148764617605,
0.142758400554814,
-0.0128221757802899,
0.0306652307888459,
0.0117501560265995,
0.1405259755237,
0.0172810935617657,
0.122103416215591,
0.0114131716557306,
0.0382098034896685,
0.0147641649495061,
0.00202862554416209,
0.00501344408502604,
0.001756603448057,
-0.0131087225401125,
0.0107003445630258,
-0.0107950884956954,
-0.037575137465441,
0.145716857743708,
-0.0255860753313308,
-0.0227304044481362,
-0.131457999112525,
-0.0639907592918296,
-0.0249743606922924,
-0.0512131978034511,
0.0455939695751078,
0.0440794843822073,
-0.0287267674596922,
0.0220576271699403,
0.0507258586363305,
0.0454086915672403,
-0.0468492361806488,
-0.0236331169825507,
0.0163167577422134,
-0.0215551676936419,
0.0367523168261198,
0.0536100483598575,
-0.0144575945841791,
0.0034466320051637,
0.00358156980191745,
-0.0012758986284326,
0.00168261475237918,
-0.0958657740888159,
0.021169517938367,
0.10218155223163,
-0.0229948775478159,
-0.0322088362836542,
0.17337930664906,
0.248044433039688,
0.00654193199137178,
0.087457933670323,
-0.0502736036371941,
-0.0486364280740642,
0.137079595455434,
-0.0303749322474128,
-0.0268891918141845,
-0.00282217333687363,
-0.0319366151433725,
-0.0507714091964575,
0.11694074000764,
0.00126418577199633,
-0.0486983306270111,
-0.0281331149554865,
0.053861962062327,
0.0026459042113173,
0.0192933579898849,
-0.000792523848869798,
0.00162220552007522,
-0.0194102224063415,
-0.0163516910590974,
0.138747394799639,
-0.00881660981503359,
0.0536567890794615,
-0.0476188971820552,
-0.0265123216921002,
0.121335233662187,
0.0304167805042936,
-0.0563509677670288,
0.0355640812296722,
-0.00282931904668623,
-0.0195452205576082,
0.0402543336834771,
-0.0530612502783771,
0.0780813907287854,
0.029123975311528,
-0.0321419292192703,
-0.0169367005514188,
0.14250279265088,
0.00578182008744407,
0.00881867319785941,
0.0119353740164027,
0.00171977430777176,
0.00796559778135402,
-0.0158083581320228,
0.064813306843991,
0.0010638164034769,
0.047295959627739,
0.0166403907730115,
0.129838631844858,
0.0431595710746192,
0.0367876868922301,
-0.0214374876190451,
-0.0186441028942161,
0.0188257733312619,
0.0444358520667996,
-0.0467485387695669,
0.0759325399666808,
0.0158128478788941,
-0.117765804450268,
0.0342078128182867,
-0.0278411745336589,
0.0488409423670627,
-0.0657792141880475,
-0.0220902447365535,
-0.0296199068340875,
-0.0209790279856036,
0.0193314054030918,
0.0130264330991046,
-0.018429258492176,
0.00953416945394197,
0.0154667790279895,
-0.0162097750237034,
0.014047987390493,
0.0099232698388772,
0.0240736201453237,
-0.0531839282203106,
0.232067942235249,
-0.0301495398533332,
0.156054427414557,
0.0266901985914313,
0.00662463051158156,
-0.0201348209325044,
0.000833769715190706,
0.0359010114014226,
0.117944424748007,
0.0188583201771938,
-0.0230018534560312,
-0.0226398251893814,
0.0101361697117989,
0.159731743610132,
0.111205211024696,
-0.0210773908521891,
0.0120149921576573,
0.0186291423378195,
-0.00286388889778913,
-0.0230201794966146,
4.40790689775715e-05,
-0.0648927356158389,
0.0286839554303298,
-0.0324926486076383,
-0.0345008050554815,
0.00817546302759935,
-0.0201089450689037,
0.0211571855990244,
0.120856402494742,
-0.00842524590035556,
0.244003034931139,
-0.0744595865832313,
-0.138402937727433,
0.0446202392857412,
-0.0403935250506787,
-0.00706577639435312,
0.024756467762309,
0.023828006847034,
0.037689711398736,
-0.0134603994683725,
-0.00751235601508114,
-0.0517121378550287,
-0.0242426411074989,
-0.00948060119725419,
0.00292526664664106,
0.0067142262859035,
7.52527824009847e-05,
0.000364924169977056,
-0.00735990693276182,
-0.00234585345058162,
0.05898063561959,
-0.0297723230444766,
-0.00511971393617272,
0.144940903489667,
-0.0457394904319041,
0.032499702442134,
0.0424193909252961,
-0.0534777129552115,
-0.0583542127705427,
0.155455873651029,
-0.0252469278664274,
0.110448667419954,
0.0410493073704054,
0.052508454480761,
0.104724060681876,
-0.020523613371039,
0.00868427769315769,
0.186280058408373,
0.00413885798719315,
-0.0029822376731964,
0.0847182137808985,
0.0126705511587055,
0.0263989922530436,
-0.0195981746253827,
0.015192159032629,
0.0129224446385089,
-0.0398131163336078,
0.0135926378436617,
0.0955939804514752,
0.00757657875303659,
0.00146013337049484,
0.151040676127926,
-0.00326781223474813,
0.0425697034619076,
0.0681647628001047,
-0.0258922393591599,
0.195403126416021,
0.0779564832306227,
0.0190906959673493,
-0.00429284351432861,
0.0190058360472265,
0.0129727274551774,
0.035542472622573,
-0.00602520176188188,
0.00686107178735716,
-0.00721320421457773,
0.00102153479974873,
-0.0547422597624818,
-0.0545508519338661,
0.016867920206877,
-0.0311288409004029,
-0.0286124370891684,
0.186283268367176,
-0.034959521350494,
0.0281579802452483,
-0.0240213980130325,
0.00240599380171151,
0.00286260127128616,
0.0115715041902673,
-0.0127589189334166,
0.00148317556418872,
0.0192464678238321,
0.0103138411437498,
-0.0510842155420307,
-0.0290824901090645,
-0.00258018560298189,
0.104424114322285,
0.0144954279544112,
0.0118448823843091,
0.0441855517956767,
0.0177811394664081,
0.0131627501669714,
-0.00391351628043533,
-0.00784658494046559,
0.132136051633399,
-0.0426564240166502,
-0.0267775368205382,
0.0188620580343895,
-0.0106436994927095,
0.0237603853385272,
-0.00239821010639142,
0.0379832647444297,
0.0448155538245136,
-0.0138898902405667,
0.0130493058857578,
-0.0863731039818254,
-0.0961007161841177,
0.0682055978750352,
0.0514709985990233,
-0.0210235290616748,
0.0181318206686055,
0.0223317372788776,
0.10585166763041,
-0.0528598028200195,
-0.00583795753836752,
0.0389965416099111,
0.000545794692156997,
0.0268411013962274,
0.00667302959410222,
0.0012785855285158,
0.0197147216232875,
-0.0591577219127495,
0.150011441257751,
-0.024118742919746,
0.00474266965741947,
0.023386736954372,
0.00937894184560694,
-0.0281969125543699,
0.050559029756787,
0.0144419580818423,
0.0441197476822865,
-0.115336445975572,
-0.0563102947186436,
0.0929606262535231,
0.0233414517366123,
0.00225016075528698,
-0.0137484494804285,
0.0262218179883671,
0.0467521124909635,
-0.00531409571376764,
-0.02060397328878,
0.159681804964069,
0.0061065268448783,
-0.0217260334311859,
0.00639833450305889,
-0.0225978024719707,
-0.0369357410117038,
-0.039427356225093,
-0.0559161887537794,
-0.0217666832719416,
0.020861918400605,
0.00319094392872297,
0.012745189494766,
-0.0191701778517384,
0.0375921502419683,
0.0152037948962324,
0.0933161958828529,
-0.0115303592538848,
0.0963311657221526,
0.0271022151473413,
0.0416386318050707,
0.0109569374200981,
0.22059822401663,
-0.109950304873999,
0.0280585242264325,
-0.0130194895892549,
0.0520002752713295,
-0.0463095307635924,
0.00628444792871929,
0.0192879461249576,
-0.0268340245997967,
0.109516005861039,
-0.0152973501084739,
0.00591812506000797,
-0.00623426517704368,
0.0264578254860596,
-0.0180066126650007,
0.0152122670926356,
0.0912182005247393,
0.0255491362955157,
0.0238888281698502,
-0.0097938227190687,
0.145538208927991,
-0.0395664270882808,
-0.00297873845591563,
-0.0481789728580638,
0.0274883389398259,
-0.00924804824190531,
-0.024498422806323,
-0.0476292321857344,
-0.0055797875804378,
0.0414559444125778,
0.0420724930508272,
0.0314416692875232,
-0.0132985973133874,
-0.0122221299582513,
-0.0270743124642908,
-0.0344627520383532,
0.049035287502629,
-0.0173152058123097,
0.0151136741923927,
0.0115529932027863,
-0.0109570299218469,
0.00694328985421028,
-0.014297521655645,
-0.00524306995367473,
-0.0192414433977047,
-0.0566356915610296,
-0.00224100725938316,
0.0578956160154675,
-0.017322538978388,
-0.00873322145625416,
0.0154215603816809,
-0.0193909432620095,
0.00178383914276698,
-0.00119359240152905,
-0.00839070194050742,
0.0809100804728144,
0.0091695281174614,
-0.00814697662360491,
-0.0123873331661026,
-0.010611436989011,
0.00246284358923879,
0.0162984081603814,
0.00785597380172929,
0.00474547973085023,
0.0144335346054501,
-0.00231978462580753,
-0.01243726942993,
0.0350192516826724,
-0.0163423276792706,
0.0608662505027023,
0.0226223696042794,
0.154035771219288,
0.121330968762132,
-0.028502983557404,
0.012707600935445,
0.0441533974070618,
0.0569102592631449,
-0.053885947628847,
-0.00670225976252581,
-0.0140220317686841,
0.0373476589858982,
-0.0370030480108659,
0.00193467857124069,
0.03526186487086,
0.0359102751623815,
0.00426683442529218,
-0.0510062795303009,
-0.00435433089001276,
-0.0471059601071126,
-0.0351347219908443,
-0.0515037482558203,
-0.0298629597851365,
0.0656442431360165,
0.0669245685443519,
-0.0133918667468541,
0.0561008236525259,
0.159706986168052,
-0.015040770882965,
0.0328804551423902,
-0.0126361864076128,
0.00538246202380876,
-0.0024617170803898,
-0.0181316689792952,
0.0183756023307476,
-0.0183403280312659,
-0.0230499280183954,
-0.0409811253098087,
-0.0249322014135715,
0.0223981883802126,
-0.00821188313260893,
-0.0161965826908508,
-0.0189267043467923,
0.0527746419163254,
0.0284976086995671,
-0.0151921766938796,
0.0719201561250784,
0.0507279126014058,
0.0154104295339505,
-0.0357331688953025,
-0.0330222689121255,
0.0313978861329955,
0.0613352603126662,
0.0691086286402971,
-0.0216714495959157,
0.161544322346937,
-0.0320209036054546,
0.0752566990207329,
-0.0195680238092013,
-0.037461724312458,
0.0206004450265556,
0.0176122760167426,
-0.0080304474085137,
0.0023810005130807,
0.124096614230972,
-0.0107821366586595,
-0.010680058049858,
0.0412355824267111,
-0.00930598172732881,
-0.0278708548349204,
0.0618148868025993,
-0.0164605119867884,
-0.0118082863070817,
0.00784713351706689,
0.0192422170148438,
-0.0417352855298712,
0.024685892146442,
0.042243973683257,
0.0310165682133836,
-0.0435218628697735,
0.198513224504297,
0.0107102743219867,
-0.0133792846729991,
-0.00424528735598421,
0.0188221027491228,
0.128205959231184,
-0.0292179842493385,
0.0169427872758983,
0.0484493483583836,
0.0082762674414875,
0.0100243280007541,
0.0481434904477311,
0.00138209894824876,
0.00567753382204398,
-0.0211969792626032,
0.0621085542869674,
-0.0536341906438774,
0.0213314566531986,
0.0546223968186533,
-0.0446608428648911,
0.00810734573546491,
0.0806127948162886,
0.0110743555716553,
0.0263284875598076,
0.00605132130569808,
0.0397758137114356,
-0.0246398658256089,
0.029118551749994,
0.0628031537995978,
0.00293662811191536,
0.0179909347070932,
-0.0689405226177416,
0.0505938278621383,
0.0481736604163309,
-0.0481651825246432,
0.0105026863183088,
0.0559359792141426,
0.0284762639874278,
-0.0359282943591866,
-0.00577888013621915,
-0.00442966555976682,
0.0135909285223931,
-0.039282566619291,
-0.00652548618148576,
-0.00664273827360925,
0.0334014715610209,
-0.0140717902969263,
-0.0261347608387596,
0.00585601848793309,
0.0864110381640069,
0.0161100660913315,
0.0624101339777195,
0.0854846303242609,
0.0160939288757383,
-0.0121336389246792,
0.00375366092188256,
0.0134353972013063,
-0.0365391593642865,
0.0263680941179236,
-0.00812077453713209,
0.010167479413526,
0.023456229593106,
0.0493189439595466,
0.020048687879803,
0.0218253579158294,
0.0112669241975868,
0.0081496755433124,
0.0149306236106629,
0.0178250868124447,
-0.00914950819980632,
-0.00850170600303211,
-0.00649650088607734,
0.0183516276268856,
0.0844084915724162,
0.0375103961188115,
0.0535817281041819,
-0.0234218963710491,
0.0174112791880795,
-0.0182471701815802,
0.176814117966274,
-0.0322896259306829,
0.0388950709020168,
-0.00704025257780132,
0.0956604156122922,
-0.00178303495237572,
0.00894202113897341,
0.00926823657836242,
0.0768684707914586,
0.0380580602561918,
0.0343573358861517,
-0.0054686221950565,
0.0162858636949268,
-0.0592356659630108,
-0.0185130342030841,
0.015078965334224,
-0.0111331107263,
-0.028221019619599,
0.0139997100670242,
0.0452732909454226,
0.150217286812312,
-0.0342223179010745,
0.0123572678939449,
-0.0376917818443867,
0.0644939913846527,
0.00169077338597519,
-0.0365483013497817,
0.0376794363190234,
0.0492226963575218,
0.0877224268243125,
-0.093287735912002,
0.0282265350293808,
0.0102396028435265,
-0.108876399754131,
0.12279222656044,
-0.0851648543524493,
-0.0349436475899585,
-0.03461288714686,
0.00760385639339719,
0.00625820436731696,
-0.000897837198988102,
0.000682984737486457,
0.0147123335065969,
0.0753484527767537,
-0.0282659366278225,
0.043327871325594,
-0.0383693639707566,
0.0212040269647132,
-0.0381696722012285,
0.0749081578887889,
0.000807481216314767,
0.0795522168068512,
-0.00889085418707879,
0.132305374328971,
0.00785361561226777,
0.120095274806062,
-0.0164911422241747,
0.190639940167502,
0.0451820356591175,
0.0329928714185156,
-0.0184111624866565,
0.110285909672938,
0.0245886855221049,
0.0512197349638203,
-0.00253745447822443,
0.00756817069052987,
0.0230508071887819,
0.0222545812765851,
0.0372956070265921,
0.0738215052975578,
0.0489883845035796,
-0.0115630314501763,
-0.186574942272583,
0.181525858421965,
0.221856547269071,
-0.0868555257192411,
0.078717114304293,
0.0905436516375608,
0.0649357272062146,
0.218734356664302,
0.187147427602729,
-0.00943656686869707,
0.00560042835992849,
0.175516151527581,
-0.0224039047085422,
0.055802789892679,
0.0283214559911729,
-0.00226023284280082,
0.00338780546553338,
0.0336542969801981,
-0.00186526799009073,
0.0074532055427109,
0.00780273948800044,
-0.0867653267110675,
-0.0412613813643922,
-0.0157078146917996,
-0.0576771149771832,
-0.0354303599486987,
-0.0389052921533485,
0.0515046456558783,
-0.0245202918411916,
-0.0293326422754743,
-0.115395028462017,
0.014117419690107,
-0.0990775164749887,
-0.0802213616299858,
0.0324730877073651,
0.0742546823413269,
-0.0201737497067366,
0.0152984074762321,
-0.0492229241617761,
0.0609985939853199,
0.037938397281868,
-0.0210403422401336,
0.0017978256260831,
0.00486347775772052,
-0.00252572862692272,
-0.0024821341450007,
-0.0217558347917249,
0.0382953751501417,
-0.00841106655177964,
-0.00898329528756768,
0.0788571811239238,
0.0872023492133735,
-0.0913854048655648,
-0.0498521038014989,
-0.0340851650012908,
0.00948690337626028,
-0.00678823505740457,
-0.0533254059070409,
-0.0184112292227335,
-0.0458706932335793,
0.145165968737584,
0.00245404759684337,
0.0822303863544211,
0.024186656269426,
0.105230251792241,
-0.122877680250093,
-0.00487038125951231,
-0.0389813927090901,
0.0227354082722602,
0.0437881536808574,
-0.00256789263945419,
-0.00235259987277993,
0.00263826054748519,
-0.0750247665617149,
-0.0204990395335309,
-0.0186662039251516,
0.00298634747657887,
-0.0376684380410658,
0.00769265268293636,
0.132956058535257,
0.051020626575507,
-0.0292934520919797,
0.00497692069834913,
0.00399486088172128,
-0.00116025726402402,
-0.0288433252264184,
-0.0214995768841104,
-0.0620631881963167,
0.0842349128497409,
0.0545117686968809,
0.0927857196018311,
-0.029697781632371,
-0.00374457133826056,
0.0923996792144625,
0.00118052629400797,
0.000141881146921721,
0.0101298826314424,
-0.00680133464667262,
-0.0138925668926092,
-0.0139542373414738,
-0.0953836278767752,
-0.024049328783772,
0.00653272555396412,
-0.0106980544642646,
-0.00819014398304296,
0.0434951966081633,
0.0357789940724551,
-0.00194465224305594,
0.0630385861629744,
0.0573280829082714,
-0.0308821543373915,
0.227208193356975,
-0.0321141010452275,
0.0334039259568986,
0.00259716770533255,
-0.0627105269526663,
-0.03079476850572,
-0.0310471175040637,
0.150538555826582,
-0.0120175094673374,
0.0431611654181499,
0.000760757715614962,
0.0289961668785846,
-0.0114822571836164,
-0.0138154489487144,
-0.0142792741916952,
-0.0442112481584455,
0.129768501893756,
-0.00410275179322207,
0.00921966652807192,
0.00383666336125474,
-0.00498487123829315,
0.0360930247627691,
0.00932354521212484,
0.0155399161440408,
0.0574098429180641,
-0.0220526797894689,
-0.046156297741864,
0.261748490609657,
-0.0193069739970528,
0.267105169851232,
-0.0126461260855722,
0.025230328078971,
0.00739345546255828,
0.015112913486796,
-0.0164527466578698,
0.0113461199342918,
0.00838903484434088,
0.0121273712962909,
-0.00619736590550711,
-0.02579042639986,
0.00440909007839026,
-0.0384963911341011,
-0.0310170181712775,
0.0595800153653104,
0.0241194749080979,
0.00756944002834199,
0.00731905305508574,
0.159095473414576,
-0.0671982640225781,
-0.0206423463457669,
-0.0641006631641249,
0.023235258196023,
-0.0674760228882666,
0.136256515480207,
0.0242419484684067,
-0.0552106137501493,
0.0187888854619547,
-0.017791064797638,
0.0637280672863623,
0.108874753045097,
-0.0274587243327337,
-0.0145375063374102,
-0.00688317691318705,
-0.00719122555463513,
0.0150202336803822,
-0.0219287707856093,
0.0202874242249837,
-0.022230537155099,
-0.0222129892970512,
-0.0144815432459737,
-0.0739078246314162,
-0.00893641434491717,
-0.00285827575560767,
-0.065822948200218,
-0.11269732705924,
0.121065923421788,
-0.0958537160333689,
0.12872548542843,
-0.011197651461196,
0.140728585477242,
-0.0643348478512565,
-0.0735709999141667,
0.434129732451626,
0.00784306180061398,
-0.017589705162994,
0.00768842065755374,
0.0354762725015573,
0.0725145605662521,
-0.00809247050859637,
-0.000385254037733027,
-0.000431968589317359,
-0.0469077598335481,
0.0944252275042632,
-0.0118840577486215,
-0.0162112048092522,
-0.0291834435827168,
-0.0123882566796134,
-0.0683750343528331,
0.0461053543626405,
0.121441082188902,
-0.0794335349973695,
-0.0608195464315319,
0.0549440162830495,
0.0590951195454693,
0.0581961644773638,
0.00167239257486456,
0.00753851526541215,
-0.0712662460587169,
-0.0277613065193775,
-0.00187055208128881,
-0.12668744050612,
-0.026032114962385,
0.102602909987311,
-0.0160003307543442,
-0.000260260660862134,
-0.000471852349405415,
-0.000521046502684945,
-0.0190804872160108,
-0.0132533036604853,
-0.0115269939542255,
-0.0117746138431455,
-0.0729686702349127,
0.0168457726733525,
0.0422965490113376,
-0.0397020038130965,
0.0181822196521068,
-0.0337173940611326,
0.0595927688447422,
0.0407921287819691,
-0.0602693026825738,
0.0550032512529198,
-0.00166615303139201,
-0.0313827045875895,
-0.0748600758991472,
0.163803211928052,
0.148914223813018,
-0.0162619413133771,
0.00272572009536291,
-0.00123347696799295,
0.0285572993319679,
0.010239647658489,
-0.0012096885963413,
-0.00835723652797548,
0.0145064606403325,
0.0147668380785637,
0.0268930646198909,
0.0014479798257897,
-0.0288644604359564,
0.0154466668271318,
0.0281381689669818,
-0.0874302455217429,
0.061462474214301,
0.146020657316735,
-0.0973385306331807,
0.116425276553454,
0.00221316927935082,
0.033299213679298,
-0.00728355403507081,
0.0245123675142864,
0.0768269807134468,
-0.0459157311628852,
-0.0303884307241231,
0.0105427128360465,
-0.0070083843295247,
0.137033793447523,
-0.00537217915164457,
0.0100884070758685,
0.00446692525756265,
0.023419268794942,
0.0141680220289983,
-0.0253672215032518,
-0.000679038577010738,
-0.00593462394046209,
-0.0780422601584277,
-0.026470920935131,
0.020780471274885,
-0.0740325002152028,
-0.0431695767468933,
-0.0178681329856223,
0.120035341753809,
0.0846886778001414,
0.021120421968564,
0.00622266882616667,
-0.00129578831838475,
0.0232271758696405,
0.002561080862396,
0.153352987069405,
0.0201107681794285,
0.104242239904127,
0.0106640767915053,
0.00813505815569732,
-0.018241272216619,
0.219067865289799,
-0.00262519788962475,
-0.00887545089392041,
-0.0302230983423639,
-0.00302074322058541,
0.0342290418571447,
0.00550532500027318,
0.0311239509683262,
-0.0415520858247782,
-0.0602471674860891,
-0.0143717584346027,
0.120155932840569,
-0.107478978155537,
0.0138877677030474,
-0.0676038464089296,
0.0215578327284923,
-0.0423791987697343,
-0.020434232082256,
0.102650963628261,
0.0950543735425433,
0.0166113352667819,
0.00461536785964725,
0.0903376465492239,
0.0630823845244917,
0.0416591895962769,
0.00793059350688068,
0.0544744989616489,
0.00299417487815339,
0.00612022781721329,
-0.00653840918445795,
0.0122387194463582,
0.0193191468229629,
-0.0310445991112022,
-0.0445994610964464,
0.0121491936304381,
-0.102128419621865,
0.221279975252712,
0.0322867732179492,
-0.0745717409243199,
-0.048587048926529,
0.0925209205747288,
0.18074969853968,
-0.0399093440818218,
-0.0202741583506166,
0.0378411975888736,
-0.0325627307360685,
-0.0263902989186456,
-0.00178937283061366,
0.0162062083106678,
0.00787559861475808,
0.0330450431147923,
0.03203567884153,
-0.0180013897373973,
0.00297060353221335,
-0.0107686720044322,
0.00431881240584289,
-0.00138132080968267,
-0.0120658118527912,
-0.0119681744474249,
-0.0449943547710978,
0.103201813373799,
0.0423040843746915,
-0.0922942539731223,
-0.00336817232599399,
0.0738032470812771,
0.0328293403779714,
-0.0587121775696536,
-0.0289620016205118,
0.0717083320179301,
0.0384667196520329,
0.0386115871374294,
-0.0404335160785717,
0.12318607301345,
0.00497996878118731,
-0.045925351632788,
0.00439201501830543,
-0.066256523741791,
0.028677036591553,
0.00969072663071476,
0.00536386305510033,
-0.0132160220833288,
0.0435272696685679,
0.0183041937651035,
-0.0156163814569527,
-0.0198456192081803,
-0.0762111352559707,
-0.0390671031309986,
0.0495163136354783,
-0.0557522597950241,
0.0495513362634591,
0.0390291340797468,
0.0325952809953297,
0.025677016326873,
0.0101618425620315,
-0.0200465049558209,
0.0176921594310241,
0.0589399695342341,
-0.0323239572087088,
-0.0138801064899849,
0.0628032914382119,
-0.00663625957005498,
-0.0247635658245191,
0.0579266011363991,
0.00830549721434046,
0.015390013297323,
0.151946458091931,
0.00831673450070689,
0.0215484422872336,
-0.014846672075376,
-0.0257631062496034,
-0.0657129257029375,
0.0569993067561807,
-0.0154059830653624,
-0.0829640996944301,
0.180377757600931,
0.0211038049705537,
0.0602253389604932,
0.0344140185293435,
0.0251448933180595,
-0.0521518882486938,
0.1596569386943,
0.0637097792537136,
0.000816648026933874,
0.0353088799759081,
0.0442151129873952,
-0.0175236889557657,
-0.00970865431364424,
-0.0119891979541102,
0.0259941870161086,
0.00979939612796538,
0.0270202143682019,
0.00390334946064654,
-0.0439457760820254,
0.0355523935848135,
-0.00458200786858653,
0.0526059963282794,
-0.0607844612939367,
-0.00224610739028222,
0.00440581264516658,
-0.0124147987681436,
0.00129614292357012,
0.0490918484063485,
0.0510331676019175,
-0.0613577764656534,
0.026234416642866,
0.00479238173849381,
-0.0532480539007233,
-0.0400159423505134,
0.0769194093836226,
-0.00216810357464679,
-0.00269201092250021,
-0.0133455299457492,
0.0111394625220106,
-0.0200742763339101,
-0.00124202476873559,
0.0425214195012992,
-0.00177131125983375,
0.0322809337238252,
0.00782910054997096,
0.0214726278090703,
-0.0190107685281646,
0.00913110965190742,
-0.0415983149541266,
-0.0676378318307926,
0.0582718844593961,
-0.0300226517924703,
0.0570641138421643,
0.154418350242797,
-0.0808509529029078,
0.0591767221559384,
0.0569883132991468,
0.0287159185085803,
0.0338089025822372,
0.0308929451117248,
0.00565762876365737,
-0.0756076728649913,
0.0161312489558672,
0.0184348321789025,
0.0201832292576166,
0.0857004078837586,
-0.0394120653081399,
0.0506508456875684,
-0.00130833014387996,
-0.0405909010364017,
-0.0314705026912534,
0.0415077271890359,
0.0180620629005306,
0.00915097747713045,
0.00907630355043284,
0.024461879111741,
-0.103732433392126,
-0.0102600770809361,
-0.0158403101132368,
-0.00667541589807025,
-0.0557714680311726,
0.0525428818219029,
0.0586318941713029,
0.0212516780407083,
0.0381391999844288,
0.000402644468033927,
-0.0441520012638992,
0.0142677070557826,
0.0145930282515454,
-0.0295009164120492,
-0.00322246578516166,
0.0332440138630461,
-0.0409113290944499,
0.0162226356322607,
-0.0116560990500202,
-0.021853819305323,
0.00430817157408132,
0.0274959795846807,
-0.00974931623254288,
0.0247695684010341,
-0.0567943482432522,
-0.0147521298169489,
-0.0628266869865745,
0.0411449632789678,
-0.0472151356923937,
-0.00381022929631477,
0.0291748768499032,
-0.0653654502920013,
0.170642355678189,
0.00196790831576032,
0.00809500091365317,
-0.0725852006020151,
0.0604640647106421,
-0.0195530758176626,
-0.0226380578181801,
0.0246360971393752,
0.00952203322845391,
0.0142588156881654,
0.0206118741413038,
0.045486618615338,
-0.00267031650883521,
-0.00697860153634775,
0.00379612734073406,
0.0276661153869771,
-0.00637454238032399,
-0.00584002307388207,
0.00995715109186485,
0.053380610847982,
0.0195689168167767,
-0.0373154079740673,
-0.036637481016073,
-0.0305929812335607,
0.0297288713295759,
-0.00819723638503965,
0.00348353767038684,
0.118719787603752,
-0.00880031514648936,
-0.0368239814269243,
-0.0506605730267106,
-0.0242306699123756,
-0.0328138522722435,
0.0380668312591884,
-0.00860617202058078,
0.00191479933680905,
0.0303359733141743,
0.0366576898703547,
-0.00276131292255751,
-0.00681129106651721,
0.00733810205165644,
-0.0352167306843218,
0.00529078759188211,
-0.0086831922182451,
-0.01338427121037,
-0.0287165094249992,
-0.00599069900734143,
-0.00943714331273495,
0.122825021963356,
0.0281380620654626,
0.0329816704827482,
-0.0730897907808422,
-0.0916660785269312,
-0.0041321024526244,
0.0557277043158667,
0.00569515792124786,
0.00526689531466136,
-0.000905663488381243,
-0.0294109960846385,
0.0344872125935829,
-0.0117989457905365,
0.0616707305315622,
-0.0544349709578559,
0.0476791443309152,
-0.0111797159570986,
0.00544385998910418,
0.0041706407297677,
0.00168305091361294,
0.0110239239588759,
-0.00391703757379851,
-0.00919787585443064,
0.00177874956882439,
-0.0364597869855698,
0.137927588919641,
-0.0399936000600328,
-0.0515328531567256,
0.220113486222837,
0.181164717495158,
-0.105587275854594,
0.195243927013165,
-0.0337813895373662,
0.0345943504850801,
0.0604623357734712,
0.0161361853636996,
-0.00415114030225648,
0.034351327718558,
0.0223378447022968,
-0.0174263652760934,
0.0599660038270652,
0.0029469792315288,
0.0473573793039989,
0.00171873686310229,
0.011993730331449,
0.0416901508453405,
0.0192919192631749,
-0.0626953051857992,
0.0430021239775425,
0.0395248780424092,
-0.0434772195320887,
-0.00136988194325251,
0.053784402338145,
0.00522149500308309,
0.00531183323704321,
-0.0284259838663844,
-0.0345521187866156,
0.0468730298654153,
-0.0339968311463162,
0.0220702562403655,
0.0329841787306102,
0.0527476812738443,
-0.0518740984640075,
-0.0623359114042152,
-0.0699975431665443,
0.00238278753232361,
0.0111685644212516,
0.0339995902291362,
-0.0194309172310045,
-0.0131530158129464,
-0.0297798645583651,
-0.0124598277337622,
-0.00268989205690369,
0.0576861346950229,
-0.0366334103454043,
-0.0554119436639896,
0.042162753290416,
0.0878621644049619,
0.0477817652897808,
-0.0453730994874686,
-0.0468294504396319,
0.05179768097025,
0.0630415472586299,
0.0951418563723048,
-0.0373840509155514,
0.111555492857103,
-0.0325278001415826,
-0.0726984842906275,
0.223471836804801,
-0.0761154363542584,
0.0182774053926399,
0.0629099546999221,
-0.0245441024641487,
-0.0139049968325818,
0.0457741511934298,
0.00945656931929477,
0.00895042233817809,
-0.00543123781145845,
0.0244598498064336,
0.0429418286948386,
0.00589735901868539,
0.058836928937478,
-0.0985456918357981,
-0.0413894749289221,
-0.0524568193854619,
0.0546196646444231,
0.0448736420035055,
-0.0130245160605496,
-0.0127189359913244,
-0.0802739841254928,
-0.157697730673617,
-0.105940954222168,
0.0341376200567911,
-0.00684217167260657,
0.0083353121332543,
0.0745831896860399,
0.0239054555137728,
-0.00583826737084772,
-0.0143615982543593,
0.0231627159465908,
0.00137170862733537,
0.0112285050223079,
0.000134780751882804,
-0.0108852124028041,
-0.020163768430644,
0.0115866972935277,
0.00402283381366099,
-0.084322849096395,
-0.0220350906481076,
-0.0651683399876654,
-0.0690314737324233,
0.160200621428405,
-0.0615161926646333,
-0.0228249556914646,
0.00615698294261933,
0.0702151478859672,
0.0966789508272049,
0.179390135188874,
0.188249505016597,
-0.0513086546941778,
0.00834317789681647,
-0.0595011879046039,
0.00621972805359617,
-0.00636823331080211,
-0.0137389545028876,
-0.00687952219071904,
0.00339011713008011,
0.0097203254737643,
0.00811357098382176,
-0.0266656531466141,
0.00760385553706061,
-0.0483946121411698,
0.00152516725274341,
-0.0518446476735291,
-0.0379321894369573,
-0.0616458586598751,
0.0396201141700672,
0.070096427518354,
0.0529301880244601,
-0.0534633300959636,
-0.00133061247238257,
0.0226618191244043,
-0.0207246711410389,
0.161487123859712,
-0.0411870906757518,
-0.00167597274643172,
-0.0610901128937048,
0.0321898342460361,
0.0653631220553055,
0.0223030506367892,
0.0170480387734971,
-0.0105506652549628,
0.0853413943467314,
0.00992428575033311,
0.00988500137093077,
-0.0142274468821667,
0.00803307414635916,
0.0425138025938627,
0.0353547319198453,
-0.00894478094735699,
-0.083917614228878,
-0.0248160874871966,
0.0121423511886046,
0.0628388609278799,
-0.0358482922139737,
-0.0475548934629883,
-0.00183442694578469,
0.0214395958193076,
0.0228265022897763,
0.0580674783344094,
-0.00012175259596902,
-0.0131282807791972,
-0.0125420100946088,
0.0352450568094261,
-0.0503827296872428,
-0.00880643353233671,
0.00982700845452122,
0.00296858703988609,
0.00521662290255448,
0.00733066435281839,
0.0119606944231196,
0.00109794138694203,
0.00118284793595066,
0.0426832316472293,
0.00767591632085233,
-0.033053794053874,
-0.0563155944318717,
0.0639220096287002,
0.105143249582869,
0.0948460737598102,
-0.0454673581991192,
0.045278616299995,
0.0595228918553567,
0.0281678470085491,
0.0229412436242082,
-0.0384151169439261,
0.143798330590511,
0.147077696580913,
0.00567164454710249,
0.00391996459555788,
-0.05034349159574,
0.0343777698703434,
0.0163545335339076,
0.0306928264139131,
0.00198345777059685,
0.0118122968858262,
-0.00623573326197513,
0.00111347218267256,
-0.0203877879278808,
0.00072549324742908,
0.0428010070390958,
-0.0272518281573172,
-0.104021399771247,
-0.0719426106419185,
-0.091739725199326,
0.0802413275574106,
-0.0753007913105695,
0.0595181361594907,
0.0474190157294669,
-0.0761588038733082,
0.0217039257808318,
-0.0398913547570838,
0.0206344509911114,
0.0297710099596069,
-0.0462870715806588,
0.080479444181074,
-0.00267543813393516,
-0.0124025262280816,
-0.010916249229868,
0.030988167951357,
0.00428641022560381,
0.000277480985683118,
-0.0012630033809647,
0.0126947911005473,
0.0123725812817953,
-0.0156970951936711,
-0.0173662915656345,
-0.00947350059148998,
-0.117598555704822,
0.0775213859384777,
-0.0513144333608353,
-0.00961290892060025,
-0.0571702253088333,
0.0336618974866095,
-0.0921050174548691,
0.0798631891009275,
-0.154044572088218,
-0.00197879549806496,
0.0375494188479812,
-0.0885540398360662,
-0.0270891678262387,
3.89869837188714e-05,
-0.0134396025838611,
-0.0573139556436384,
0.128974683284951,
0.0056195374245427,
0.0103551906875656,
0.00776283568946848,
0.00934330001754995,
0.0125268523529007,
-0.0857207103248707,
0.00354631161657551,
-0.0261663339356077,
-0.00965651981728543,
-0.014170667760864,
-0.0231475624009083,
-0.0459208610232443,
0.0558549555614586,
-0.0992735513926516,
0.0965019509754494,
-0.085544658207384,
0.161742972096711,
-0.181907976755366,
0.0927341334095275,
-0.0687746318667063,
0.141127511362333,
0.106851696919918,
0.0363498659165976,
-0.0440621701031744,
0.00657717838053146,
0.0044448764020102,
-0.00387692167575332,
0.010192517319933,
0.00928220816025624,
0.00681914824041953,
0.00621681071277179,
-0.0586548499470983,
-0.0324001489218134,
-0.091020637757616,
0.0283548369557785,
-0.00822526616651652,
-0.0577352038544161,
-0.0725165781626308,
-0.0466772569724582,
-0.0104370485872492,
-0.0432514397466032,
-0.0481001652950193,
-0.102648752469404,
0.226374125047411,
0.0439523561067621,
-0.0584326952889189,
-0.0114953960507083,
-0.0283329190470852,
-0.00472334667281082,
-0.0630936681935941,
-0.00753406563773046,
-0.000913680584176744,
0.0704900241109619,
0.0228064285768815,
0.00107997469184768,
0.00158023752346406,
0.00625689980590128,
0.00669229268027494,
0.000428025951995551,
-0.00777506241168618,
-0.0108924814937806,
-0.0304518821777012,
-0.0611427334739682,
-0.0122919227892081,
0.0252166658812072,
0.123024516772553,
0.150358880745884,
0.141032605620289,
-0.132272115280109,
-0.0475694816136254,
0.0725396684924508,
-0.0763233083127602,
0.0286224199168686,
0.0442596976097695,
-0.00257278195312682,
-0.00626170066268452,
-0.048866537583909,
-0.00101861473804379,
0.0417419336714449,
0.0335092967875075,
0.00686563985336047,
0.00946661722526392,
-0.00832777644458261,
-0.00804327152731601,
-0.000605049648981344,
-0.0199887957075789,
0.0528235487861459,
-0.0270916629387373,
-0.0282564135214679,
-0.045011335198401,
0.0902948784991176,
-0.107229421103251,
-0.00972810947738485,
-0.0197735616035204,
-0.177475590208819,
0.284153614757172,
-0.0348075590376385,
0.0819774123294144,
0.0182117836842444,
0.0229379589368854,
-0.0120628690528788,
0.0061112648073792,
-0.0199189619681889,
-0.0509051640214666,
0.0730735822354071,
0.0645611393865243,
0.00920911956463396,
-0.0206564554094927,
-0.00794217225046168,
-0.00811790145651447,
0.00834862164637424,
-0.0261710341118776,
0.047814388377584,
-0.0495980702719921,
-0.0503208655649673,
0.0582270803392755,
0.127924193155822,
-0.0819384436609294,
-0.00905745279109047,
-0.0295291332900615,
-0.100291560090674,
0.0791409082699478,
0.00234264455754066,
0.0863616199545108,
-0.0653264293525306,
0.0174909951254777,
0.0301080009319603,
0.0426634764906562,
-0.0184434173660081,
-0.0187778899851292,
0.0734642113711414,
-0.020241200585059,
0.00772394405581812,
-0.00502655840180919,
-0.0292296174764744,
-0.0649567081891815,
-0.0371683438334238,
-0.0476344289488746,
0.0457080087657594,
-0.0789566290909263,
-0.0064727885882413,
-0.0645160691958696,
0.0330891266269171,
-0.170348051197783,
-0.0132424100006764,
-0.00826476388955406,
0.0214170036973474,
0.00451362987864429,
-0.0291767133119868,
-0.00385823897218371,
0.0107799481157662,
0.0431534958042583,
-0.00654585342227027,
0.107375519661799,
-0.0375794280143991,
0.0076009965685194,
0.0626926811412877,
0.06998699468635,
-0.000792183004486585,
-0.00598154049282206,
-0.0317862740050498,
-0.0643453300661821,
-0.00298787455761186,
-0.0337172326921509,
-0.00243656341915884,
-0.0974031776533821,
0.00392916002945236,
0.0145017635937766,
0.106259162559842,
-0.129424148654479,
-0.00391475850566117,
-0.00343292695462402,
0.0195795145338943,
0.0145633855650979,
0.0662984108757271,
-0.0663814174779281,
-0.0128613040878926,
-0.0328676597137988,
-0.0238219881944069,
-0.0750098964675317,
-0.00473767302790542,
0.00719123918367061,
0.0318568725219167,
-0.030345885164813,
-0.0196165895640582,
-0.00348272193964155,
-0.09794570471755,
-0.0482904563659108,
0.0106898618496082,
-0.017411010887938,
-0.0271795307178905,
-0.0772510460324147,
-0.0369628517835124,
0.00239491476921159,
-0.0377170687633702,
-0.00626382789128617,
0.000895108974931638,
-0.160233990031266,
-0.0169272010403628,
-0.0196672260735686,
0.0156674299410589,
0.0704272611698887,
-0.00417610007014634,
-0.00406274194420057,
0.0392248614091728,
-0.0319158942934145,
-0.0222619038015932,
0.0859939016599133,
0.0317099238160291,
0.0317023377535472,
-0.0410251280265842,
0.0201863796861555,
-0.0983691923610447,
0.0561213941906598,
0.0140321478152431,
0.0402416972081693,
-0.0516707963787955,
-0.0517540592280962,
-0.0795943659591024,
0.00626059099705446,
0.0626388385680688,
-0.0154535224212485,
0.287329706183832,
-0.149276751155709,
-0.0176862607237245,
-0.0181911271262494,
-0.0246766063503528,
0.0718152818872977,
-0.00489641367404733,
-0.00565340649855511,
0.0284401171542187,
-0.0319138099392638,
-0.0218987213414632,
-0.0150111286476544,
0.0229309686625196,
0.00763607948097845,
-0.0638955433755961,
0.00913140985922539,
-0.0540327336420971,
-0.00302598435278588,
0.0424179365812701,
-0.0489217490089195,
0.00257153699329184,
-0.034938846664948,
0.129911177845731,
-0.0381397761613275,
-0.00334055408813131,
0.0106718768438967,
0.0128475709337235,
0.0139944346745889,
-0.0709714598388752,
0.00559112633074373,
-0.0292954998255541,
-0.0473762340127276,
0.0199920874972397,
-0.0544597801841958,
-0.0514006757846715,
0.0237775525453875,
0.0595428303173316,
-0.0523542350782501,
0.0890505335610834,
-0.0273148738547727,
-0.0384649404338899,
0.0089726462205176,
-0.0551617685918461,
0.0311441429433985,
-0.0234018276842284,
0.0104820169342698,
-0.0394213622209357,
0.00680729225996058,
0.0185157598092714,
-0.0508795063924926,
-0.000563911294592101,
0.0227698413492369,
0.0140600558331653,
0.0136320169547183,
-0.0653026080840921,
0.303374325154643,
-0.061736546544595,
0.0694769335500701,
0.0269104344213758,
-0.00457515968012674,
0.0582875925106851,
0.105523061001847,
0.0205282302596007,
-0.0186006787612253,
0.0222133746929309,
-0.0271608497394195,
-0.00444690181499961,
-0.0223123046174034,
0.0115019198659898,
0.0377508760949347,
0.0262470894720889,
-0.0274774216219058,
-0.0193550255925457,
-0.0341262939163814,
-0.0026279652354898,
-0.000203978951577634,
-0.0238201734376471,
0.214384152992494,
0.000504204530290047,
0.000487916984411873,
-0.102730914012539,
0.289447041675413,
-0.00670310345950221,
-0.0508081049432274,
-0.108114764273392,
-0.057011394528359,
-0.0428053254556435,
-0.0297563158949784,
-0.0478742790745594,
0.0232954317165586,
0.128454270520951,
-0.0761357362487,
-0.00383443508813707,
-0.030811414628235,
-0.0930729756759969,
-0.0292841869724107,
0.00569208364677184,
-0.0264192264163938,
0.0715608067722149,
0.0569811909474954,
-0.0316462352730759,
0.0313534517557166,
-0.0650887932669706,
-0.0249584053837274,
-0.00390202685338137,
-0.00347157185119179,
-0.0569249215538805,
-0.0223105280869603,
-0.0457962529754535,
0.0216314932353156,
-0.0671484411169167,
-0.0866682429723225,
-0.00212136068504126,
0.0582609678370919,
-0.0280653705063105,
0.0651175867630278,
0.0181015932293334,
-0.0238712681997253,
-0.000171276874438482,
-0.0250714550752673,
-0.0169337628524258,
-0.00993841958344865,
0.00569791841159319,
-0.0162672251825415,
-0.00121041496835091,
-0.011051951635477,
-0.0401740727942798,
-0.0139102618926177,
0.0123596667313414,
-0.0124536721689172,
-0.00105358428148286,
-0.0015317220370858,
-0.00617455980480054,
0.000231702676985007,
-0.0255322735719201,
-0.00936202598933819,
-0.00617736211448247,
-0.014816827795325,
-0.0131461197447316,
-0.0335889920652859,
-0.00335915977664208,
0.0322850071845267,
-0.0191262729255662,
-0.00369332099484816,
-0.00981418072276478,
-0.0168666007762041,
-0.00276135360177648,
-0.00740820867307095,
-0.00459941029559172,
-0.0231530720785,
-0.00098919651486705,
-0.00110641312827527,
0.0894658518046985,
-0.0464993497735589,
0.0172049338523355,
0.123885072503017,
-0.0027067021348589,
-0.00145397214539961,
-0.00820794179415298,
0.000226874019875964,
-0.0202111070165174,
-0.0167729695680277,
-0.0157187068556552,
-0.0150039934287809,
0.0265674312613782,
0.0510590098103774,
-0.0157791831826826,
0.000912426609892099,
-0.00151503368337313,
0.0213702922553916,
0.00143824789687481,
-0.0265636075535723,
-0.0153629157223934,
-0.0348970316586376,
-0.0462883837622206,
-0.0114990240005618,
-0.0347917509961641,
0.0343596693707131,
0.0241979370285171,
-0.00123270273076955,
0.0445607551720038,
0.0811474975274101,
0.0155735308331059,
0.037134262374859,
-0.00308467205924,
-0.00287024043278755,
-0.0187417474486999,
-0.0187078230360518,
0.00502381177403949,
0.00765407508816423,
-0.0419844502106714,
0.0928016765354685,
-0.063549273477531,
-0.0350473164851768,
0.0545771489338215,
0.0262589045640005,
0.00797307741918548,
0.00531637812944171,
-0.0107479656174731,
0.0255678356850652,
0.0336069442747736,
-0.0310248715567564,
-0.00072484371512896,
0.0282249164361461,
-0.0220830984681457,
-0.0106654113872632,
-0.00661586392775634,
0.0844954885678215,
0.0399015453792455,
0.0378353431561387,
0.00121684662039128,
0.00171596252212619,
-0.0233983508282373,
-0.023597293202437,
0.00949292030095321,
0.00769175855955054,
0.0702182033009436,
-0.0107763818972892,
0.0588163079272218,
0.0214945025051678,
0.0162117719868933,
-0.003912525006448,
-0.0171814166179588,
-0.0476423398683039,
0.0018191619174894,
-0.0590803404238719,
-0.00335884402715426,
-0.0208825437687045,
0.0200770270002563,
0.0503099844205638,
-0.0982986523132056,
0.0542492820859056,
-0.0125808460160829,
0.0905966171671491,
0.0841647201971825,
0.0771065382180617,
-0.0748221813711312,
0.148740510788047,
-0.0206792692667341,
0.0686479219966799,
0.0102864852871823,
0.0148128115079291,
0.0363112602215203,
-0.0849761879471296,
-0.000291207940553413,
-0.0498793466553816,
0.0707957389696427,
-0.00632198816484871,
-0.000992893983211336,
0.00923673585169664,
-0.00629327722205223,
-0.0166207143662531,
-0.0502628888899382,
0.0135888295401938,
-0.0628268151235974,
-0.051669383339879,
0.0149578001897566,
0.0332976803418594,
0.0403303544247039,
0.0545198486184517,
0.0469096096368964,
0.0451856161772987,
0.0299107292355706,
0.0323477476034876,
0.0826706993039101,
0.0718130813499462,
-0.00874983759443002,
-0.0286049926720206,
-0.0163468824400721,
-0.00830002995671127,
0.00486149572670412,
-0.0478726468760703,
0.00631303668518228,
0.0181664786987288,
-0.0214424571560871,
-0.00278068385133816,
-0.0335983305978874,
0.00616318022488515,
-0.00230837161090888,
-0.00212450206766092,
-0.0288767637314522,
-0.00561506269541182,
-0.00328634550687406,
-0.00314354522824473,
0.0736273940098979,
0.0193089450967781,
0.00841553837615042,
0.00850942136512189,
0.0162066955977126,
0.00718560122428422,
0.0305468200397377,
0.00382869487098496,
0.0109384099763596,
0.00946842945568964,
-0.000777810682085788,
-0.00164044934971513,
0.00192478067884506,
0.0115226882259624,
0.00309919996595621,
-0.0030542767889761,
-0.0128793082357266,
0.0417580755277715,
0.00797836680876369,
-0.00430048300502137,
-0.0138006732495943,
-0.00199870953568748,
-0.00535979148860948,
-0.00520395808381799,
-0.00363329695351607,
-0.00309384900987256,
0.00296392495852299,
-0.0397529570482033,
0.00849932352462367,
-0.000409472317564987,
0.00228590333951855,
0.0324294240797947,
-0.00818740166567713,
-0.0156785773261246,
0.00669536111002332,
0.0781794783909911,
-0.00265458020473332,
-0.0025657397288616,
-0.0677608721800071,
0.0356440074990232,
0.00696891744051097,
-0.0109467072543071,
-0.00264097461078878,
0.00877168984139299,
-0.00524724627206572,
-0.0039857013263485,
-0.0753552090551665,
-0.0100595108737589,
-0.0822298076286771,
-0.0091035970952995,
-0.0173049312409457,
-0.0174221122157709,
0.00981592907029369,
0.00153514668974502,
-0.00844607771046286,
0.0250929929700131,
0.0335472068229362,
0.0337567558022781,
-0.029527738857068,
-0.0133483993746997,
-0.0281259079096745,
-0.0383287041797033,
-0.0142624756335449,
-0.00875871889963155,
-0.0278888223709214,
0.000140648484474987,
0.00571800440290127,
0.0193857047896937,
-0.00220193052332904,
0.00363429743854146,
0.00245261513261758,
0.0028018089083611,
-0.0105968659095584,
0.0484038218912799,
-0.0468829364846343,
0.042643459589828,
-0.0174269622067658,
-0.0174199904161333,
0.0348467276988283,
-0.00722301377737633,
0.0177111170150315,
0.0126890534529891,
0.00618866713550494,
-0.00344140169146512,
0.00331751311240528,
0.0126069605594463,
0.000885376979356533,
-0.0362067930267767,
-0.0313091529644347,
-0.0101007221030285,
0.0375247030012026,
0.000109194331731803,
0.00834266301792909,
0.0118438607047939,
0.00523901181959086,
0.00968050773309765,
-0.00032677390478223,
-0.0217514632275829,
-0.0220247261565176,
-0.0258718497571689,
-0.00599799969153519,
-0.00497101973689192,
-0.00223316106585204,
0.000976433723090406,
-0.0106343664197567,
-0.0176072238360805,
0.00480403109139535,
-0.0193078375724268,
0.00189370749834005,
0.013735481032918,
-0.0069042468927656,
-0.0114895784041839,
-0.0145893960882128,
-0.00444460827064516,
0.0114648832902095,
-0.00460409158511652,
0.00482859087013792,
0.00942977117176716,
0.00515037721481189,
0.00477877602817795,
0.00535851889061693,
-7.05412781893486e-05,
0.0760223340411889,
-0.0249232465554249,
-0.0220791606708968,
-0.0219835838613224,
-0.00598807289995566,
-0.030938992125401,
0.00100404923947754,
0.000998367413582995,
-0.00853305760806973,
-0.00843598152243021,
0.0147098650412256,
-0.00763750607808056,
0.0188946357303219,
0.000571282147998253,
-0.00909211891850467,
-0.00690968775724012,
0.0392604796160635,
-0.0253806679691323,
0.0416087083580959,
-0.00622590686307793,
0.00973578889431461,
0.00929522955039872,
-0.0547347848723832,
0.00478609767965449,
0.00938973907745532,
0.00955877632912758,
0.00793438688744852,
0.00825551403300829,
-0.0186351637860733,
-0.0187626302732604,
-0.0853694987650318,
0.0460112641687692,
-0.0217419733744982,
-0.0305008897018457,
-0.012009640165764,
-0.00500250980217377,
0.0825131304224058,
-0.0612506597879528,
-0.01768577791193,
0.00562075511856473,
-0.00765284590155917,
-0.00326485823903698,
0.00849412998542899,
0.00425297778626215,
0.00229110861142342,
0.0121840639283269,
0.0160909921143665,
-0.00263505154558004,
-0.00840957009443563,
-0.00849904542688867,
0.00769159488395005,
0.00934712839924935,
-0.00320942276347617,
0.0329720814208661,
-0.0184671653004406,
-0.0408020374174125,
-0.020533785861176,
-0.0352901303896806,
-0.0222614091216975,
-0.0143655463898634,
-0.011294838307354,
-0.00412740665952182,
-0.00721268417273862,
-0.016170935329415,
-0.0026510098358809,
0.021891161024677,
-0.0163519505536805,
0.0317567944907095,
-0.00145038100847543,
-0.0146195402679379,
-0.0114741697765098,
-0.0114986279163583,
-0.0246872744246757,
0.00900799022686244,
-0.00849344901868537,
-0.00835397725760284,
-0.00795264870725198,
0.019197585033628,
-0.0054619271851951,
-0.00686940125049417,
-0.0231904678163338,
-0.0296468441401501,
0.00137904546709429,
-0.0329917029756643,
-0.0217105814246658,
-0.013288838722739,
-0.0368568075189055,
0.0609906840283023,
8.239031938089e-05,
-0.00808408270447241,
-0.0248188279429789,
-0.0158987097948043,
0.00845904353762811,
-0.00597767470322977,
-0.00122957009545623,
0.00285417980512941,
0.0152148183941411,
-0.0209718597174816,
-0.000415400123239667,
0.0378461226670628,
-0.00907935250006691,
-0.0093688074248625,
0.0237474110802101,
0.0142370803220345,
-0.00545302475346524,
-0.00724271124981916,
-0.0230620118514289,
-0.0215103508540059,
0.00162948941073526,
-0.0294801280276762,
-0.0103737133065188,
-0.0447799422693405,
-0.0159698891475596,
0.0306067709119308,
0.0181698111628467,
-0.00319443319305839,
-0.0227816418057992,
0.0629057401048063,
-0.00285780193114754,
0.0294486540835691,
-0.013818205484546,
-0.0129400728558793,
-0.0122293134970847,
-0.0298652923210113,
-0.0228416782286154,
-0.0211655641249419,
-0.00944720916311482,
-0.00926512411619237,
-0.00140799758278593,
-0.0204434038159133,
-0.0101923359922903,
-0.00250264480469682,
-0.0285169693456461,
-0.0323530246023709,
-0.0149532185888289,
-0.0732787255726439,
-0.00814914187340222,
-0.0186139566251795,
-0.0176861839105547,
0.0624753660993773,
0.0141587771752059,
-0.0242486094772807,
-0.0206611584192984,
-0.0105120147910727,
-0.0141591178925062,
0.0217611885080571,
-0.0200652542883416,
2.49383830487136e-05,
-0.0132267751167115,
-0.0232536268977414,
-0.0151332534456152,
-0.00811537460549373,
-0.00923303496949511,
-0.00933506787810913,
-0.00883375578303387,
-0.0413128458824807,
-0.0189843669155999,
-0.018644555259998,
-0.0333288003061818,
-0.02194549471471,
-0.0728252752677306,
-0.016477756130431,
0.0022356841228277,
-0.0346078462270124,
-0.0308927576510746,
0.00744631701160422,
0.00192420565393485,
-0.0143041551677768,
-0.0266215613572269,
0.100893717044868,
0.00329520145417761,
-0.00879329325815856,
0.00965410042059588,
-0.0176269391201083,
0.0588055287020738,
-0.0109557604406843,
-0.00539720753773156,
-0.00450359291541925,
-0.0156483713569252,
-0.0095826769126153,
0.00488939672668095,
0.00091852560040144,
0.0254679956827626,
-0.00378037577481632,
-0.0280248810032141,
-0.0424277261872135,
-0.0545162530879462,
-0.0604506248886196,
-0.0162191230970156,
0.0128223884885859,
0.0293687391875992,
-0.00582885767239527,
0.0632928809150104,
-0.0354581126316009,
-0.0285344333693243,
0.00899298986192754,
0.00923273271124872,
-0.0118088589200277,
-0.0213617670755218,
0.020370524534397,
-0.00365939971310598,
0.0229492666692896,
-0.0265430596444507,
0.0471394828815778,
-0.0990309117379255,
0.0902234200088525,
0.0144111348501626,
-0.0518291311063688,
-0.00759486376431818,
-0.051010947262339,
-0.0299408111870235,
-0.0306026523009631,
-0.0321090295667141,
-0.0306949376960907,
0.0123267371254895,
0.0128178747316893,
0.0212346163358784,
-0.0354942705113534,
0.0786507448757187,
-0.0476910286982941,
-0.0246362874453218,
0.0621678310184829,
0.00349880526078119,
-0.0178008921751091,
0.018712718040217,
0.00421530676877018,
0.00384418695489362,
-7.71619037759817e-05,
0.00520448544954329,
-0.0118712767344965,
0.00431821245749521,
-0.101171294959541,
-0.022665854158007,
0.0340966959188055,
-0.0178517680866938,
-0.0270874257768941,
-0.0257433451366991,
-0.0218428999621956,
-0.0565732431826269,
-0.0231027986955842,
-0.00463672156371803,
-0.00309342975155028,
-0.00965242808900622,
0.0453300893696018,
0.00446679783490116,
0.00371388547730815,
-0.0262468509165947,
0.0526641255541664,
-0.0155050684739498,
-0.00719542707955314,
0.0217063265217829,
-0.00987288053728551,
-0.00112440723943461,
0.0351798457335557,
-0.00386694969718156,
-0.00525038231282287,
-0.0742032876966145,
0.104827765626299,
-0.0244335977019196,
0.0101012471266722,
0.0159471140172667,
-0.0508149800520121,
-0.0124431261638985,
-0.064806436805963,
-0.0420556295285623,
0.0174148118515333,
-0.00472329649624354,
-0.0529237659819648,
0.00791896931215496,
-0.0191660678394966,
0.00210081504535418,
-0.00166368617840672,
-0.0205096483085503,
-0.0010160073131068,
0.0130595076808607,
-0.00536709909225804,
0.00348233430481577,
0.0320759346972922,
0.00360473009438293,
0.0154332934246674,
-0.00343131165658752,
-0.0039011861975411,
0.0208927571959123,
-0.0483445029744352,
-0.0197671713201238,
0.0424662307283952,
-0.00544033163426643,
0.040939946580262,
-0.0231950016287683,
-0.0388108247487157,
-0.0594083952787546,
-0.0150789450643516,
-0.0387458711044734,
-0.0491584368792339,
-0.00693394779479939,
-0.0351804148767031,
0.00856472307148301,
-0.0154731772430033,
-0.0188299615143353,
-0.00236584128404833,
0.00114794421160372,
-0.0079470520996069,
0.0118427920250693,
0.0023975967793457,
-0.00654002592729702,
-0.013436312066202,
0.0235995828739927,
0.0132317890056062,
0.0152557209143316,
-0.0286752446952341,
-0.0198283625198326,
0.031496398604648,
-0.0152282900555214,
0.0519215619681052,
-0.0208433430427719,
0.0209713177886656,
-0.0476496061027026,
-0.0449912520971809,
-0.0386307445451027,
-0.0294400112387031,
0.00679203385103071,
-0.00935708248186152,
0.0135386524358553,
-0.00579545877377219,
-0.00430620183160495,
0.0606500459761194,
-0.0249951440616903,
0.0360448703054926,
0.00484773007430222,
0.00838117219858677,
-0.00654909946966654,
-0.00656008219678072,
0.0177798134712176,
0.021460962853916,
-0.0484189578515564,
0.0169102556306776,
-0.0214990085638676,
0.0502988918890212,
-0.0229615609281544,
0.033875357732052,
-0.0270820661399733,
-0.0286674583642684,
-0.0425055035173051,
-0.0171508966951517,
-0.0500308469240066,
-0.0513952135059478,
-0.00311367048422857,
-0.0301705999557079,
0.0286978597636689,
-0.022779476593526,
-0.0169430064045862,
-0.0186097308283775,
-0.00394180130428444,
0.0127037977139169,
0.0294782432159176,
-0.0207529774390239,
0.00849416009053478,
0.0074920659815308,
-0.00199718698550403,
0.00919423795595782,
0.00369012074132337,
0.00482911796883592,
-0.0260123924547219,
0.0382046775110238,
-0.0162112269361025,
0.0382562698807061,
-0.0203971763342351,
0.058804792401795,
-0.0423782236759567,
0.0540463705011978,
-0.0517132479974906,
0.0263343764036144,
0.0364086013613816,
-0.0118886548236437,
-0.0176285737268825,
0.00104286650953098,
-0.0090214693994615,
0.0708780648347452,
-0.0427435718049516,
0.0143775956699759,
0.00205257759218396,
-0.0103184052979827,
0.00136317584304191,
0.00570628008983901,
-0.00405643311394892,
0.0058624047033268,
0.00756099732813325,
-0.00159563253769537,
0.000845677733301982,
-0.0163852856719818,
-0.00336720771178574,
0.00757672037530663,
-0.0112621965480413,
0.0338236136905999,
-0.0023415731078873,
-0.0199005252465676,
-0.0319060607192827,
-0.0127138576465594,
0.0161305094941195,
-0.0248649091672252,
-0.017237334244944,
-0.0144058578940689,
-0.0226009324112208,
-0.0411681911784336,
-0.00456124461435208,
0.0229542855427407,
0.00500707566273303,
-0.0115039023565098,
-0.00870836153316136,
-0.00173121389229907,
-0.00495346657623144,
-0.00309080275116226,
-0.000256519681054723,
0.0281741987880036,
-0.00342592626286338,
-0.00252503578215998,
0.0495631882193589,
-0.0642993133791903,
0.00610440817580101,
-0.0169358029897491,
-0.000265146278564329,
0.00774231362457604,
-0.0309874987904041,
0.00332253832616176,
-0.00722445077922785,
-0.0021551142772058,
-0.0241051323537166,
0.00786116337328886,
0.00727176661831484,
-0.0388881999424489,
0.0050199322226094,
-0.000673138454923291,
0.00396732813749687,
0.0071560720343795,
-0.0017535547084367,
-0.0074362179990409,
-0.0107520762361248,
-0.00113887966515083,
0.000178181179232917,
-0.000119205355976803,
0.00505114570516579,
-0.017634340679747,
-0.010399841181207,
-0.0628366062126215,
-0.010332983698075,
-0.0352427153487447,
-0.0201866910986865,
-0.00873655329852898,
-0.0433469960608514,
-0.0374021459745926,
-0.0215766742210706,
0.017387444786376,
-0.00457789177951857,
-0.0848085560995513,
-0.000873464257482044,
-0.0188786908209268,
-0.0217585618905531,
-0.00553001844783839,
0.00881518009513716,
0.00983916658484615,
0.0162076726402573,
-0.000967319255762957,
-0.00283575639085928,
-0.00171655590458266,
-0.00200581970614463,
-0.00210049198674363,
0.00346582323597556,
-0.00941433287135911,
0.0299045857880286,
-0.0115589732055211,
0.0733235361142288,
0.023829909230071,
-0.0202366767657112,
-0.00321147332062695,
-0.039274811887965,
0.00754714734440674,
0.00435417907463666,
0.00249015694193649,
0.0190331827182408,
-0.043762744186152,
0.00192483553324669,
-0.0153239451996703,
-0.000377590864772623,
-0.010637507846217,
-0.000196309830211947,
0.00213035439133321,
0.0159155847102547,
-0.00900506782397929,
-0.00294841429330352,
-0.00329461761537152,
-0.0191068892198267,
-0.00223871893887986,
-0.00746049249204233,
0.00369810964378298,
-0.00735523123492118,
-0.03872335997058,
-0.0165768351643014,
0.00586979514209136,
-0.0262373357550546,
-0.0402393345212026,
-0.0433722879744486,
-0.0251147178366135,
0.0147996004420778,
-0.0424861894550335,
0.0103395841757119,
-0.021544646583481,
0.0038785446407987,
-0.00571484188759178,
0.00928425993925975,
-0.0311445028356295,
-0.0189533391379118,
0.0158778121649697,
-0.0276512226195207,
-0.00762930981754845,
-0.0138385403060549,
-0.0020368912299792,
-0.0309742680962787,
-0.00624362426991465,
-0.00740779241060257,
0.0227978954170505,
-0.00904197143692286,
0.0698828008125249,
-0.00539491476311282,
0.00467088098074053,
-0.0218282488886302,
-0.0209264805743327,
-0.0417521931387771,
-0.0215693664909701,
0.00903460082776171,
-0.0250348444291751,
0.00182013459628742,
0.00993746764795454,
0.00668546984861554,
0.00841149789100734,
-0.00590303448130203,
-0.0373867547153183,
0.00347416852734073,
0.00861882159228017,
0.0372599904097389,
-0.00714003812130706,
0.00200230541422856,
-0.00079957037590181,
-0.00625289390549054,
-0.00630700711934168,
-0.0622644025908044,
0.0461577981115702,
0.0936058471367743,
-0.0258624771597072,
0.0789055061553594,
0.0153730626086704,
-0.0236445874010658,
0.00952896880107562,
-0.0124196780166975,
0.0190824950520455,
0.0910326440628416,
0.233032515580654,
0.0276182419075468,
0.105979741732488,
-0.0818913927850857,
0.102552643465775,
-0.0372725479852276,
0.0276637354408256,
-0.0437023303762684,
-0.020322574440742,
-0.00218053730892286,
0.000802180293600419,
-0.00402405099950255,
0.000355622720561072,
0.00193304829900235,
0.00181516870444241,
-0.00531695797894191,
0.0128189687711437,
0.0198383244941223,
-0.021708520214208,
0.00547433085554372,
0.0201072951426182,
0.0612013986840018,
0.0261060835120393,
-0.0123833345782494,
0.0127229473914916,
-0.152323479927895,
-0.216256518690337,
-0.081665825855146,
-0.116431266558541,
-0.209603102759355,
-0.213088481359751,
-0.116916863646876,
0.00897991806949182,
-0.0448882447169433,
-0.0340999539588588,
-0.102790414931776,
-0.0112449541686924,
-0.0751509732065146,
-0.0050489746661674,
0.0020454573006919,
0.000762103868069093,
-0.011029120488525,
0.0489890646005119,
0.0381653411305989,
-0.0100919004626444,
0.116933597740555,
-0.0155378506897732,
0.0180437012703992,
0.154635111891703,
-0.00142051494984091,
-0.000960960746967069,
0.0120543419363263,
0.0439872077219684,
-0.0311081305522962,
-0.0321084477582409,
-0.0765588744074712,
-0.00209439312839529,
-0.0307330042798447,
-0.0748306558762692,
-0.018675370660555,
-0.00449748869364858,
-0.00758619016202036,
-0.00756712931979348,
-0.0224343851134641,
-0.0108671688153102,
-0.00283831503253975,
0.00943632643277673,
-0.0110688848502934,
0.00777724359937823,
0.00909733013091824,
0.0379172998058913,
-0.012300952299139,
0.0168599573148067,
-0.0415141668434921,
-0.0346399982450442,
-0.0011676850451073,
-0.0167880646670954,
0.0449782508885488,
0.0286824486931052,
-0.0205653533829752,
-0.0330681313891123,
-0.130226514136185,
-0.109186045805104,
-0.0451264959271764,
0.104932465806324,
0.0180177099975376,
0.0346399791404735,
0.00373791548125582,
-0.0218022827887602,
-0.0109126961698563,
-0.0109076970359598,
0.00269730901934742,
-0.000838571133974715,
-0.00215244839680376,
0.0140013278278097,
0.000953742674650175,
0.0326042090375521,
-0.10434183165821,
0.123869964242647,
-0.0488772150700995,
0.15509768077598,
-0.0484214115678087,
-0.0124162369631262,
-0.0561631659799136,
0.230866468146234,
0.0301942193439045,
0.0343293882044404,
0.0149892471013366,
0.0324433983355937,
-0.0759056453340544,
0.0389330099437732,
0.0158835008175902,
-0.0513626416019205,
-0.0220721084719684,
-0.00233785929428397,
-0.0108549027184621,
-0.0108839890099395,
-0.00242743622147038,
-0.00245090323581017,
0.00284495039546218,
0.0246138516326277,
0.00491603393919536,
0.0749038634798763,
-0.0962708011001512,
-0.0213091535455758,
0.00934142810862209,
-0.0136161939731937,
0.374522202361455,
0.0564480687881582,
0.0273266720353349,
-0.1058639120854,
-0.0459197518262491,
0.0341467321718814,
0.000235599312922218,
0.013858415868211,
0.000336325018014218,
0.0348512482191987,
-0.00187626658157211,
-0.0245303058455997,
-0.0381903963584541,
-0.0144215699120175,
-0.0108477656552038,
-0.0108133770408553,
-0.0127674972193347,
-0.00246103478429465,
-0.00381567078191378,
0.00232845080409777,
-0.000936328837081896,
0.028559621110805,
0.03989593170472,
-0.0751198324704295,
0.0138475406543147,
-0.0324064392280245,
-0.0262570559183253,
0.010925058464369,
0.0224811366288912,
0.0300300816690377,
-0.00914882792949659,
-0.000208142457405429,
0.0112684314903922,
-0.0543590981612801,
-0.0667187525438823,
-0.045190543066302,
-0.0172201133459211,
0.0332464602765306,
-0.036193452403506,
-0.0966884724921572,
-0.0131699075292795,
-0.0535254357093642,
-0.0176527103555898,
-0.0173227381055537,
-0.00367655801392964,
0.0557149023278883,
0.00554478034052744,
0.0176985783498747,
0.0428260884166601,
0.00241528559279155,
-0.0931520869064879,
0.109014819918175,
0.028630520811545,
-0.0223763037752369,
0.0217905071589575,
0.00439192905553276,
-0.0282304317026984,
-0.00488367524887604,
0.0594047506887692,
0.0357636178659693,
-0.0449181365012563,
-0.0453686048828321,
0.0249480853730354,
0.0409127171683035,
0.110399903356601,
-0.0767801861883876,
0.0569325835947727,
0.00137109327031512,
-0.0358125495607888,
-0.0173800985142781,
-0.02039834984,
-0.0175582676443797,
0.000417494605958606,
0.00336804631492109,
-0.0695871253502939,
0.0929039090399522,
-0.00453254817273081,
0.106734991130974,
0.0378846883574396,
0.0487094228601122,
0.180942008506425,
-0.0601602508293153,
-0.0137964644848107,
0.10486876768326,
0.0393517976549111,
0.00803623387722215,
-0.0236976821988155,
0.00970049795538082,
0.0543831547147728,
0.0858523306743856,
0.0393584289952258,
0.00046809666724974,
-0.0293680889532681,
-0.0117927223980281,
-0.00122006947841633,
-0.0015090576314409,
0.0250352069363717,
-0.0179304594228221,
0.0240122838146543,
0.00515965492801005,
0.144838270780486,
-0.0598071211326754,
0.0318650016520859,
0.017053912387846,
0.0589603010069254,
-0.0056886640582214,
0.0532599361405006,
-0.08388972295328,
0.102171736557386,
0.106743755522468,
0.00491348844597882,
-0.0462527416802497,
0.067583292542164,
-0.0577071725893073,
-0.0371621515440204,
-0.084845770025143,
0.0238551304059858,
-0.0149653190964735,
-0.044617758753442,
-0.0117219457551612,
-0.0442827745333244,
-0.00142615639197924,
0.0273675476044325,
-0.0424407714344255,
0.00107937396955399,
0.00411189356262404,
-0.00152327015293718,
0.0322883612485556,
-0.0181296546691979,
0.0581221607554753,
0.0492039263167709,
-0.0756035324815995,
0.0297575603485256,
-0.0232703453117548,
0.0324078031435264,
0.03998660535839,
0.0428510899665113,
-0.0354273730409008,
-0.0312135109470778,
0.00999172773824094,
0.0173285235094007,
-0.0257676960330397,
-0.041095442313027,
0.0198451448337389,
-0.0211093254727947,
-0.0373622392982327,
-0.0258861378726443,
-0.0258973813348194,
0.0131633055514069,
-0.0279296824613953,
0.0149348996738353,
0.0133268791296039,
0.0140700065068522,
-0.00582883312191966,
0.0560419790790817,
0.0776056950242196,
0.0451052928347075,
-0.094564888424044,
0.100020923778712,
0.0921395475824242,
0.0259937560783972,
0.0324115676375993,
-0.00564816428487584,
0.0536528442595618,
-0.0536379008959627,
0.0632482841785147,
0.00132420883431312,
0.167554767117563,
-0.0260405389993943,
-0.0169633012153999,
0.0511536449421438,
-0.031521838933508,
-0.0257128732707624,
-0.0464979202875642,
0.063574431417598,
0.038496110065414,
0.00331654706519824,
0.0116188540900114,
0.000283928491227707,
-0.0212987590505338,
0.0107696548517259,
-0.0320543713111367,
0.0202474147783477,
-0.0361818893237254,
0.02208936621865,
-0.133721732582349,
-0.0278568808929997,
-0.0200011811990166,
0.0905903186010945,
-0.0420886839499195,
-0.0633742308847837,
-0.0435681034243131,
-0.0199725733846335,
-0.00772079272766194,
-0.00430937215125573,
0.0312398946128969,
-0.00911998329109994,
-0.0305100823208337,
-0.00914181649353067,
-0.00506348469151206,
0.00377601459730775,
-0.0500583569443816,
-0.00338472768646156,
0.0201229680864541,
0.0117406875275809,
0.112107745826419,
0.138308401614964,
0.0382871071222331,
0.0668264846076151,
-0.0307113145509598,
0.10008943446633,
-0.0754310714469153,
-0.0283962945565709,
-0.0191308572213645,
0.0905226934750524,
-0.0777335531346431,
0.0500409884649829,
-0.0658377664471407,
-0.0213178753833255,
0.0024825693709454,
0.032219064925138,
-0.00377002039021466,
-0.00506525800654042,
-0.0429400878308499,
-0.0051449930700566,
-0.00512971413640256,
-0.00492731744716063,
-0.0172254048949834,
-0.0111080345840104,
0.0152200766648317,
0.000325129196300186,
0.00255308816359515,
-0.0583448769214195,
0.0660144742263246,
-0.0445894019875917,
-0.0140583819456169,
-0.0321965881513353,
-0.0618982949883535,
-0.0207472442093496,
-0.0101236435376647,
-0.289025918786014,
0.00309572394266772,
-0.0664758580987622,
-0.126665492910473,
0.00480000963902838,
0.0114849852667414,
-0.0553872856816433,
-0.0529939212509195,
0.0694654505396264,
-0.125811049817501,
0.0637290262755604,
-0.00794078330737237,
0.00902403829468519,
0.0493877676793099,
-0.00891272939241525,
0.22289976069507,
0.0766781841290472,
0.146413387459904,
-0.0491419718888399,
0.0646049926327507,
0.104220933054184,
0.0298798420825011,
0.163459553284064,
-0.0433950995725602,
-0.0280413394173189,
-0.00862468640121725,
-0.150495184950576,
0.133913097181168,
0.228602620790621,
0.0961515902042231,
-0.0187487721115817,
-0.0141687442785434,
0.049942150657336,
-0.0599771938656073,
-0.102843807185597,
-0.0629321856875052,
-0.0408660567152696,
0.0719296722038354,
0.0151172967792965,
0.0740456694690822,
0.057587615169166,
-0.0357568914778599,
-0.0535151309721919,
-0.00354414119154823,
-0.040824910254677,
0.115378390708769,
-0.0528966793547175,
0.0416243862546695,
0.0528953010325818,
-0.0863749193472661,
-0.0729684580210872,
0.199097631274127,
-0.0371018466725582,
0.0291233394939105,
0.0241733400813441,
0.12658981785804,
-0.0098381080063943,
0.100857384068896,
-0.0234531638791333,
0.00140903190769056,
-0.0106733974387691,
-0.0229061348942496,
-0.0338411937221581,
-0.0510886254367517,
0.213249179119369,
0.00967152747074844,
-0.0149766438093583,
-0.0109101755018786,
-0.0721230630308284,
0.048431670085103,
-0.0477856600568924,
-0.00882649521450423,
-0.0533347789330514,
0.0529768567567443,
0.00917902286374379,
-0.0911164370017771,
-0.0365491574159031,
-0.0698650980788341,
-0.00717755979710488,
0.017837093109605,
-0.0561200450555893,
-0.0729670300226734,
0.0310256265373311,
-0.0497328417744112,
0.00279759978265209,
0.00903897883450776,
-0.0115417834799913,
-0.0208691129091243,
-0.0167773699564535,
-0.00916812505280997,
0.0234499944795603,
0.0265268143705592,
-0.0161823777504091,
-0.0256507060665769,
0.0173019335652062,
-0.0165871857730712,
0.0412887202262273,
0.143632231757761,
-0.0127703491169973,
-0.0856325263042256,
-0.0491972992801289,
-0.10520797867011,
0.0916796329956603,
0.10060257812591,
0.203447383015236,
-0.101534161630782,
-0.0499176303203871,
0.0650577590339219,
0.0412515658611234,
-0.00154151524073623,
-0.0154394276434416,
0.0301346552779329,
-0.0207927676099203,
-0.0109340485596467,
-0.0381573373726983,
-0.0459521626218074,
0.0267360813975882,
0.0324403190397791,
-0.0159569986341911,
-0.0327818584987012,
0.0748608858781989,
-0.0260239598008715,
0.0258233896499262,
0.06443110062222,
0.323946217405423,
0.0236223469094625,
0.228800834964685,
-0.0854842404797604,
0.097533483801492,
0.10120369081923,
-0.0430944011363887,
-0.0643602363985634,
-0.0129413071510654,
-0.00769875475426125,
0.0044214983899916,
0.00534770496040445,
-0.021949995557304,
0.0329947525489547,
-0.0340328811281214,
-0.010145876869999,
-0.0513351331286917,
-0.0562339470762674,
-0.00135849198711231,
0.0544803888372343,
0.0166377124624354,
0.0184287219061638,
-0.0293989982761916,
0.126657648659846,
-0.0806791941207938,
0.127684242178173,
0.0298252082407519,
0.0953267917545737,
-0.0733273067274337,
0.0336253956790847,
0.162448719774479,
-0.298510106878403,
-0.0108980577325827,
-0.00281868401594998,
0.0367412673377803,
-0.0677704828586901,
0.0112204787761078,
-0.0486594365406317,
0.00561563675011214,
-0.0417674941963129,
-0.0200414957746553,
0.00628211827887637,
-0.0426199286296829,
-0.00622091778045014,
-0.00176006129330522,
0.0105391128920643,
0.0174029815325049,
-0.0151630972831092,
-0.053927085266878,
-0.00154928291820051,
-0.0254269849510557,
0.00615744831663888,
-0.0168125677337338,
0.051657426182846,
-0.0122715787214695,
0.319429846889539,
-0.0770759345740868,
-0.249310437664288,
-0.0102229196206444,
-0.0119390347310195,
0.0243499001678576,
0.0133961310628619,
-0.0158897584456994,
-0.0328496931568857,
0.0274463638753724,
-0.00325036826797231,
-0.0134478260717098,
0.0359996572925377,
-0.0203017552105924,
-0.0556771110891372,
0.0148423901808425,
0.000104939036826643,
-0.000462770844378908,
0.0488106473863016,
-0.0332778283258963,
-0.060138035474943,
-0.00413332424576635,
-0.0197656875126716,
0.0577388468963469,
-0.0383881777029111,
0.0396938573201698,
0.0178187987347734,
0.0588722530316891,
0.0538233714976231,
0.0140878215380198,
-0.0487257087216429,
0.00980448024405164,
0.0652138074444253,
-0.0179906469824477,
-0.0137080977582856,
0.0248631234315407,
0.0245509092323418,
-0.0107535231618361,
0.00740781541077807,
-0.0203737418911647,
-0.050718101876185,
0.0148039366542461,
0.0315616957507376,
0.00311457493126536,
0.0129654436005964,
0.0242738227426616,
0.0722346352191606,
-0.0085375013291436,
-0.00653604072420402,
-0.00514599788814074,
0.0302494337658771,
0.0313337561513351,
0.0457792587006871,
0.0669308401994279,
0.0507311114155654,
0.0114322816224805,
0.0122042511568331,
-0.0253934259844745,
-0.0362193949934382,
-0.0353376711884078,
-0.0432151664487501,
-0.00673554975390181,
-0.00917844404575555,
-0.0209846188003237,
0.020058843692463,
0.00480563664998344,
-0.0141916383366965,
0.020007125716032,
0.00509453483616317,
0.0188182406389241,
-0.0216970638826404,
-0.0237769031937655,
-0.0709960668636667,
0.00397214016246421,
-0.0394257492016261,
-0.0799179023588765,
-0.00929673201896874,
0.0267767051944536,
-0.0655027265290544,
0.00672556592313969,
0.0373569293209897,
-0.021574435133284,
-0.100365772344098,
-0.024077993757448,
0.0569765275313423,
-0.0616750645262148,
-0.0400340297974617,
0.00535883426898744,
-0.0740739474491786,
-0.0121084024628147,
-0.00329521524027831,
-0.0675286831379174,
-0.0187398574652128,
-0.00478691812888976,
0.00634068773525558,
0.00222644408035844,
0.0582501223816416,
0.0482663516320686,
0.0500991322720214,
-0.0108022211279028,
-0.0431177205160111,
0.0121746776962707,
0.141068360282489,
-0.00436794539039705,
0.026773719583488,
0.0508223966893776,
0.0480332540484837,
0.236038478529199,
-0.0547308467458291,
-0.0371005187752649,
0.13100457879666,
-0.0399381484589311,
-0.0831043753362477,
-0.017929473934768,
-0.0537253854334437,
0.000570090484576311,
0.000178718295545657,
-0.0382751467241325,
-0.0169784782241258,
0.00216370727490864,
0.00701904632779517,
0.012176502509746,
0.0017825451689087,
0.0601722725175451,
-0.0023018713755715,
0.0153123489392237,
0.323878424008749,
-0.00344465284088438,
0.153387152714929,
0.0236882573102612,
0.136032922899142,
-0.00479965110886714,
0.00580184551818396,
-0.00175040763667497,
0.0892964112926114,
0.159021430420812,
0.102115604171983,
0.201528908037852,
-0.11069055670603,
-0.00770471788450778,
0.0135924740768579,
0.00110328597704827,
0.0535966634386562,
-0.015871823434024,
-0.0255465567050175,
-0.00105137381014102,
0.00695662360210746,
0.0231210278762907,
0.00185937177948793,
0.000470508609669272,
0.00461513343186382,
-0.115067940838903,
-0.09902032175031,
0.0108285854200171,
0.00940774161946283,
0.0995235862491698,
-0.0751875177207162,
-0.157920446981184,
0.038088599331879,
-0.079958291085011,
-0.0713716008980134,
-0.126271940559303,
-0.0777608752733529,
-0.0146498140310499,
0.144204148832824,
0.0431634143839858,
0.0685628579942944,
-0.00880894019867696,
0.0084728693406225,
-0.0240466196743858,
-0.0248636945060224,
0.003276515974087,
0.0145244054595802,
0.00858025398470411,
0.0161630857562756,
-0.00214893254254889,
0.0358512731105085,
-0.0646681199981079,
0.0493128786746758,
0.115490399802443,
-0.0992981292338722,
0.0049134933205226,
0.0335702259780814,
0.325264400103577,
-0.0831926580130112,
-0.0408227110113477,
-0.129395696625425,
0.0743755125060519,
-0.0401078474184079,
0.0596219936826311,
-0.093737596892766,
-0.077959328389294,
-0.0274321661367365,
-0.00704626572330389,
-0.0104207140888009,
0.00246347160502824,
0.0138388615949315,
0.00271547211795166,
0.0100731152143097,
0.016121809339829,
0.0160634779256891,
0.0420987393150133,
-0.0329696913553537,
0.0224701622347107,
-0.0363229730746687,
-0.0820871013065144,
-0.0187121625371312,
-0.012234604921445,
0.0831427594649664,
0.0178789846497227,
-0.0949270894146239,
0.0924064079946348,
0.0922989262927954,
0.0763867864860679,
0.0260793473680549,
0.00814565120331247,
-0.0126294127429466,
-0.028899236718207,
-0.0385268947297183,
-0.00750224075518118,
-0.02966333715844,
0.0129622852647523,
0.00607515003022716,
0.0253643425312024,
0.0127236643646372,
0.0247223917311755,
0.022184581879153,
0.0343333538949109,
0.0799981555495563,
0.00360642033217736,
0.0718431261374097,
0.0732078439056789,
0.0469850061172751,
-0.0438070784498741,
0.00844888712841899,
0.0988896670438727,
-0.0981520493077883,
0.155443297870373,
-0.0711681990850033,
-0.00814633934397971,
-0.0181288701226096,
-0.00815993744781167,
0.110605474277926,
-0.0133011853904817,
0.134391442685426,
0.0104335201485798,
0.0300265617050225,
0.00658605934140091,
-0.00293733904723486,
-0.00160837325235399,
0.010629891288626,
0.0207979734611916,
-0.0236919529733266,
0.0332117082757302,
-0.0121841449977775,
0.0696957481806027,
0.0723967295600172,
0.089121273141862,
0.0821365846345965,
-0.026526960839253,
0.191194292999222,
0.0553964870645471,
0.0230985570687511,
0.0104356997582661,
0.0156515004311796,
0.11178136730083,
0.123660219661609,
0.0454602005469785,
-0.00623757132545891,
-0.00677512651703498,
-0.0074485362909601,
0.0117802359572721,
0.0505924374972264,
0.101941755717779,
-0.00288282931980197,
0.0226934151403753,
-0.00669043144044749,
0.0202851267399936,
0.0122657361687148,
0.0151398782443603,
-0.000758128158599978,
0.0557146650345874,
0.0578986891604286,
0.163028889968597,
0.0568319745969837,
-0.0113049429598696,
-0.0140110404306782,
0.0426247573815736,
0.0252479465962511,
-0.0629799460772855,
0.0698806251331802,
-0.040339551137603,
-0.0283995757980025,
0.075950572074005,
-0.0265823541187335,
0.0490135460311101,
-0.0411291018863281,
-0.00499707596799614,
-0.0165448807222437,
0.00171942823052029,
0.00171820610124022,
-0.00712866491290561,
0.0505533959711591,
0.033359716475202,
0.00633175412197764,
-0.00901531482976079,
-0.0512196397478982,
0.0524190404100948,
-0.0145366161462984,
0.12465890296878,
-0.0129102048746818,
0.0332762527510942,
0.0624018565487352,
0.0212256201578399,
0.0412351537790721,
-0.0189461454302615,
0.0674976433884036,
-0.00371035193984841,
0.0133370481539304,
0.0855668952725442,
-0.0467449795405045,
0.0794821720241114,
-0.0297548800356368,
0.0074470380120334,
0.0669041913623108,
-0.0147199503437972,
0.00147895821107604,
0.0194865323120938,
0.00861078462514048,
0.00822833581621283,
0.0138428844150464,
0.0393212082152579,
-0.0965750352494632,
-0.0176096935578207,
-0.0261378986404584,
0.195560044967431,
-0.0832018102586674,
-0.00977909649445647,
-0.000249896642337744,
-0.00539057915648435,
-0.0568121549192134,
-0.0759783947286738,
0.00974537318395092,
-0.000364083899985918,
0.0129343212628382,
0.0381372271196296,
0.0964869589451095,
0.0633326116753263,
0.0670232865701001,
-0.0105355130073493,
-0.0127706144588588,
0.0149892505245497,
0.000477653339108049,
0.000906471950120222,
0.00396054891213511,
0.0133964787655103,
0.0133543433318911,
0.175685767034016,
-0.00729596447319025,
-0.0589465259262125,
-0.0551776093507462,
0.0010907281949234,
-0.0188818399453143,
-0.02205334486943,
-0.0266813597579498,
0.0327791972296342,
-0.0167423608501224,
-0.0858191808414552,
-0.0348679311980568,
-0.000986429775026618,
0.00765213520813542,
-0.0301265735805408,
-0.00957340092854605,
-0.00648597390837626,
-0.0125769579480223,
-0.00457282016511337,
0.0881767127316187,
0.103645809666525,
0.0207270353902952,
0.0365169927486341,
-0.0027532095966358,
0.00052183490237701,
0.0471251309843469,
0.0786699256788563,
0.005480219568582,
0.0403035679197886,
0.0398663360477831,
0.0178916381019467,
0.00280855329442648,
0.0126284187803415,
-0.0239940539098952,
0.0840636245423287,
-0.018786830054104,
0.0205457545216239,
-0.0694561696297198,
-0.0203547986353452,
-0.0378347158415627,
0.00526462867506576,
-0.0307410813129608,
0.0102439516596764,
-0.0387880532476612,
0.0222954646229782,
-0.0335239664003142,
0.123905395293241,
-0.00846095932358282,
-0.000335707628440344,
0.0247016457772942,
0.046765031979976,
0.0331432987433864,
0.0544993890468227,
0.0198140595062108,
0.105544358618707,
-0.0414769292522168,
0.00865769168384108,
0.100160962266303,
-0.0151939607627429,
-0.0213655114408063,
-0.0173102889069691,
0.0214015388834755,
0.19330289278606,
0.00552757581849146,
0.0194740203037927,
-0.00341057523339424,
-0.0480360528755392,
0.30165936870465,
-0.0466997066437208,
0.0218352579157572,
0.0657070471622183,
-0.0286123122793495,
-0.0207840725811353,
-0.00526835634501394,
0.0049059567977689,
-0.00218874674714749,
0.053330597008595,
-0.00441954618478888,
0.0155301479024898,
0.131195721200494,
-0.0242657373931531,
0.0311856945544366,
0.0198317165811785,
0.00983077778950952,
-0.00380348009972722,
-0.00942551436414328,
0.0716681144924003,
0.12839880082644,
0.0186838658597844,
0.13546327562433,
0.00274212005925659,
-0.0175021562870314,
0.048706200608833,
0.00296287480522465,
0.0341117645159049,
-0.0158288847868357,
-0.0127957726020343,
-0.00461467290278178,
-0.0296485633358426,
0.0105588056015498,
0.0044490302741397,
0.0190898070156794,
-0.0179083203926143,
-0.00617037669852228,
0.053995812636767,
0.0236375905551593,
-0.00923444202799807,
0.0812299019586444,
0.118944028378988,
0.00111230143018026,
-0.0232329223546384,
0.0936532617508833,
0.0114050613476803,
0.000471133192722464,
-0.0233579573641529,
-0.0209877712354379,
0.0113438192273593,
-0.00153372508549762,
-0.013865847796769,
-0.0406619842248415,
0.120336884876646,
-0.0335227474448836,
-0.0145276052886702,
0.00734520098986179,
-0.0419308708874392,
0.0887539362526825,
-0.0124555708707767,
-0.0105581337911524,
0.00857949697797065,
-0.00323229002214429,
-0.0509168201654779,
0.161359484062989,
0.0359350261273632,
-0.0304341412081568,
-0.0485902662882176,
-0.0206271681584296,
0.0544748871601861,
0.0567829760140632,
-0.00144838306822827,
0.0456672810876097,
0.034066646523672,
-0.0129938485336873,
-0.0102966503204175,
-0.0671846167425788,
0.118794185524383,
-0.00969250500113361,
0.00224644935994359,
-0.000759311282404264,
0.00565257512969128,
-0.00518404860444272,
0.0299238863222503,
-0.0433649631583655,
-0.0220261164276689,
0.00193917258114038,
0.00751439158484292,
0.0087590120207707,
-0.0402325751347371,
-0.0296826059339079,
-0.0417742502092164,
0.0316125878394413,
0.130373228671908,
0.0488731831248566,
-0.0530754486767277,
-0.000861917545087214,
0.0108901521503556,
0.0269366989483453,
0.0162036804025383,
0.00330039430232205,
-0.00350620128812508,
0.157595046885908,
-0.00868956695263209,
0.0830018528876034,
0.00236923123802858,
0.00193586474729724,
0.00168231560290326,
-0.00534665765166653,
-0.00422648511672643,
-0.0432373923334906,
0.0438559739770389,
-0.0348193751251991,
0.0538185005829972,
-0.043257466157603,
-0.00701257663986563,
0.0266672011950526,
0.194028645352715,
-0.038309648441723,
0.0186037925097867,
0.0214413554370986,
-0.0641367047627238,
0.0130600409706927,
0.0141307476125102,
0.104873978797234,
0.00877956032512202,
-0.0107714546797943,
0.00676101488086157,
0.00559074277141442,
0.0557597101702264,
0.037499864897208,
0.109705842584963,
0.0163285416616113,
-0.00675909701890025,
0.0254030886790005,
0.0218151853328762,
0.000230363584599951,
0.0722705210744534,
-0.0199524157109345,
0.0413599075721198,
0.0235054452591106,
0.063440239284332,
0.0601082425848691,
-0.021257036772592,
-0.0146824725529378,
-0.0282225220790808,
0.1649424445735,
-0.0392996588365544,
0.109113796322581,
-0.00754150671998146,
0.0236954985279964,
0.113313787303736,
0.0167231460021496,
0.00849947210848761,
0.0120208075812021,
-0.013161245628253,
0.0281444888693312,
-0.084921876500991,
-0.0163437361326118,
0.00738230787221341,
0.013055351567157,
0.0215953059733431,
-0.0275945994970269,
-0.0285833106383438,
-0.0135821689719453,
0.00849914551493051,
0.0261779425546009,
0.055997282496299,
0.0211292477269511,
0.0666147867546526,
0.0555952824230211,
0.043392704584693,
0.00242132752725924,
0.0377420367684033,
0.00962503990135365,
-0.00591502958176461,
0.131986358214143,
-0.0197657697723692,
-0.111624600804202,
0.0192590865263839,
0.0064504187521478,
0.0537596012307902,
0.0169789409920084,
0.0128499286289007,
0.0150773748937534,
0.0245568959263804,
-0.00821774892796955,
0.0117981692417611,
-0.0209312769054832,
0.0826078867137968,
-0.0106775011459924,
0.00860721588942951,
0.0266388392078839,
0.0551398214880349,
0.0317956698987014,
0.0373365901701128,
-0.0932148512506162,
0.0596613513504892,
-0.011667440884276,
0.00711787009674114,
-0.0386287682598394,
0.0272178492123719,
0.142524840541034,
0.0118680011800994,
-0.0835093469896874,
0.0106780313438596,
0.0200935093097155,
0.0413603120323746,
0.000589874586874651,
0.0157106357387185,
-0.0198849098430699,
0.00534814482082701,
-0.056392679287056,
0.0653335772884577,
-0.0211386790329057,
0.00136203856836831,
0.00319477197559407,
0.00981131652259892,
0.00845686795291671,
-0.0125372719772455,
0.0866939343571038,
0.0562255835912633,
0.0717980834246945,
0.0297808162178243,
0.0779298839393707,
0.0239718927360343,
0.0370342012750453,
-0.0504631578076234,
0.0961699341361733,
0.00971634711637168,
0.010294634229474,
0.0267550283701133,
-0.0165540568551679,
0.0219314218952478,
0.0133242032867039,
-0.0110600765939697,
-0.0397674866499598,
0.00508851308112471,
-0.0158513231356764,
0.0706088738158556,
-0.0218106520820949,
0.00128538109123558,
0.0189044818020514,
0.00977581336790883,
0.0124541875100477,
-0.023268825915431,
-0.0326097433055975,
-0.0250917693085414,
-0.0912004424036109,
0.034043671989725,
-0.0230691764918813,
-0.0111885100976584,
-0.0209391736328189,
0.134245202124114,
0.0913143231146027,
-0.0111281485531594,
0.0225790442307842,
0.00776152218020315,
-0.0291769863341431,
0.0075112744787042,
0.015489367012603,
-0.0171061071796708,
-0.0104658790809886,
0.00487475699961983,
-0.0104389244214392,
0.095622285048697,
-0.0216819127917243,
0.00167871830429973,
0.0662455619087771,
-0.00548837952117285,
0.00870543631312855,
-0.00462139458142439,
0.119625404020605,
0.0638431175855355,
-0.0769225459953645,
0.0119342276364757,
-0.00809643514727926,
-0.00953483839033405,
0.0164542729964589,
0.0429021087709755,
-0.0530362720683817,
0.062059263804608,
0.102909860115347,
0.01469228991727,
-0.00270929948604993,
0.00912294240499128,
0.0707225189097168,
0.0750937835995267,
-0.0780696461986179,
-0.0265540962596177,
0.041340564122476,
0.0325053235389216,
-0.0571497110328908,
-0.00888615687565498,
-0.0239635266815154,
-0.0171670527736357,
0.00855346326141855,
-0.0537698175320968,
-0.0465874292986068,
0.00387824833789651,
-0.00770876520573387,
0.0372861120940896,
0.354389512298222,
0.217289928454137,
-0.00857516786833502,
0.0435884745016828,
-0.0178586312047743,
0.0297280439931478,
-0.0261005420669803,
0.0143743318707617,
-0.0198621201288978,
-0.00309151086546167,
-0.190739662324187,
-0.00478548379127095,
-0.0414561728175983,
-0.0531812068033242,
-0.00147853076305714,
-0.00334281213905628,
-0.0471829883878787,
0.00249607357245187,
-0.0216653848304796,
0.0609259607922241,
-0.0205694268919007,
-0.0316754509976416,
0.0181734513333839,
-0.0533958047593021,
0.0114162819884806,
-0.0774818339333535,
-0.0530081924136044,
0.016673517848661,
-0.0387314402769492,
-0.0919624508830446,
-0.026518362191572,
-0.0160096643478652,
0.0609752210301582,
-0.0652935983709603,
-0.032931077929352,
-0.00310349256792408,
-0.0661437860333599,
0.0314990270508784,
-0.0680132821406399,
-0.0478646883785251,
-0.0719338822151497,
0.0323996795096001,
0.0139298197956243,
0.00260579008976583,
0.00731710279499069,
0.0612542360448851,
-0.0768048760597914,
-0.041555940325208,
0.0139418573851167,
-0.0478894172544804,
0.0257812088820231,
0.0220853080916004,
-0.149325765474995,
-0.0180031101993531,
0.0649367445778588,
-0.0831920116395211,
0.147375103772064,
-0.144443563217179,
-0.10550671481117,
-0.0827561516092934,
-0.012903035976698,
-0.0528257630133055,
0.0402117474198554,
-0.0641610318047658,
-0.0856366092411751,
0.0650661246894184,
-0.111402860176508,
-0.0328288800130968,
-0.00740350949888145,
0.0301140588365665,
0.012763946691756,
-0.000599197948333559,
-0.00265594898964928,
0.0630497311451938,
0.00307358015973257,
0.234773667583556,
0.0155485863568773,
0.182609373395823,
-0.000794296439200813,
0.00461065160032148,
0.0968206649514527,
0.0121398949931552,
0.214858738614888,
0.210512479978592,
0.00682061018537162,
0.0129779769278961,
0.111534002131512,
-0.000216953885316619,
0.370546423440795,
-0.00213779105071252,
0.150393001218329,
-0.000101922024539124,
0.0350405957141576,
-0.000812029434882658,
0.0187058339276028,
0.00415414029277005,
0.00108697506699648,
-0.000606389412047838,
-0.00825460585999263,
-0.00605097029335898,
0.190071212193428,
-0.0565182370362765,
-0.00667822997432112,
-0.0408687639106685,
-0.0183749717917178,
0.00375452172457669,
0.0836396994524343,
-0.113569542031251,
-0.00414552582898849,
0.0490109738753532,
-0.0591241670882072,
0.0785137681835745,
0.00356134760741958,
-0.0132283984380896,
-0.00260136352536839,
-0.00861989082574787,
-0.00604578773196546,
-0.00226181472987026,
0.0910963577652123,
0.0561643969656947,
0.00215688239481521,
0.000228359256190515,
0.0094158985102694,
0.0497751686301395,
0.114202175538279,
-0.0209473884930766,
-0.00791572883245181,
0.131546629490962,
-0.0415583555226818,
0.0927484190295324,
-0.0312566109134881,
0.148713575052079,
0.00350578205111156,
-0.0301426780133753,
0.156513354015922,
-0.00665462789776728,
0.0755053500936696,
-0.0185727207028322,
0.133101623809397,
-0.0218043023558355,
0.262050733196884,
0.13040580772958,
0.0330876612304124,
-0.0198432258755761,
0.0478961345146904,
0.0106987643180182,
0.129187976014319,
0.00633328503653368,
0.0108220000306594,
-0.00345214163631241,
0.0115262913560616,
0.0197913208034771,
-0.00343785932409344,
-0.00142111641633545,
0.000435553404845691,
0.055307144922775,
0.0239192984244063,
0.0238142377813304,
-0.00180323824525034,
-0.0395487877202853,
0.028494971003931,
0.0924177699829514,
0.00889003919030278,
0.039100098730817,
-0.00319043846397103,
-0.0157515646673596,
0.0173870200141146,
0.0267655279699228,
-0.0118633405208649,
0.000935090534606007,
0.195467471882642,
0.0115273447407654,
0.00513702925110992,
0.00124759355560615,
0.00464569196461515,
0.00193042810584933,
0.0210048881336682,
0.0678080977642912,
-0.00631252928885509,
-0.0103745483270731,
-0.0477006775943869,
-0.0026425899295569,
-0.0151414788149333,
0.0515244999013047,
-0.0327692929833724,
0.0684116736560858,
-0.00428017910274529,
-0.0142824108792484,
-0.0142356678921525,
0.00473652927339396,
0.0490269389640799,
-0.00152747416708811,
0.0277267676669431,
-0.0196444208938596,
0.18347897940759,
0.222020689524451,
0.0163832383724154,
-0.00113947362938716,
0.0274479606487342,
0.00203487764397631,
0.0121991996684328,
0.00211615948688414,
0.00269474110933877,
-0.0330678161143435,
-0.00144623597604185,
0.16902590035606,
0.0266088476035655,
0.157164795461453,
0.00305322875954184,
-0.0287587354439247,
0.11089981754187,
-0.00152261102913828,
0.0794828651403742,
0.0187276355728981,
0.183900033156869,
0.0212588840649033,
0.00914180303724619,
-0.0104575724902564,
0.101443354804707,
0.0115099397647456,
-0.0168960177928628,
-0.00877848888960967,
-0.0272797620831393,
0.352860345445756,
-0.00752993819103159,
0.0108688513537887,
0.00111569218744599,
-0.000286584485692673,
0.0580131762996786,
-0.0255363397907393,
-0.0148605504169665,
0.0881492578629425,
0.124404401845553,
0.176666843823669,
-0.0243789846434901,
0.14584101620289,
-0.00257576786599835,
0.00936368168654761,
0.189472398708305,
-0.0760592256398586,
0.00154302860731072,
-0.0296089692461143,
0.0651169324634706,
-0.0444518271746888,
0.140204833743303,
0.118959071610548,
0.0916934955539543,
0.0300319765760393,
-0.037253788275727,
-0.00634981491778864,
0.00583953549685114,
-0.000731426888544185,
0.00993526588676144,
-0.00180803642684281,
0.00323848422829431,
0.100642630155184,
-0.0106570456174713,
-0.040143971774918,
-0.0168886302294885,
0.00560556469510572,
0.00645951062048591,
0.010286489148649,
0.00548984975780773,
-0.000586930060537974,
0.00631998230770989,
0.00679524424501024,
0.122700932259949,
0.050247482893094,
0.0619668398327888,
0.00365474339500653,
0.0274556272362431,
0.00185378495576898,
0.00986324127870463,
-0.0063396167114246,
-0.0120923307463278,
0.00119726441077573,
0.0387078383731563,
0.0361405894544639,
-0.000101584962112053,
-0.0094176289570768,
0.0237976853627231,
-0.0103954013187916,
0.0272614308760932,
-0.0132251930741882,
0.0394250470074282,
0.149430814365286,
0.0665803645108825,
-0.0562544488557826,
-0.00862693992890876,
-0.0121787677987108,
0.193923632521128,
-0.0898445137939699,
0.121099362343282,
0.00373048481740525,
0.0511041622310015,
0.0242763510707448,
0.0565713471326535,
0.0387916835253189,
0.153656025018011,
0.00102859949340334,
-0.046340056939843,
0.14901745552242,
-0.0164547555217011,
0.00742903788621887,
0.0143538960605002,
-0.00325987148707009,
0.147564646061148,
-0.0539836068019701,
-0.0109691207977315,
0.137785067411224,
-0.00079155017541596,
0.0225332388748615,
0.0113204060282726,
0.160204903510525,
0.0192094708076474,
0.00811237118570531,
0.000730593290701241,
0.0192790698280378,
2.64142608699432e-05,
0.134671828719446,
0.0351113851131574,
-0.0419191335177462,
0.255703077713913,
0.00785419933033545,
-0.00351410810067427,
0.111908371292709,
-0.0238253539834624,
0.00231707132631254,
-0.0164311264294362,
0.00595139332329271,
0.0049876254294093,
0.0229295020056546,
-0.00343027165807268,
0.000667884079198225,
0.0109694744152324,
0.00242730507319917,
-0.0177108646726885,
0.0200310542716585,
-0.00354484173824557,
-0.03368715884965,
0.0305737326297366,
-0.0489606466446776,
0.0398292233049354,
-0.044332510454725,
0.0509146692491071,
0.0142894426307669,
0.134517625697899,
-0.00275886233362867,
0.0617269791450923,
0.00971570924403848,
0.0101578094930287,
0.00820102887479777,
0.0563741774664156,
0.00168226299835348,
-0.00178145833408946,
0.0116889309153342,
0.011682513182387,
0.0610628349875468,
0.00884137979234425,
-0.00326815825329489,
-0.00430167428749866,
0.285517489044607,
-0.00592378197538934,
0.0288468659662786,
-0.0118548904363568,
0.0818170733663804,
-0.00813683125609086,
0.0658085431334665,
0.0809565204810493,
0.0206317492221198,
0.0363063348605314,
-0.00407710511893416,
0.00652802568733307,
0.00571032475609551,
-0.0193542371187561,
0.0163993956188638,
0.178364602165344,
0.00382812233022167,
0.161312259940678,
0.00152915387929461,
0.0344182553298164,
0.00892434179986158,
0.00696994450332774,
0.00159788869793196,
0.104310346174933,
0.19438762137046,
-0.00612373147918877,
0.0147648612070969,
-0.00761337915378064,
0.0513549631475245,
-0.028817669070019,
0.00430326576090474,
0.0737502448417767,
0.0512154045258729,
0.0245221963419531,
0.0608857077524844,
0.0305519545984329,
0.0159483798510385,
0.073086020542773,
0.0329881320259395,
0.12721420843516,
0.0719982062920487,
0.0208275226145647,
0.0136432893465282,
-0.019497046761224,
0.137844663912266,
-0.0381006247915456,
0.00388464453373362,
0.00927336754279519,
0.0342488190494164,
0.0252834517313389,
0.00182968841000672,
0.0209213785686787,
0.0137010792562633,
0.0200972163215966,
0.00879741370698213,
0.012082382229265,
-0.0138491110207731,
-0.0238160971653376,
-0.00532573980622243,
0.0200757864840758,
0.00901413186397817,
0.0018181306024207,
-0.0178184108113928,
0.0324720108264252,
-0.020225417915516,
0.00610331275313905,
-0.0258491758338817,
0.150982799621873,
0.188987515869107,
-0.0191110147891913,
0.0170164867475227,
-0.00782063328322281,
0.0104217328377194,
8.60678343861542e-05,
0.00946754788110248,
0.00323924047126178,
0.0501615153492999,
0.126555277219857,
0.308547071759474,
-0.0163456640734442,
0.0219915929988625,
0.00896183861378125,
0.0392762160661237,
-0.00212360120334834,
0.129674103410327,
0.0121400309700808,
-0.00230116573380033,
0.0216685535524732,
0.0349421023524691,
0.0233262239799669,
0.0656215200887536,
-0.0273749181445001,
-0.0368868657453518,
0.188173951880242,
-0.00221232808088822,
0.125492013796935,
0.00457149839469053,
0.118338645493785,
0.0044375068459169,
0.000875013069115537,
0.197879219890927,
0.00228435126613071,
0.0131776653898236,
0.00463309416716504,
0.00738020458926709,
0.00814380809033045,
-0.027059954151182,
0.0092021550862216,
0.0265873046913401,
-0.00776772862022783,
0.00766627836363655,
0.0264785704957697,
0.019868443160805,
-0.0041214452032348,
-0.00514755985725171,
-0.00932125839482687,
0.00627961849747462,
-0.00881963914656936,
-0.0346483782174037,
0.0481488103148323,
0.00526507633177434,
0.0189512292805563,
-0.00509728615619785,
0.00208228136758323,
0.0118776994689118,
0.0158119345560489,
0.10757417294794,
0.0134412114207857,
0.0559106391769359,
0.181577767799636,
0.148542070010512,
0.0110640628221957,
-0.00758521802995369,
0.0411625182726791,
0.000683444065636729,
-0.0186912628078981,
0.0258874468710232,
0.00292851102151195,
0.00843401181198065,
-0.013729022256896,
0.022936279597932,
0.0130975993836912,
0.00644536930099522,
-0.00304429856687639,
0.00313684212573653,
0.0209391866996799,
0.00269235205379884,
0.114334796664928,
0.00817009090480473,
-0.00145855197752351,
-9.95846146947318e-05,
0.0139509003076579,
0.0178568766111929,
-0.00252283848510799,
0.00841497646611499,
-0.00586165938328753,
-0.0186357483997671,
-0.0157101425044696,
-0.04050913498931,
0.0259118373403222,
0.0379569465797829,
-0.0112375501582428,
-0.00202708348358077,
0.12917903332818,
0.0122467151697237,
0.0153114870557293,
0.0383490201293783,
-0.00267686248497294,
-0.0110214372567957,
0.121408644016893,
-0.0076662730910696,
0.0922296015759826,
0.000219407305118163,
-0.0134593697176297,
0.098236541076502,
0.001607524725693,
0.00403227528655933,
0.0122389816770894,
0.00972977733576077,
0.00957789875947096,
0.35276371862651,
-0.0133779021357026,
0.00560388432399792,
-0.0291248654588659,
0.0810342429453255,
0.0374411631472648,
0.0610059866945128,
0.0200747886195651,
0.0571732548992065,
0.0329654501082376,
0.173999072713577,
-0.0477118184791699,
-0.0296646047237127,
-0.0317746303508487,
0.0712410719388651,
0.155802668472715,
-0.00842809126165721,
0.0418102626577503,
0.213089163029154,
0.00409650918907641,
0.00972018063464093,
0.00493050981495596,
-0.00109335815910798,
0.0101205170170083,
0.0825005789259159,
-0.00148817159475184,
0.0209607558500573,
-0.0171321088394308,
0.216227507130279,
-0.0229958842537465,
0.0196815459934006,
-0.0313098602574651,
0.00785650654916944,
0.0240062436373093,
-0.00760721924084338,
0.0372520283615668,
-0.0209394790648785,
-0.0129918672020669,
0.0499897175293567,
0.0335439365537315,
-0.0047622527043147,
-0.00382565362253468,
0.0518397372032629,
0.118587798767589,
0.0133883817657334,
0.00111247196474396,
-0.00123726041769129,
0.0469259645236694,
0.0138972344924166,
-0.00268920763209909,
0.0145310742671082,
0.203960217862012,
0.239696370619582,
-0.0252117953894876,
0.0953544027818457,
0.152419738151267,
-0.00434379179589132,
0.00967109152802499,
0.00376161694409179,
-0.010524059768461,
0.0519025239630977,
0.0448283201480828,
0.0406920161218505,
0.0527911557591554,
0.102508536532457,
0.0236450328454415,
0.0324362066616732,
0.0323225843514364,
0.0920080110385995,
0.135904685773898,
-0.00146523522442166,
0.0211377741883943,
0.0037579967693713,
-0.0112501843277237,
0.0258777480811347,
-0.00699739827548777,
-0.0202503667320643,
0.0287840950123294,
-0.005293481187269,
0.00640142147908888,
0.0646492183329002,
-0.0225897041414252,
0.0942889725154645,
0.0142518139950679,
0.131793234639967,
-0.0128547373547151,
0.0365470306237735,
-0.00707123311880285,
-0.0398215579296841,
-0.0194428519573474,
-0.0256013913786165,
-0.0253347450264925,
-0.0387109432040975,
-0.041107021033833,
0.0866770970878395,
-0.0800760263252688,
-0.00361251405606802,
0.225681631849264,
0.00375836526609374,
0.00177757858321034,
0.00326376703779438,
0.0226086330959238,
0.0144337293422637,
0.00228243694832936,
0.114295171048314,
0.00531145563767122,
0.160337163715484,
-0.0275784274984456,
0.116074964595166,
-0.00464801148833333,
0.00977294678115284,
0.00421239407721731,
0.0178724292527831,
0.0871830308863968,
0.00802458597138249,
-0.000883676508999994,
0.0103247407867018,
0.0187639819381077,
0.0114901833886929,
0.00861813930006168,
0.220328794758567,
-0.049660681443773,
0.0581791339950941,
0.0487072961952664,
0.0521591318033179,
0.0241888132941122,
0.0110049083932936,
0.00605347894198972,
0.109224722873215,
0.0112940113633685,
-0.00769745413184226,
-0.0219073183757141,
0.0872624713299724,
-0.0575611851965086,
0.0226151837177844,
-0.0196101871907839,
0.024136622680212,
0.0613948529485219,
0.0259661440669969,
-0.00336701401039153,
0.113533020880352,
-0.0264884630371794,
0.0185634421915467,
0.0503491486286415,
-0.000911469139533107,
-0.00092703298377867,
-0.0207523625958122,
-0.0567597952259989,
0.015525227209542,
0.0497325528796363,
0.00912803614228471,
-0.0202603130472471,
0.0135623491562503,
0.0195768399935024,
-0.0256774410502261,
0.0240455657235827,
-0.0148171048554763,
0.00690821585302053,
-0.072620526927044,
-0.00134971892530711,
0.0215215032863652,
-0.0136306120161268,
0.0707477225675699,
-0.0350926687065038,
0.00678271932010408,
-0.0217790500488084,
-0.00575280459669242,
0.000789182463352501,
-0.0164851251664682,
0.185664332919437,
0.0072800299043486,
-0.0139310042909931,
-0.0486940645300359,
0.00944791385858999,
0.0173556031301585,
0.175642817285188,
0.0990498435707377,
-0.0291433039444544,
0.00643866522638181,
0.011198553300823,
0.00333911015237098,
0.0587198114706629,
-0.0610742885998003,
0.261121933434813,
-0.0905016582102143,
0.314614440306147,
0.221276789692154,
0.0171393638800556,
0.0159964618982786,
0.14838463098925,
0.296583811430897,
0.0706576881420973,
0.267429041073893,
0.0578234619252334,
0.0962224496437258,
-0.039750496871402,
-0.028957316458888,
0.00773586648349657,
-0.112018764391768,
0.243568332500994,
0.012130356503741,
-0.0585984776412396,
0.0169209849667135,
0.0297983734573271,
0.00536532125166638,
0.0338107024299819,
0.0479801313505569,
0.00236495440525233,
-0.00265306843718166,
-0.00254660403946429,
-0.0339411982955195,
0.0119976673334229,
0.00324957577897853,
0.014903167692732,
0.00262429583867414,
0.0233365540918567,
0.0156822506024633,
0.0560156276680952,
0.00718408440550846,
0.0441378590427868,
-0.019171449323752,
-0.0523720347138618,
-0.0220235474809719,
-0.0717435470362673,
-0.0202475138282723,
-0.0262091678449681,
0.00324525177099901,
0.0348819093584945,
0.00755255140793215,
0.0420852396855099,
0.00398769654039472,
0.00997196122236763,
0.0107812296848625,
-0.0279185567882144,
-0.0129616525059031,
-0.0024365247056145,
0.0214738839595534,
0.0345896265458238,
-0.0142473641679487,
-0.0124081166630599,
-0.0200595987256616,
0.0649229873250694,
-0.0861298472293121,
0.0060421611250878,
-0.106396725581612,
-0.158165390656321,
0.162763896734134,
0.239304768685909,
0.0211527049452408,
-0.0666044721316605,
-0.072592049352424,
-0.0284793844433908,
-0.00501119533154361,
0.00370090852671619,
0.00950934306443571,
0.0198388123014178,
0.00357707233429764,
0.0023391815603217,
-0.00789749287186604,
-0.00325766048929945,
-0.0428137844889569,
0.188584845727992,
-0.0434366421684376,
0.0691795378764064,
-0.0403049395122692,
-0.0805978824634122,
0.0314544685552698,
-0.0807356944475475,
0.0432841472283885,
-0.031921378150322,
-0.00711453898195363,
-0.0331531020062915,
0.0981404089055077,
-0.0351753745895928,
-0.021798960496887,
0.0148040312318665,
-0.011651372014371,
-0.000967697989638915,
0.00124536746978064,
0.0127499438565783,
-0.00437569997706462,
0.0179574721398431,
0.0166156887031745,
-0.000376346310636381,
0.00197821185105638,
-0.000123396441966435,
-0.0111862182103324,
-0.0952353027716973,
0.0166084659720911,
-0.0142636857860263,
-0.0351947929789509,
0.0402108337414239,
-0.00822986499148162,
0.0409680133908299,
0.00721264212503636,
-0.000208756060338694,
-0.0504051432518015,
0.0646444097296213,
-0.0401273103969185,
0.0744630530457385,
0.0268693926682645,
-0.0414020135860836,
-0.0642582904625957,
-0.0249826855863804,
0.0130550889422503,
0.0128081483844373,
0.0212041715069496,
0.00790123802464796,
0.00845762297929677,
0.00851387776866109,
0.00454124236840242,
-0.00550223700582154,
-0.0238721624138593,
0.104421206345667,
0.0153775889023897,
-0.0334650782202064,
-0.0286826624074831,
0.0127672423952122,
0.109383595858188,
0.114406524509344,
0.0304339520616131,
0.0351820240004055,
0.00695371869368608,
0.0174809333138291,
0.0105581129309133,
-0.0174337463951596,
0.0258775075837604,
-0.105509858506269,
