0.00808707477166424,-0.00276579574667275,0.0104998116416779,-0.0101405981753217,0.079933821947447,0.0325103990860493,0.143934664075555,0.108191854028829,0.0251242671203628,0.0122681404164007,0.000747544886242422,-0.00645739464354761,-0.0164607533586616,0.0250846608065794,-0.0270822174099324,-0.0213818711160236,0.0718281585666957,-0.0174833970317642,0.0853699210920545,0.0213010889671771,0.0920698184940588,0.109647331002909,0.0585992836752126,-0.021889026822143,-0.0337381921540027,-0.00641770618329278,0.0151391894238185,0.0137704359920733,0.0581234723004784,0.0240509667347509,0.025465002604072,-0.0061261816643065,-0.0433049553671612,-0.0692987988360689,0.177501923988632,0.0170602573869854,-0.0103407239487181,-0.00348428964105438,-0.0630570270252031,0.0202446338998424,0.0324593940616175,0.0638313413031065,-0.0328464293487939,0.0792007553580331,-0.0720496084891348,0.0530506145347049,0.0982364765963779,0.0267103765407708,-0.1640790320323,0.0500653337062335,0.173455223583155,-0.0370242396065378,-0.0186226414055058,0.00629557278397571,-0.0183034043271533,-0.0192842201340105,0.00797368347531375,0.0274225147958828,0.088415056278751,0.167783052262985,-0.0644766890926463,-0.085469158218124,0.0737016292763531,0.0132941100124369,0.0679683813519834,-0.00879200706651297,0.011458914896027,0.10685313271767,0.0226360514544335,-0.0162131827898008,-0.0456237401078853,0.0226783348242251,0.0169578079537117,0.00245774216586385,-0.049270056664882,0.135268261921935,0.0575210201516428,0.125158114116741,0.0169065725417813,0.0224226862993947,-0.0182522468458649,-0.116000382667689,-0.076311964575223,0.0449647611622669,-0.00639916996356613,-0.0702969499483025,0.067257576922719,-0.0909414811450633,0.0948990163075306,-0.023347518485698,-0.0359255602499639,0.0989617081616089,0.0837727271612408,0.0464286768230725,0.0359172658240038,-0.0867513462833695,-0.047191895661464,0.115617386301041,0.00860424976034981,0.100401062272761,0.0860882833752789,-0.0464568709069822,-0.00771741180397588,-0.085963274778886,-0.0314130602362718,-0.014566247986435,0.00427936836142525,-0.0673819238929207,0.0527660074601742,-0.0161645334879475,0.0362686296877578,0.0423958005556192,0.0283239012328862,0.0133179410146236,0.0134774923052669,-0.0895581226845832,0.0070179852940431,-0.157091506842759,-0.0492038116853946,-0.0830963128641798,-0.0215431236668802,-0.0259504387500158,0.0333015399227183,-0.016832938875793,-0.106169777850309,-0.0578749212375768,-0.00914763284220795,0.0349399706533099,-0.134080128926518,0.0524923457356939,-0.0566043176716811,0.0460048862204669,-0.0722194570044391,-0.0184402946064498,-0.0908669272837235,-0.0226167704832545,-0.0394514730916824,-0.0958091493726743,-0.0224077619734384,0.000272157095040804,0.0600280908201849,-0.0172634106267684,0.00506635360383649,-0.0451113539502886,0.0708701022229032,-0.0127265821980503,0.0854505292618278,-0.0634970687569085,0.0305550867639868,-0.00972582574252527,-0.0338514583409242,0.039092222985425,0.0345505342879486,-0.0840822959730714,-0.0625791045987422,-0.0162835120006392,-0.0275799100356158,0.0711579937986931,0.00673601009792394,0.00265280212908492,-0.0578972383440904,-0.0343527522202076,0.0593011909142853,0.0246103504536487,-0.0176741040014473,-0.0299868841101209,-0.0387397752936123,-0.0476957024636503,0.0138067892699904,-0.00450465855627965,-0.00837722126964474,0.0243364052783362,-0.00927132909348971,-0.153203474266268,-0.114318294963956,0.0905488036917127,0.132847809532425,-0.0565431407673908,0.0853300413121029,0.00833414664004472,0.0202104830194095,0.00183019671411217,0.0013918779860411,0.00261270771771308,-0.0437812519406488,-0.00275877035940553,0.143848962640089,0.0705636014444764,-0.178526769769721,0.177003294867691,0.0426129974636714,0.0556732821642691,-0.0404603082989819,0.018000431837824,0.00357354045351886,0.0214753663812118,-0.0519072712246329,0.0863591917778124,-0.00810456874182379,0.106960532886217,-0.0861487909362713,-0.0488650673127691,0.0536027226952535,0.00487689005076829,0.0199697014886801,-0.0139820196923725,0.0416542907780936,0.0103585239722446,0.0089771361082099,0.0346216179274954,-0.0242462443576781,-0.0704338001096071,0.0934376016088825,-0.103692635393085,0.0153123374702485,0.0393555370820114,0.129773557313421,0.0615312922741415,0.0132281215929654,0.0732601920807111,-0.0559722822491235,-0.027281629868558,-0.0040843463320944,0.07368854955378,0.013838638309427,0.0261502700725811,-0.192646167040449,-0.0855635783879443,0.0813363084958437,0.146062483547354,0.0244514950016655,0.0193162500008632,0.211880163451966,0.0548284374157612,-0.01137586282397,0.0144081944536392,0.0270619197115297,-0.0788832056904575,-0.0591465919533065,-0.0218984890335742,0.0221126334724561,-0.0545018244497079,-0.00283939207667216,-0.117459971365427,0.00405341720632327,0.168640233127878,0.042537297130855,0.0248673868352108,-0.0623424969715805,0.0462794158097216,-0.0322585500666963,-0.190087342107377,-0.0592116964386643,-0.0898988679439229,-0.0628697337042132,-0.00633578111029757,-0.0925540346421358,0.0308224116847863,0.0146540767626617,0.106412050482696,0.0030618670409857,-0.0663246857602377,0.0504348264675672,0.019245177961778,-0.0807729640804106,-0.0289569727993955,0.0142510468783934,-0.0436327327937587,0.00650988225940271,-0.0114708035487092,0.0637970734757943,-0.0304732544988004,0.0571606556047695,-0.118373150248025,-0.0482810974828057,-0.0251875092098297,0.00795102340521957,0.0339849824710877,-0.02671089616461,-0.0451413251062245,0.0286699436027061,0.0844248676177854,0.01549615632453,-0.0478424544413902,0.0462262724086654,0.0339946718469756,-0.0265014978593793,-0.00623664875540965,0.046745839601342,0.00499519437800366,0.0657663864900036,0.0585971335977219,0.0532228454880134,0.0295735981092079,0.0383135547174157,-0.0341439258566548,0.0266309044922668,0.0257799708671644,-0.00664193282541973,0.0580223054153464,0.100729357155854,0.0328439672167955,-0.0908410104256005,0.064130236526103,0.0175839837362738,0.0238546853543447,-0.0422454400899705,-0.0798179652700506,-0.140675981817579,0.0804177348214746,-0.0456539476809909,0.00885560236071677,0.030978337324471,0.0780816038113061,-0.00997492422372168,-0.200587965488742,0.0403383623150326,0.00914635639449291,0.00852001813562914,-0.0406809443551867,-0.0539368066440199,-0.165718696121828,-0.0421209103030788,-0.0399985721717076,-0.0016637252630213,0.00048385143965963,0.0825695226091525,0.0536544510403678,-0.181694805186288,0.00673709701046194,-0.0821701313619583,0.150380156285666,-0.0832166143742918,-0.0827288480470267,-0.0366742568428075,0.0433867015948747,0.00849659518583714,-0.00134620089152196,-0.00992741890388938,0.00262991002266372,-0.0120845583096908,-0.0501376577191691,0.0369116761183926,-0.173132743451955,0.0634189379686902,0.0825049729442013,0.14429733480416,0.0142530213243068,-0.0277020523037056,-0.0118004870381969,-0.0156510497222819,0.00298013047364468,0.0129687122304775,-0.0870714093107959,0.026181934636296,0.0864867658602593,0.0896113168869684,0.104653274876351,-0.0496896464368246,-0.0756115605040307,0.0112051425481904,-0.0922667753383901,-0.0188201881482345,-0.0560916655393926,0.0204011154258509,-0.0284628706246804,-0.0591340000940522,0.0186019400453914,0.0215774913529752,0.0295874892500672,-0.00437216434673053,-0.0119649236654162,-0.0210308518890342,0.100105749192048,-0.157993277516643,-0.0461122584095101,-0.123927647778295,0.0186961438585329,-0.0497203212145946,-0.00972190969436146,0.000587258411641058,0.0262509525977437,-0.0144480449068175,-0.0792206575552316,0.0603645205749371,-0.0493755696027899,0.0287048872053594,-0.0109020840981373,0.0570274074242152,-0.0441348545529659,0.0439226833084617,-0.00556443137404206,-0.0535644279261675,0.0550900980151771,0.0407080435288752,-0.0229849953262273,0.0846513730696312,0.0979010629244862,0.00593315745867395,0.0350855404367464,0.0915593547613174,0.0364071650245849,0.109942060670378,-0.0144046791441167,0.0250604116016365,-0.0530729989126599,0.0821705390582697,-0.0412696724260006,-0.0338863556290608,-0.0857017527043804,-0.00393657455921656,-0.0530199253874947,-0.0430950616851058,0.00665220681570246,0.0673468887600447,0.151753913830833,-0.0117901379495872,0.147601815686367,0.0534721885572324,0.109118878382748,-0.0946731250053786,0.0240894915968176,-0.0154898986793721,0.0488001575540806,-0.0663215617382649,0.0179983605683918,-0.0977294378053117,0.105428114977713,0.128130449739024,-0.0667687897152035,-0.0168464122208903,0.00708266383228195,0.110352817314645,-0.0129642828458347,-0.0207414995619485,-0.0353440044091635,0.157907114154627,0.0166488819060692,0.0263439772810146,-0.0164372963804341,0.0033902250951301,0.094412413002997,-0.134674126920266,-0.0141500596420451,-0.0455646716443451,0.0060291911658775,0.0552118952306003,-0.0397353987774939,0.0088668991605978,0.0119397824158203,0.00790146555202711,0.0455986881297819,-0.0687087237014277,0.0698016611824677,-0.0512466246949879,-0.151521851851125,-0.0118151237934286,-0.0265507556382121,0.0445999671772758,0.0769593590845839,-0.10260001453074,0.14578721390254,-0.0643641893432415,-0.0526947712967581,-0.0305913287508046,-0.0346877154343526,0.0150457968813844,-0.136600680918291,-0.101948223466955,0.103357389679098,0.0444461338071909,0.0215257944959065,-0.0718534844144574,-0.0217756364908551,0.0946654160847627,0.108322883152405,-0.0770681793424381,-0.267723261197562,0.0527947740334958,-0.044580401709624,-0.00431983338748724,-0.0606373602295738,0.0179133876517787,0.0404489571957018,0.0143552892734992,-0.0657068170443441,-0.100424867029984,-0.0100718187059579,0.0362743645887654,-0.0347501922535233,-0.0769791858612147,-0.0652281760869858,-0.0128532269203977,-0.0462907205286747,-0.0429685004942389,0.0949257150657157,-0.0798305107697974,-0.052469199201444,-0.0404766396735233,-0.055576764185661,-0.032616069196451,0.00138282821773401,-0.112435452193512,0.0313853138815734,0.0515202271009304,0.0737286957263365,-0.0366841644292696,0.00934715808998208,-0.00647339752005257,-0.0542509339822786,-0.0170259654833029,-0.0408028889230262,-0.0259224104251126,0.011218812697665,0.0328717679391167,-0.116876017222258,-0.0776107875993308,-0.0334008110152073,0.0192230143326151,-0.00930393510059184,0.00985630569120455,0.0069246996761996,-0.0295109961122155,-0.112614815270525,-0.0312455880218967,-0.0281552566573307,-0.00429925658028745,0.0106994556006845,-0.0434459040879044,-0.0123550660471238,-0.0134384945295928,-0.0226596076068277,-0.0540967181045183,-0.00291666024270642,0.0242002720625277,-0.0500020737949837,-0.00422225406530195,-0.0452941484423938,-0.0442039500629521,-0.0283296306719999,-0.0327920080020473,-0.0209866235794374,-0.0162452544254374,-0.0414166208375097,-0.0825181973204693,-0.159106212710005,0.0214683012906821,0.00149132508397278,-0.0162234792834672,0.0168535177972325,0.0517587767829985,-0.0253519128429441,-0.0622756308277055,0.00337023494006735,0.0139150763359521,0.019164548415768,-0.107139275026614,-0.0164165611766721,-0.122167100207352,0.0412032878054209,-0.0375591766814977,0.0251601528141082,-0.043505295933895,0.038708716719261,-0.00830710723408507,-0.0487383870604693,-0.0015173799639875,-0.000992710734969787,-0.023680997012083,-0.247408864597877,-0.171582844849356,-0.0709773629407581,0.0219352564702535,-0.0361659634324213,0.0632238595072863,-0.0711449071437361,0.0927479217137993,-0.0158624755984731,0.0396198764703958,0.0170404052358944,0.0165083907501863,0.0460895431784435,-0.0713924448251755,0.0875182008542449,0.0561998068387996,-0.0819751284565547,-0.0735665998679006,0.018049493716105,0.0915818623046564,0.118907001758158,0.0224448533261113,0.0220829824373241,0.0396353622975939,0.0540177814286974,0.00908653790886191,-0.00203899159416277,0.0703004711810332,0.0660507402536531,-0.0793013729068379,-0.108256677018928,0.017475136090073,0.0456864107603231,0.0784403318621054,0.0242109606382664,0.011444958934179,0.0292840130953954,-0.0106041409666015,0.0514296185713566,0.00626654291859778,0.0349098036269678,0.0928500535479927,0.0394464223434082,-0.0139156254457623,-0.00290738105499659,-0.0407913145005985,-0.0465016442359308,-0.032726677678597,0.0197525726332249,0.0170081626749699,-0.0223230825992232,0.0380067979772646,0.0188715977717208,-0.0226114468661796,-0.0472573589810807,-0.0742232601877925,-0.0821940152760514,-0.0521770446335161,-0.0770595529830906,-0.060685283284352,-0.0774718930614365,0.0397915764489423,-0.0489401552152925,-0.0575688820480776,0.0117292124125444,0.0395629934803483,0.0100551420408481,-0.0177045282036413,-0.0957394589454205,-0.0921419876526772,0.0596047412388723,-0.00171282413768558,-0.0180780969943143,-0.0388921294105511,-0.0438793588372586,0.0239645040324167,-0.0334710555745363,-0.00387016978643308,0.0150625251314549,0.0266515082193969,-0.0180764650668403,-0.0580837844450269,-0.0164746815549995,-0.0167794084707527,-0.0308179343590407,-0.0785937785232009,-0.00877960451622903,0.0275484751501643,0.0375504009228076,-0.00956722946299281,-0.0126351412264474,-0.0365655105575013,0.000249519617455074,-0.0626594033240364,-0.0632786804243379,-0.0339585820032946,-0.00570940119414025,-0.0654361608344784,-0.0732049636670595,-0.0626449592611795,0.0149660366746063,0.0396282380613529,-0.0075070299329776,0.023380452713937,-0.0166287524858495,0.0133020063697516,-0.00915821381294593,0.00784348309539416,0.0142731186359961,-0.00823644407127298,-0.0368492034092179,-0.0147472113451646,0.0161843043928631,0.123914620842424,-0.0851978524563017,-0.0125516439730238,0.0845126291374008,-0.0400714713406114,0.0107476958576085,0.0297649298971877,0.00872139684549034,0.0339524407071545,0.0558965390317048,0.0213413003534625,0.0456560212231471,0.00878308767115368,0.101462219712121,0.176007585732312,0.0103118310153777,-0.0319871071710679,0.0131649339648371,-0.0739044701358658,-0.0315089107921964,0.0142858281605981,0.0237188036001145,-0.0406232225477516,0.000661582324643023,0.0871017903192719,0.035827775464707,-0.0220530470886056,0.0908096837495078,0.0319158951218542,0.165315789381137,-0.0476655952413371,-0.139286517079371,-0.06003604977422,0.018217040586554,0.0333228866386239,-0.0286781563723693,0.00533347851496927,0.047691860864721,-0.0152737642362005,-0.0495283671299649,-0.015373520891439,0.0683097564552464,0.177040411807483,0.229946896514048,-0.00231977270518055,-0.128114185927175,0.0209279503932111,0.0356261101379138,0.0806835176338363,-0.00696619889753104,0.13261765620336,0.0591269763398822,-0.0608962894114388,-0.0492601076235281,-0.00796381262826856,0.0551460993987863,0.0623919275637004,0.0657088338323013,0.00769111040028036,-0.00022237632028091,0.0200774855856537,0.0650428674079175,-0.0792233498729339,0.139964891501204,0.0686168679091879,0.0226796667117738,-0.0169430517672452,-0.0491498941030697,0.138063123819974,-0.0411700928721777,0.0441646980995642,0.130769254995411,-0.0328197864901683,-0.044160397637361,-0.104408958810867,-0.078133049236538,0.0430599605358462,0.0426871658327584,0.0208758063757159,0.037216373218452,0.0259783249793594,-0.0108921966734852,0.06147097094923,0.00755553088803584,-0.047123203944675,0.0575175830782216,-0.0692746308564486,-0.226338066398106,-0.0268902840101616,0.030434984309153,-0.0666374648965267,0.0907817887099579,0.0250303981320081,-0.0472048278251912,-0.0285514918824409,-0.0691105785467584,-0.10221950693245,-0.0235208832595535,0.0644675230016521,-0.0899570878103508,0.0267647496661137,-0.0890679874691146,0.0819795021638106,-0.0389633503954736,0.03270339206613,0.010402070562992,0.0626263035062587,0.0649019906665035,-0.0293892708212599,-0.0302858160461427,-0.0566136988554409,0.117312216951766,-0.0146559003473376,0.0246349646599971,0.0474658845111282,0.0843566891625764,0.00977931841834882,0.0011470933663953,-0.0184288984861051,-0.0764831601478074,-0.0513142144624916,0.0348021859518124,0.0806530516572646,-0.114262559100609,0.0503504286371764,0.0443298419807265,0.189503848707392,0.0263329794807392,0.119803542854948,-0.0441953426338762,-0.0889280253115921,-0.088374655636191,0.020138093291404,-0.0481665593133059,-0.0940474509062628,0.0723368657235642,-0.0502195241527886,0.0125983489454457,0.0275397632659083,0.029595951499431,0.060220065713919,-0.0215320947049368,-0.123558802834947,-0.0432849905843014,-0.0620523882452145,0.0118931096357377,-0.117326361615309,-0.110557893163458,0.051763527857444,-0.0174352979897236,0.00500930011198627,0.0322450690199474,-0.0209493466386508,0.0275330336794935,-0.0314077029933959,-0.027748247553774,0.0213705821190621,0.0266584059942025,0.0282231083742234,-0.0357490752329868,0.0555370337004965,0.0347943355628033,-0.00563303462507737,-0.00434589095579676,0.0068251518639524,0.0136565390365748,-0.0369477377323786,0.0324702464317103,0.0741763376008254,-0.0191281135091434,0.0331520418427804,0.0855748348970824,-0.038325097657086,0.108305302114753,0.00741546222539656,0.00455043498407341,0.0142059148851282,-0.00181216574851188,0.0448792133616917,-0.00975440456934873,0.0782813266551815,0.0775490421395518,-0.107704293326905,0.00835923945900749,0.10031440079908,0.00842530183172408,0.0946131730946943,0.00314415045876161,0.0309047397981586,-0.00385973905645644,-0.00768802504249946,0.0376045291014547,0.0231188394497332,0.062546190839206,0.0534606384162132,0.0427434230028155,-0.0349573079923059,-0.101896128043507,0.0218695880166943,0.000236009402681375,0.00482607389480561,0.0455130730880329,0.00569293195722281,-0.00231183671896239,-0.025136119265471,0.0103622157158036,0.0575033188321169,-0.0008095631477101,0.0865793716022148,-0.00118374594903013,-0.095792605134685,-0.0241602195853041,-0.0572105252156667,-0.0142732725447111,-0.00610589140283394,0.0112412808388198,-0.00355549759132935,-0.0318569934439146,-0.0338616363326952,-0.0275366479609201,0.00970335071250624,-0.0524574119844066,-0.0925704616659445,-0.0522426708318945,-0.0840976464029014,-0.127690973285669,-0.0619510270855469,-0.0744255348839408,0.0215439932745149,-0.0125005988450337,-0.0404937783386315,-0.135367861225259,-0.110895369346167,0.0453551891766861,-0.0473039782650197,-0.0400096527681812,0.0107729449525148,-0.0658165378469715,0.0303483295189544,-0.068482871137921,-0.0754467014959756,0.0549805621343815,0.00966190527911862,-0.0173577976952754,-0.115982213117895,0.0126980813184562,0.0396162807852291,-0.0240495975072258,-0.0321507104079673,0.00637313528806073,0.0569250914112209,0.00897942665122622,-0.0650724644083381,-0.111818730650232,-0.0512175604898189,-0.0124066253797968,0.0506751902596277,-0.0127059695028874,0.0383093367044035,0.0364652327489575,0.00755568243914738,0.043782050621137,-0.0368222605222564,-0.00293077689616332,0.0413118596235484,-0.000751920402351102,-0.079863118957605,0.0707984008396472,0.0649962004699063,0.0811631047471383,0.0178553932656456,0.0250819138136854,0.0952631135793366,0.0471207204426803,0.0127123716601487,0.0547844569574855,-0.00316558252875607,-0.13808861503545,-0.0406323183479802,-0.0245177921058091,0.0124799065021587,0.0268498535002922,0.0114389075774196,-0.0387260840675432,0.0222117101975605,0.083637572040178,0.0776739502102158,-0.114344698473772,-0.00981380543542682,0.0420913156956537,0.0840403552258886,-0.0442635653788958,0.0494511157507902,-0.100908059618738,0.0464718969576558,0.00979323722172911,-0.0160432248843642,-0.0337282745280737,-0.0152923499694943,-0.0108970108813623,-0.0122083115824362,-0.0419323489647773,-0.00561796360266715,0.123088794742631,-0.0288583787370945,0.105278234106194,-0.0334645013368957,-0.0136590228857561,0.0296798686904912,-0.00369177624349428,-6.54070623529034e-05,0.012676319591342,0.058991541846122,0.0452446395503879,0.0355974790986653,-0.0386359081495635,0.0226075150083971,0.0613630955722242,-0.0355507023277442,-0.0671457579572262,-0.0551990838447495,-0.00461871846033102,0.0545149742488122,0.011356289627833,-0.0760190311425713,0.0433129067368485,-0.0230637137779361,0.0155534077536823,0.0122667009923431,0.182050984367517,0.0261764507999158,-0.000459534957993728,0.00683724368926348,0.0166288628133103,0.0413110672976274,-0.0679493421852288,-0.0335208483174993,0.064933364727991,0.0639135847697262,-0.00671417895354422,0.130198155465958,0.0946546160654704,0.0691118188319471,0.0296666509378441,0.000470904781638658,0.00493695857746637,0.00675142466958073,0.057713402722619,-0.00926558518278615,-0.0171299386477956,0.0809594903616284,-0.00144351855921541,0.0508026270493528,0.114570703046555,0.0783475489445942,0.177929844432437,0.137417559669155,0.0248386714986102,-0.0121824456072184,0.00243220427318714,0.0545427304531249,0.0393789219287223,-0.00433920372843312,0.100859528175147,0.0564831792326414,0.163992701096876,0.0914089160293813,0.0807701162400337,0.251691487981838,0.201269993764794,0.118568916847766,0.00548470572452383,-0.0106333145728108,0.0269669512229568,-0.00680897210218168,-0.0166148052620721,0.0827366605044177,0.0754073888094919,0.00881668748544509,0.0404759922002397,0.0471124316627426,0.0975700405272833,0.11801544264188,0.0349747517178647,-0.00714024849235545,-0.000743872477481153,0.00809932162001903,0.0393217153780751,0.00600081630860883,-0.0261156981125322,0.127904176181579,0.00908627157738584,0.0472272188107661,0.201649545375514,-0.0342969515602479,0.0488660613817591,0.0308862254793251,-0.00801834925804529,0.00817226958690153,-0.0123569081432525,-0.0569025905960505,-0.00173873621076318,-0.0694544699110195,-0.120251739408961,-0.0931449290784191,-0.0250026274075707,-0.00648430746545408,-0.0908659076858068,0.0835872417442593,0.0478461720677572,0.0125261337770143,0.00786387443025784,-0.0183982624824736,-0.0454959932007497,-0.0186570349417553,-0.100784188456351,-0.104643481636881,-0.0929339500260432,-0.0702066080264179,-0.0958896117218975,-0.0619088754798203,0.076661846004743,0.0364753830417497,-0.00633113082389512,-0.0743299044992774,-0.0375546356848476,-0.090697332586668,0.0244096364266451,0.0290811737578059,-0.0109407758915288,-0.0682033944782192,-0.0211966148251012,-0.100016621719822,-0.0862868218379875,0.0199041859347168,0.0471153727741838,-0.0230030245198712,-0.0347493267865912,-0.0150902651324309,-0.0489981076127464,0.064368555551319,0.0119010367071765,-0.0424777384821442,0.00555588676140283,0.0233389113002581,-0.0308178991397539,-0.107271105792998,-0.0175387752094503,0.0272212514745023,-0.0168208058428793,-0.0352383667551705,-0.0826281407724877,-0.095011674306793,0.0118923553870096,-0.0380954612428087,-0.0412734531280892,-0.170643959540017,-0.140441845022196,-0.165789180436096,-0.0326573133843265,-0.0769577336142728,0.0116781417858919,0.0145870746691414,-0.0704494282351612,-0.0603961011245651,-0.0675703175245251,0.0649429266392604,0.0970344432411957,-0.000254860625103052,-0.112965255568956,-0.191115792283082,-0.218676337764622,-0.0440688001554399,-0.0368246635121224,0.0155022386129204,0.0245113228085406,0.0150289655654535,-0.00804104726439761,-0.0853985469183507,0.0215999275593018,0.0253783628357178,-0.018204950344229,0.0254054555160107,-0.0886180545194281,-0.130060467537737,-0.0230427631429693,-0.0426617481580619,0.0177478363458771,-0.0105568911860111,0.0331080908685842,0.0161087416694048,-0.0109074594818062,0.0217945513988772,-0.0117331415937843,-0.00656036696905108,-0.0452463813885271,-0.0506890286421127,-0.040602841322624,0.0135620103333323,-0.016205050668527,0.0104541025348793,-0.00217090042432078,0.012576525108036,-0.0302478605560692,0.00695971838653238,-0.00755847426335014,0.038241623415297,0.0264468291266807,0.0550953145669988,0.0479784029067984,0.0764759684244746,-0.0833351879666985,0.0197911068135399,-0.00455401848802884,0.00907142053797125,0.0282098260708599,0.0132058126108675,0.0137060238321921,0.0309562233547726,0.0301241704438715,0.0350656740091055,0.030289109475224,0.0934017644452278,0.0802809883236346,-0.0537855930790348,-0.022446460720256,-0.0300373687162647,0.00148423383142128,0.0458981818834659,-0.0496766230066737,0.0554302225067724,-0.0080365292994039,0.0764456012066356,0.00987498141234169,0.0619306661590056,-0.0279413641876632,0.0315224227172068,-0.0386613448384804,-0.0309395827235517,-0.0717072733146984,0.00247614182696644,0.00352317799879622,0.0213024919927298,0.000314360862342906,-0.0272005049627721,0.0345582328321354,-0.0502063048350007,0.0495583733654888,0.12172220363046,-0.01671252572112,-0.0712120328545334,-0.0300143454349793,-0.0755636197453844,0.0121193967621571,-0.0234761503664099,0.00476897194936273,-0.050372755422711,0.00676957659951741,-0.0582252327963335,-0.0408505850880959,0.0833954966891456,0.0150671731730981,-0.0597491652336712,-0.13749532719714,-0.00700985861623115,-0.0836309323013152,0.00326733159629874,-0.00574167959712322,-0.00489375038739716,-0.146746528013268,0.0506622786646748,-0.0192747926286402,0.00149425346405909,-0.052809129345323,-0.0369208372019869,-0.0756995495217138,-0.046055489356319,-0.0345199856908807,-0.15836140486313,0.0633865906291739,0.0818434923509176,-0.0640092712268047,-0.0915871916714286,-0.0369692806440348,0.0500568023242782,0.00871402477902203,0.0260067472272674,-0.000363617398774135,-0.0472681484355561,0.0558950152733609,0.00030090014754608,0.0304833567207576,-0.0410512755651968,0.0249188613858236,-0.0335788720983642,-0.0675504096479017,-0.0377703175226755,-0.0502310195362168,-0.0310903067318469,0.012439248797157,0.0259953869038757,0.0578435642230378,0.0300973790732332,0.0119420482180172,0.133228734608549,-0.0159382986408068,-0.0638774042028283,-0.00672242899964633,-0.110080294083167,0.0684365951049373,0.0525336578098119,0.00449543088760684,0.126250718181569,0.0340004300729888,0.0119601504060643,0.00807509369378979,-0.04468082739971,-0.0479707274580255,0.0219586437814808,0.00813600346796219,0.0241089777766819,-0.0313136772404108,0.0783320094924619,0.0161815884490048,0.078260307614037,-0.014096381833763,-0.0541006910881157,0.0416078770809324,0.0465716834606344,-0.0113487873728803,0.00927010349811783,-0.026806318590884,0.00832580493727906,0.0376596757138587,-0.00240001132520944,0.0041498263670348,0.00265896285125169,-0.115577695885499,0.06308107818598,0.00106181850417811,0.0350560311349231,0.0745453229779535,0.130415601695172,0.0716490204750847,-0.0274714692642479,-0.0209243543458928,-0.0519096463552736,-0.065328052949098,-0.0588479351876854,-0.01884751241455,0.038340966508426,-0.00336386836695074,-0.0129566241912423,-0.00233576387787743,0.0732712466771703,0.0459342674513744,-0.0358468026641349,-0.0463625049795945,-0.0424332061714153,-0.0136787515579084,-0.0453099208024243,-0.118993171454623,-0.0293164570113244,-0.0129240448630235,0.0110395747654024,0.0181574765041269,0.100860563802205,0.00364886454019334,0.0362279494536288,-0.0309184069320264,
-0.00338939596126087,-0.00657947376918586,0.029152824471069,0.0704384801322372,0.0290021670918879,-0.0827645238292667,-0.00741523526317295,-0.00971629297017713,0.0188607816558971,0.00022314424468817,0.0198015582977182,0.0102002940905931,0.00867114788675665,-0.00408651749873355,0.0192124099874067,0.0256158675216815,-0.00333008527364763,-0.0457415989632801,0.00699251856786702,0.0463672906590763,0.0452823223117694,0.00380436123002963,-0.0532363110107644,0.0258181915203941,-8.24707281753646e-05,0.00106070518174196,-0.0180028325342447,0.0036326547767859,-0.00873525997889809,0.0330813107654871,0.0189731620521389,0.0349736980890551,0.00900367045404958,0.00464319903856835,-0.00232432753978882,0.0184001224139651,0.0315412408037827,-0.0432088315357947,-0.00487555589262401,-0.0055142757546392,0.00946714604100093,-0.0221905031869508,-0.0251585874267921,0.00129723212961375,0.00512957303645869,0.00378481654041128,-0.0296804283476048,0.021317651779923,0.00323572638337785,0.000909588733803876,-0.0590229828615652,-0.0186954164546946,0.0139599150795927,0.0114091633910381,-0.0257142472590734,-0.00751316381886226,0.00939508546822693,0.0170348714559802,-0.00222979418300878,0.00113710147885788,0.00288456683664207,0.013556165924762,0.00231587778770551,-0.0369082410215978,0.00903602468295663,0.00496509884717076,0.0339896315919289,-0.00755158099490718,0.0336915512509557,0.0200091172446944,0.0108646046174519,0.0154828503542455,0.0264213028889399,-0.00656803927048518,-0.0208776469182671,-0.00113900040246679,-0.0372248071112698,-0.000340422666579324,0.00516372931456003,-0.00205759931984865,-0.0259534696715275,0.04647058196858,-0.0162809531628652,-0.014487452360789,0.0178129492857213,0.0207655940758057,-0.000407921454660943,-0.0631075697395065,0.0208753326275331,-0.00189618086414287,0.00264502893372437,0.00971840562431849,0.0174156187207359,-0.0181772431603736,-4.31251490370287e-05,-0.00618528559666164,-0.00543130043791521,-0.00835594958193221,0.0396315542786342,-0.011103402634583,-0.0406621600877887,-0.0164660412301202,0.0177160740917546,-0.0215081018912247,-0.00410485915844841,-0.00475979593837603,-0.0256211785932136,-0.00139590478295965,0.0269792812466213,0.00957710641529485,0.00391197416777504,-0.00384910432985458,0.00418567097181792,0.0135324750127504,0.0270268420717508,0.0116473994306925,-0.0121468356718065,-0.000206509434309684,0.0280632233296691,-0.0218177430888365,0.0171662906219887,0.00194970419550387,0.00659391767373785,0.0112999768709558,0.00585612492549852,0.00307688324598513,0.00150060083925287,0.00683979983859374,-0.0378378883558947,-0.0302537202628883,0.00491276962466448,0.0278057883777539,-0.0213127214202493,0.0481656055681397,0.0163425255991431,-0.0122707390965926,-0.00637057003126853,-0.0140397441964107,-0.0267821341896077,0.0113852354899406,-0.00724961751951118,-0.0288115714584735,-0.0154536364561423,-0.00301388889744475,0.0114681398434621,-0.00276867439153593,0.0303028493922263,0.0211034919760333,0.0366472774768234,0.00181275043745711,0.0267036393162215,0.0176761745309048,0.0158840596414001,-0.0100601979544915,-0.0205159849995429,-0.00318124576783466,-0.0424835687090412,-0.0259935327960622,-0.0306269235822304,0.0113038398951359,0.0192062749310191,0.0237862220779724,0.0300418114937677,0.0018309568901851,0.0158439033647038,0.00532189987277582,-0.0321878918466694,-0.0352609369140976,-0.0112557511277466,-0.00970203207398741,-0.0326202440302468,-0.00983421057695844,0.0673891299225977,-0.03256132659832,-0.0279193380469721,0.0585738066194979,-0.0135214670607367,0.0193473914807805,-0.0428509892767025,0.0248962482185689,0.00118399249789781,-0.00381543120197382,-0.00477318775891654,0.0329355386652864,0.00755873491670849,0.0383411215599028,-0.00480758576601704,-0.0282100663607424,-0.0107706868155449,0.0280960663219172,-0.000539700280701417,-0.0267714506283116,-0.00549224395491994,-0.00811705650014554,-0.0121998463591454,-0.00809085993690244,0.0207762157543805,-0.0424812789619562,0.0143867562733507,0.0295641266544921,-0.0161120339054005,-0.00479518921954482,-0.00143218539074315,0.0153086904240815,0.00634567430752224,0.0121218644328033,-0.0219604225405544,-0.00211399020667828,0.0139883118768755,0.0266608726645466,-0.00623837075229623,0.00579276661223978,-0.00850649876679094,-0.0151236827614043,0.00550140389164858,-0.00467425765485827,-0.00431093198038197,0.0185071446971705,-0.0318414863850014,-0.0343173822197293,-0.00819394089971918,0.016313235351371,0.0217017500124392,-0.0172348553518169,0.00375367794512506,0.0166402463213923,-0.00192612175024557,-0.00350733470682631,0.0177579841394649,-0.0172859756006912,0.0150416432400502,-0.0451287397136301,-0.0252440677617395,-0.00704735859466121,0.0303767478553534,0.0113838781861789,-0.00945279504245184,-0.0342465379028693,0.0368204152078995,0.00138157216158787,0.00829350631922723,0.0318113405583386,-0.0133163859526731,-0.0347883050708561,-0.0411529619202665,-0.0171375111363582,0.0279383498347836,0.0182345450292965,0.00339071347497744,-0.0120465605186001,-0.042284664955282,0.00671996365874453,0.0223595533114855,0.00140123882245075,0.0209364556831644,0.0095840582572847,-0.0651450871299884,-0.0317855590736415,-0.0559292104547502,0.00770163285972623,0.040389889792201,0.0117260513158854,-0.0120836016448084,-0.0425064423137917,0.0381137914604139,-0.00268068353262097,-0.0477516198245385,0.0102412052133488,-0.0291397838944032,-0.0487230440703001,-0.0234314952079919,-0.0226581421234415,-0.00777227307970696,0.0059886554603244,0.00080349157392782,-0.00203054509456797,0.0115563714593062,-0.00561484830196123,-0.0346252280817539,-0.0340698156025272,-0.0123522741593718,-0.0375212218347386,-0.0207743200547194,-0.0206719225769699,-0.0180217347998979,-0.0156035825231874,0.0114255212486741,0.00112884529575925,-0.0608287906655572,0.0570036343260593,0.0203615097598509,-0.023457040381922,-0.0153962694936955,-0.0167695403923665,-0.00516650272875102,0.0282314413647724,-0.0269390151320886,-0.0400262196192509,-0.00192551478517581,0.00419606558538955,-0.0121223353468099,-0.056678801576835,0.0502565383823969,-0.00729543425959028,-0.0228376549874287,0.00511122336685152,0.0245199304304021,-0.00742094173714511,0.0443295040956477,-0.00933691912454408,-0.0118863828286148,-0.0189850943586717,-0.00391375788024963,-0.00773426004609045,-0.0785797242304661,0.033167304000183,-0.0201084738287219,-0.027037742773435,-0.0044960057005613,0.0143217107479539,0.00309377258109852,0.00986163755677714,-0.0182631081033932,-0.0170273587038358,-0.0194049522824894,0.00839247447667806,0.0441513298692011,-0.0189618442586127,0.018445968070312,-0.0120606406613238,-0.029452040234857,-0.0107078435719357,-0.0111973672717194,-0.0152339390163215,0.0233262713764609,0.00433983709493157,-0.00975021962553709,0.00207392979938488,-0.0149711392826308,0.0126174687120616,0.00155651017970215,0.0652340106467149,0.0279788225619469,-0.038336579660803,0.00447397973702203,-0.0260172832802067,0.00595202770571553,0.0159137830137379,0.00930228852406659,-0.0205254635391875,-0.00801509270862387,0.00819208319766053,0.0283997884716595,-0.000160426961968427,0.0287532075433765,0.0169314947336145,-0.0390157290413689,-0.0128865071557047,0.00705559063712544,0.00395197121655643,-0.0107532892336533,0.0339846656755307,-0.0319186174421596,-0.0150953224873081,-0.0201080693840646,0.0402001874503216,0.0172864281470964,0.0406436320735688,0.0249451907755966,0.00895488171971715,-0.0282121929633605,-0.0307461104722304,0.0195207556087741,0.00661346011664952,0.0143639704466793,2.53330373529368e-05,-0.0143031559845345,-0.0211040564802913,0.0497707458662973,0.0281203489891657,-0.0308156658199125,0.04566251939158,0.0249715406395676,-0.0228691757000657,-0.0339437578585394,0.00133674748119854,0.00719524027412635,0.0366952560135412,-0.0453155291703995,-0.00679016796697101,-0.0094762159264222,0.0292619817336138,0.0190966127770015,-0.0244746285364721,0.0217988783633293,-0.00689346919395049,-0.00645242881665514,-0.0045186580340666,-0.0202758036505256,0.0119912069800991,0.0372298506791427,-0.00117348801225951,-0.0239804419682179,-0.0107102385054984,0.0267398724761371,0.0126605410838487,-0.0232910812166471,0.00360952199483639,-0.0222551191927061,0.00235844685793187,0.0363480546004629,0.00364616360413996,0.0156461314516515,-0.00329404217899037,-0.00669426649476075,-0.0284004233243896,-0.00656134979516154,0.020429349186866,0.0178530555895281,0.00525912616957361,-0.0321220391519187,-0.00206415129949496,-0.0408281820172611,-0.00889596715717897,-0.0192109618504021,0.00411805527030589,-0.0153485039128728,-0.0194225497422448,-0.000991670213240514,-0.0109144667709255,0.00163524912607284,0.028472129873783,0.00950042166748762,0.0248245754555878,-0.0288037331031565,-0.00840062910375158,-0.0348175640079954,-0.0448870254865136,0.00187952145145286,-0.0076401268971928,-0.0185887684970227,-0.0388798491858004,-0.00131374686576548,0.0113231122627164,0.0163224659788739,-0.0381610184216178,0.0282350370671524,-0.00639581087252701,-0.0203349948395568,-0.00044849593958317,-0.0510968436966104,0.010369747170688,0.000549631435056472,-0.0156313997752238,-0.0216419593181905,-0.00163874635588507,0.00936402130512621,0.00401527581766553,-0.0254474449604407,0.0246957501104993,-0.0270767381807488,-0.00334108129172884,0.0115147439342285,-0.00540648819536423,0.0176565331336151,0.0124517076954876,-0.0485528386382142,-0.00792633984618604,-0.0112487501315224,0.032628795712707,0.0282270750611389,-0.0243618651242273,0.00783281536711868,-0.0278351889980415,0.000391875423502577,-0.0339648838819401,-0.038410192204881,-0.0105273827978129,0.00263253171214444,-0.0445957235409043,-0.0262928667365077,0.00905633158110993,0.0297685092366761,0.00798570656510668,-0.0374517271344826,0.00979627164086077,-0.0364208937926078,0.00829913795567424,-0.0435589905246454,-0.0589954040096005,0.0188177668008168,-0.002259988173322,-0.032876635503809,0.00475951835281095,-0.0132148526644098,0.0353777196808031,0.0149410613760393,0.0148294652880215,-0.00935483257653143,-0.0229502923491733,-0.0188190050529695,-0.0261887012022895,-0.0218691922433139,0.0225468949245049,0.0204840344032855,-0.043913969043932,-0.00852178329898902,-0.00488196243099918,0.000672651509185039,-0.00266625160462859,0.000463238838567701,0.0157102616826967,0.0156180537064669,0.0154523801756179,0.00743914275307395,0.0141953186796221,0.0199201551363599,0.0157125065405129,-0.00872947859760724,0.00556378725843726,0.000302651567895884,0.00276548310842067,0.00325225312874864,0.00417858015311481,0.0105451810257009,-0.0108814232858841,-2.80409048258846e-06,0.00529546967839064,-0.00517922258153926,0.00217760675014722,0.0111814843214355,-0.00903215840749467,-0.0187435043643744,0.00988845240017273,0.00342722849111154,0.00731087894701472,-0.00845297865677183,0.0145326086174641,0.010852423961119,-0.0118044785321042,0.0172475164791959,0.017013735262559,0.0162972376286502,-0.00624299760817662,-0.0042596579786089,-0.0168738407932159,-0.0187511771572875,0.0544413526039167,0.00993604729034058,-0.0139392329960785,0.00855252398624468,-0.00299034696551278,-0.00599357885601222,0.0150752470435801,0.00884008110410426,0.00974054329393841,-0.0152092485806452,0.00385901025419378,-0.0145411119325245,-0.00830890642837929,0.0372874219298337,0.00921230976123393,0.00579233811643504,0.0122523607695018,-0.00779590209112749,0.000407464120969406,0.00831707564960332,0.00671248622335645,-0.00736920748511604,-0.0023608860357785,0.0171356170067152,0.00272546418651795,-0.00135440260529021,0.0261206711945422,-0.00824827869265729,0.00488262381632851,0.00150911607905533,0.00353752919319421,-0.00788357870702479,0.00745949328893307,0.00125833728100997,-0.0032686046123417,0.0127961091577233,-0.0150450235607576,-0.0261716367739093,-0.00384442520748133,0.0189735310178876,-0.00208170187789473,-0.000779907515617253,0.0266746171963843,-0.00254868406585726,0.00506837746474978,0.00049918430011354,-0.00192472098237417,-0.00989686411057257,-0.00743584338816784,-0.00625053355256542,-0.0147089105688557,-0.0130421048008435,0.00737034293874275,0.00181584579556735,-0.00809053226774138,0.00222510284680326,-0.0089287083751573,-0.000907352671985781,-0.00541593896597749,0.0117801963192333,0.00765105812216098,-0.00860678333010575,0.00268692792995866,-0.020049478725667,-0.0141663976431415,0.0170124510201081,-0.000258653130459839,-0.0055161687269175,0.00225335416609888,0.0141931625764042,-0.00189447516332433,0.000646431917279762,0.0151916899488985,0.00525119512439344,-0.00178796230160026,-0.00160296165857522,-0.00631518180342368,-0.00075737964710418,0.013056974988953,0.00424182255023635,0.00964340802378335,0.0151448343964775,0.0197746864621925,-0.0051314093526489,-0.000175933433500725,-0.00741562339572936,0.0219129145364114,-0.00359106575112988,0.0106311418000685,-0.0139242080491131,-0.0271299476798567,-0.0013552591251601,-0.01221640875223,-0.00570111131744733,-0.00434719332809572,0.00147928854039398,-0.0138430992539113,-0.000484244555959784,-0.0102984209252764,-0.00240430572557728,-0.0148108098283193,0.0136884134869583,-0.00857693372550556,-0.0176238647391561,0.000320492296366866,-0.014735235551078,0.0148501659092858,-0.0143881377721298,-0.00601668739327183,0.000250556039541169,-0.0140464394238323,0.0175274097092409,-0.00955747917251343,-0.0177559148372459,-0.00498220158059176,-0.00387976803654234,-0.0049121826277264,-0.0160488381184363,0.0123642208925247,0.014393782044195,-0.013168896883505,-0.00979616298577519,-0.00254719324282993,-0.00201537504437194,0.000990423438058177,0.0117863822502069,-0.00397876313367972,0.0145069093712348,0.00360925996208078,-0.00186566323340331,0.009477487842527,-1.1694819830475e-05,-0.0415487325093413,-0.0243764048037661,0.0222932061051456,0.0457267242171857,-0.0122556245283643,0.0259303970407838,0.0278160774640243,0.0350864963762328,0.0143912110813483,0.00598719450780551,0.00612865330270961,0.00653460294388351,0.058057696107501,-0.0230644544489184,0.0205778925197675,0.000645957612108788,-0.00446268456144361,-0.0721272841831116,-0.0300917571628793,0.0363648842368747,-0.0263951100810016,0.0164029689724916,-0.00125972057192755,0.00887331861508425,0.00203696148601234,0.0503084076409667,-0.00942584705739126,0.0103555823638402,0.0168952739329516,-0.0670589522000682,0.00831738766937988,0.0294709307874675,0.0103432794696026,-0.0606983708424055,0.0197158206485094,-0.0108292926826982,-0.00839878788269709,-0.00530546922598664,-0.00883909824596158,0.0368385449719487,0.0245581878803317,-0.0308327704513673,-0.038587563080933,0.0199071014714949,0.00461360224889961,-0.0204528969162526,-0.0329184078368497,0.013130197897337,0.0110368441131018,-0.00984819712038533,0.00377390142033,0.0499707071123612,0.01498529291551,0.0170288285652494,-0.00192174978624325,0.00410309632130097,0.0010882674434082,0.000643851308424447,-0.0268902583764116,-0.052059086728321,0.0250744379835507,0.00966118627409985,-0.00614214741707894,0.00338319996634797,0.0110679999744254,-0.000759458049239398,0.039864984927052,0.0330005875755537,-0.0106421172880736,-0.00942627953197285,-0.0071677053453344,-0.00533178196568788,-0.0320630555188332,0.0039088417766807,-0.0184237459329916,-0.0110794455965899,-0.0115078395141756,-0.0218391366928754,-0.0224636243181446,0.0228056808042872,0.0479143823617418,-0.00403700820215044,-0.0441639106333782,-0.030113140499274,0.0188224735205124,-0.0261718963649922,0.0155968338622242,0.0144213073761232,-0.0158037619820956,0.000505925074522581,-0.0502940571564322,0.00389790455779852,-0.0117643750643515,0.0529219478365435,-0.00101743363994626,-0.0341021618382438,-0.00343540417504982,0.0258533308270118,0.00275535947762577,-0.00730084047076547,0.0028202896306549,-0.0187418215998302,-0.00788433512593183,-0.0249461623029836,0.0175384249992846,0.0108385700819539,0.0251363558746042,0.00309035036362123,-0.0268642131244142,0.00234933601825315,-0.0195498346586476,-0.0119316260688539,-8.79998328099979e-05,0.0101723072976383,-0.00755439889679487,-0.0083164789910969,0.0212940022617313,0.00279954266687195,0.0262354292760849,0.0261162920675575,-0.00582193438037833,-0.0289164171541183,0.0413466231163734,0.0202210584150441,-0.00575087116039296,-0.00457281374864544,0.00287776243725062,-0.00936266640771874,-0.0215011944407192,0.010178119170763,0.0107555793334652,-0.00821131642076433,-0.000943407430461979,0.0193233685212099,-0.0562091236610267,-0.0106651394887519,-0.0202520779298202,-0.0312783261452268,0.01462867421635,0.00982123041173718,0.000188402126031382,-0.0193471145478437,-0.0303028348730608,0.0225025483315009,0.00320973841188374,-0.0115061035001649,-0.028187901282786,-0.0257476861560705,-0.0142398103307806,-0.0474934851615811,-0.0280578578316528,-0.00340557019288736,0.0122080268873908,0.0137401346473857,-0.00970559113351666,0.0166235709245551,0.0193209693072165,-0.00878433450231963,-0.0429442165003624,-0.01761336228801,-0.0076919714471941,-0.0153360565189062,-0.0042009760213504,-0.036306714841437,0.00607025219836881,0.0013544366545378,0.00113077469238605,-0.00705336826225095,-0.000413022486737498,-0.00423818552173282,0.0227210635574047,0.0279489902306086,0.0577928701372176,0.0653776276391344,0.0223968089194288,-0.00301840419094342,-0.0295283026415559,-0.00760044563489067,0.030861552709399,0.00238522238228804,0.00716607723552732,-0.0359942665924973,0.0207031226504875,0.0250301061682467,-0.0424181150494322,-0.0508637199274354,-0.0230435007176159,-0.0185999050875041,0.0241532145208117,0.0363744521891104,-0.015954997670366,0.0137971372735564,-0.00434058334326266,-0.00424589492690969,-0.00913754752461873,-0.0158162334150433,0.0366786755929506,0.019812893554221,-0.0128960124586119,0.0171504735751842,0.0263401234914318,0.0226216873316636,-0.0184395414399166,-0.010276152789317,-0.00460316915800618,0.00678448762181531,-0.022674196506619,-0.0024153947452648,-3.92037921726736e-06,0.0113102333656226,0.0220974542951185,-0.00867494411100139,0.0180069499495915,0.026956748664506,0.00983820410135117,-0.0104127656043651,-0.0385739722563094,0.000773466605845238,0.00840871534753647,-0.000351489771660376,-0.00560462990969277,0.0116057080494727,0.0204753749740821,-0.0138181355882959,-0.0039438759742921,0.02769256182289,0.00271448828840632,0.00177761929301769,-0.0097854858508683,-0.0142230453713858,0.00633190022056383,-0.00100604192717216,0.00236012826933629,-0.0168594410702393,-0.00652643383650591,0.0102509717938933,-0.0225033493575697,0.0235507235771572,0.0404099129626036,-0.00876502859746365,0.00217435256505892,0.00532024461463157,0.0230298277052206,0.0380631671032213,-0.0140347851709048,-0.0104208588911168,0.0230347308165148,-0.0182129847298334,0.0191100655074266,0.0221255858847975,0.0143250269441571,0.0217252461284967,0.0120946673642938,0.0328033987058272,0.0191880422125647,-0.00827171991134973,0.0120726921858021,-0.00298908024514724,-0.0103903631084682,0.0205213099802074,0.00395345618164561,0.042864460287153,-0.00193283070082715,0.0242692991795066,-0.0149623540039691,0.0183473325803994,0.0236661141534609,0.00252864424894965,-0.0120015224290123,0.0311205828464747,0.00109425827920244,-0.00964309552944645,-0.0117223870709365,0.00336775564249811,0.0111251864846374,-0.0105166940282394,-0.0124769905302307,-0.0165751262646453,-0.00825267846872433,0.0251383366554903,-0.0133475413780666,-0.0202846268555433,0.010936208579665,-0.00528499139751098,-0.00777507941186991,-0.0211021071106586,0.020953887789449,0.0405565479396253,0.028150710982116,0.0222473541246162,0.052313406126929,0.0219755145395945,0.0392299135258568,0.0155979936079411,-0.0100647538176671,0.0301823131651498,-0.0156147109620189,-0.0135486958480717,0.0124351837711617,-0.00816525465318714,0.0472582382629716,0.0199942790790357,0.0276452372630432,0.0456772144367655,0.0171083376595915,0.0528650959680433,0.00163802286580967,0.00140488894647439,0.0124306983869677,-0.00628327922389098,-0.0107633091039747,-0.0229591777074274,-0.0257237870082473,0.0202528672063469,0.00772283465726001,0.0249889466329255,0.0325379763091399,0.0102824257271553,0.0184812729048148,-0.0281465200899519,-0.0264868599719015,0.0269330155604263,-0.0310731496360665,0.0132937121622886,0.0413160066307842,-0.00778300463077872,0.028969658580429,0.0116378026142701,-0.00656430096017157,0.00479970023522112,-0.0333550227079847,-0.0133969361570886,7.18728875040393e-05,0.0116908656735008,0.0190870009469072,-0.0091903059992208,0.0187973959623746,0.0302793185341372,-0.0163870644664801,-0.0554068657208458,0.0348607093185966,0.00281847154310681,0.0181273284047113,-0.0117293604889221,-0.0866875710139864,-0.00748614530584041,0.00992531678478458,0.00477377422715402,-0.00330795782151161,-0.00816251758414444,-0.0409330783158794,3.34691571173275e-05,-0.00370757727429133,0.0087460375173762,0.0254223114486805,0.018055515176801,0.00983870231921312,-0.0064943729645883,0.0120335160149691,-0.0289486446693413,0.0135078257974162,-0.00517578741103317,-0.00908916452205254,-0.026207729931279,0.0154971243290804,-0.00369361105139026,0.010023061629447,0.0215696204631013,0.00181123024197657,0.0100006226871881,-0.0120231437756931,0.0356485333486517,-0.0562919430405885,0.000830856090019787,0.00638421957717649,0.0108773302219686,-0.0129666420769741,0.0159891412021078,-0.00287964283599254,0.0194379617822274,0.0144578095783355,0.00100277350012383,0.0254209562584583,-3.53599050690049e-05,0.00690380589151244,-0.0581448130493951,-0.00734968544377539,0.000717001452635498,-0.00183645066691879,-0.0322861988215511,0.0150287713907234,0.0106457137138588,0.0100895923550969,0.0330702136811225,0.00882710136236015,0.0127359375258346,0.0099612223184113,0.00927920353035914,-0.0336249238885683,-0.0104679584947634,0.000797386674181752,0.000538630812237602,-0.0297688624773661,0.00883105161201274,0.00818823263070212,0.0263099908057006,0.0212426181528461,0.0168158070911467,0.0169635690624429,-0.00778415510737541,0.0120553070363786,-0.0117738950268953,-0.00481263745822108,-0.000385107052151893,-0.00951579043106967,-0.0184871368459257,0.00987704843683584,-0.0109492783534538,0.0279724212324961,0.0245956554042796,0.0293729012349994,0.0100871828375139,0.00996310138496856,0.0285783121599422,-0.00538748167082689,-0.0290138245167434,-0.00993250850263116,-0.000597788202074608,-0.0286658348700209,0.0258839615113719,0.00213817657141493,0.0153834449162561,0.0214502764496725,0.0116703522813293,0.0246355618666344,0.00551175905954278,0.0127508792439286,-0.00839147925401542,-0.0327031333306509,-0.010768992013954,0.00271817641276513,-0.0348020633626994,0.0107068706441119,-0.000153456753854825,0.0145593841865306,-0.000894165017217976,-0.00246727761943659,0.007258177592168,0.0144891416526528,0.00163489979439591,0.000335913381061066,-0.0263789685668001,-0.0075694240192871,-0.0143802468550963,-0.0333533708924939,0.0235310887417399,-0.00661718897444604,-0.00120307545297803,0.00523265121674126,0.0214573441352745,0.0211959908712656,0.00557687525413619,0.00511473479044501,-0.0111975530255938,3.32057143668173e-05,-0.0138747978503205,-0.00638471367103095,-0.0377831447345852,0.0112907894058788,0.0313891316144177,0.0444207288091065,0.0296901985442986,0.0381220227323178,0.0386357156890543,0.0173421283983419,-0.000748946135855738,-0.0245571013761224,0.00456015389341842,-0.00982396054339991,-0.011440625847731,-0.00939493895728302,0.0245547532639939,0.022289100305461,0.0328656397804693,0.0183831644173966,0.069810744747033,0.0513481042960549,0.0352050884940685,-0.0214884826675484,-0.0300001080181272,-0.00613086410132209,0.022663109522592,-0.00376395266026361,-0.0532038575898119,-0.0580112662058204,0.00853201702111117,0.0133140169343015,0.041626219448231,0.0476288091076373,0.0196417254408405,0.016141505003557,-0.0175192977442598,-0.00477193110126564,-0.00790920716715371,0.00894180327813429,0.0122499970729861,-0.011743914890701,-0.0257312147700353,0.0199298872610791,0.0372487083334616,0.0544696507119984,0.00905039026586313,-0.0130402649797813,0.0384610555663216,-0.0164040172966108,-0.000464660739370003,0.000625940811059045,-0.0106568149833362,-0.00489105761624762,0.0232119772276603,0.000110521213604202,0.0171032624111579,0.000959384793755145,-0.00753702025486978,-0.0167020787818933,-0.00961593654934864,0.0463523007637603,0.00240678935989887,-0.00229319716955602,-0.006304568779441,-0.0089825655285903,-0.00300437371201212,0.00984668797492333,0.00935957581621822,0.00297572740295176,-0.00829949417031653,0.0035958581075278,0.00353982218879848,0.0302373533253162,0.0111281995090145,-0.00616930887741577,0.00552843991135158,-0.00767917006020296,0.00505428980315043,-0.00270098116372064,0.00720125996223543,0.0270229926885728,0.00489939118637727,0.00996388566143255,-0.00166856090753914,0.0230593493730704,-0.00670326410217126,0.00538709869541506,-0.0197127513294811,0.0120710632286631,-0.0131539800548114,0.00671058185661968,0.0106582588998819,0.0516371089035148,0.0218404430203668,0.0147461764390765,0.0204883919797904,0.0324623391589077,0.0270900309984442,-0.0142299045914678,0.00168381866933588,0.000501431956032853,0.0203328642853777,0.00292070685866304,-0.0185281244321062,-0.00774596626396333,0.0306492725347331,-0.00371623690381563,0.00196443476452417,0.0139696621159507,0.0142560463945342,0.0119194100612174,-0.00577573177183318,0.0257459918589395,0.0315784778417228,0.010432223632304,0.0026005059504575,-0.0229699117215294,-0.00992808787434865,0.00431266140840452,-0.0142781382033326,0.0216877957503067,0.018973794721412,0.0139694113325065,-0.00788051894023614,-0.00157147906873528,0.00692484624604467,0.0171815050962522,-0.010575916576592,-0.0134360321525625,-0.00517701334489037,0.00500396842630677,-0.0163082838081019,-0.00333413932022475,0.0194868399254794,0.0210383194906309,0.0165878841971322,0.00458127298238844,0.0173877856999577,0.0288028266731597,-0.0061119955654349,0.00224872525776282,-0.0133000617618556,-0.00371409015684529,0.00468617996132058,-0.0108577961512619,0.0203452214820726,0.0281063142036427,-0.00332578686760679,0.00803783750436465,-0.0149315478312019,0.0212073232341564,0.00809939655441623,0.00175067152020407,-0.00766558448779746,-0.000797053054943419,-0.00260169945204367,-0.00807673229546616,0.0101439376164014,-0.0018117117845996,0.0175784974126052,0.0227889799417475,-0.00219614824894754,0.00912121733648085,0.0272001066127772,0.0195848853869265,-0.00812217015152247,-0.00413356316014131,-0.0138538261851427,0.00631717680370501,0.00982234147575687,0.00592323495387582,-0.015839366206369,0.012911206538972,0.0253230808301249,0.00258967292923454,0.0131405660719496,0.0115585471328807,-0.00258405888621305,-0.00949838662638904,0.00970454022005241,-0.00500276172181514,0.00235271228750964,-0.0170819393611056,-0.0186991304759159,-0.0059094574495414,-0.00658708513444241,0.00301019447793994,0.00225175332832499,0.00909019110967691,-0.0080811867972802,-0.000520976869907128,-0.0237518254927527,-0.0197387376197534,0.00660003927972488,0.0296850030195333,0.0100230405580257,-0.00528364178091337,-0.00768627878579461,0.00179260000951308,-0.0202262357726716,-0.0172526533245032,-0.00873052727030345,-0.0327277198830611,-0.00475457309993646,-0.0110732827437262,-0.00536552311364488,-0.00741411168599781,
0.0262059895178213,0.0554766089297092,-0.0228251089123957,-0.0406798999893476,-0.00835611700069418,0.0184502362333314,0.0330940887510305,0.0214809315017918,-0.0900404330442414,-0.0694337914566632,0.0265176424525251,0.00285240840967965,0.017185558407314,0.0130212030906746,0.0374397352637416,0.0402241494299992,0.0262865255622687,0.0659581457357807,-0.0329792879595464,-0.0142021768628551,-0.0739561220826013,-0.068160226433044,0.0319485905202181,0.0313740699409784,0.0481166667456793,-0.0184300191592512,0.00212524076626401,0.0518114464968726,0.0363527679383038,-0.0477624917383276,0.0253694624608182,-0.0459059073597532,-0.0969997883040271,0.0185973415265633,-0.0013905601989681,0.00367066028912227,-0.0487963054116913,0.0114543155920703,0.0128173498202804,0.0444924739906637,0.0322135209709709,0.024945558564818,0.0506852924452067,-0.0559624127086603,-0.075560977256544,-0.0647111952747627,-0.0229848532506969,0.0313470241941924,0.00389144189828475,-0.00777507787101539,-0.0183435400548601,0.0195449172724576,0.0147726748269553,0.0220641114189783,0.00302749559982151,0.0385350932856991,-0.0890988998691351,-0.00473466459955747,0.0106072449609638,-0.009846243004169,-0.0563869252671755,-0.028895703970929,-0.069107986192735,-0.0830168677298438,0.0074682742146366,-0.0566342305275528,-0.0549915506301001,-0.0319615638206417,0.00539723239273244,-0.0860661165170479,-0.111463039666696,-0.0652699791991365,-0.00988000547562864,-0.0769524050426281,-0.0671569754343946,-0.090717190276053,-0.057241374566727,-0.00516398553728296,-0.0906515995341045,-0.0419132282138435,-0.0691291994842976,-0.0436373295817776,0.0475827193875801,-0.04886287946129,-0.0459209587507738,-0.0339315105534301,0.0122467003680392,-0.0540395138181488,-0.0248673258915958,-0.0396799749039917,-0.0629431698187795,-0.0103174167530356,-0.0272599870279593,0.0177834906049976,0.00305805636975293,0.0628741380066676,-0.0465780300500361,0.0641694067004692,0.0296598721977618,0.0652331205713181,0.070973252551013,0.0197597495858205,0.0115062953680228,-0.0208245957738493,0.050708558848281,-0.00341038547334988,0.0574587742466676,-0.0135072542880334,-0.00186991517295784,0.00061469483067796,0.0359807445139353,0.0477168799050291,-0.0576798642266546,0.0491212299637135,0.0026436989490392,-0.00608136424591777,-0.00881857407346115,0.0660015948741839,-0.0335890564515661,0.0260433482684226,-0.0246629719450112,0.0397936409908426,0.0323835035932387,-0.0432781463150606,-0.0375356053205446,-0.0459656453089871,0.0947466233716584,0.102124002997395,0.0542982580613359,-0.00338539206571792,0.00758625077672479,-0.058038254548948,0.00137560189197483,-0.0316373023937442,-0.0137928119477227,0.0521261365955124,-0.0209854167859314,0.116217072278869,0.0965120830544588,0.0650758813809562,0.0360090972596184,0.0838929206211684,0.00244542410238786,-0.0374274489031126,-0.0376489014599133,-0.0059791179591885,-0.0602448610365496,0.00955288783252029,0.0309080614713978,0.0788319889104978,0.0789860168876441,0.026004036272505,0.109528743065835,0.104167370147845,0.025310156384194,-0.011993092531537,0.0682847064282891,0.0414246869973701,0.0099158060209836,-0.0547291760300319,0.0889748154846662,0.0413054077407505,0.0299798527626552,0.0606803499880009,0.085660575797346,0.169946889929387,0.0855876303263644,-0.0370322894364712,0.014453474049548,0.00620640713677924,0.0779604234766971,0.0110639608460634,0.0347189538313997,0.0517337579761706,0.00818766150922801,0.0722643890617803,0.0627917461789009,-0.0674561837368893,0.0324561136950717,-0.111948475374033,-0.0437345293329254,-0.017057651815765,0.037499129352398,0.0518851818028538,-0.0509655484151712,-0.0405460500076979,0.0394125562426667,0.161955025082114,0.0338906610179886,0.00425764274904014,0.0454613554467359,0.000324241891035913,0.022556963585927,0.057765843416382,-0.0331858570583607,0.00219126317162601,0.0877002797815414,0.0706933380544402,-0.0334641138896352,-0.0967586617128555,0.0199642836727739,0.0454247494759617,-0.0950503823506675,-0.015190894310629,-0.052331808513801,0.0488097119099989,3.69108833939511e-05,0.0087960196869437,0.0241558943075138,0.0335714785278706,0.0155550301935082,-0.0357414252764353,0.0139756998831547,-0.0167439187387473,-0.086172041888397,-0.0679259800692679,0.00725907183418586,-0.0219385339455919,0.0221533394383477,-0.0243270449497865,0.0101092247575607,0.0266899464391139,-0.00374540600478023,0.027525564091871,-0.0423966996952979,0.0185620755875313,-0.0201849924055379,0.0552163716767487,0.0340512817949065,0.0684029196195644,-0.0965137767450304,-0.0106794097164394,-0.0210460798086432,0.0635649510643258,-0.0248242839774443,0.00491417480205543,-0.0295014204629332,-0.0602155960490504,-0.0666641876239336,-0.0393693359601851,0.0257986644673074,-0.0638318183250345,-0.0434794478683265,-0.0371802181060477,-0.0926215655610004,-0.0855681471243011,0.0195759499051849,0.00665398620178901,-0.0092749140638568,-0.0998469490553535,-0.00132610014367543,-0.0457137022661313,-0.045564445011758,-0.0410556310394748,-0.0990223121738304,-0.102755649989226,0.0595557171069631,-0.0162520426327623,-0.0470895566773398,0.0779474051393755,0.00516633172158004,0.0266956438124807,-0.139963441797415,-0.0198626823797834,-0.0228579389889235,-0.00434595783665888,0.0736382247601984,-0.0387550804197141,0.0184302615358916,-0.0265828913819939,-0.0363695884117704,0.0217610331392562,0.0689456887685781,0.0418027462692867,-0.0261697151435571,-0.0828009667928569,0.0311410316881653,0.0731513795255519,0.0653016195770745,0.095602500516682,-0.0430893459972134,-0.0532750760245662,0.0151090017794392,-0.0931963277218091,0.000982489851190064,0.0509362660771683,0.0155766991525857,-0.0595609086435742,-0.0870523085468651,0.0408319505261592,0.0300859427624676,0.0728421342685329,0.11702896072312,0.0573372592738667,-0.0139847391894236,-0.000930371422366534,-0.0693777294324452,0.000182016797896918,0.0544066810459413,0.0375752892044993,-0.0238422651104325,-0.0862145404461396,0.0256160518615247,0.100034552455975,0.0760565454538455,0.0987253944636577,-0.0260251877724183,-0.0125572582045261,0.0486697565611836,-0.0177453988888654,-0.028846286740528,0.0196376284707881,0.0133221748893612,-0.0339115018728392,-0.0411747852546895,0.0468458093742796,0.149358390833623,0.0481546046594887,0.0259194903061491,-0.0659879998202769,-0.00115682284227985,0.0758676162542131,0.0198703532473628,0.0248709051170681,0.00736369982483626,0.0314631076704935,-0.0890654559462187,-0.0846475174468882,0.0430494246761662,-0.0159287117652574,0.059163444878338,0.0639884993137824,-0.0953954050281117,0.00460274905418242,0.0837551905592688,-0.142493492303988,-0.00629928641452311,-0.00521514131653338,0.0234234906690408,0.0187659522465948,-0.00478509273061802,-0.124541447299507,-0.12869372323017,0.0982965999838504,0.0505055550516817,0.080008264826514,-0.0832569836261259,-0.0719285066581235,0.0364760959769106,-0.0020048871204637,-0.00925652425178428,0.032008584888586,-0.0325089752486959,0.0197553567231196,-0.0570854953627809,-0.0220837308493886,0.0460664674160129,0.188470550553079,0.00550328182468916,-0.0717371409421952,-0.0824435863248932,0.00721992575184184,-0.0138352899664918,0.0159899985495271,0.0193461329752444,0.0317540522150947,-0.0141512066467856,-0.0709883952494641,-0.102049445094131,0.0487806808044742,0.0368803947323279,0.0382430236425367,-0.0214526276326842,-0.10797308092106,0.0416497773712705,0.0165145295940228,-0.0119136893490424,0.0422118774172466,0.0402040330743045,0.00318920950718168,-0.0263967805584012,-0.0574679759100246,-0.00420289086438717,-0.0279056826194468,0.0266183736710964,0.0817316468041178,-0.0225603688254729,-0.0196997660348459,-0.0108047017890799,-0.00319632316394271,0.0627719502948605,0.00885385529480874,0.0304142326934452,0.0159316772315391,-0.064935496743912,-0.00325239761597611,0.00946824610685304,-0.0920746987597639,0.0164382127970445,0.0295931560465633,-0.101259294755696,-0.0232959029275214,0.0275256125010668,0.00614510354301958,-0.0236882175864465,0.0122351062648572,0.0484126025678008,-0.140466023541331,-0.0539995651001251,0.0174657458533853,-0.0861717030635296,0.0290876275122336,-0.0299235093050546,-0.040275715786853,-0.0276864982390062,0.0679716711454855,-0.0430292447325279,0.0398711033847389,-0.0200642147292994,0.0140494475681753,-0.00906616067833786,-0.0404168182308225,0.0364920008649088,-0.00153197229481579,0.0252683422463774,-0.0184982595859611,0.0103805259623413,0.00909600795297364,0.0580656105151786,-0.0314621959897629,-0.0179034710747937,-0.0447404869004767,0.0197029570631454,-0.0579983803208666,-0.024492356105343,-0.118315283906567,0.0788476541007669,0.101884208089576,0.0565715646976715,0.0478139196625138,-0.0932021199204613,0.094576066948976,-0.00891485262649848,-0.0650729516396634,-0.0500547802224254,0.0502055919700496,0.089906190119227,-0.00852194412253199,0.121373449371395,-0.064153251990143,0.0148676912220931,0.00865993733323161,-0.0136174430066686,-0.0535273293739769,0.0292379715580193,0.0484681174914201,-0.0512206001341967,-0.0655296284211299,0.0246252871505598,-0.0262072077386117,0.0158828980842825,0.136960889089073,-0.0909589623903872,0.00725605848617107,-0.0173486375627189,-0.00325725629406765,0.0201166398657133,0.0104624866964106,0.0281443047298691,-0.0535197577906143,-0.0712684497618349,-0.088371713478054,0.0315651984664611,0.0248582961269329,0.0442392981849773,0.089768052619167,0.0435683420485894,0.0266233106233835,-0.0403891916432413,0.0198804200370127,-0.00388882259316452,0.010883474450771,-0.0552862007319377,-0.0710075959068178,-0.0851865818720527,-0.0290876853705566,-0.000883206837953607,0.0415290803990261,0.0892744513596128,0.0360608289045806,0.0130416159597795,-0.0148530835698777,-0.0276637596293881,-0.0728810019127626,0.0418859231461753,0.00896309766693468,-0.0369362135956382,-0.0984185963409753,-0.0612019550350025,0.0232317808428081,0.0499949272443179,-0.0398495364348707,-0.0124645293105075,0.0165923212212148,0.0107294108985702,0.00736111049940673,-0.0393149067178836,0.0123965774405556,0.0152269482013528,0.0648743651986178,0.00395647950528353,0.0323259790285584,0.0267717804068998,0.0504660303375991,0.0670432244302022,0.033487405425161,-0.0507667556035164,-0.0715679542750332,-0.032848785216606,-0.00789897341978728,0.0501802401615047,0.0448032887173025,0.0726119040719616,-0.0232606761023729,0.0297841925289044,0.0474721013004943,0.0517014133825855,0.046408503220028,0.0585554824097459,0.0444711123296684,-0.0244004264039149,-0.0166235962565158,0.0429166893124384,0.0540021363910315,0.0381395693283589,0.0695768144980361,0.0170670697742079,0.0303757627950401,0.000676689773109682,-0.00560892964172006,0.0109326125944069,0.0709735838219044,0.0297346418360661,-0.0111522350332664,0.0183686597944253,0.0253853898022689,0.033702603618,-0.0275417828368959,0.0417357341668544,0.0413548960942021,0.103913343278896,0.0275782826807802,-0.0167938061366292,0.0358816228830509,0.0883177522475978,0.0515647338464564,0.0414677874877764,0.0888309244234302,0.0779343328214603,0.0589923811736313,0.0533740550613675,0.0313341874968653,0.0547968796225839,0.042687098177456,-0.0111415357756547,0.0211121064684568,0.0178039294462716,0.0479269141404351,0.0470100322053579,0.0407628343737592,0.0402435050037718,0.097790867750148,0.0584476366723112,0.0571815916706903,-0.0073110115667237,0.0347293967486132,0.0496323537133109,0.00252940684092084,0.0430100175429697,0.00184712205018665,0.0472683331467832,0.0310893459649689,0.0404889087304959,0.0925079276146987,0.112146543156367,-0.0302379313012925,-0.0367028864267383,-0.110353303170047,0.0169128586955573,-0.00176240401497042,0.00574143769007371,-0.0246516523575943,0.0167469056980537,0.0142028598407648,0.0577473976845339,0.0276047291454616,0.0255099184435656,0.0681577955469829,-0.0366089219538447,-0.0640451894861723,-0.0768351376701956,0.0108417686158121,-0.00151011892612235,0.000765901971866634,0.00147844581822178,0.00120023580030393,0.0138777148044026,0.0538971031914227,0.0125381799377075,0.0653146607855813,0.0549338059212997,0.00346812081477051,-0.0200409156297791,-0.0920263687469895,-0.00419833870829452,-0.0453575935589,-0.000493911446578278,-0.00685493301695557,0.0153836557873299,0.0090283352663817,-0.000421735326666842,0.0217749761150972,0.00590389005120665,-0.0104799276235207,0.0375227631873273,0.0208578332597802,-0.0782395994262421,-0.0297643565305851,-0.0281372426519997,0.00246331874045668,-0.00515809856156155,-0.0253715953102581,-0.0259320944406471,-0.0439391633704714,-0.014154235409357,0.0193358219296637,-0.0104475751690387,0.0279322170146141,0.00812987461752534,-0.0495834464000452,-0.0172077189703245,-0.0670725670074416,0.0156599989554718,-0.00584709854554435,-0.017805138693473,0.0151112559607205,-0.0346638161036579,-0.0234155570571069,-0.0155785428483412,-0.0388887740256158,0.00886981609905912,0.0149073587269778,-0.00685275412981684,-0.0327941362494441,-0.0376315857841567,-0.0240828719186285,-0.00445637780006435,0.00995454485055794,0.000149787677471689,-0.046539696759454,-0.0187739777710999,-0.0638335989931901,-0.0368730561252325,0.00740458009895004,0.041422683900909,0.0392468689401294,0.00631340388787756,-0.00318063731914759,-0.0146767081507377,0.0053509619135315,-0.0256327009295791,-0.0104976728820792,-0.060898918847741,0.0182597690201271,-0.0191289082855268,-0.0443104443740351,0.00117863616050885,0.0179867353578269,0.119957307055379,0.0226478441378114,-0.108510334629056,-0.0204590722884179,0.00696840815174648,0.0497449783357396,-0.0542127075137069,-0.0580072723114957,-0.175345737810429,-0.033901907004659,0.0334700087258399,0.0288126385260737,0.0693790842881839,-0.044969137428018,0.0680374269266878,-0.0388019914971114,-0.0192475400020547,0.0450333392687147,0.0588076803329061,-0.0687214568321759,-0.0310097437141177,-0.0587085833713707,-0.0825481617239502,0.0130696754977827,0.0496396361983966,0.0350811722767983,-0.00516299039210777,-0.102936479998957,-0.0297512556954736,-0.0610471459978084,-0.00444880097997503,-0.0267056372925917,0.0295673254006599,-0.0158113827334245,-0.00750488928493271,-0.0346606570664847,0.0206831573620161,0.0856341578188551,0.0451169058093694,0.0549023554776913,-0.0412010994616184,0.0276534850403898,0.00095803601781284,0.0602610038761656,-0.00801779636033872,0.0417565477691022,-0.010707134955488,-0.0116608840084723,-0.0273764424463281,0.0221119135302085,0.102762034891722,0.0733056163583654,0.005928192346053,0.106947707356577,0.00896273273639813,-0.0533990307243532,0.0451520124442643,-0.1524357968494,-0.0702541044923419,0.0463637722970444,-0.00076382286669737,-0.0801084413820378,0.066237692786814,0.131338912766397,0.0271838169324385,-0.0872292444705005,0.0654267236135479,-0.0117661699082162,0.0453104621534523,0.0772281320400749,-0.101297074788141,-0.162358603064738,-0.0987246689065268,-0.0439805873467232,-0.0468287187382652,0.0679246940007329,0.125309776265029,0.00982951673291055,0.0419113269947264,0.0184561647230702,-0.088772306086352,-0.075549324828537,0.0758569822719272,0.0155660716893259,-0.146509603667145,-0.076539744543266,-0.0837936590234379,-0.0655530491808633,-0.0443080230717732,0.123829686258063,0.0225846738817945,0.0824256636000028,-0.0515590121990843,-0.0630808157239981,-0.0844609173624678,0.0578517533547267,-0.0632849236747995,-0.0492781250567683,-0.061341030451666,-0.0613022954945655,-0.0358502015894693,-0.044440019792095,0.0822868376898936,0.0151690653075908,0.0101273211061586,-0.0738230967297821,-0.0742148327591858,-0.051948484946114,-0.0235934597938943,0.0095330682166686,0.00119066168765455,-0.0222478488017586,-0.000416787409581684,-0.115438149312998,-0.0446889237405881,0.140210715706549,0.0354602360476802,0.00634667852737872,0.000334801110803379,-0.0863164414263282,-0.0560824824722738,0.0982135704071181,0.00766631965758957,-0.00420598945862237,-0.00608246101301331,-0.0589750296824187,-0.0430605835937209,-0.0428708915211289,0.0916652196441062,0.0264706742009415,0.0938262602950554,-0.0124789147230485,-0.00988161979080962,-0.0577130699837477,-0.168853043893027,0.0451600295167996,-0.0373796021117346,-0.0684580773343783,-0.00445117471346819,0.0172108335048428,-0.0664670847990301,0.0209601728886873,-0.0287767570401525,-0.00657267532272598,0.0769330404235294,0.0475562366025289,0.0355602402474788,0.0992585745513867,0.0506270026051292,0.0205037460823759,0.0106774650451835,-0.0298202120342108,0.023401665507094,-0.0215621879006495,0.00158599777516827,-0.012162956204519,0.0971250938065134,0.08986677060225,0.0139122680443146,0.0758465477697117,0.123098020009829,0.000222829683587452,0.0829113956854882,-0.025432763142275,-0.0388711244879341,-0.0131357896591798,-0.0530579166882227,-0.00519851394257928,-0.0102711536449943,0.0438189732095673,-0.0208593578131767,-0.111954543453721,-0.022119179095868,-0.0571939488055932,0.0457007889633055,-0.0118425010287964,-0.0759854774386227,0.0319143886944126,-0.00609032129028138,0.0160588058063455,0.00986438512287451,0.0386359207106766,0.0212881276922832,0.0334756118014607,-0.0229650246948725,0.0180428986704708,-0.0455218943822452,0.0629359033252427,-0.0888473484180636,-0.00920526573891392,-0.0468818735328841,-0.0362482255069907,0.00644794167862164,0.0199680286583189,0.0285466716694996,0.0420720543404997,0.128525639919985,0.0355564948586927,-0.0572334138239224,-0.159132201556534,-0.0305554873041238,-0.0534923630408892,-0.00123980161996572,-0.00918824519905747,-0.0204376632992228,0.0380881998475395,0.0309016417039121,0.0334906217467532,0.0107650967582278,-0.0276523498052862,0.0459663630972175,-0.0398453265509684,-0.072106909610218,-0.0254823399654129,-0.0290296589915237,-0.0314584090068937,-0.0781410168979722,-0.0195799424689494,0.0118504678668868,0.0353999345423797,0.0652079057237305,0.0180382678391719,0.0155955895649419,-0.104208261191776,-0.0218552794850941,-0.100440754762798,-0.0690520397537935,0.00828510361799637,-0.0205601913319365,-0.0291946196720114,-0.0206485003341518,-0.0125148326930096,-0.00217796231567268,0.0251041106462218,0.0812282213647273,0.113314519426175,-0.0759722712309335,-0.0118007926067452,-0.0446010785067132,-0.0557121593772664,0.070463522173164,-0.00542872513261401,-0.00198273482060696,-0.0364010749196744,-0.0751640329685589,0.0126940509501307,-0.0257410492352203,-0.0326614964836692,0.0218186270666515,0.043256446361203,-0.0966544959280409,-0.0244024877311084,-0.0381465068552279,-0.0294059635286446,0.0761063203552056,0.00444763014290389,-0.000466784892537394,-0.0236343422749075,-0.00857196806891047,0.0656016360159561,-0.00247191998065177,0.0594368369087122,0.0196365678581974,0.000307669809452916,-0.105164828537193,-0.019191723251125,-0.00833711595967609,0.0806072808540052,0.104128864559146,0.0155534359173779,-0.0259708140022707,-0.0206643086096136,0.0172795807683804,0.00768672575848182,0.0286895127271414,0.0279564527852425,-0.0276864238927969,-0.146884838077943,-0.102601634875523,0.0392372347195152,0.0286128676137745,0.0695920925155706,0.0169037120058212,-0.0138329464270521,-0.0372389784681514,0.0486705186304697,-0.00062802910937632,0.011331103286579,-0.0202891642058287,-0.00858426024391773,-0.0237152313063307,-0.0448133743398718,0.0264891093471601,0.0325631012847383,0.0527269702980334,0.0143219262421825,0.00150214077199169,-0.00480717489121556,0.0116765684276887,-0.0901894985256603,-0.0261887306186585,0.072515534717804,0.0134323757316524,-0.0434729517440464,0.0246448105337495,0.00688786130274343,0.0352499459206313,0.0244819716433333,-0.00368542078409433,-0.00598067216701317,-0.022350210374558,-0.0211148523624951,0.00733887935505985,0.0272271962777235,-0.0196639357435468,0.0535631644690807,-0.00375056379817433,0.0938335872699426,0.0837223752727333,0.036372964673058,0.0414180389636883,0.000337751689528798,-0.0462981793085019,0.000370333446581016,-0.0223543809255246,-0.0619708436057159,0.00672163421723642,-0.0529300464918101,-0.0243558763114591,0.0830813117987813,0.0677996449211682,0.0693626699102283,0.0553548342401661,-0.0251690397597245,-0.0715556372700085,-0.0335574476999783,-0.00843587369407837,-0.0256919114299245,-0.0227705767837965,0.153947102511876,0.00582963794561088,-0.0718131387319663,-0.00816469284723394,-0.0287791292550826,-0.0581398201160333,0.158989161888306,0.00476506828890357,-0.0589512383171821,-0.0511053638605141,0.0025412083427688,-0.0388997278521558,-0.036671498594829,-0.00391155771072671,0.0337307343752622,0.023887291474993,-0.00388523273518783,0.0109376394384634,0.049662760205933,-0.0122060613634608,-0.0334363912723419,0.0107236348630757,-0.100872877300462,-0.00172649200671566,-0.0327445482991601,-0.0493358938815966,-0.080968797583207,-0.0700378170119742,-0.00611709203633479,0.0105966638444651,-0.0706527242121064,-0.03644401830446,-0.0179312957902091,-0.111586779987964,-0.0299868390140751,-0.058355529794662,0.00990235763537376,-0.028624639076774,-0.0276359724093807,-0.0998288154465228,-0.092593412827135,-0.0498672709630839,-0.0579952990813938,-0.0586752646619652,-0.106808654155679,-0.0666424748803917,-0.108579771984925,-0.0132383487173799,-0.0197381874051317,0.000758336853523471,-0.00970958461295413,-0.0086830342728009,-0.0452365765993357,-0.0529356353560698,-0.0518045488170982,-0.00987165336468886,-0.0845294977793927,-0.143717090729962,-0.0506093922348783,-0.0879162883758034,-0.113693617381844,-0.0533706015514243,0.0135206435640338,0.0121630389380949,0.0247792259515122,0.0358509209030722,-0.104625837071823,-0.0523705230061953,-0.0566561269176712,-0.0856146074781775,-0.0810561351293102,-0.0466926471506099,-0.0772388780351339,-0.138796829942054,-0.0522485975407475,0.00782015535226972,0.0110086075866506,0.0294467942292435,0.0540024191599962,-0.0615889493781025,-0.0680142986524723,-0.0384988498007807,-0.0777166304455599,-0.0342686527875768,-0.0450033151534118,-0.0131424827858423,-0.10154208833987,-0.0267926720097753,0.00513721548256358,-0.0313365878058991,-0.0572586180108091,0.0208825810091616,-0.0158419879027959,-0.0511971427528059,0.0126639770925907,-0.00981113856790316,-0.0116738928595221,-0.0347565676436193,0.0210277073756629,-0.0909827945136094,-0.0811177943037672,-0.00926904338095494,-0.00317533721706539,0.030208808911039,0.0119153877909915,0.0274140709704672,0.036066358197036,-0.0139797674844151,0.0248660875908951,0.0117414020913679,0.0359440916455602,-0.00546865442662571,-0.017226766700309,-0.0170242332474009,-0.0017928184721675,0.0229876127405153,-0.0215355687965243,-0.00926100450606007,0.103371417258523,0.0472249174143051,0.0277215348030741,0.00579417664830485,0.0409946788322513,0.0615181561916025,0.033014158098186,0.0471551615248578,-0.0384887137894862,0.00698386057244248,0.0296457074137386,-0.0954141789590661,-0.0420098040703532,0.0523404076362428,0.0975596590484546,0.0612069159597884,0.0285572410792135,0.0146222243945544,0.0783983300076462,-0.00695508543334572,0.0638738360016689,-0.0333914113215621,0.0118465712704374,0.0246241281205529,-0.0645463313581478,-0.0624431275955212,0.0680208035879537,0.17674940672554,0.0590455336058911,0.0516020478762602,0.087268390525106,0.111243591287364,0.042279469365515,-0.0175890841957854,-0.0252093410439765,0.00353259607081086,0.0364462152060612,-0.000535039389231068,0.09278012112285,0.024910818054219,0.144766215129287,0.0548466744812067,0.0468010355443561,0.0877170468102058,0.132619494536923,0.0190437360918933,-0.0771159633479012,0.000141502862052284,0.000558166615237132,-0.0169874363330557,0.0212566854707161,0.00602426253699057,-0.0290898953783194,0.0274221819619923,0.00400167696397927,-0.105900518428966,0.00184421712743847,-0.039460101456833,0.0207960587839169,0.0495707920766214,0.0112739032858874,0.0254985272941526,0.00258071080703924,0.00899313398704643,0.0167584604570028,0.0657455777297122,0.0135374432845279,0.0832559834939573,-0.0344014746901974,0.0577471652331356,0.022913530249651,-0.033808054448069,0.00699898782596696,-0.00166157657768449,0.037770975147296,0.028666184823659,0.082805098555953,0.0366241246381045,0.0545477879370563,-0.0224793963243662,0.00684119490340216,0.097377132109322,0.0556015086013723,0.0301020029877072,-0.0587684531399187,0.00763487585706439,0.00442903820037005,0.0555029345107243,0.0277007515694383,0.0180457286419054,-0.0642462236411269,0.000800988880722344,-0.00478525893096676,-0.0160185999544284,0.0392198962086779,0.0696555166603679,-0.0321903442089489,-0.0330765759566845,0.0298735540326476,0.0300353013559524,0.105108957640856,0.0184171101417421,-0.00290536115786221,-0.0192182980319997,-0.0478815851486871,-0.0362219168687568,-0.00450205359518257,0.0412848149754615,0.0310933150948995,-0.00847735670919602,-0.0108304803929189,0.0146205824701068,0.011642466998505,0.107903851856999,0.0615221268442593,0.0266866223687389,-0.0240070577399393,0.0452675888506291,-0.06624353145938,-0.0238385016995219,-0.019301873251966,-0.0347042991793002,-0.0400169534898182,-0.01657761905303,-0.0456280508706045,-0.0166618816860541,0.0585321355844497,0.0293960950002279,0.020505343641044,-0.0317518448253101,-0.0466993251948224,-0.0360701534326529,0.00423581703438575,0.0546061681089189,-0.0282821049543929,-0.0372507559382393,-0.0228602447135676,0.000791872323655225,0.0017496313160602,0.0580288070573948,-0.00337488671823087,-0.0660982597762562,-0.0474462034953094,-0.0763308652724355,-0.0292289991164595,0.0076516281490215,-0.0208873182190055,0.0221768803310063,-0.0324307920540454,0.0404835858962378,0.00674544547953792,0.0568065636187399,-0.0167885046121105,-0.013617425164883,-0.0202056902267244,-0.0146246781264691,-0.0398042329698269,-0.0376434414838239,-0.0666499316159537,-0.00409268793356372,0.0754173792900469,0.0302205885512038,0.0549735759055443,0.00803520941788018,0.00824730373901048,0.0621174747415215,0.013255974607951,0.00374549582671133,-0.031419363845069,-0.00256930466915602,0.0100804364582706,0.0391846389429413,0.0220537777583191,-0.0459621120581968,0.0140703105697225,0.0573675760500796,0.0558970071289546,0.0224823930746651,0.00515930729586133,-0.0658319684636012,-0.033936161400002,-0.0199092499788377,-0.00197375391635856,-0.0482813387632751,0.0153773308588769,-0.0173702851058843,0.0135300493531969,0.0924789200380663,0.0774196485168631,0.0179043647716615,-0.017865073320479,-0.00323494841532324,-0.0119021116409665,-0.0197210972095819,0.0425772446529119,-0.0101228634398935,0.0104348272941999,0.0115197461698868,0.0495041246006264,0.00939058450448525,0.00958241484062082,0.039623885876223,-0.011744836083823,-0.0295077971772272,-0.0481040078786311,0.0194891007067191,0.0633519653716542,0.0349976045281531,-0.020476499095466,0.0298383416754485,0.046262979677172,0.0173635476775179,0.0590294826519388,-0.0132967529515433,0.0170253297186731,0.0189910817445375,-0.0576216031936893,
0.0144267003175686,-0.0173747717581809,-0.0279360904418424,-0.0190305006181605,-0.0948329026395867,-0.0854074785556038,0.0885224723455989,0.108836150105365,-0.061673700686284,-0.175042736514564,-0.077697572995855,0.0144196136110964,0.00124501122876822,0.0307074965100338,-0.0205492471725426,0.0652191432280056,0.0642439326484422,0.0241858262738168,0.0870583816297647,0.0316015595433392,0.0390460272841517,0.056325506154832,-0.0473260722685911,0.0237002080979279,0.043069176745469,0.00967652195603384,0.0165838881509914,-0.00176440469908062,-0.00391317912495969,0.0624065291618454,0.0232152151846789,-0.0119034062570866,-0.082132298791703,0.112916339612386,-0.0551456475404793,-0.00281492260406797,0.0374136375103121,-0.00490336989897804,0.0190703473056154,-0.0192245807977171,-0.0429883887853785,0.0275938817515902,0.00675893836886715,-0.00425325452861503,-0.015356341789989,-0.0390901922774697,-0.0149740545937697,-0.0407647109793546,0.0147970880687982,0.0479411226340269,0.0150428180552544,-0.0100897187732921,0.00711914102219246,0.0442673766823492,0.076041249587036,-0.066223979302281,0.0311841889747267,-0.0112749474721501,0.0831914279664582,0.123557745176104,0.114670895079493,0.114255321344392,0.00915975402822003,0.03000560148498,0.0022159529904239,-0.0125704776365895,-0.0167652719965406,0.0146795280386926,-0.0524459050050931,0.120718200113283,0.0775933819696177,0.0611553382059846,0.0669504947992597,0.0365553413350694,0.143936970474392,0.0272250239167666,0.0480343788323474,-0.0293971392140793,-0.0253670077121591,-0.090392708968774,0.0318397129305753,-0.00713643384369058,0.0362193765022222,0.0209670707869294,0.0342509148350573,0.0350274668333353,-0.00401155039954931,-0.00428851442710868,-0.0915638098331128,0.00752108587363659,-2.5503171245677e-05,-0.00154259803130771,-0.0622692380941175,0.0744823418509116,0.0305997816552815,0.00625320120634321,0.0500272761366609,-0.0411038263385909,0.0490917060810911,-0.0452351223580782,-0.0303503289927154,0.0186586637060971,-0.00413808521598502,0.0162712818655165,-0.0373989713274795,-0.0414513603455568,0.0692010489435251,0.0461354688467773,-0.107978727373432,0.0507843994644484,-0.000503559522389929,0.0174104175746122,-0.055141711625365,0.00573503388313307,-0.0191611907249198,0.00752647604575574,0.00633803966695588,-0.0102155494992281,0.0113896877416812,0.0845124459281724,-0.00394865710205724,-0.0217490080180357,0.00547838153698024,0.00449649577409239,0.0248931621288458,-0.0105615412294979,-0.147777428088317,0.0396902867826902,0.0141484593373851,0.019306569965252,0.00816035114970421,0.0187426643387528,0.0927823803520959,0.0287574372888838,-0.0635994098792992,-0.0993782998093906,-0.0368850838647716,0.0270115379215188,-0.0768880919090751,-0.0852780845087035,0.0318188804782327,0.00460783500800433,0.0393002009269302,0.0214508518777378,-0.00419902685839265,0.0591500064380887,0.0609541713068147,-0.0946505347451839,-0.0336306424381002,-5.7190904019714e-06,0.017631841912593,-0.120291050003078,-0.0412269503499381,-0.00587012876469247,-0.0188803897544547,0.0416686149854091,-0.0028914431655223,-0.00747840495201474,0.0723118802339843,0.0200422213658322,-0.0467145656521319,0.0351833105582371,0.0154929929767545,-0.0563119657193987,-0.0680253606766178,0.000171966088058002,-0.108930812532731,0.0297245371883791,0.013664818173534,0.0233955469278346,-0.036296199443667,0.0161261591875442,0.0197173032330897,-0.11757997323597,-0.00183082987530905,0.0137208689066945,0.0271240209396874,-0.00363742775935288,0.076346151404208,-0.0442185708427447,-0.0146450414705117,0.00781058001971583,0.035805319759816,-0.0555236504721334,-0.00890280059660041,0.128684804871677,-0.019479241738148,-0.0657091567629961,-0.00582821321884409,-0.023641910037731,0.0204548355201605,0.0613447718311159,-0.0263990520515501,-0.0295882436150588,0.0106623692709271,0.0103521454089045,-0.0596238065812092,0.00279624971892937,0.0109759501014475,0.0852807210277,-0.0425291368354503,-0.0136415212804936,-0.0490865050482289,0.167450957000301,0.010913793427287,-0.0661263891918805,-0.0264439894174009,-0.00707989601182286,-0.0447348713273731,-0.124256316755111,-0.0046316486490558,0.192761613910344,0.0931694883731746,-0.0117755519982944,-0.0230255579660449,0.0314596439180542,0.235337976561168,0.0301030206203501,-0.0677578399401461,-0.0314601287920999,0.0177146471586931,0.0209740920538264,-0.0311938045858382,0.033413608148864,-0.0478672446660469,0.0100366025547684,-0.00767238585583552,0.00849345752807897,-0.0134214716264147,-0.0118103547256089,0.0343728085226243,0.0362406430023209,-0.103434605963971,-0.00340020933394821,0.0202970239779617,0.0379209672940747,-0.0395296570078611,0.0744819829994236,0.140620871864283,-0.0586826305144768,-0.0271021684020285,-0.0728514829954855,0.0058467649951512,0.0686866047001718,-0.0691986132705149,-0.0539025735199513,0.0216345622159935,-0.0144492568273988,-0.0550926095676052,-0.0116477480401842,0.0413273025044334,0.0658747490888598,-0.00930854665479284,0.0521892588876647,-0.00261064606767343,-0.0110043727959897,-0.0829527636081254,-0.0414554925024228,-0.0546225273524142,-0.0204388689921075,0.0139772582748065,-0.0890596150435712,-0.0191758509700401,0.0596684508810923,0.114343164609419,-0.0782199485752639,0.0221992654271777,-0.0242486930995734,-0.052574305528628,0.0660886171517127,-0.054101697613453,-0.0109358227689009,-0.0107594395396094,0.0268046708053751,0.00760094511499181,0.0119735934608241,-0.0379212377955828,-0.0915348065319586,0.0818830019413461,0.0450690464729038,-0.0339267676499002,-0.089449778126885,0.0349186532341573,-0.0742936079821524,0.020274117811576,0.0152559876702512,-0.0335630559044482,0.0445486907812245,-0.0276246531369299,-0.0645740068965978,-0.0145420099752508,0.0125768228474947,0.0399847845413018,-0.0193521171010179,-0.0578175708191156,-0.007186600321791,-0.0580748890924916,0.0559940792245972,0.0448626283775709,0.0202076972530694,0.00975589063460238,-0.0887608989613201,-0.0696610463506806,0.00539102538181369,-0.0214293651783317,0.0716460471449508,0.0252304779038367,-0.0768579035965224,-0.0418608720512321,-0.0710952145124503,-0.00515011003943326,0.0202333782193933,0.0386895419061507,0.00583536962447035,-0.10563288520624,0.0410184192278338,0.0749212002196776,0.00526884657646146,0.0520520353114834,0.0889370277108016,0.0219420689146882,-0.0582496715126935,-0.0576953116064175,-0.0572710530441588,0.0331652386241499,0.0402069462610179,-0.0262572886294258,-0.0543802793046483,-0.079726306353661,0.0148349946014772,0.00146577081537221,-0.0807652593569935,-0.0406637781497935,0.0272284716491592,-0.132161102506092,-0.116100094646845,-0.0378695773384373,0.0274551811901379,0.00820402273779345,0.00734210374861429,-0.0506983237247325,-0.0104561745191841,-0.0999094484234597,-0.021381190667777,-0.0607132260426487,0.109186022243629,-0.00363931957746145,-0.0786400754496202,-0.0220195743825665,-0.01470515380789,0.00625075946259698,0.029377740821298,-0.0257826534253281,-0.000492195798574852,-0.0301262739941448,-0.0124487196775854,0.0440291554645979,-0.0698138811871973,-0.0289385118550417,0.0531708298383082,0.101491386281046,0.0124332608437355,-0.0251110900246353,0.00863704386794896,0.0457272916668859,-0.0174880515447843,-0.0129309585499718,-0.143583952690907,0.00128187979884793,0.0112374887956572,-0.142413277587824,-0.0353550266813817,0.171878713592683,0.0490103578839518,-0.0242910000612199,-0.108118724702449,0.0609656073195182,0.053160421799754,0.0438706480737385,0.0269598816045742,0.00819321794694932,0.0429386815515165,-0.104668347324926,-0.0514670363512471,0.00482487336631868,-0.0122139362415051,0.0662459087050976,0.009491853736252,-0.0234987749502033,0.0137695193842364,0.0313237613665014,0.0509321776506431,-0.00924764370123175,-0.0255411911241162,-0.11831540926859,0.00414365901644328,-0.119894825039318,-0.0616342934686278,-0.0502255757732544,-0.00146415055680873,0.0330033732832443,-0.0187812253769177,0.019953785333923,0.0339202215276846,0.0321396764761526,0.00244959269737117,-0.0692923897502832,-0.0652491904673008,-0.0499526092903763,-0.0475545834791834,-0.044617744686667,-0.0209873931132874,-0.0752734342042078,-0.0135695575145445,-0.0478817036029044,-0.00947756435029707,0.0446213103820335,-0.0689271214026225,-0.057126460308455,-0.224124320931658,-0.0219357320996674,0.0218975295875064,0.0419595373897826,-0.0702115403986918,-0.0350642385290939,-0.0318576058749076,-0.0827426028867779,0.0155635566933848,-0.00612317315330822,0.0666413979297617,-0.0984011584411693,-0.0734038699020963,-0.214535096025433,0.0515408229391738,-0.0601757432871851,0.0802318445286034,-0.134056051799553,-0.0653691363074099,-0.0216410703060984,0.0246617843265452,0.105347527099577,0.00280498488260552,0.00429981876445092,-0.052077913847863,-0.0260144205552651,0.0289826426552783,-0.0111661005074805,-0.0107150884166954,0.0219686418826055,-0.0557899692512249,-0.039091893502549,-0.0792523203683038,0.0688976088149797,-0.0180203666318569,0.0620888665114863,-0.0383807297004633,-0.000484139370441113,0.0479318401070656,0.0504525169772272,0.0239269681293447,0.0875722472066921,-0.0183263826285157,0.0929197365762349,0.0051649736518099,-0.0508786242387018,-0.0198781554816925,0.005723371129884,0.047447935986513,-0.0497172503582706,-0.0263295981756422,0.00998076845616927,-0.015847335691176,0.0574211309917068,0.0889619076947542,0.0417172989238169,0.00440633326158389,-0.016536841389966,-0.050212726914885,-0.00385645736773701,0.0052816261899432,0.00680346994917382,-0.0410548542519052,0.0121951336703906,-0.0433747902658837,-0.0378489918435206,-0.00223890992004473,0.0921729302621803,0.133171196879014,0.0393953087348591,0.0182720440415209,-0.00318154621453451,-0.0286575977597582,-0.0376198255267096,0.0209608674289555,-0.0214439084746521,-0.0182099514330677,0.0322371081795634,-0.026768006013,0.0479707866575378,0.0612487357551721,0.105476061906292,0.0830688143582069,-0.0215898945488723,0.00844333711308531,-0.247150245342881,-0.0943796936846176,-0.00661536655755101,-0.00298986646654278,0.0306055850735099,-0.0148271862822499,-0.0117241310279907,0.0378639507104744,0.0343038440670795,0.0604316790379186,0.00783200861907246,0.121335691176595,0.151975485928373,0.0526827418215626,0.034022469173371,0.0269816901350832,0.0107771068489419,0.029286941814089,-0.0162884342840456,0.0751906890557178,0.0246311581959903,0.00313775916372978,0.0306448103253344,0.00117764608724268,0.0763005823592918,0.0970609011316152,0.0290938091150371,-0.000188932580738114,0.0600652505476237,0.0194003252167323,0.0599862376409416,0.050673688438859,-0.0451847300416306,0.0524930719056712,-0.00167940709407469,0.0517873597256104,0.0598924200626204,0.0361695019451951,0.0557529000615431,0.0267330755682258,0.0288653970584419,0.126587773307373,0.0498228192919499,0.0549774714674721,0.0677030503641815,-0.0496097971628557,-0.00242434056377529,-0.00993219255733737,0.0548728325013662,0.0179464583606391,0.0262854763519666,0.020260234675448,0.0406942159063139,0.0793150958876543,0.0842806897071418,0.0292680189218318,0.062177752473612,0.0928590862811409,0.0385470312386292,-0.0486206329903348,-0.0317915460598043,0.0332459801863623,0.0419526189683914,0.0151848810069526,-0.00911711912646424,0.0366737031911238,0.112133326993556,0.0787289007017079,0.063047604570955,0.0611912334482879,0.0128536241303626,0.0180490150704735,-0.0350975277385215,0.0150055944362333,0.0117303796072877,0.0276896338933225,0.0296791418943996,-0.00345214401507866,0.0489300269990767,0.0141174890134577,0.0609578487750199,0.0466847508807919,0.023942611943885,-0.0263293772763453,-0.0482434157824472,0.00381885694276594,0.0196197655067864,0.0321149370229124,0.0321075066194032,0.00760745825250447,-0.0268336154609372,-0.0685194921605613,-0.0282362390402506,-0.0339785243645797,0.0622430009672905,0.0228489415407123,-0.01258973520064,-0.0529545978692362,0.03253414857507,0.0575008471960094,0.032209805484393,0.0194172564371199,0.0266809698728433,-0.0546352178714304,-0.0833753035409839,-0.11796604594765,-0.0440137858036199,0.0527061142756601,0.0423333768236795,-0.0115270950529709,0.041702114606699,0.0586497462383595,0.056100611261904,0.0423954520092953,0.0535864135455122,0.0519071663932665,0.0473392987190657,-0.0884494152946771,0.0122172388697614,-0.00876444784153185,0.0248883402748587,-0.0146908477534505,-0.0346817763646406,0.0353740080471878,0.0858695262597591,0.0686679778988571,0.0407864464431479,0.0364984264278215,0.0707947299092697,0.101982970277419,-0.0547361637326816,-0.0151098292296624,-0.0356765354102155,-0.013429609063566,-0.0197716820646184,-0.0151983742939227,0.0656356332542009,0.0658944722923889,0.0499275279131624,0.0466338731587435,0.002186372460815,0.0483278770050194,0.0478897869573766,-0.004375621877264,-0.033955377519828,-0.0266222427148004,-0.0189799652504185,0.0309124188062055,0.0308754449567404,0.110241034001482,0.0865365003102289,0.0608849829534028,0.0240724335021913,-0.021519677957457,0.0604090674235007,0.0768486689094105,0.0468454873959376,-0.0292115242357205,-0.00731593274318695,-0.0287695681234848,0.00353121151440185,0.0253190737405287,0.135852661293016,0.109339369167746,0.0979017013930222,0.0585518412627458,0.0224071614996668,0.0747977953380946,0.0368821250640575,0.0705742209478549,0.0499969205698957,-0.0125387821112123,-0.00701041775515744,0.0440700969898028,0.088864715600575,-0.0169868022038376,0.0245736284765168,0.253787173791014,0.047749790460635,-0.221000283612741,0.000303092087908909,-0.00376946413732732,-0.0382667945216642,-0.0634618955165362,0.0417660026653035,0.00771183875560244,0.0495469095872749,0.0378681480183897,-0.0473018495121341,-0.030468372599435,0.00989153369368267,-0.0679019786231643,0.00858652899935628,0.0152364323505866,-0.0558238370737902,-0.0882363011108921,-0.104436189332446,0.0658526047983219,-0.00173053878045745,0.062162563094232,0.0785057407018194,-0.166748622482568,-0.00951750065651797,-0.00572515178393758,-0.0612554352610511,0.0862889566224923,0.0696011884494315,-0.161661844145375,-0.106132996157558,-0.105726648073018,0.060774823759669,0.0261838298715409,-0.00367439832710404,-0.0152391248230713,-0.0784679443995796,0.0564073325855955,-0.0468330817942058,-0.0920379478632333,-0.0417716505306754,0.0818389407956657,-0.0456439477542011,-0.0478137728901101,-0.0457608328895976,0.0641437262300729,0.0145726704356532,0.00262124258839509,0.0303587014432065,0.00279990126707034,-0.0640122735892617,-0.111813906395576,-0.115352897930022,-0.0568270508565961,0.00519612043348125,0.0433760678374699,-0.029189405503746,-0.0394784086643309,0.0683836801890341,0.0512694565266539,0.00606194113424691,0.0114902637699773,0.0200169037724888,-0.0966185666260185,-0.0144908639485455,-0.0762248726080232,-0.0653462341426184,0.0483456221458722,-0.0656728146011788,-0.0192131440132651,-0.0334240636343148,0.0408151183839713,0.068447468302936,0.0123648141202598,-0.0261009459974982,0.00412452671985625,0.00672380431003412,-0.00459870230860448,-0.0147638678316706,-0.0503972065897457,0.00861550434500994,-0.0435785732480653,-0.121610375467937,-0.0727717651490371,-0.0298085878307045,0.0884113823584669,0.181041750927231,-0.0232370848997188,-0.140434831764228,-0.0228505062115254,0.0216386879758873,0.0386395677509424,-0.0257751268836219,0.0983252055716434,-0.00549815296700798,-0.0455451972429155,-0.0259614355672656,-0.0458312213594871,0.109658675487534,0.0931221669847097,-0.0172363990319104,0.0272947572203736,0.0596194545157552,0.0204296656089512,0.00838138926691154,-0.0313614724506394,-0.0234782534281019,-0.00577843247407092,-0.012742223263326,-0.0524145079887643,-0.0613256119934175,0.0492616735842747,0.0363867238450728,-0.0267673683902155,0.0423934582457107,0.063222340416033,-0.0222468957793508,0.0816631538860877,0.0265014963521535,0.0675819844873283,0.0380998254712915,0.00234486795943296,0.00282778357551886,-0.0411403737260523,0.0266284338367436,-0.0632787713766651,-0.0181042328545243,0.0238538265484214,-0.0354600278670621,0.0633663090511089,0.105844683333111,0.0165124059478049,0.0543616639361138,0.0514369771868004,0.011981087968453,-0.00489840032825654,-0.0466226359822115,-0.00770399236870038,-0.054148133069887,0.0158946800565507,-0.0837213903767868,-0.0476409078443665,0.146472362525042,0.0378919520464567,0.058450622694279,-0.0461462599974288,0.0151931872076839,-0.0141789864768106,-0.00723825446288613,-0.037204240798772,-0.01018872972169,-0.0808598485898756,-0.120833654905055,-0.1388222111575,0.11394901244819,0.106516784357689,0.0583929861252593,-0.0381952159094174,-0.0139610960318987,-0.132206748282528,-0.0916339917686438,0.029963281327924,-0.0391263821202083,-0.0077662882512045,0.0149288801223347,0.0446515124817892,0.00688083554314776,-0.0603023524773906,0.000242383010447608,0.07222183375076,0.0868387529872589,0.0588277526335179,0.06012335705385,-0.00617208763744967,-0.00164865495802447,-0.00836151978425721,0.00724069638897816,-0.0249533503352962,-0.00382967255992984,-4.84288498994668e-05,0.0152687152511647,0.01990543696875,0.00696763191758066,-0.0986939634351408,0.0329914101927825,0.0584960678934517,-0.0432713041447104,0.0118051471850234,-0.00612245875637196,-0.00403721194647675,0.0360715773034279,0.0218567356291361,0.0791496141117724,0.00498184535164504,-0.0572369191731309,-0.029464475707018,0.091149102151835,0.185166908753311,0.0116298271802304,0.0374199165882293,0.00308300026565566,-0.0116091086157796,0.00322489027597727,0.0107701494730652,-0.0231029836065829,0.0663385714659891,0.0445416070213587,-0.0582181048394493,-0.0830726092113748,0.0678911900372797,0.00233921453294735,0.107313680989034,0.0562886628577484,-0.0081328986325544,0.0262378115106198,0.0142160149199073,0.0508090101058293,0.0583476774149306,0.0472354938185768,0.10292359638096,-0.116315248998985,0.0951148068957434,0.0986671885284745,-0.0017322910399677,0.0468116780006499,0.126383588333719,0.0512610941782429,0.0656072113494385,0.0306190655730735,0.0698438169326761,0.0736543113355927,0.0388928227014019,0.0740260826041909,-0.00419896824065908,-0.00542843491841495,-0.0107871856463755,-0.0259592477278344,-0.0231065383842952,-0.00638601459173042,0.102700885450398,0.0258616955907375,0.0103524528116965,-0.00124539296985441,0.0851413345712027,-0.0274527192736454,0.0816580109962021,-0.051634429239396,0.00395026267628878,0.0288631569469843,-0.055049082811041,0.00624054875723784,0.0574429274792532,-0.00923180384807965,0.000472309470424037,0.00303238026505678,-0.0188869886357833,-0.06843903386418,0.00491742815541797,-0.0758493851877318,-0.0156682069143114,0.0243519977597464,-0.0073039209881629,-0.0356011378529382,0.00884107133259996,-0.0593563918720448,-0.0588794740996372,-0.0538275430719744,0.0287012615041627,0.0118243323646255,-0.0320419272349244,0.021638961835219,-0.0317657752784518,0.035562265843829,0.0865746344105877,0.040339208474775,-0.0267675062870181,-0.0782361803412655,0.0385191047850281,0.00790186703473635,-0.0313495850380244,0.0223783048672067,0.0201838328968411,0.0461215770603681,0.084524636733328,-0.0700174719230018,-0.0643181928461977,0.0566009056533608,0.0796018002293976,-0.0350198043176639,-0.0500186380808706,0.00764458533815101,0.04235576553043,-0.0473267036488443,-0.00279543109766341,-0.0582660802221018,0.00667976910856134,0.151446931734941,-0.0238055900307864,-0.0407261781904757,0.0542848026883409,-0.0261005063126998,-0.016910774290059,0.0220182485343757,-0.16536642166713,-0.0302895166242515,-0.0667971412122332,0.00580580411752544,0.0155199289163606,-0.0304703619768787,-0.0715396814455872,-0.0551609387419118,-0.0568509364110043,-0.0931893277170613,-0.142730401784213,-0.0557138971518656,-0.0497461718901352,-0.0327621728377351,0.00496176471541041,-0.0170115936549873,0.0174935631830155,0.0059821595315885,0.0274215476104875,-0.137647096090405,-0.197546207079711,-0.019609156801626,0.117655138698573,0.0274096890502232,-0.043540904069768,0.0154096921013718,0.0724010145348775,0.0938212481771701,-0.00302841451511755,0.00890839375596085,0.00137394311356357,0.0414830106443387,0.0572260706598217,-0.0507089208166072,0.012103399388004,0.0881992918112669,0.0996261338912086,-0.0589080252985009,-0.0272745077217181,0.00477994186298095,-0.0385318258335861,-0.0133376242477738,0.00778869356403562,-0.00898371632570361,0.0140817808358592,0.0010503365245803,0.0213086740053507,-0.114848366457386,0.0206584854205905,0.041598400632852,0.0716207907232552,0.0479014459233359,0.0957963336240194,-0.0277876325311613,-0.0628628421255486,0.0011035912050114,-0.00242025236789589,-0.0294089454251076,0.0268806556239234,0.00366912668609354,-0.0510991696477675,0.0136093682792512,0.0196148383838866,0.002195718882145,0.133226184497883,0.0638365077297514,-0.0244582587220003,-0.0797758600022836,-0.00725694042623386,0.00289385695505014,0.00657386438273704,