0.00619391906478862,
-0.00140505665247547,
0.0328211858650182,
0.071177483693205,
0.0138630078785682,
-0.00629106402082633,
-0.012551598386431,
-0.0119056930351975,
0.0993713154216305,
0.07514442506211,
0.00804241085766557,
-0.000477127790149924,
-0.00332486304229604,
0.0386995853344881,
0.0753936913729218,
0.00668517321111632,
0.0196806873070229,
0.116367128595016,
0.00855537424139147,
0.00395812497402377,
-0.0793105272977927,
0.0161476004646312,
0.0120649639308479,
0.0319302410257884,
0.010734642295899,
0.0523222156976161,
0.0128220337797591,
-0.0025397351614616,
0.051597245205464,
0.0263355541349495,
-6.72334774393216e-05,
-0.00231055874969667,
0.104437663178009,
0.10328597253086,
-0.0557630022617208,
0.0350947325353767,
0.0157052397174265,
-0.00999527526778773,
0.0279723515278275,
-0.00163201117412713,
-0.00837739077641136,
0.000321238013651618,
-0.00690874645700285,
-0.00404022460845316,
-0.004611921722314,
0.00747952569981375,
0.00269148654245833,
-0.010136130028243,
-0.0198697465208678,
-0.0271257420741978,
-0.0646636292611822,
-0.028755441034033,
0.101266738511897,
-0.00901472759221723,
-0.0264826713697101,
-0.0507693226804806,
0.186772951879311,
0.0058703288272948,
0.00654056459256282,
0.0194049463097144,
-0.0148759617361592,
-0.0209847825680041,
-0.00393392208434745,
0.00336799891524222