0.00771771128440423,-0.00309748271924149,0.00849671811558821,-0.0109868474776615,0.0802249498804137,0.0318589815876589,0.143521465522331,0.106345562926869,0.0257818606773767,0.0129869760516198,0.000975453204953367,-0.00612164521902982,-0.0160351320576828,0.0249883091662573,-0.0274950418838994,-0.0224612402240002,0.0740959257239083,-0.0184499194044536,0.084327873116507,0.0224870782447191,0.0909245151269982,0.110046870956644,0.0584942378000162,-0.0205399931732663,-0.0336880302005455,-0.00657980885337904,0.0150371531868401,0.0144289089853222,0.0569821118234089,0.023221742476672,0.0259725584210542,-0.00500014732640128,-0.0421233166531884,-0.0701661798846201,0.178197115747296,0.0188755493159526,-0.0084265512327034,-0.00327081341281563,-0.0614692654361237,0.0197704194716093,0.0315339211417568,0.0621990178460336,-0.0317255600494112,0.0787795742730396,-0.0704731818331277,0.0544428177167406,0.101439995485415,0.0278610911396678,-0.161333517402058,0.0511287197600884,0.171275065881116,-0.0372454285967013,-0.0185805996190809,0.00685149358442197,-0.0190201117614409,-0.0187586990458275,0.00850100380197916,0.0260409410116554,0.0895602373993923,0.16764160802193,-0.0634962294808396,-0.0834226756550051,0.0728019579323883,0.0136093670071782,0.0656928077038424,-0.00927339649353705,0.0102272609588348,0.106775109903986,0.0232816954924802,-0.0151379329212779,-0.0432137649997954,0.0246974137937888,0.0179612040399127,0.00398768345255935,-0.0503356741149668,0.135602102554799,0.055883017533999,0.125220125669799,0.0173573974727523,0.0224221814603339,-0.0206195599654859,-0.116011332549908,-0.0788343460673469,0.047581372543082,-0.00705652694010123,-0.0699121789908861,0.0689784991886546,-0.0895524305862837,0.0949487065974038,-0.0233473874960224,-0.0362327176868099,0.0982981190880988,0.0841713767057258,0.0435589863179046,0.0352173250824644,-0.0874973805420723,-0.0486756952764467,0.1150055471677,0.00950244887646229,0.100423238302673,0.0858090435740838,-0.045035511325256,-0.00746936788594886,-0.0862642469430453,-0.0324569298205875,-0.0146481032254149,0.00360851463161531,-0.0662508646794249,0.0532583552695067,-0.0135475072126045,0.0386267005723301,0.0432179879613654,0.0281607891148417,0.0143048468621133,0.0137513197613102,-0.0874027680198106,0.0060101138891693,-0.156601216789112,-0.0481904313291307,-0.0830613930003681,-0.0190544339211249,-0.027442244391143,0.0341284524310598,-0.0146620993600821,-0.1060019755837,-0.0593982970509763,-0.008161721895076,0.0343879558923589,-0.131160493202871,0.0512517102248611,-0.0558377813549917,0.0446671253049454,-0.072391664880997,-0.0171120111356886,-0.0923429060724653,-0.0206763348212959,-0.0379493438687753,-0.0961724205129995,-0.0216244235077541,0.000678612615873837,0.0572764782342614,-0.0166562336992083,0.00531089346087207,-0.0450306532352806,0.0709019289615672,-0.0125383862775866,0.0875028726304975,-0.0646769748148753,0.0304971589451502,-0.00873898629723623,-0.034682850875374,0.0411164296406727,0.0371937786086473,-0.0851937057060238,-0.0615297547212001,-0.0167074558415071,-0.0275309922316745,0.0716097942635952,0.00625046257863745,0.000743166515864035,-0.0595039246804252,-0.0319867703890745,0.0589271434660859,0.0229246201209522,-0.0162097533438434,-0.0285313781309261,-0.0366046511191736,-0.0479797466602892,0.0140674934817783,-0.00449051277543036,-0.00923419958614282,0.0233550718974204,-0.00611234554671854,-0.155003553406774,-0.113665673299403,0.0911636998455217,0.130369351362472,-0.0545928705721478,0.0860431808260675,0.00904608910880026,0.020595095716487,0.00169457868033128,0.00226505456557571,0.000575321348795514,-0.0433449336424724,2.2877546963569e-05,0.143040297683007,0.0689849075565085,-0.17697350857328,0.172968836036618,0.0442590652871751,0.0554625462873876,-0.0404858937499305,0.017335531564153,0.00355285299106883,0.0214010843983237,-0.0512572873928982,0.0846933919716113,-0.00815620490862955,0.107646900350228,-0.0866323236492339,-0.0448152789193939,0.0538505471196783,0.00413131251168904,0.0207131806871806,-0.0125458029430612,0.039412945730016,0.00861361625977123,0.0093936072516433,0.0349602328517634,-0.026417694627236,-0.0695727158094648,0.0960314964743224,-0.103864188065385,0.0162880519573954,0.0407983949611781,0.130308920976254,0.060375486430509,0.0131493616554164,0.0732477602955924,-0.057359379456515,-0.0270352634515694,-0.00423417098156844,0.0713437946349943,0.013277814186117,0.0274645786358577,-0.191678767742921,-0.0825248048630944,0.0820420085727832,0.14467516962402,0.0229308567241708,0.0179655191218584,0.210363989397481,0.0542982693114794,-0.0121197116531197,0.0146974359021985,0.0273100057540751,-0.0764535914673303,-0.057568523944939,-0.0199040446848378,0.0236523280184101,-0.0551770477598411,-0.00392594199522019,-0.115475208468917,0.0026989877954288,0.167141251041258,0.0437857227918167,0.0244617598337176,-0.061391711996003,0.047470238850493,-0.0319335155774353,-0.188725995478411,-0.0572985842804734,-0.0903407384231417,-0.0651560586323308,-0.00676425227952367,-0.092023043905457,0.0319905168097716,0.0123405292485214,0.106137376616581,0.00278972836734191,-0.0665604998578961,0.0494558890719436,0.0222639222078411,-0.0790957027320407,-0.0284869891013036,0.0127815261185684,-0.0453666116238146,0.00717208620704527,-0.0138718476877818,0.0641996803646813,-0.0334124820868411,0.0557301043675806,-0.117611382886099,-0.0482723595223063,-0.0278945601564976,0.00768846177451867,0.0347240232735173,-0.0256567220471292,-0.0439382133300137,0.0252679718735144,0.0829612212586745,0.0136675137186074,-0.0485077239962826,0.0463751785187824,0.0334067947987767,-0.0256858550375736,-0.00707621515065261,0.0449904783597518,0.00394886765368289,0.0655335741422799,0.0580585728196619,0.0533102793589964,0.0273015160872553,0.0360366409063295,-0.0367665733059819,0.0252566635171718,0.0260129208769045,-0.00719646678743289,0.0602036779823959,0.0998724600893716,0.0309266386199837,-0.0922800910996003,0.0645852278292169,0.0176105326279881,0.0236962526390887,-0.0439205634708711,-0.0800904616371294,-0.141834831761691,0.0827180289575041,-0.0457213185349257,0.00863968346241826,0.0311424816587318,0.0778979877968659,-0.00960934350408406,-0.198289343229914,0.040777681076782,0.0106767811872873,0.0074646580019173,-0.0411764883018838,-0.0515680351182546,-0.165771378994891,-0.040064789495193,-0.0388980662240626,-0.00248576071038953,0.00103196144200411,0.0839943355022373,0.0541903162271633,-0.181164146773668,0.00813963071528805,-0.0829049163288504,0.148589113426777,-0.0841966429381689,-0.0817328191760754,-0.0342208978454639,0.0429302378206592,0.00953948387552518,-0.00130850537799609,-0.00946795148970055,0.00260340219091116,-0.0122182188600284,-0.0496327422855642,0.0373234448843579,-0.1759316918944,0.0619398724776925,0.0820414574184939,0.142199484014047,0.0138976856785052,-0.0287229508563663,-0.0113892108556939,-0.0154480993612156,0.00293834140467828,0.0116253372705552,-0.0874710984442209,0.0272386585691524,0.0857713569914391,0.0860102677935071,0.10101645229788,-0.0504244884158261,-0.0775343685104668,0.00886781326898112,-0.0917902640292516,-0.0192206412914481,-0.0546248502736307,0.0202434453686014,-0.0275275906930708,-0.0600944777241756,0.0172381856896241,0.0207931250715795,0.0293593061833861,-0.00495252561451856,-0.0112307051159972,-0.0188194878337972,0.0975647523219676,-0.155369137877053,-0.0461936009787172,-0.121540211323659,0.0189788749971911,-0.0490811650736455,-0.0106636409093916,0.000564414590614801,0.0263787325840579,-0.0147248257348625,-0.0791634047222853,0.0613375055261206,-0.0477845412609276,0.0290677553335224,-0.012757372181805,0.0580238778179359,-0.0435637261991811,0.0438576730025765,-0.00488717796232708,-0.0531237096199435,0.0558417452002434,0.0405229616502495,-0.0215575469132067,0.0821078142744051,0.0987948102312115,0.00715386453812348,0.0348012189173761,0.0906428413913707,0.0367058401070057,0.108433720158477,-0.014709572039298,0.0259529447106154,-0.052861901531694,0.0809019117683277,-0.0412356246400129,-0.0300486362004852,-0.0860447652863131,-0.00505705602871417,-0.0534404497036688,-0.0421780439987714,0.00387357948987845,0.0692848999468316,0.149879503568289,-0.0124555369005342,0.148724367030368,0.0533343949821078,0.106494882891944,-0.0930578629795901,0.025014099078809,-0.0173859728107589,0.0504872670865645,-0.0649138160848089,0.0156250352204114,-0.100529812904713,0.105858171464516,0.126786246436017,-0.0665293224887076,-0.015844496198888,0.0047219455936037,0.108855903318229,-0.0125087871445284,-0.0211446248315275,-0.0357382477489112,0.157670876075842,0.0191546071458226,0.0252787309683761,-0.0163662466833865,0.00734770012789731,0.0923413985691607,-0.134110704940866,-0.0135348836544965,-0.0473130992561058,0.00829845847967293,0.0560206361716234,-0.039700089163758,0.00868552216699959,0.0127547174953029,0.00723657988041933,0.0459449323935062,-0.0669186191880039,0.0726027849868332,-0.0510109252046639,-0.150028682925038,-0.0110017456518921,-0.0297052529413162,0.0454191310993074,0.0752095524189427,-0.102676221922573,0.146466371135861,-0.0645071345623347,-0.0517451639548328,-0.0316080887437396,-0.0325080923407738,0.0167983448193343,-0.136060906407759,-0.0995156509097313,0.102613767252951,0.0435652483981683,0.0221126480952136,-0.0749672760206907,-0.0211326108888343,0.0945032351598135,0.107545576590652,-0.0774273373094354,-0.270125176698919,0.0532121367124947,-0.0433419174413897,-0.00372602285717653,-0.0594453084558342,0.017425389088243,0.0402980730224578,0.0139502198521565,-0.065931371374459,-0.0997965071505273,-0.0102731396317312,0.0350058935341166,-0.0344797489415675,-0.0768797752824985,-0.0612591561687604,-0.0118209477758797,-0.0446997596045393,-0.0432606976129698,0.0959190165433555,-0.0784807863445577,-0.051490567615031,-0.0415097249410092,-0.0562960197327899,-0.0346182824149764,-0.000511752215596097,-0.110152418947739,0.0298796334030673,0.0543074561739657,0.0712791388315074,-0.0363478784733358,0.00900789342320994,-0.00626410677247573,-0.0553421158505455,-0.018377734955605,-0.0416989446037146,-0.0280516662613056,0.0110333827318602,0.0317925435999565,-0.117069341261734,-0.0770768340579399,-0.0349407535895371,0.0181432595830713,-0.0101330715726206,0.00936267068657123,0.00775823635751832,-0.0302514095726189,-0.112048695604431,-0.0326309853455305,-0.028984962792248,-0.00507479601126693,0.00915279679766301,-0.0448897624123957,-0.0133491652126965,-0.0150604395199626,-0.0227472920355093,-0.0536752672639277,-0.00268065233993263,0.0244927154055008,-0.0495588363628169,-0.00404370988441519,-0.0474333292072843,-0.0463139430011378,-0.028555182019126,-0.0341509546885764,-0.0216537258405543,-0.0162881698628114,-0.0414393644118662,-0.0810788775794423,-0.156074181401672,0.0209209468458391,0.00166476351337388,-0.016826309133667,0.0167297526292888,0.0502866958500207,-0.0263043641347328,-0.0628566230727082,0.00236622893559547,0.0132901818199686,0.0179982850432217,-0.10733035461611,-0.0148599004344529,-0.122187400209571,0.0407819829307583,-0.0373357219683931,0.0251310932551142,-0.0435566273413635,0.0376853272288134,-0.00952923100849494,-0.0498394417492476,-0.00274720841117798,-0.00101949144445222,-0.0247698002901637,-0.246219403728594,-0.170306122307425,-0.0707636819706017,0.0208505804945691,-0.0355751529053826,0.0621906558154836,-0.0717867428718438,0.092179164845484,-0.0169092654832466,0.0375944925511945,0.0169714953981385,0.0170118189268006,0.0447871698718304,-0.0707839549684242,0.0884124709703215,0.0561521671580846,-0.0821214867580091,-0.0731405029160002,0.0169427413979698,0.0903684993598503,0.116432074557616,0.0207506393868891,0.0220482859867235,0.0390582477556939,0.0537301441602611,0.00812251780519306,-0.00138813311072277,0.070293456070217,0.0645624022215358,-0.080301562470801,-0.105961413689171,0.0181989772220553,0.0450947489713205,0.0769135390944461,0.0227537167993997,0.0113048655426278,0.0280885060277906,-0.0103763475127934,0.0504893114684892,0.00701027793689406,0.0348787194749132,0.0917639571620881,0.0387029448464289,-0.0122853918318098,-0.0050509668650329,-0.0408876694674338,-0.0470766209482987,-0.0348520127904873,0.0194115709390383,0.0161247744712187,-0.022985294779864,0.0379558209205799,0.0190095115429179,-0.0223984019034161,-0.0474023491763192,-0.074442343876472,-0.0806215801956015,-0.0519294296813521,-0.0766132441933411,-0.0604105922997655,-0.077575878820732,0.0392903787442482,-0.0483489533869201,-0.0575509307771703,0.0108696367650623,0.0394143466717812,0.0108647434536761,-0.0174803367283939,-0.0945401830139551,-0.0890690392588726,0.0585703615822252,-0.00285377381405086,-0.0191354476034418,-0.0395450105583593,-0.0422991431313629,0.0234107216684775,-0.0348435098885222,-0.00557403826041774,0.0139690447719354,0.0270842634907825,-0.0177806677692177,-0.0575709709918911,-0.0149222289894316,-0.0171453601123286,-0.0311881355313839,-0.0782969162652694,-0.0087495521628436,0.0282753702508288,0.0369431868360401,-0.0107734138753059,-0.0130752440892736,-0.0379381245539856,0.00083201784856373,-0.0614491591896976,-0.0628718726868671,-0.0326753854804612,-0.00583108380592896,-0.0657948278322284,-0.0748494459455935,-0.0633800750343363,0.0138749605055497,0.0386163942016971,-0.00843940685125958,0.0218169812259748,-0.0179883432934722,0.0135878476367385,-0.00954648904786722,0.00760170899171348,0.0143770407911978,-0.00665209143197196,-0.0344391978954647,-0.0159223974917244,0.0136389171689756,0.123224134520223,-0.0843969747194628,-0.013583448141642,0.0824756121317236,-0.0441166121230461,0.0101404212607609,0.0285187460746775,0.00829075959159953,0.0343224439214283,0.0559171291980965,0.0214665491013644,0.0460788585266556,0.00729437163065598,0.0985972155398883,0.173151639067328,0.0111644249118491,-0.0325574206953068,0.0103595308768887,-0.0735394222735453,-0.0314217909252452,0.0137940576354164,0.0254971208619443,-0.0400693002832564,-0.00146496392608935,0.0865054002000494,0.0366088824598432,-0.0207463371793518,0.0875889510844788,0.0355740125623922,0.163545204356609,-0.0494860981178613,-0.137717291778008,-0.0584424688828629,0.0177030778857145,0.0333467663889342,-0.0292600684071746,0.00476578203265726,0.0462148686397936,-0.0131588450638832,-0.0473037612817833,-0.0170661204156273,0.0682929535429416,0.177938007356137,0.225426235893534,-0.00211292346579564,-0.127583126296325,0.0204262932069764,0.0359635874664833,0.0783704203649142,-0.00590492045500694,0.129126998445219,0.0595793182123732,-0.0599009877315257,-0.0496791611540299,-0.00646435800188907,0.0533181101550853,0.0604801394295992,0.0656058918380248,0.00735395903531829,-0.000809581089492005,0.0194633252021727,0.0657724429424305,-0.0768977072861735,0.136777283192778,0.0682825730990116,0.0220777848098136,-0.0163055009911542,-0.0476115398110946,0.132900547549367,-0.0414750083546955,0.0435811314703185,0.129559117917427,-0.0328649646748449,-0.0447151007376549,-0.099377516533591,-0.0786101007208237,0.0422808376274013,0.0403115313949853,0.0212637917044504,0.0369170334556659,0.0263089518331843,-0.0118825855595305,0.0629356397265712,0.00720234624220239,-0.0474939212794104,0.0570360475060959,-0.0709056998331531,-0.223277342349094,-0.0276899785841269,0.0282789651226392,-0.0658942840944095,0.0907341229844675,0.0255174669434494,-0.0480519727277779,-0.0316798698536699,-0.0679748984096203,-0.101854376547161,-0.02282214156701,0.0648240488363486,-0.089224795366744,0.0278147360173002,-0.0889747966619269,0.0819284074717236,-0.0384122044457643,0.032794052271284,0.0110795552048811,0.062923157339664,0.0620647675421118,-0.0281812980651872,-0.0296574055539845,-0.0567084061558737,0.117740426527486,-0.0141117340865313,0.0260067169852328,0.0477495631063357,0.0852042374260483,0.0111053618262738,0.00150662673723657,-0.015893994167265,-0.0725276583953278,-0.0535525987915632,0.0355594495843778,0.0798785860790473,-0.113656569987395,0.0500250103541108,0.0458935214567263,0.189815683172816,0.0279777041623643,0.118871801828587,-0.0440670325611648,-0.0891420812736747,-0.0844286079304059,0.0214104762723373,-0.0491014825906034,-0.0948133971160358,0.0725613079252865,-0.0497943370172403,0.0119083873139487,0.0288980942392877,0.031912361482179,0.059959871446154,-0.0216520181848812,-0.123001148473309,-0.0430588253665573,-0.0591036007383016,0.0150795620185272,-0.116145100571345,-0.11215371020766,0.0509677371749626,-0.0176242949544165,0.00451931401408962,0.0316680515159481,-0.0206206440187006,0.0241134331177125,-0.0283931194834203,-0.0291032234274759,0.0206670563132746,0.0276900597914393,0.0261243406874259,-0.0338208458339151,0.055044927968607,0.0346411731692173,-0.00558552683557298,-0.00416312536762263,0.00644304300073276,0.0140870947516024,-0.0349573374456182,0.0332620698153201,0.0707171939782836,-0.0181491502221855,0.0297511002120832,0.0865244062693909,-0.0371319701206263,0.108034533682019,0.00685861166276854,0.00445091950028117,0.0138717619270662,-0.00167585840692537,0.0451437448633221,-0.00960969373281838,0.0814424316619752,0.0766200593368286,-0.107223730051494,0.0074618198302847,0.102800817326413,0.00957705673733787,0.093860065141806,0.00201291592931749,0.0296169828230144,-0.00362776873084837,-0.0070667427312512,0.0367695900687543,0.0245275732723313,0.0651751862486975,0.0549029528953901,0.0448145887253496,-0.0360393197104194,-0.102701238105428,0.0211536043698997,-0.000254619314854335,0.00375228997805715,0.0440587940092806,0.00543175100886602,-0.00263333008349671,-0.0252129344360144,0.0114228388856298,0.0582189919204843,-0.00229564729620034,0.0862409005905733,-0.00289042316620784,-0.0941080944130585,-0.0247314778332433,-0.0578682511745641,-0.0139865895858089,-0.00738060285987134,0.0111371625523087,-0.00430040777348153,-0.0323144933951304,-0.0340884662175153,-0.023881835002081,0.0112376828939061,-0.0530714953711796,-0.0908750045297442,-0.0507032571971967,-0.0821653454355308,-0.126402231024894,-0.061406571366288,-0.0749639901004464,0.0209668717799453,-0.0142188365449967,-0.0411224008901749,-0.134502311158456,-0.10771802219804,0.0482992687852517,-0.0451231776355942,-0.038280866479846,0.0105663479059379,-0.0653353783434532,0.028942618884599,-0.0686593421559136,-0.0746384346755057,0.0539680398638784,0.00852085515630341,-0.0198393929177938,-0.116801304466959,0.0116955197403917,0.0392984753918833,-0.0232698567249329,-0.0311428349080813,0.00451971184884,0.052220225134094,0.00639493806330913,-0.0647546288238319,-0.111093333224024,-0.0505094092615918,-0.0134668080899493,0.0517333848279995,-0.0114614229436772,0.0375693131638147,0.0382897867471934,0.00952323400792934,0.0451028288035892,-0.036776132031211,-0.00391942237299446,0.0413534984336802,-0.000135977591615584,-0.0807854908009665,0.0697713267292139,0.0646621969801053,0.082088617403604,0.0198876785374852,0.028078212124614,0.0962502620717433,0.0486376753590195,0.0131231844764081,0.0550753970010565,-0.00227978803899964,-0.135557781819349,-0.0412593704692965,-0.0262564075553624,0.0121752352068045,0.0276395563081825,0.011691078949398,-0.0392881244808766,0.0226308455599523,0.083568938049002,0.0768361683870082,-0.115920040667172,-0.0115697297652976,0.0435014996296517,0.0844433956931657,-0.0444980194513444,0.0474435988974045,-0.100286243213268,0.0462985410822691,0.00928515091428296,-0.0183162906601683,-0.0362401220032689,-0.0146804333406919,-0.0114406800696942,-0.0115721610696641,-0.0425202862533376,-0.00487787498566406,0.122973421542218,-0.0283565522128102,0.105147740410779,-0.0326026136209534,-0.0130310000564738,0.0279911409620831,-0.00466615066195026,0.00203611980030036,0.0151859612947514,0.0615087403533529,0.0468348703112687,0.0375323196767676,-0.0392406863703069,0.0212490228993505,0.0607487456134386,-0.0343449158009539,-0.0669314934452715,-0.0526350503799673,-0.00557529806342726,0.0523722725868508,0.0118274425670796,-0.0734051049988101,0.0471213766669028,-0.0186246107603257,0.0166341172319225,0.0130500534053532,0.179333096229901,0.0242187172453989,-0.00138997189387574,0.00651545354530901,0.0161975827776522,0.0410077160405513,-0.0643880174755131,-0.031536018649609,0.0664266064892096,0.0647661569713622,-0.00599477650323833,0.131074170048506,0.0962726402467172,0.0702731954281746,0.0301487683954637,0.000980796009102181,0.00464882646014015,0.00567635594848164,0.0579843356225187,-0.00975147389993172,-0.0161415754527822,0.0826811915246247,-0.000691694406311955,0.0497635806074337,0.113888200101829,0.0761485615421101,0.177173999755443,0.135921898733182,0.0244421065256489,-0.0115098420316818,0.00242175872705414,0.0543700690331939,0.0402385490965255,-0.00409926121603098,0.101478453589547,0.0566960065812975,0.162476124891065,0.0891005869972158,0.0803760556787269,0.251979352270119,0.198760139365094,0.116825724008196,0.00534474691777269,-0.0101958945861598,0.0261337611336365,-0.00640207097254382,-0.0159867033500107,0.0817170922181798,0.0749750593496476,0.00919376837061017,0.0409625636785889,0.0474581046449191,0.0980078971763316,0.116513933833389,0.0342773498652577,-0.00675201369223694,-0.000884954019559107,0.00888007829105698,0.0399803484769426,0.00769048080771757,-0.0241434030442674,0.125867320948022,0.0107104024394963,0.0476043472921156,0.200126752073422,-0.0370299541614564,0.0486256431529288,0.0301946801345744,-0.00775298006370361,0.007820132692229,-0.0109328320591452,-0.0558302421562718,4.57632060174978e-06,-0.0679779820099556,-0.120716351157052,-0.0933444586976342,-0.0245350780886748,-0.00538269051102919,-0.0914698382178724,0.0831598117757088,0.04712846428171,0.0117963523252626,0.00780640274758549,-0.0177724284501435,-0.0435707957312302,-0.0181101021956264,-0.0995326908913928,-0.104702141919792,-0.0933198218957676,-0.0712732987598418,-0.0954275028289532,-0.0625465118375262,0.0747709734999861,0.0356930398512355,-0.00624613290352696,-0.0720212287939511,-0.0370387792012365,-0.087037458162357,0.0259745347830381,0.030640818681514,-0.0106787696284744,-0.0682696828406813,-0.020255770504054,-0.100419000281651,-0.0864327813780243,0.020175336080041,0.0463758488215664,-0.0222379671753042,-0.0335963025160622,-0.0149055698321998,-0.0460745502905715,0.0655159244169847,0.0136165899191727,-0.0432112396550556,0.0062594417963697,0.0245933921059465,-0.0317153778138864,-0.107357843681269,-0.0168993579130329,0.0261478377382636,-0.0169635548415157,-0.0362189853599451,-0.081770734583124,-0.0911838267062005,0.0126206818122695,-0.0367995174450336,-0.039714259764279,-0.169696063447936,-0.137250295922354,-0.165069692691136,-0.0320656977515713,-0.075217591085911,0.0109485344962091,0.016130661258253,-0.0685353906975101,-0.0610276831394634,-0.0652970310662095,0.0633308145471921,0.0961509641269059,-0.000910900264977133,-0.111785729663696,-0.189671857315959,-0.219169704939439,-0.0447614649208669,-0.0365625503800885,0.0152888676473812,0.0244449099370031,0.0138582824920775,-0.00882298454523663,-0.0822467778602728,0.0216848712709106,0.0260327444897317,-0.0180925325134566,0.0245758757570456,-0.0878563833048556,-0.130292589958208,-0.0234985124674813,-0.0423977019283332,0.0178375634638115,-0.0106518105873353,0.0333746766571435,0.013725719223304,-0.00984243223134903,0.0194348340657809,-0.0126565728371301,-0.00687099702746215,-0.0458619546483758,-0.0486496688493422,-0.0392819233628726,0.0112104039251604,-0.0177168826739635,0.0109622253661651,-0.00200310137335614,0.0126336311685362,-0.0290959227351176,0.00700460386347242,-0.00814430697335373,0.0366838914667957,0.0260308439796415,0.0550535627215828,0.0471577352009351,0.0764099286807247,-0.0843636718896036,0.0186358680183755,-0.00513380739549133,0.00886964843664942,0.0280604861549403,0.0128179373133426,0.0107438679977908,0.0313866118982068,0.0290345466132157,0.0325643260068844,0.0278589032609509,0.093978976737676,0.0807917449469965,-0.0557455843716492,-0.0229526134998007,-0.0299327843145033,0.00178199385912181,0.0462344458431232,-0.0497698037519909,0.053905658920983,-0.0067523957780693,0.0773162737832161,0.0103321754736797,0.0605271114331262,-0.0291269706248014,0.032704808219393,-0.0418821235790025,-0.0300036706166773,-0.0705590385877101,0.00255026869844728,0.00391254970351597,0.0206864374314171,-0.00235185276233563,-0.0287240155198193,0.0341521427738709,-0.0498362711823147,0.0498274735562073,0.12181405095961,-0.0154264385160296,-0.072570388958641,-0.0284224602410101,-0.0731157348025273,0.0119697652887374,-0.0236444409081938,0.00389499423504638,-0.0490336135919786,0.00698205648439248,-0.058261763396455,-0.0430007674735604,0.0832911816788044,0.0159124212933296,-0.0609219649653237,-0.138840378807688,-0.00607374530233351,-0.0826152658447917,0.00315045086651307,-0.00588182107717934,-0.00301044586472284,-0.146852267229881,0.0493357690568316,-0.0197881909339145,0.0031227054256289,-0.0526845111863048,-0.0349747666262459,-0.0766030078428348,-0.046597555382405,-0.0342607829057871,-0.157961835950014,0.0632771734315996,0.0811284635420961,-0.0639428465379467,-0.0931424606531515,-0.0388509405230712,0.0498800329128285,0.00894247817033006,0.0260467405464907,-0.00137347174949619,-0.0481179120362012,0.0551507720141592,0.000703675333012315,0.0293665015100545,-0.0424987023185314,0.0237393223360472,-0.0302972228934128,-0.0689997785834666,-0.0382302643635845,-0.0512424330516419,-0.0329031556777725,0.010619171911604,0.0256331186275238,0.0583210616827475,0.031525777500546,0.00999305392551861,0.133410078039586,-0.0151143170304697,-0.0635159638454977,-0.00416827347672501,-0.109201399455527,0.0680032742556094,0.0525444104362105,0.00350476849327039,0.123644474373225,0.0330681107620738,0.0111084711362722,0.00847141756710542,-0.0454302164685076,-0.0486508470662984,0.0213729923965558,0.00835814934864134,0.0262787413647395,-0.0307934876356907,0.0770307400136069,0.0154231090975948,0.0784413360901817,-0.0125773542623725,-0.0529386593025534,0.0407927932873593,0.0470013437734445,-0.0120417129782294,0.0108102242708515,-0.0258428448281562,0.0103172792153738,0.0369488623561565,-0.00518761095371892,0.00313867840586598,0.00161218167190531,-0.114860980886898,0.0624045197336176,0.00179068923596109,0.0332368034109769,0.0725022351755816,0.129326903137029,0.0713989883785425,-0.0272554580899698,-0.0204417008162028,-0.051175770547671,-0.0669046769983137,-0.0578216583479551,-0.0184341787323474,0.0380762703574835,-0.00324386488248543,-0.0141247964452919,-0.00237813372902793,0.0723028136686457,0.0460440051101292,-0.0346109255565361,-0.0464517703987389,-0.0424953337990722,-0.0137320390902283,-0.0458705409980859,-0.118902038226657,-0.029170213019384,-0.011794155063066,0.0110219033195071,0.0183393363932012,0.101880592219602,0.00135485795235039,0.0360019148575255,-0.0308314909692906,
-0.00341435676558868,-0.00595998663472893,0.0297674011279588,0.0714192955050846,0.0313660471190321,-0.0817895724622555,-0.00673302018978992,-0.00998609494031187,0.0207453550923578,0.000916504525687622,0.0193172120697275,0.0106528473624678,0.00866322896139803,-0.00442854532501086,0.0193532639458641,0.0262615676194864,-0.00163650958031501,-0.0442885666780539,0.00647323957822127,0.0463002621680164,0.0458920690165431,0.00358964414627368,-0.0532117169295379,0.0271532779956367,-0.000310787161710636,0.0012874619188295,-0.0180667389148205,0.00404796551190447,-0.0083351103693983,0.03319625629899,0.0199586107090091,0.0346782060290774,0.00891682815497741,0.00465226659787758,-0.00133639937089076,0.0194555510862457,0.0339227910257392,-0.0429919298429977,-0.00479373093823375,-0.00496942355807367,0.0103815171843117,-0.0219164495094739,-0.026505589480942,0.00185363720670999,0.00570616414864452,0.00475910105440743,-0.02966619425361,0.0206740419723222,0.00407110973511648,0.00189395570366659,-0.0593445697443301,-0.0184077623573432,0.0140047737377409,0.0112867879983853,-0.0258625930646709,-0.00700568302807236,0.0111892737470863,0.0167453936110533,-0.00252111541366384,0.0016209445436757,0.00298449112944541,0.0135702136430705,0.00292180404149282,-0.0379995934211845,0.00843431520479619,0.0058103709805192,0.0333878351597957,-0.00811809921835987,0.0336992302976348,0.0194970079839057,0.0106831269503306,0.0153292538090577,0.0256486991031301,-0.00629243317195155,-0.0217542602626691,-0.000912672226476956,-0.0392760487884115,-0.00142807619882306,0.00554336567428013,-0.0016817211270186,-0.0252465126980464,0.0467953789370343,-0.0183282668457965,-0.0147855566527153,0.0180548962156986,0.0203176536679456,-0.00123791002793918,-0.0657144204345806,0.0211688439411072,-0.00290554722319484,0.00192486353602598,0.0103938060283822,0.0185796184312175,-0.0177637764051631,-0.00135640570943833,-0.0079506290403756,-0.00587774713131848,-0.00872611780273463,0.0394993984252907,-0.011874809588019,-0.041909931113308,-0.0166028507747176,0.016685030720026,-0.0219427709763469,-0.00364814865048342,-0.00488730633970655,-0.0255706611456011,-0.000912301701052089,0.0278140564740625,0.00956676466387214,0.00459830203775021,-0.0037340205240955,0.00293614838505415,0.0140817221606474,0.0272966294238291,0.0108097498484832,-0.0131209479823064,-0.000355247728477472,0.0281783263955708,-0.022428861410577,0.0180950862954177,0.00381919346394791,0.00646621140545004,0.0116546778806088,0.005542588496873,0.00321189150296646,0.00166244256708204,0.00710445401171917,-0.0384997622473932,-0.030032289519068,0.00498079799116082,0.0276985872614574,-0.0218312515174153,0.0487765087825273,0.0172806263606748,-0.0123308288840257,-0.00652071309620985,-0.0141603210565586,-0.0269460774120348,0.0124030122163925,-0.0063497703119127,-0.0298171001266836,-0.0156120143260446,-0.00256801428595834,0.0120918746702039,-0.00282056429661028,0.0308634473355544,0.0203265561169696,0.0355674296515621,0.00106137580934682,0.0247760600117318,0.0168808113882655,0.0150057064669095,-0.0108616359136933,-0.0204647851751205,-0.00340008023288615,-0.0423873677683303,-0.0250242361858623,-0.0300586718284348,0.0114343495336386,0.0206584925996685,0.0251116900263269,0.0309391460838464,0.00197135732753548,0.0173205698451146,0.00766495576849915,-0.0334702411307584,-0.034010723870736,-0.0116287405828067,-0.00972425488180982,-0.0331137695065508,-0.00968539604235395,0.0678152247146392,-0.0319601748587134,-0.0265712472426566,0.0589107919942904,-0.0137185647151919,0.0197270600940925,-0.0431436356987833,0.0244847888652168,0.00127702245337252,-0.00363377142092944,-0.00555412707375789,0.0329233884746032,0.00832925502303559,0.0401161864607474,-0.0033184805902249,-0.0290293192394499,-0.0111278198919088,0.029367192341292,-5.52416820761587e-05,-0.0266855214573202,-0.00687454074026492,-0.00847030531133402,-0.0118127282092901,-0.0087081612463447,0.0203861705741689,-0.0426134528578253,0.0154852035347788,0.0295168110021554,-0.0174591050931095,-0.00406894752415285,-0.0006332737434557,0.0153903264482169,0.00771192429581213,0.0104615611280596,-0.0219464810064405,-0.00206990155265827,0.0139466533352586,0.0270652632732458,-0.00538328551286612,0.00619724103731543,-0.00863371629784135,-0.0153829329090833,0.00681493208839876,-0.00424542961756397,-0.00472377379681922,0.0189080895950779,-0.032928069157087,-0.0344421081718496,-0.00748917662131915,0.016484936775307,0.0209919718249239,-0.0163642385810552,0.00272267445877641,0.0168323882969935,-0.00247825663520586,-0.00359734211140376,0.018048347595001,-0.0182525389084638,0.014546443668363,-0.0462017904563627,-0.0247744758736356,-0.00650012454944826,0.0304934570837123,0.0113407503275546,-0.0082988970658147,-0.0375281101761579,0.0382991803531013,0.00231906307133187,0.00727126688596112,0.0324316780718562,-0.0142407412862393,-0.0375037308744665,-0.0422069329295745,-0.0191537571482738,0.0280089171525623,0.0182717405623653,0.00440045488333831,-0.0110016743756552,-0.0463964106603137,0.00533187698959299,0.0223928740359088,0.00226911097601871,0.0207252925598833,0.00798665799835532,-0.0671808839669731,-0.0336046455249803,-0.0578633795634357,0.00771291030671794,0.0403415463981932,0.0112991158043855,-0.0113035774694785,-0.0435876181451394,0.0385743522819766,-0.00283283454689269,-0.0485113930267186,0.00966356495068191,-0.0309807760438932,-0.0491442749683142,-0.0231058504154256,-0.0233562940600324,-0.00771790795473149,0.00689134966054276,0.000608234691306093,-0.00167619364162139,0.0106596530801804,-0.00382927121108686,-0.0360979359539169,-0.0350811309632727,-0.0124869521377498,-0.0387959258564809,-0.0211920521738378,-0.0204693043745223,-0.0183527451017128,-0.0153009557526507,0.0110066994303139,0.00216374539382753,-0.0628301677442982,0.0579219382273097,0.0219737162282129,-0.0242229310403312,-0.016177577617377,-0.017492769805971,-0.00588476147198368,0.0286218736052866,-0.0263178982822338,-0.040991066541119,-0.00264413951789541,0.00348162267848759,-0.0114100329549525,-0.0577734134132235,0.0513914097516882,-0.00653089184429345,-0.023555882060208,0.00395411342874725,0.0236070964843615,-0.0077795567965512,0.0442167863028528,-0.00983231966762352,-0.0122693680084167,-0.0193710446594193,-0.0040555067400665,-0.00796204992105013,-0.0790477229583937,0.0355373588050541,-0.0208687471180409,-0.0268437551742479,-0.00439494147176211,0.014987146814373,0.00240798681745208,0.00983312132872021,-0.0174685886357817,-0.0174706127825307,-0.0195188343598027,0.00817543847803261,0.0450000778416552,-0.0208805034143522,0.018695409056846,-0.0127737160376109,-0.0304257070490648,-0.0105842093762639,-0.0127320161144753,-0.0163192925647519,0.0238569053470803,0.00537005014232721,-0.0102315837101396,0.0018021234715053,-0.0143634622463895,0.0119463464541943,0.00149795717367057,0.0660849366035865,0.0270928651776797,-0.0376806743807402,0.00607292685361118,-0.0269080234753156,0.00658173675000294,0.0157017950308131,0.0108405156301337,-0.0219096438755581,-0.00718090390433002,0.00785051897125524,0.0286776112743316,0.00137299509905685,0.0290896969569943,0.0163238775357096,-0.038884521707226,-0.0133794334453922,0.00655896770254694,0.00421387769770961,-0.0105879793975922,0.0346531454556076,-0.0323950570380491,-0.0142479556956843,-0.0200758382070928,0.0404662784969499,0.0177858293391154,0.0413608792086177,0.024175044565952,0.00935673550757279,-0.0289751172866626,-0.0321097763504726,0.019638081087764,0.00721518920421737,0.0148978963998313,-0.00291226781036313,-0.0135972747574937,-0.0213468105190786,0.050561956031213,0.0285696266509015,-0.0299041045648055,0.0457729085476955,0.0238386760673515,-0.0234766386588383,-0.0343231479863197,0.000601538290175302,0.00775356769668008,0.0380128303073293,-0.0474108596485441,-0.00703896244742503,-0.00926260549477248,0.0307827336036529,0.0186577239103069,-0.0236747283839255,0.02117980255683,-0.0080105299154888,-0.00615577845810408,-0.00477442181022551,-0.0198510098403464,0.0122456534574702,0.0373929602523932,-0.00360656825265184,-0.0236223268782727,-0.0107595844685697,0.027499273355835,0.0122807876746345,-0.0217444695257193,0.00207598482975027,-0.0232801141710088,0.00204579750429666,0.0368440138889182,0.00327567228557846,0.0171692119893755,-0.00356978671946984,-0.0085690728339085,-0.0284580588933253,-0.00686918402121389,0.0199391439079542,0.0176695653585851,0.00573772091827162,-0.0339983056404354,-0.00430647636488892,-0.0418001727713539,-0.0086323162600996,-0.02054507235853,0.0042792347487751,-0.0156856459844183,-0.0221609594325732,-0.00131484829365303,-0.00996685998057651,0.0022653302614289,0.0286930173756257,0.00951961112708427,0.0237980976177853,-0.0302334424905365,-0.00731271249106118,-0.0349585019742268,-0.0462596097261142,0.00218769820503171,-0.00761188828799787,-0.0201071476219876,-0.0385827323133143,-0.000251696593821126,0.0116634372872735,0.0169716744866623,-0.0391370729761213,0.0263142417236771,-0.00577859811404114,-0.0208536859982173,-0.000118907971634111,-0.0517324313888338,0.0116817797795421,0.00140619297534024,-0.0173104297192484,-0.0220417965324664,-0.0013869871063282,0.00964944817657791,0.00484680752832449,-0.02610159723669,0.024349976681315,-0.026946672104106,-0.00340852865465881,0.0112899330830212,-0.00680352085624623,0.0179772535068665,0.0122165740466341,-0.0494577588060572,-0.00898696026169514,-0.0103946107060493,0.0323896149620751,0.0288105651707829,-0.0243970692607678,0.00749172477965728,-0.0284879284023379,0.00126060281582364,-0.0350349186688901,-0.0395019297560554,-0.00919515776435188,0.00254635185751763,-0.0456793835419163,-0.0262345496672513,0.00857372038175977,0.0294106763810161,0.00935824927113375,-0.0371519008838882,0.00951309998848864,-0.0373521178116321,0.00740763899160517,-0.0451270503681399,-0.0599902846434623,0.0183539082191897,-0.00266265699336596,-0.0344871469841389,0.00424427072468822,-0.0136448340366729,0.0354985343558545,0.0163381871418824,0.0148241748161456,-0.00938001930325372,-0.0231756811161575,-0.0185406729582577,-0.0273178810683211,-0.0229323007009037,0.0237179227601706,0.0214000467742005,-0.0440257331045875,-0.00783660643755035,-0.00465122103661213,0.000349172116298024,-0.00212357245017144,0.00150687965476212,0.015486842845627,0.0160826744763773,0.016665019343405,0.00873681021705191,0.0152482399720949,0.0200555612786014,0.0154601708764949,-0.00869570958274675,0.00570818713245014,0.000241816926275527,0.00214549760951523,0.00277567296692649,0.00477547187623855,0.0104996762653526,-0.0104442040392182,-0.000321632852154684,0.00477959638033016,-0.00481416989282535,0.0023881502621371,0.0107893413067597,-0.00875107976260352,-0.0179626107089203,0.00951403189254993,0.00362369806416745,0.00767236336802441,-0.00810403650740646,0.0142740258224025,0.0107223825394923,-0.011166402176385,0.0170634240611401,0.0167485946487085,0.0161907439033539,-0.00620311370419765,-0.00428877107353415,-0.0173007953387103,-0.0185836749853592,0.0547328313120519,0.00996354320287314,-0.0135518026165048,0.00801030946903684,-0.00300564086951784,-0.00553755788239972,0.0144570673686179,0.00844616066411808,0.00917358454991089,-0.0146570021116363,0.00315848122202945,-0.0146621655470793,-0.00916199043645318,0.0390237433833386,0.00878936706083988,0.00577936509617036,0.0122053651265166,-0.00754609056526829,0.000728879686183462,0.00810658629417851,0.00624770484557272,-0.00734836573238142,-0.00185926709771938,0.0165283106408298,0.00239772533502427,-0.00183603001959843,0.0268840518197486,-0.00803054261468266,0.00496485607577875,0.00177039229627076,0.00307961255137487,-0.00704433312962439,0.00705524794116763,0.00132714693853378,-0.00325364451418592,0.0129203338512635,-0.0146526101206448,-0.0262270482434411,-0.00431120590145311,0.0184520945088911,-0.00230367195716191,-0.000227203054249996,0.0265810720389495,-0.00196422285823863,0.0049642596910416,0.000369622375564734,-0.00199896328187681,-0.00965472431951955,-0.00653052205738328,-0.00608176923661572,-0.015690622544207,-0.013260716988161,0.0065457595269583,0.00117034897658751,-0.00717904199504418,0.00324642561368437,-0.00858399383765015,-0.0016405156604761,-0.00553765450210082,0.0116185767351744,0.00771835816153543,-0.00792585458684584,0.00232031600761448,-0.0201628294998492,-0.0133868006632664,0.0162350980113631,1.88641461506107e-05,-0.00491351833811536,0.00241072681370123,0.0141820590534497,-0.00272631114965677,0.00051867356790287,0.014639339665911,0.00517749303965455,-0.000836892167571979,-0.00145543633605897,-0.00654142725575581,-0.000673449934583287,0.0124595596356323,0.00433202884481204,0.00941862324822775,0.0147874013885154,0.0196394489668282,-0.00506268053561084,0.000364385657177824,-0.00690825661246813,0.0217793012507372,-0.00288219049093076,0.0101570941663517,-0.0144429061578747,-0.0263512563757501,-0.00125051983065591,-0.0112720462657407,-0.00560115008662395,-0.00425828683814826,0.001597860115805,-0.0136017000387252,0.000111163087781217,-0.00956136345759026,-0.0017596792299496,-0.0138256850688388,0.013697266435767,-0.0081499414211765,-0.016885213062948,-6.86960687569784e-05,-0.0142065457503994,0.0144745576580301,-0.0142339182892215,-0.00590600710357966,2.40799132177319e-06,-0.0132088241093867,0.0172591819743232,-0.00880111507808522,-0.0170478331382711,-0.00434435367256219,-0.00352243879770843,-0.00509891226377883,-0.0157061502956787,0.0126155623856695,0.0141778499296576,-0.0132255806452215,-0.00994925167941547,-0.00294376001137238,-0.00255838530270219,0.0013666528344295,0.0112950211579236,-0.00351901099661783,0.0147906196092413,0.0034130243217953,-0.00156440186005321,0.0096333105773017,-0.000780011266206435,-0.0406937247699237,-0.0246929297420988,0.0205566409504091,0.0467483838611273,-0.0117728932722614,0.0268635792870578,0.0276582257320049,0.0355198734885639,0.0143417001366541,0.0058586017414495,0.00613012112707955,0.00611825654333696,0.0583762351849683,-0.0220097371272892,0.0211998909416728,0.000655422173080398,-0.00407161192173944,-0.0732260121270792,-0.0298061742906006,0.0368229633303485,-0.0270969180356848,0.0170294642029003,-0.00159100232398587,0.00861859876943394,0.00168400741435707,0.0494449130137783,-0.00826415531370286,0.0103148218008831,0.0167383844156857,-0.0678043950241211,0.008540401328863,0.028513930662367,0.0123289964263414,-0.0605287930759851,0.0193044824437486,-0.0114131977538406,-0.00808309555487288,-0.00539873810106348,-0.0108671229912208,0.0378600413392889,0.0236524123168756,-0.0317933931159674,-0.0394508388764859,0.0193500074415755,0.0052058964987632,-0.0196251418136946,-0.0326219816288939,0.0129975920289231,0.0107921246058261,-0.00939696227403333,0.00340753667770352,0.0487318244231471,0.0166493233864224,0.0161303405485685,-0.00166098793926348,0.00454410414168676,6.16238534289769e-06,-0.00154195827640697,-0.0271063368229588,-0.051372817338162,0.025216462184104,0.0101013895768669,-0.00581665076527535,0.00324031633148661,0.00967766014159319,-0.00102345128977875,0.0406613846250556,0.0331386359104986,-0.0106096404891196,-0.0101218457988325,-0.00744722118613072,-0.00615532677543197,-0.0333031407992749,0.00533750492201819,-0.0178036579530822,-0.0106343539073828,-0.0117298878004484,-0.0236812548688114,-0.0236346623708935,0.023319966879803,0.0493190852333936,-0.00383124042763939,-0.0457889439035477,-0.0307724507986244,0.0187271927178221,-0.0264583650324032,0.0158333348934214,0.0143023581462883,-0.0154069988899455,0.000452801047929362,-0.0509017287984975,0.00306229000989305,-0.0121112869870875,0.0538934686530471,-0.00135984623337261,-0.0364821737387953,-0.00334118570853443,0.0264228825639996,0.00357364488126227,-0.00650432475034536,0.00314092523369522,-0.0183151911372297,-0.00826941959191647,-0.0254126564369589,0.0175173064642836,0.0104339428175563,0.0254888373835439,0.00312229368800209,-0.0291918670642127,0.00359472400357077,-0.0189033883885158,-0.0115244503722569,6.40412921284055e-05,0.00997492692214393,-0.00762844835094235,-0.00852970319844627,0.0220204130559996,0.00416955977935594,0.0259667928411805,0.0271178038256424,-0.00664624097269852,-0.0296985666633765,0.0422535183578922,0.0207907170750119,-0.00583112534886842,-0.00400340485400622,0.00271032961919759,-0.00905132443223092,-0.0214157086116937,0.0118028560925683,0.010966848983817,-0.00855016416476326,-0.000722965352543306,0.0187310358046739,-0.0584839118650678,-0.00919909038575827,-0.0205629508207132,-0.03126229294663,0.0153545556289646,0.0106652288750365,0.000452268964928367,-0.0191924903965774,-0.0297376217367064,0.0230036762817009,0.00287255225512416,-0.0116290679036423,-0.0287799991312774,-0.0275952583070322,-0.0130962198764752,-0.0476169056860384,-0.0285495502712775,-0.00282546037122322,0.0128076576285546,0.0137292200579413,-0.00993785921094644,0.0166967668953804,0.0211881957976079,-0.00890249492013657,-0.0432042389432357,-0.0171033384525229,-0.00715441103301122,-0.0141638990048587,-0.00450206602872312,-0.0372295430444144,0.0054415857329713,0.00218517409882422,0.000945220969312038,-0.00667511276103976,0.000145047600145321,-0.00407468768761619,0.0219186375297507,0.0270130836878364,0.0582637208187253,0.0668506725879676,0.0215887789493821,-0.0028664460200524,-0.0293552609971716,-0.00715568425299947,0.0302791108678238,0.00226519067485442,0.00680483328901638,-0.0357601039704935,0.0214575973032817,0.0249250697930597,-0.043243316014879,-0.0521188813981914,-0.0234849957661442,-0.0187063330343959,0.0238140099845898,0.0377337175334406,-0.0154029606384197,0.0138732364574981,-0.00428148485409278,-0.00423413313772412,-0.0094655694905802,-0.0147542521456714,0.0363968134661388,0.0201070925934536,-0.0110083423656668,0.0186637582779488,0.0268039165077595,0.022709459542489,-0.0188829859979982,-0.0107666273457318,-0.00458132093894767,0.00637582112831206,-0.0222863857290242,-0.00106161877392489,0.000657379192073646,0.0119697853985336,0.0212068119305521,-0.00887129344920587,0.0170164288162785,0.0264987983422639,0.0106875244344683,-0.0102409598105114,-0.0397013451060893,0.0008442471788062,0.00798005221353657,-0.000697824901178945,-0.00451528798838749,0.0112186891941905,0.0199546644798666,-0.0151247019010935,-0.00402150838103641,0.0276410698261779,0.0014057687697163,0.000985896834929164,-0.00888799355770101,-0.0135647362140111,0.00624264623005376,-0.00146498429604587,0.00254155256173824,-0.0163008364290868,-0.00678382600359131,0.00919623725773366,-0.0221750749441167,0.0230988249665425,0.041397250323239,-0.00937166145542724,0.00146995670859618,0.00553615856933372,0.0239505437951782,0.0380861464702875,-0.0141022404256516,-0.0103582848612964,0.0240412990427143,-0.0179395217434109,0.0182521530740033,0.021888195764554,0.0154485765111811,0.0217120262062279,0.0121678010099899,0.0321319074748815,0.0194813591149721,-0.00715470075854808,0.0106932058657784,-0.00388331110627097,-0.0107791339248499,0.0207809690518565,0.00589792165717975,0.0442265979818358,-0.00117922588839469,0.0259494540311601,-0.0146250368525216,0.0189195150225254,0.0248499397817578,0.00285182949926461,-0.0105587518828966,0.0304359144363088,0.00113398708883435,-0.0094988100413632,-0.0113327778033281,0.00355557763741464,0.011707209054618,-0.011446351427202,-0.0124232401927841,-0.0175093899639422,-0.00921143540762437,0.0262123917748844,-0.0126139720582771,-0.0188253306033621,0.0108169140133935,-0.00488256059616218,-0.00790624036568859,-0.0209363272684857,0.0216615106425125,0.0402827942042547,0.0291669294355037,0.0229652967216295,0.053214918735428,0.0231333492989313,0.0396655839724005,0.0161757049417016,-0.00819811010908519,0.0291576295319237,-0.0152433125058622,-0.0122082115798996,0.0126030996361491,-0.00951090305980037,0.0452925584177437,0.0193959721246469,0.0284485911716257,0.0443447749986581,0.0158998724560921,0.0516596759369034,0.00181532297447932,0.00245693229771426,0.0119986828657726,-0.0057371345802754,-0.0102535618344192,-0.0226078969079296,-0.0243841845316805,0.0203646285731252,0.00916484071790281,0.0252174046299181,0.0340251513139582,0.0118399664342892,0.0186574122133813,-0.0280366573080129,-0.0260475696996539,0.0273902480171866,-0.0311214539908241,0.0137340599605168,0.0412170106746608,-0.00857744883490631,0.0298434212989843,0.0116472551694087,-0.00586115783082515,0.00580654567199434,-0.0326873280135856,-0.0144463235509475,-0.000774078071294782,0.0121584526123091,0.0192199447139911,-0.00887118760540924,0.0183968140652825,0.0303994886151284,-0.0159102389546522,-0.0556668086175268,0.0343031066355617,0.00242738004741617,0.016446666433871,-0.0121726178938967,-0.0862698269428128,-0.00725044914163026,0.00958880859183188,0.0052588797460636,-0.00324464394584458,-0.00754577835989003,-0.0402732632665948,0.000624963779933365,-0.00379411412463375,0.00795940853262435,0.0247709441871482,0.0178164172200761,0.00960372903026499,-0.00716368385274871,0.0130176656674461,-0.0298526293238217,0.0140089670050418,-0.00499319066497536,-0.0087269263733328,-0.0258579797468796,0.0149145605088718,-0.00337344734144254,0.00966940192054507,0.0213875056310364,0.00247641771610068,0.0105191572609829,-0.0121988264080384,0.0359888614544878,-0.0573618278546967,0.00101116642044827,0.00593318352044171,0.0100189447674993,-0.0134276409921161,0.0155180833784556,-0.00244500424438768,0.0202767222777797,0.015778045860171,0.00160202948058498,0.025697080921081,0.000104051885742551,0.00794604961763491,-0.0600687768654253,-0.0067629126055754,0.000635559199228464,-0.00229296600032128,-0.0326554493562755,0.0141337842422556,0.0102211876955345,0.0105800742846803,0.0331847365975812,0.00863232502600224,0.0134210399516868,0.00932508959128117,0.00971193173998804,-0.0359854440919217,-0.0104137067578753,0.000762353374625188,0.000231666754140566,-0.0304265838502468,0.00734567929849998,0.00839976319082513,0.0261610931934025,0.0218227171947816,0.0168549940711153,0.0178889000671714,-0.00786347249563984,0.0127087442630886,-0.012962113953231,-0.0048777900402832,-0.000905882500658855,-0.00909308262337092,-0.0190392447588125,0.0087352151758326,-0.0110364634843183,0.0271830701369862,0.02475853755756,0.0290030029113723,0.0108844090716755,0.0087796833791612,0.0287931684986698,-0.00544369282259219,-0.0296469112289044,-0.00973458271438194,-0.00026727838050969,-0.0286117664507195,0.0247103325241301,0.00201711282667276,0.0150154018264052,0.0211456211479372,0.0117828086435318,0.0248847913606542,0.00608484778119155,0.0132576300270743,-0.00808931481942963,-0.0329716656923766,-0.0103588201715097,0.00228872595229754,-0.0347486780222121,0.0109842814040283,-0.000130543121929065,0.0142428785843763,-0.000697994559780607,-0.00221236700268836,0.00763582376350336,0.0148868967038617,0.00245834149168366,-0.000445797957750101,-0.0273841413413146,-0.0074399387291553,-0.0144032600832062,-0.0337041771038512,0.022594212981812,-0.00677823021744754,-0.00157750823614391,0.00500556235381745,0.0208795265315813,0.0209448631698078,0.00613694363610851,0.00605246461035349,-0.0119179381035162,-0.000573741002949025,-0.0131928088440249,-0.0064041844987572,-0.0377168447669656,0.0121004168517816,0.0314980207493241,0.0445393228942557,0.0297483900070338,0.0385123620295889,0.0392998439229605,0.018009110016423,3.71187080702965e-06,-0.0241406245309968,0.00419117835500539,-0.00933808189735289,-0.011556844526997,-0.00994114535280963,0.025334675550551,0.0217122482950026,0.0321870481605518,0.0186125823221999,0.0695913492953878,0.0513790198893842,0.0350489716035091,-0.0217048895499391,-0.0293359594030064,-0.00617396808515635,0.0234709175776675,-0.00386126264150187,-0.0546916491361603,-0.058319555981818,0.00863586059120264,0.0140500005290209,0.0412515497092804,0.0474669359662845,0.0202925056332961,0.0168662601949057,-0.0183322447697299,-0.00470171917810672,-0.00786193877667986,0.00852051046127493,0.012265571660107,-0.0122991565153289,-0.0257544542713023,0.0190856372613698,0.0374910030517198,0.0576861098476975,0.00987010416915517,-0.0122797223323733,0.0378667024734404,-0.0158009489385794,-0.000443754427412268,0.000804574895222049,-0.0100772252839465,-0.00495077594721231,0.0233760289251138,0.00171032590609896,0.0180689262474063,0.000489414385793575,-0.00646193879256478,-0.016526972596606,-0.00968504394207448,0.047586385884653,0.00233623864295909,-0.00175274450859913,-0.00605934543249659,-0.00899906622194308,-0.00364728936417462,0.00869073563379842,0.00845882294592056,0.00311450933446734,-0.00822858950172081,0.00338284682512088,0.0037821109834177,0.0309485564450314,0.0120324127220827,-0.0062186510144516,0.00618807372586729,-0.00774595135956912,0.00472935301356489,-0.00249345261729228,0.00563723636607399,0.0274018542612816,0.00441970353016746,0.00948308308693136,-0.00115388135193642,0.0226445281148109,-0.00682818604500498,0.00643991782885039,-0.0191193684391872,0.0120203927767086,-0.0124754770096882,0.00608468571382906,0.0105625950718401,0.0512510663659094,0.0218253226096843,0.0147363736145205,0.0205263483545023,0.0319037201485928,0.0268400121732837,-0.0152539812840251,0.00123776804417464,0.000351125179544473,0.0206578756653153,0.00368640654867831,-0.0181562033427677,-0.00683742530409456,0.0310977690045941,-0.0042974624909131,0.00215364411976949,0.0140674389354935,0.0147190884302456,0.0118403681711702,-0.00548458061334755,0.0252700940948078,0.0312661636157817,0.0112684365359387,0.00364541734626668,-0.0227783685245569,-0.00872919940190841,0.00453380176269351,-0.0159367606653851,0.0211945285885093,0.0187407206772792,0.0135666813048154,-0.00957577827258267,-0.00143094044808922,0.00778830953862061,0.0168952586645268,-0.0100752072844574,-0.0132950490062131,-0.00593472680263802,0.00557140048559913,-0.0169677016360138,-0.00349059771255581,0.0201917546792475,0.0204466243719506,0.0165907487974033,0.00365299691964507,0.0175673314625434,0.0293933865338535,-0.00546113295370315,0.00252553928058767,-0.012512537202861,-0.00426837111574733,0.00456065079998262,-0.0100382355269609,0.0208878898028716,0.027864298933263,-0.00265228758612858,0.00701487510893937,-0.0153124695097718,0.0223042254480776,0.00819874731992374,0.00213229132919443,-0.00725363495252063,-0.000597992142071099,-0.00265737897357769,-0.00853343945262748,0.0107976718299455,-0.0013445449267289,0.0176192720378149,0.0226022072169117,-0.00264370214047486,0.00913142404174927,0.0280959143683089,0.0199613423849022,-0.00807632278618096,-0.00347263133934125,-0.0131528883187652,0.00600625662045435,0.010323442806341,0.00573799871773719,-0.01711782807125,0.013307464746407,0.0255758301541892,0.00253909086931639,0.0130693524871114,0.0127718109029263,-0.00279087948283398,-0.0100030466223049,0.0102033456669716,-0.00399893030140909,0.00211617625715872,-0.0165228622928068,-0.0180761451340276,-0.00620082802367348,-0.00723495475179115,0.00298725105302031,0.00239979744470397,0.00906127998046037,-0.00685170745300459,-0.000769808692295012,-0.0235326638934224,-0.019751650992172,0.00682328784994665,0.0298716142765089,0.00924671096136555,-0.00536062417459812,-0.00641977085045945,0.00223945633540225,-0.0200276028951713,-0.0172439884595818,-0.00871055162028281,-0.0333878622171266,-0.00447391919068308,-0.0119182001496673,-0.00491821290808844,-0.00695113649270075,
0.0261968564254374,0.0553633080997904,-0.0206240794996431,-0.0419796452626278,-0.00909114670315664,0.0206201116077186,0.0354747186554001,0.0228623808754029,-0.0884539090414269,-0.0682082296738772,0.0295882664840827,0.00370058404943016,0.0176074162216075,0.0132112946191106,0.0383136236914198,0.0407330514791128,0.0266179058952883,0.0659782726036752,-0.0323632900060154,-0.0127007552375086,-0.0719894596978428,-0.0701221230595989,0.0317792470336222,0.0298458441949773,0.0472296941616664,-0.0176980488453787,0.00296319545185769,0.0513657324508679,0.0384080131312948,-0.0459947298411068,0.02579880463077,-0.046005455180723,-0.0988836345281056,0.0167228340398586,0.00156883270186196,0.00434874326273833,-0.0467365378020828,0.0124095235883667,0.0138404500679999,0.0437299490239423,0.0326301612142127,0.0270795343914955,0.0498882720779837,-0.0575931855782843,-0.0751793733579789,-0.064277533230785,-0.0222421423462891,0.0332023027153457,0.00283329992997416,-0.0068082636207606,-0.0168851117652088,0.0199212661065322,0.0140187875089357,0.0233790958513887,0.00338956303358308,0.0369492542329233,-0.0917722154846951,-0.00672909815403048,0.00971956772427242,-0.00822201094353212,-0.0548501631076289,-0.0269995147351574,-0.0685618231493245,-0.0801516232640031,0.00879449281242038,-0.0572126485303644,-0.0552220427525813,-0.0314278405782392,0.00448109442620166,-0.0868450508497002,-0.111013883960941,-0.0640248282312355,-0.00961221150739068,-0.0747001893172217,-0.0656989870173462,-0.0922696997773124,-0.0583462240142347,-0.00559395151180388,-0.091724379102565,-0.04214624001461,-0.0709458007579751,-0.0473671703819351,0.0461053302764939,-0.0494216296369054,-0.0466921181331321,-0.0345586831155881,0.0126837100969562,-0.0547197186531168,-0.0248946966534116,-0.0407629253536044,-0.0616522515984335,-0.0123344218906725,-0.0282266004374467,0.0176109690941694,0.00114438658236498,0.0622696854229193,-0.0458629182091899,0.0643861213558636,0.0325880956456618,0.0674240385614904,0.0704846938976244,0.0213307678721737,0.0111288154474412,-0.0199580049693995,0.0502946397016543,-0.00442670657095942,0.0578951722461217,-0.0158161598906335,-0.0039595196148993,0.000602650338219189,0.0349838316484734,0.0480582967132932,-0.057042454126945,0.0479397340428004,0.00216379620735454,-0.00535425312806344,-0.00729242498344801,0.0660890836791451,-0.0360285442265558,0.0244473845275006,-0.0269401579634319,0.0394698962919288,0.0322609039059101,-0.0456595274445892,-0.0382400306234173,-0.0463090426884405,0.091605036955797,0.100515659739068,0.0535211663761474,-0.00257355648763126,0.00615094506010646,-0.0593087193299578,0.00047102253589017,-0.0288332587591708,-0.013136523336032,0.0516912755019179,-0.0207025277122854,0.117751140811199,0.0971885153067134,0.0646869234704763,0.0354083581806185,0.0831434557158975,0.00411968137824778,-0.0383475875885546,-0.0367286558965729,-0.00571020369910162,-0.0561388192185015,0.0139855782477437,0.031760158732474,0.0777196215467304,0.0790430535474028,0.0273518226879918,0.109271321602992,0.1054787031391,0.0253845512504392,-0.0104602693504622,0.0671263027772568,0.0439297470734348,0.0110855492784971,-0.054673440363202,0.0891842332417042,0.0402676589899842,0.0267342016049388,0.0588886207975197,0.0845698867034587,0.163810726134325,0.0866735718354777,-0.0387626098631476,0.0153459157743772,0.00574866288560538,0.0772441963161932,0.0109173022966212,0.0343163521836699,0.0499610538310006,0.00926638878977702,0.0730988341876746,0.0647337856845661,-0.0689209069765383,0.0334633784177574,-0.110599528312641,-0.0426183598071749,-0.017179212733074,0.037280447262173,0.0531936202073296,-0.050880771516199,-0.0406875929052914,0.0392571372798351,0.161037896354817,0.0353705734389341,0.00693599737161632,0.0451157858216778,-0.00103154672346141,0.0243315950984481,0.0565524170799215,-0.0319760975867148,0.00253955888908754,0.0861239804193852,0.0697654140890872,-0.0345154767203593,-0.096379139117306,0.0188666326861614,0.047657898589816,-0.0946602614047267,-0.0145664834153111,-0.0525621875873519,0.0488758194927053,0.000153429994107362,0.00965422632528717,0.0243513766752377,0.0340363197856093,0.0140169184731104,-0.0372032323238727,0.0120260327861237,-0.0163748570735049,-0.0878868762049753,-0.0650926538987055,0.00613325060143185,-0.021103050434035,0.0228552303316626,-0.023376971445209,0.0102907779029127,0.026387395858005,-0.00278184635166703,0.0263443030827382,-0.0393250658907669,0.0194828487036439,-0.0210867642916474,0.0564731045702091,0.035380519945184,0.07142239596416,-0.0953748264161047,-0.00899082300745828,-0.0200410316028966,0.0636734329036235,-0.0257508582804656,0.00436585297040922,-0.0301826015204235,-0.0579313839188433,-0.0668996217405542,-0.0400549854388556,0.0266165613121905,-0.0639396814746053,-0.0400148287969323,-0.0384539983913104,-0.0923333396106781,-0.0834196310092946,0.0209889272258031,0.00640401654654137,-0.00838614193620457,-0.10048555047253,0.000487851537221497,-0.0466711789843207,-0.0470179446335349,-0.0430804518284388,-0.0973574954711745,-0.103459758553438,0.0568340886855805,-0.0132585850687802,-0.0451982381761277,0.0778279509996011,0.00367913841219446,0.0291676865854841,-0.140705887129586,-0.01843661594665,-0.0248367295979739,-0.00445900792359116,0.0736823134377573,-0.0367193854396155,0.0181722941390447,-0.0284830700414163,-0.0342649667608297,0.0237244161213276,0.0692095459475755,0.0400132868249321,-0.0256812209143836,-0.0838650191613707,0.0301177915438533,0.0699832534674725,0.0649928590981966,0.0957302287792842,-0.0407401491066701,-0.0543772509916069,0.0138219503425314,-0.0903414755023221,0.00143771813598967,0.0512115442957435,0.0140828079329229,-0.0591336780975359,-0.0876078309207305,0.0426888813847962,0.0281024933502292,0.0701529516724451,0.116321933714415,0.0588232870681045,-0.0158274019389171,-0.000739572400028515,-0.0671968723744184,-0.00114419462403595,0.0542484144742565,0.0366243752969441,-0.0244669742353296,-0.0879029905297494,0.0278580522876228,0.0993680694494817,0.0729663943119428,0.0995053834186811,-0.0233159656837383,-0.0117403236991586,0.0487821668042292,-0.0137308403710956,-0.0282279220409769,0.0200800170636515,0.0128962637498087,-0.0340936928734507,-0.0444597079807273,0.0471925742518943,0.148498049287421,0.0460098205215206,0.0254924938412814,-0.0670546846219424,-0.00238093066467095,0.0743086834774457,0.0213778740470712,0.0266409926192274,0.00703550527503127,0.0300656990681667,-0.0894922758215656,-0.0856746967428413,0.0440608199085991,-0.0181398571831522,0.0575159258454218,0.0647913247372926,-0.0952057007045279,0.00337168770242358,0.081018860840983,-0.140451476825617,-0.00598211952612287,-0.00459341560045591,0.0230691450177086,0.0186724410163169,-0.00508923805609167,-0.124044698975879,-0.127082058805786,0.0990526737267704,0.0497826901918,0.0819490695576513,-0.0817083371695874,-0.0703754379859217,0.0358597020755754,-0.000560372467821538,-0.0097107317888817,0.031199969265999,-0.0321856171410144,0.0195103553697638,-0.0580671055821569,-0.0210622286005852,0.0464290592897787,0.188637257499622,0.00739326284339854,-0.0684818601684894,-0.0793561379478667,0.00679636592408704,-0.0137470724870094,0.0158100970336706,0.0190961369616869,0.0309258291829487,-0.0124423366063268,-0.0695596585335445,-0.101126735665129,0.0504097809956854,0.0349664368351781,0.0370227052299003,-0.0190868111934363,-0.104583185902524,0.0412770496495491,0.0179017395157845,-0.0123779582419866,0.0421226852735321,0.0375822812138502,0.00474876108132397,-0.0268036240240931,-0.0563960253312376,-0.00353780074781681,-0.0287985817406886,0.026606210989123,0.0826004325872472,-0.0218731453681141,-0.0209361583665429,-0.0115572311087327,-0.00279219350194668,0.0627891689379624,0.00573380720202769,0.033241660790858,0.0159699099888234,-0.0632561827546666,-0.00458384821970097,0.00804374888169563,-0.0898646147121362,0.0165347843476459,0.0361911794093747,-0.0984166574325809,-0.0249338258476613,0.0273132757313904,0.00636896899477007,-0.0248692549980779,0.0139338428001094,0.048817602858716,-0.140762696905691,-0.0540722310344904,0.0175098677937739,-0.0858544251077829,0.0288779260102645,-0.0296237335410965,-0.0383977167856129,-0.0313019170554832,0.0676950459818862,-0.0432192845982227,0.0410863212102675,-0.0184885233896596,0.0140454159267511,-0.0108404566766434,-0.0397546507782383,0.0364432963833103,-0.0012960900102233,0.0254849607147062,-0.0210107250724777,0.0129585903818907,0.00815501872282486,0.0579436052449021,-0.0318290415842281,-0.0164361891696368,-0.0448077042143577,0.0210988326760736,-0.0587519784407843,-0.0256618855897263,-0.119978281734687,0.0777121342388216,0.104925731960369,0.0544895893812477,0.0508881717488172,-0.0943321640442212,0.0942595574294053,-0.0103996336390285,-0.0653247982061675,-0.0497909573409576,0.0527628497692624,0.0888457923920653,-0.010414190606324,0.121737882069999,-0.0640580835840807,0.0157937680872065,0.00642513776528587,-0.0113474959703279,-0.0539417129982582,0.0288630440662257,0.048038294479456,-0.0517288295951961,-0.0648411698333365,0.0259607604898409,-0.024229675877795,0.0164841085768486,0.13580184462388,-0.0909482933192981,0.00880470738081971,-0.0150263100898653,-0.000729123916638948,0.017839432944908,0.0116174880904623,0.0281652580586245,-0.0547581552541628,-0.0712116084073319,-0.088011317337686,0.0346873766795312,0.0255719409826524,0.0430771640634448,0.0889746221307329,0.0435959298375125,0.0283811018020433,-0.0370266275823758,0.019476308906232,-0.00279147266792017,0.0109714260436117,-0.0562902624017072,-0.0684101681902836,-0.0852268234563433,-0.0247033456276302,0.000327690313194983,0.0410482176718448,0.089348709055162,0.0369571975436139,0.0118532976090212,-0.0139436139545518,-0.0272428680606512,-0.0708884934336173,0.0409453578658947,0.00834340731201317,-0.0353981722332457,-0.0986266974648105,-0.055946166182957,0.0217395378450129,0.0509429112722339,-0.0392011463158505,-0.0104373440580286,0.0141470051791053,0.0104194760144092,0.00573940915089797,-0.0379943709399354,0.0122518436120156,0.0154938309018783,0.0643757920424652,0.00523259232143683,0.0325395594154607,0.0277343054490217,0.0510136352567255,0.0665403610324934,0.0331263630451088,-0.0497600798170273,-0.0717243677347354,-0.0333537829142635,-0.00867639667962447,0.0498840060280984,0.0440843488045443,0.0719948527833809,-0.0208263356598674,0.0303655674085149,0.0483083560997669,0.0519086967550515,0.0461224797560713,0.0584224515475556,0.0452667619784762,-0.0240290696000403,-0.0167202239756783,0.0418530873453353,0.0529666577351871,0.0373245748347899,0.0690625936848488,0.016432818145353,0.0310298238033411,0.000574850391866123,-0.00588676821569811,0.0101869775836865,0.0720161601966606,0.0310951754042771,-0.0101652443073825,0.0179970338671904,0.0245569384475178,0.0331784099170101,-0.0275283774965829,0.0427112163265826,0.0412979231676495,0.103992416366467,0.027833810098619,-0.0162322099966439,0.0357276247898837,0.0887257103330823,0.0527183299381753,0.0419954629348553,0.0884664208660691,0.0753440528063716,0.0581846994428097,0.0530601519369124,0.0322462595691847,0.055181708988634,0.0435144591248667,-0.0103217824321732,0.0200750202415651,0.0177143090871167,0.0487490211462462,0.0478644078418624,0.0408562618900085,0.0390503310524611,0.0962160441052925,0.0578453942276659,0.0561617349174972,-0.00659132742972282,0.0349679633378184,0.0494111791836829,0.00276480274143856,0.0419886770575854,0.0021118817231601,0.047357575765433,0.0322662820545764,0.041843366485415,0.0915514339420498,0.111582760806164,-0.029780624352072,-0.0372796898084558,-0.109407685767485,0.0163348958243216,-0.00190969978837253,0.00647483875686686,-0.0238017562293444,0.0166202091751315,0.0145487800503585,0.0580777768736707,0.028845381187618,0.0250259235726531,0.0662217115536972,-0.0356669052633721,-0.064653759057655,-0.0756479139075263,0.0108552319750036,-0.000825181622101195,0.00176342759090789,0.00122279309690177,0.000198077994096235,0.013095089502305,0.0545837950803587,0.0143527938232659,0.0650767306651332,0.0533464877166298,0.00400986836880657,-0.021845945800777,-0.0921206154059528,-0.00309453495077061,-0.0434982847971037,5.14555472492347e-05,-0.00643277071405148,0.014810069563181,0.00908154906029699,0.00169484447352,0.0231123426537046,0.00628718323404228,-0.0110840978063643,0.0375153991208138,0.0195894131268209,-0.0777007292103879,-0.029310449726303,-0.0272540827424993,0.00421439229266026,-0.00512792613712722,-0.0254703149948898,-0.0252901490152177,-0.0417510932186049,-0.0117770286576135,0.0213318353451587,-0.0102457970283315,0.0286060079852839,0.00631312347332282,-0.048804617339052,-0.0185299910013122,-0.0652127982493901,0.0163706529770511,-0.00593052536559426,-0.0181589586142236,0.0146692356619567,-0.0332116261634401,-0.0229903092404653,-0.0147716982916155,-0.0388451322903703,0.00820043824237679,0.0126346826822065,-0.00521273358470988,-0.0329391339479391,-0.0358787478796237,-0.0215897447682556,-0.00456895582679336,0.00952089441605662,0.00073717845735878,-0.0448883498371176,-0.0181351236392016,-0.0631931575318498,-0.0374978268209671,0.00576666878882151,0.0365795341479447,0.0389971590531194,0.00568883982376088,-0.00251420460131149,-0.0139314439051955,0.00475509904616048,-0.0262440646906806,-0.00981945524060996,-0.0593882232823999,0.0191036553510408,-0.0185985399978358,-0.0451207677006363,0.00146166208640735,0.0181488318573046,0.119183383766715,0.0220709706916093,-0.108308061538873,-0.0166307016014828,0.0115861610912249,0.0490722757696959,-0.0544296148927069,-0.0561601708957841,-0.174006455028668,-0.0321930802592375,0.0319404913420889,0.0288542899407233,0.0695047038373107,-0.0439811669823354,0.0666496901627121,-0.0384199492972261,-0.0154570339789073,0.0457584603693875,0.0556611010307781,-0.0696649889937672,-0.0308628923779524,-0.0598423962831557,-0.0817411831370398,0.0120314994206024,0.0497483457062156,0.0350857027557198,-0.00542178227553032,-0.103323701392366,-0.0285535426977417,-0.0583064061785878,-0.00711573861931995,-0.0294920278146996,0.0294696910609413,-0.0145942410602476,-0.0078383579585554,-0.0352257378845016,0.0193714473857916,0.0850997012157238,0.044101160340112,0.0543562618558347,-0.0423585419433644,0.0290935813814448,0.00272245211953009,0.0580351904571072,-0.0109859587702627,0.0428172964272891,-0.00996018834663228,-0.0105664266673699,-0.028194574456137,0.0205612110041622,0.101046195144842,0.0737518292879796,0.00645864923357611,0.106774232909975,0.00928555324620292,-0.0520845675523441,0.0458880954673233,-0.152899943499381,-0.0668747513356472,0.0488397889898362,-0.000256495204623253,-0.0802189595166862,0.0643236118355981,0.130282995511543,0.027212256583025,-0.0858337258320052,0.0660558450022394,-0.0118187829828906,0.0470668560717103,0.0750181083496123,-0.102960811546402,-0.161585602624966,-0.0976551362709301,-0.0436025905187342,-0.0475367857522428,0.0659869100574002,0.124560452714172,0.00947007750918165,0.0421633882814406,0.0175625768353878,-0.0877662252119411,-0.0735579412499076,0.075512019738556,0.0138431875315061,-0.150715102434181,-0.0741422932602571,-0.0828495785011359,-0.0659551456825014,-0.0446713978634269,0.12244986378688,0.0217482304995063,0.0791977622497147,-0.0518972750553549,-0.0633326537534597,-0.0841453134205019,0.0577231379790929,-0.0648523357236453,-0.0503139629038534,-0.059823822401868,-0.0624900286026162,-0.0350337343979381,-0.0445745942947225,0.081226298599352,0.0155589901492059,0.00693984829597635,-0.0730087074853828,-0.0721831176333165,-0.0516596245047948,-0.024831391780361,0.00895335193648259,-0.00120786431059045,-0.0187733427391195,-0.0015635967039203,-0.11419610897453,-0.044915838614382,0.138597517165325,0.0333402208702585,0.00654822838197781,-0.000998070869050492,-0.0861559341124315,-0.0545320712165919,0.0978611028108297,0.00678067368431478,-0.00489148352731053,-0.00709237380009878,-0.0582063303274987,-0.0415422147761787,-0.0430237698214334,0.0915084343586157,0.0260066353050988,0.0952495890671113,-0.0125869490945521,-0.0097610493201901,-0.0564730176923677,-0.169339821149783,0.0455049808294619,-0.0374710526983469,-0.0664217696779478,-0.00451543197061294,0.0169946820765184,-0.0666967119758919,0.0217432155842222,-0.0287466534670721,-0.00546959169808202,0.0761602716228628,0.0480178214027039,0.0351515264207631,0.0982074577357919,0.0522274817444451,0.0198026927596555,0.0106001288111696,-0.0290090214336503,0.0234724192538499,-0.0219521239141541,0.00191735059673442,-0.0118342035242304,0.097430357081594,0.0901056784923067,0.0154070815703377,0.0766342221573309,0.121510343054108,-0.000694138158486347,0.0800786322214372,-0.0244061990142516,-0.0389846303664775,-0.0125523303016701,-0.054109783282426,-0.0058064901930218,-0.0101968669041111,0.0422328464180985,-0.0213311014210997,-0.112374165552929,-0.0216515669646606,-0.0542488081967032,0.0483204964701408,-0.0111899428308189,-0.0756033851357151,0.0297637266805009,-0.00619512332715294,0.0158229921902014,0.00972224149976076,0.0380579130363384,0.021100327495596,0.0329436517165944,-0.0224475357624051,0.0175571453325468,-0.0454224619871354,0.0629842720853848,-0.0897927066855233,-0.0104803839393491,-0.0487107162041426,-0.0365451521413611,0.00660915929805034,0.0193796858989421,0.02818441419857,0.042252329281348,0.126149363747112,0.0363468218805279,-0.0572031476212288,-0.15955640004034,-0.0321621810412331,-0.0553825783631734,-0.00121522829524709,-0.00949042055455361,-0.0197274048917829,0.0378615721451424,0.0309034039807732,0.0341911091269579,0.0110762784186112,-0.0262873887754138,0.0471771783631616,-0.0411764417945145,-0.0715635367177724,-0.0232668940682104,-0.0310672215934502,-0.0316530133299582,-0.0765968354758513,-0.017356417758089,0.0114501814258256,0.0362911648974896,0.0652098728596321,0.01746799654227,0.017784009792488,-0.103501327807082,-0.0198156190183277,-0.0984812428065889,-0.0672353986534013,0.0125413550457993,-0.0176798900653516,-0.0318377026924578,-0.0224344613346419,-0.0129578791023272,-0.00217063850191548,0.0243577455265963,0.0809644117327329,0.111475890685963,-0.076727364007066,-0.0139510858900156,-0.0435913199664543,-0.0548226946662191,0.0693473249309905,-0.00597403337473861,-0.0021157348558367,-0.0353530676230715,-0.0739017098584062,0.0128463696568554,-0.0255196425285132,-0.0320075151542841,0.0220402688101082,0.0430298505067825,-0.0957877951726764,-0.0237448103160943,-0.0342560339797685,-0.0302597548902029,0.0759805580768075,0.00386790352515139,0.000379043243131359,-0.0231479527891489,-0.0085059805819645,0.0661643389502502,-0.00147803035959518,0.0590986985080371,0.0204695439157821,0.00103399149044948,-0.107331626474074,-0.0179758519802853,-0.0102224998979009,0.0782085634300002,0.105517139123284,0.0175010692204606,-0.0251316220289992,-0.020668885318587,0.0172411956463827,0.00779558291815559,0.0271802789415398,0.0285169736498129,-0.0276614907404709,-0.146573702845275,-0.102807082690832,0.0400354852481932,0.0270492207605967,0.0675049267782063,0.016391712541357,-0.0147204647696929,-0.0368280786761468,0.0481918751408555,-0.00112473548317068,0.0121824963235131,-0.0196841151429088,-0.00867478611741791,-0.0233189991382694,-0.0440499173497667,0.0254751376140179,0.0337065455016359,0.0524088349492602,0.013845305145174,0.00119489189417848,-0.0036830896230739,0.012094747164692,-0.0916968099906297,-0.0256663644442711,0.0734458807266158,0.0135152897859965,-0.0458583005243701,0.0247288988800731,0.00531975697559486,0.0358910628231582,0.0243044465108553,-0.00241071766887947,-0.0051698074938438,-0.0220717707175086,-0.021000684285166,0.00643201481510885,0.0265395154583917,-0.0220922401281341,0.0537030555374829,-0.00472223234869178,0.0932976355259644,0.0820771046006995,0.0347182832194393,0.0411464806168547,-0.000237402445051442,-0.0444546718344754,4.69396613487672e-05,-0.0232822234489454,-0.0598599049373294,0.00433936585701855,-0.0524467138286713,-0.0204335084826183,0.0866158151985687,0.0719068839861646,0.0709189391797643,0.0561204491479141,-0.0237253071842814,-0.0730709735772564,-0.034968957736689,-0.00864802941978926,-0.0249163175438139,-0.0224682404922124,0.153091366664523,0.00510430808605523,-0.0710253133451904,-0.00678321147187494,-0.026498048821182,-0.059201823188151,0.156875978006925,0.00559727414132766,-0.0583965536400631,-0.0506728083616483,0.00190838371239236,-0.0380122215089005,-0.0363570512878762,-0.0043555452692522,0.0332331577937727,0.0220371283700195,-0.00421435196458388,0.0101456420605911,0.0500788450789767,-0.0121078652037519,-0.035358866857347,0.0102599148426292,-0.100491914368638,-0.00224500509970171,-0.0321448482693335,-0.048282606341204,-0.0805670954884861,-0.06974942287363,-0.00624193718893347,0.0106647620714832,-0.0693935884691657,-0.035960470737365,-0.0172364811036303,-0.112061900057894,-0.0297138563208168,-0.0582967781418878,0.00983186308125001,-0.0276440165471012,-0.0256175290146401,-0.10151306105589,-0.09292859991719,-0.05051066589771,-0.0577203985188745,-0.0580164061818428,-0.105237064489789,-0.0652914561829296,-0.109998752205428,-0.0117663100844498,-0.0193068973869783,0.0012298560531138,-0.00902844638829305,-0.00653466685234342,-0.0454701778145339,-0.0535512199415477,-0.0516386242206906,-0.00994221592194463,-0.0831517433012029,-0.142441272794952,-0.0513215989617708,-0.0895115434900682,-0.112033538904452,-0.0519072013336322,0.0129503518009907,0.0126025857396274,0.0264015180410493,0.0343640733726779,-0.104332235890109,-0.0528224334295518,-0.0567263776214335,-0.0850888335809183,-0.0799416746923681,-0.0462195332348103,-0.0779904501368908,-0.138343409716889,-0.052419222458927,0.00763651752169431,0.011464248770441,0.0298213557606792,0.0530614536680004,-0.0609893681323701,-0.0678993594918333,-0.0384321160092771,-0.0769252345033619,-0.033137890896452,-0.0450967164002212,-0.0140377645274002,-0.101949814846171,-0.026660235386212,0.00511393610543832,-0.0292253508118529,-0.0560846381626766,0.0205400861332401,-0.0145194031211212,-0.0509441728802267,0.0133596733654665,-0.00861294634211394,-0.0100643195835111,-0.0348415400284748,0.0200143008219515,-0.0917170341505217,-0.0788316494791279,-0.00910241375789604,-0.00184006917927265,0.0297525423726339,0.0119355237078653,0.0293358307766282,0.0361588151459275,-0.0146307357546386,0.0256266883077814,0.0118201339573639,0.034072706550768,-0.00546396951101623,-0.016932860989062,-0.0158309951486121,-0.00270450774969149,0.0236867139652784,-0.0216927590541259,-0.00859817317113754,0.102653763742855,0.0466915357867406,0.0278287197097335,0.00542392506730349,0.041862196749547,0.0610107705445571,0.0318462882349424,0.0470494959137133,-0.0368200973958103,0.00718149565626879,0.0291680542868266,-0.0962709780172619,-0.0439693432943418,0.0524143650923598,0.0971153352306637,0.0616388954559575,0.0292664262840186,0.0151133644701048,0.0789712586132832,-0.00818373270203774,0.0613440136194386,-0.0318418514738388,0.0113300116449111,0.0256399271497425,-0.065846423928994,-0.0616723341166755,0.0660760845810515,0.174503901172317,0.0586205711692659,0.0504101618465136,0.0867841416499563,0.110654454476894,0.0425851420178181,-0.0182414062069861,-0.023649951845635,0.0026248174210785,0.0343171336873495,0.000513618507585844,0.0932212888692376,0.0238707122682262,0.145187398023766,0.055902925248753,0.0480454677377373,0.087722419962898,0.131429384622253,0.0184888053658876,-0.0776041462849531,0.00260984964710428,0.000116279105108832,-0.01702624358491,0.0203270921292557,0.00564467706734855,-0.0273792642511889,0.0295245564823638,0.0076929752481614,-0.105661052032922,0.00143640315655124,-0.0393136239161513,0.0218856551028826,0.0519884384708479,0.0109448263005621,0.0254429497554651,0.00221114975033351,0.00934663266916946,0.0160201200240555,0.0674985236449271,0.0146592454017679,0.0820081614408361,-0.0345740898455303,0.057660065265828,0.0241348186778727,-0.0341325161772699,0.00819718470436599,-0.00168779323188995,0.0379062480994057,0.0280364552088818,0.0803754658881342,0.037757438698336,0.0550173628791621,-0.0212599064331721,0.00692330858683324,0.0972252208393943,0.0552666231223565,0.0308411589879162,-0.0590151582368104,0.00910248152522821,0.00390386535770542,0.0551892692058073,0.0285316214452527,0.018335234951357,-0.0663060449305888,0.00085717133061299,-0.00314431559236349,-0.0150414428900975,0.0389120591886247,0.0705330133196331,-0.0308135175991997,-0.0313076719187168,0.0304377237053235,0.0294952956843248,0.10475685111181,0.018027666243986,-0.0019161113808764,-0.0183605253985343,-0.0471558024829727,-0.0358460277785267,-0.00349588337310211,0.0435401040985121,0.0353626641564009,-0.0071076761252212,-0.0110083094279198,0.0148403669882315,0.0108166242445656,0.107176492087453,0.0595755633387181,0.0272630582311548,-0.0243819741835418,0.0471287743101962,-0.0659712806203934,-0.0245820835094592,-0.0181349217772962,-0.0355544715266716,-0.0395280452711639,-0.0162591348677314,-0.04612961822818,-0.0171737980988944,0.0589663981510117,0.0284864113489005,0.0219911854937362,-0.0329146041641569,-0.0450721549435973,-0.0336719149171681,0.00583094825478746,0.0563727435724439,-0.0299892927903925,-0.0350363986585714,-0.0225376326971231,0.000486804292688452,0.0020986447165976,0.0567472477928422,-0.00323806028851458,-0.0650691110952643,-0.0498912040005488,-0.075452634680433,-0.0285832012569366,0.0065753018771683,-0.0209991652126316,0.0193948382507776,-0.0316422534110899,0.0429422163501232,0.00770898580294405,0.0556939635496808,-0.0168701542421461,-0.0132408571923891,-0.0204047379359831,-0.0162115964248367,-0.0391094100681312,-0.0363687605422899,-0.0669807982988808,-0.0054220448719317,0.0752511765736427,0.0303978016683606,0.0569307561293725,0.00845080248980482,0.00695823469293889,0.0617993536991938,0.0124956077659054,0.00639706940388217,-0.0319040763240567,-0.00181248297705068,0.010844992275045,0.0406298260693577,0.0235979053056625,-0.0462802604936147,0.0148602968019231,0.0570152843298745,0.0570617305031192,0.021811017636192,0.00513631115907185,-0.0665677331323757,-0.0333116926280336,-0.0197918126286241,-0.00147512790020323,-0.0477572266097223,0.0166881803156223,-0.0175901833728143,0.0144540384759317,0.0945592433360201,0.0774820927929608,0.0199067485646666,-0.0179351143290325,-0.00297173374635207,-0.0115768384316236,-0.0183817286359025,0.0422113996695686,-0.00855051845745817,0.013433126638876,0.0108333493855992,0.0504703539675542,0.00705358532840537,0.00965351905237456,0.0386260398795999,-0.0107902967989952,-0.0291858364387382,-0.0487187463745965,0.0186521929909803,0.0662268614285443,0.0371507132784644,-0.0170390746024547,0.0320791584116834,0.0472891544958704,0.0198865453829728,0.0613239802101975,-0.0132782450525528,0.013517533493756,0.0196196246765939,-0.0587935178499987,
0.0150181990634053,-0.0160268609850687,-0.0266221839188876,-0.0193563761055688,-0.0940021577446248,-0.0874132762712784,0.0866723576410726,0.110378993747111,-0.0629485904322726,-0.177337673286884,-0.0780581629562596,0.0163464797615258,0.00156868570082461,0.0313547870460734,-0.0196319051337351,0.0662282877199459,0.0644793474135289,0.0274517394074873,0.0880278046369507,0.03174537388375,0.0385500080163194,0.0582729143964708,-0.0495047305704854,0.0228985590596307,0.0433738213789156,0.00973988406231896,0.0175751857026996,-0.00138484941234432,-0.00603657184935334,0.0617045524781882,0.0265669943291637,-0.0120898892475037,-0.0840726652466513,0.114300163249971,-0.0545303581956026,-0.00349852942082271,0.0380015636056557,-0.00504579030890089,0.0185040808664418,-0.0183043448815992,-0.043594467060681,0.026093970498131,0.00577484139662417,-0.0028392561368575,-0.0156116135324482,-0.0399398104301862,-0.0158997912627503,-0.0405929724094525,0.0145845135543675,0.0477415750307005,0.0152981414090697,-0.00996026833175342,0.00714617760993881,0.0441211587450703,0.0763084464874881,-0.0671400777227817,0.0313694949600414,-0.0125584857627265,0.0808816876210944,0.123993623880948,0.113667577171998,0.112823209615741,0.00797371374082838,0.0307565704648067,0.00287333190466762,-0.0126355913805112,-0.0172791593422509,0.0143678312732266,-0.0537583849126718,0.119333711928461,0.0787617169768053,0.0607557354615919,0.0651291754270055,0.0364563933303171,0.142567607345342,0.025664170338484,0.050063719321759,-0.028518386113159,-0.0254528214795909,-0.0908520118046631,0.0302426455231902,-0.00895504318247463,0.0355013637441024,0.018880085319263,0.0328052126157047,0.0339557932070947,-0.0039578962451594,-0.00530824116450431,-0.0933774010091987,0.0077345099821402,-1.40335507821556e-05,-0.00139140773173926,-0.0634020232939109,0.0756425620669211,0.0312306777101678,0.00535530551237616,0.0498776293023629,-0.0411151598884608,0.0473880585990044,-0.0460411054994797,-0.0303239071220338,0.016525686301125,-0.00371150021448156,0.0167793007867532,-0.0385414662874119,-0.041069586826837,0.068393617932876,0.0444948567456489,-0.107590572824166,0.0496973989322455,-0.00113461774403961,0.0152837410166436,-0.053893439929174,0.00585411501480847,-0.0199148916193193,0.00604614975889967,0.00737887868394988,-0.0101792141605603,0.0120299113205523,0.084088613331371,-0.00657788832400972,-0.0194464584943783,0.00210258505364849,0.00328211238605521,0.0235448017938876,-0.0095532486564339,-0.146679788890829,0.0402082134745105,0.0132493407267212,0.018672726744084,0.00918767898842795,0.019035718938247,0.0907356124492679,0.0291959667356511,-0.0611881515306583,-0.098912477701803,-0.0344141354572772,0.0274834341398762,-0.0741552399526321,-0.0837328901868201,0.0299878770842809,0.00326797817391784,0.0389074095899936,0.0213272185024971,-0.0050610696916957,0.0573068167980775,0.0580001735267324,-0.0958240477546618,-0.0312370218656102,0.000263608592311663,0.0194211557642229,-0.119323424752593,-0.041712411081524,-0.00849730045183086,-0.0178643472018205,0.0413807782419713,-0.00204463487368421,-0.0092670262231764,0.0720910199904187,0.0177496355493813,-0.0442342818012034,0.0346833823314367,0.0169579267866304,-0.053364260733365,-0.0666401462298872,0.00141373259525109,-0.108967090960978,0.0302980015790762,0.0126188032692345,0.023533417181062,-0.0360083970058211,0.0176729926536447,0.0186745948826677,-0.11765108656847,-0.00206979579145686,0.0104962718059231,0.0270659516506343,-0.0034186769541834,0.0774677885987477,-0.0429314729635951,-0.0156111586754583,0.00760580341488893,0.0359455242860179,-0.0543582036444048,-0.00789159484691871,0.128398561560406,-0.0202207659480438,-0.0638508139746425,-0.00481324488120203,-0.0229567414025292,0.0210490739203823,0.0624326543436466,-0.0270343408692398,-0.0294559769744663,0.0107249912109711,0.0108790836983678,-0.0591006080500177,0.00281285017180442,0.0105941313425455,0.0863194479515952,-0.0413532565348607,-0.0143608820285674,-0.0499909550371621,0.166740648859143,0.0136856150446305,-0.0666167771358319,-0.0263899299999439,-0.00588086952582613,-0.0441007273894485,-0.124961369661634,-0.00563275099208631,0.192891777202547,0.0925550256244612,-0.0123089113218412,-0.0236224898493059,0.0316808065228329,0.23125641546389,0.030160668902896,-0.0680162741726464,-0.0333858910198888,0.0183467815151576,0.0222868784731563,-0.0306026307316263,0.0341092304206545,-0.0494550217519327,0.00939702618816866,-0.00677880163371632,0.00781132649274174,-0.0140503096622734,-0.0125267900199829,0.0340031047288297,0.0348224792074784,-0.103851920925468,-0.00286187705644607,0.0212390406778312,0.0376390041395579,-0.0408074328426486,0.0709882477782981,0.141119296337106,-0.0581439397020119,-0.0279811351477642,-0.0722051361809928,0.00760941402123168,0.0692184502318112,-0.0712798873539703,-0.0537988719550697,0.021510798694814,-0.0137306685318004,-0.054552919599615,-0.013546218785423,0.039106704774159,0.0647101166101523,-0.00856137831296893,0.052022057638798,-0.00256215785323122,-0.01017085972919,-0.081112601972659,-0.0436719417166144,-0.0534054862104662,-0.0199867615511286,0.0137259694435815,-0.08957541985486,-0.021175055984823,0.0567501814201057,0.114174520760807,-0.0789848534398871,0.0221450495232563,-0.0246491795721235,-0.0523201833455541,0.0649099927282224,-0.0573552065376956,-0.0094704748604527,-0.00994877366737848,0.0272153199422124,0.0083737834910146,0.0128030171699133,-0.0406751832628426,-0.0911562881509711,0.0813032756574457,0.044113576689349,-0.0330905885158266,-0.087998341472085,0.0367706243940798,-0.074101063270294,0.0223062641385318,0.0161126481267658,-0.032890801205552,0.0442764642216908,-0.0277027350733114,-0.0667037912383684,-0.0139547345815142,0.0122889520065021,0.039795964295104,-0.017327351074268,-0.0577332002454967,-0.00528062995691514,-0.0584499911783991,0.0571268709825196,0.0454733419854042,0.0212013912421071,0.00805863726724516,-0.0880538166088445,-0.0703302754389458,0.00763109085523137,-0.020675412121052,0.0718235792695575,0.0278548963496966,-0.077389499302879,-0.0414999346604536,-0.0724929881548023,-0.00389083170542637,0.0215155121315564,0.0408266541629234,0.00511052411595777,-0.105879355302485,0.0386002005965452,0.0745898381011354,0.00492423731560607,0.0521316670015077,0.0914673553109747,0.0234219847023169,-0.0570158761467536,-0.057482034982001,-0.0575868997789728,0.033435984250564,0.0412360856719218,-0.0277059493983624,-0.0540933144429722,-0.0811001099817049,0.0146801014452813,0.00308642700783752,-0.080197758581861,-0.0375632051128712,0.0299715721851075,-0.129525368302569,-0.116727920465656,-0.0383309411775012,0.0278384593899101,0.00892382525195695,0.00714920340268824,-0.0483890690795932,-0.0110669245558861,-0.0995958788373134,-0.0215297949235201,-0.0606604894544302,0.107082864570493,-0.0035093454067876,-0.0782524403646817,-0.0222861389069888,-0.0141327824447151,0.00579559991115218,0.0291330862409079,-0.0248339857111727,0.00094412067488715,-0.0295236400701818,-0.0124761549093734,0.0444931546593015,-0.0691750725995831,-0.0289249871968625,0.05325605470407,0.101732183539547,0.0128185063376288,-0.0255728517978219,0.00798016891087694,0.0454425419127866,-0.0172866130508345,-0.0138971540816491,-0.143654392840472,0.00351633638264537,0.0110347940407941,-0.141703940308906,-0.0343340624725776,0.169193083498291,0.0467651860981642,-0.0241008034012795,-0.106372030510434,0.0594306978566937,0.0532911775839804,0.0437360859144189,0.0250947527214431,0.00798193166849333,0.0444063102585101,-0.104674267827182,-0.050865271892105,0.00173405360293543,-0.0151138334148704,0.0646125754839215,0.0104497115229715,-0.0219610243527501,0.014139512070488,0.0310632508753389,0.0499779757272742,-0.0105309728108142,-0.0259036111022331,-0.116357206569531,0.00488952654085934,-0.119719340355343,-0.0638657153626501,-0.0507307372073473,-0.000859815537312491,0.0343868441751987,-0.0166480084578219,0.0197685275355578,0.0341441436027477,0.0322319383826461,0.00265448031866704,-0.0694514310823904,-0.0644867281329425,-0.0503434665148461,-0.0479124736447536,-0.044960395361584,-0.0192935532167032,-0.0739128697212079,-0.0123638471066428,-0.0472812039230445,-0.00851808159569504,0.0439828244366216,-0.0689063334448327,-0.0573027432014364,-0.224091649667226,-0.0228764444401905,0.0201332258231685,0.0430843141398242,-0.0716015304145666,-0.0351935055443914,-0.031298297862526,-0.0806713708244605,0.0163553053022765,-0.00637254903449612,0.0655003351614255,-0.0963153489003927,-0.0734767443526176,-0.213959173440193,0.0510538450641015,-0.062167291374902,0.0793590933260732,-0.134187985907653,-0.066056332526675,-0.0195094962990787,0.0227852030275862,0.105395143132808,0.00212316212749743,0.00280990728069412,-0.0498763023211944,-0.0251601133852606,0.0298575803830115,-0.0115035739923176,-0.0124347556826647,0.020698880253818,-0.0576974362834133,-0.0387845987960435,-0.0778912078408035,0.0697062899564905,-0.0173277404183472,0.0606648838073311,-0.0399057116937269,0.0013043081894408,0.0462299829721838,0.049550163794651,0.0226684226136193,0.0870456607393026,-0.0191932511991732,0.0911219725404443,0.00487223931757054,-0.0482532511803812,-0.0197438359235726,0.00484610531468122,0.046427348062082,-0.0504382941971413,-0.0250148318651675,0.0100147130580963,-0.0168040245561808,0.0574461480778424,0.0890637120510162,0.0412154803570236,0.00465769242249755,-0.0158900337684365,-0.0496530622622824,-0.00255281130790782,0.0059994210946272,0.00586516791398784,-0.0400611211088507,0.0133737316623258,-0.0440572801676601,-0.0393433136513243,-0.000919375067017992,0.091496616716405,0.13264215969227,0.0374666074936409,0.0205369680609117,-0.00215469935171093,-0.0283243032166804,-0.0366599265771123,0.0197489014401131,-0.0211887637259162,-0.0169577200496152,0.0305185831546434,-0.0288241655062343,0.0478747969041679,0.060591874318961,0.105998024312642,0.0823141675272939,-0.0207910362121609,0.00837978502276796,-0.246662444054224,-0.0925359920908206,-0.00736128469437619,-0.00252926653020079,0.0304406172568381,-0.0136730992194543,-0.0115889422245287,0.0375187213529722,0.0347101198993536,0.0595038398116247,0.00728699609863947,0.120341933289757,0.150937646532161,0.0526082975803235,0.0324133291193592,0.0269194821398026,0.011279500415642,0.0297584322959911,-0.0142510625022538,0.0738583541082372,0.0235477878111652,0.0035678261639663,0.0308013976823879,0.00218553006327316,0.075386265949957,0.0959657259829262,0.0302991497233876,-0.000389780858494266,0.0600278622456714,0.0199977526699952,0.0604749162551183,0.0515473605528836,-0.0459837227699947,0.0514945994309362,-0.00143798806179361,0.0518572310356537,0.0594401227811054,0.0343813798732496,0.05497333372628,0.0261327588062484,0.0283906765319987,0.125563413620117,0.0493377504658844,0.055804126461629,0.0667103629174791,-0.0508575253275633,-0.00380269703702753,-0.0105379093637535,0.0541859089700755,0.0170011224153399,0.024286197848006,0.0197037787375555,0.0400233386768031,0.0781771381086952,0.0842778747594935,0.0291254840281209,0.0637450336228128,0.0912061533260808,0.0372536729148485,-0.049439977777709,-0.0316001671888905,0.0335308481856783,0.0407852501613422,0.0141910710625812,-0.00944308980116833,0.0359486159249512,0.110110963229521,0.0801314333628601,0.062894396567671,0.0610774560334037,0.0120376418440671,0.0183950824358672,-0.0346065999982334,0.0147820590935791,0.0117095661897799,0.0273957883813974,0.0280013016343951,-0.00345024887618058,0.0482004324768427,0.0138393788052984,0.0620177601800678,0.0461585540276052,0.0235482172975988,-0.0262957472181982,-0.047651302587635,0.00350001134019268,0.0192188702927922,0.0309490745896555,0.0312988804214104,0.00606416504054435,-0.0275541018556495,-0.0690687620324605,-0.029536739609218,-0.0331430690819338,0.0611457995090037,0.0221477509432656,-0.0143781233233199,-0.0519839530071216,0.0312226849114992,0.0563877163536498,0.0318345132533123,0.0187768081935312,0.0254758524614789,-0.0547941761166905,-0.083640157777151,-0.118608740250145,-0.0432875145840906,0.0509103177919012,0.041624145859491,-0.0114980096002136,0.041433828622735,0.0580455182390525,0.0556561232159189,0.0422410004798517,0.0525848955657081,0.0510599668003565,0.046192687527264,-0.088547152512507,0.0118480574940222,-0.00877759197446142,0.0221354667891976,-0.0152816210980764,-0.0358406053210871,0.0330523394571125,0.0841839526372204,0.0677009462462098,0.0401045316759251,0.0361405611678801,0.070107071939049,0.100491083411672,-0.0548894324925474,-0.0162441362206124,-0.0368088469964861,-0.0151378351227344,-0.0202049248745192,-0.0156954018783071,0.0648227911783859,0.0638185848134803,0.0492072589212332,0.045138596422505,0.00145011815791734,0.0474669971693902,0.0470648093867247,-0.00414808725955459,-0.0343378335666208,-0.0265353978956567,-0.0193913172625495,0.0308294257297044,0.0315065240495487,0.109918354184911,0.0849192630268783,0.0606701925578182,0.0231012871218043,-0.0226653393681536,0.0589785364777506,0.0763784952427807,0.0478097168850815,-0.0290879568319737,-0.00633217816297362,-0.029230443340751,0.0040136901212221,0.0250629873213727,0.135257240785023,0.107291016976566,0.0963677299719487,0.0570949871974235,0.0211583301042983,0.0743680047690932,0.0366940922105347,0.0707409824034702,0.0488046802659664,-0.0125762999967685,-0.00662189741804997,0.0438174944739512,0.0882803806884348,-0.018505229940336,0.0250240868144063,0.250253943486643,0.0447912728507347,-0.220059094740086,0.00207163337853417,-0.00384781881788866,-0.0383982717849735,-0.0643378966432569,0.0421750859458713,0.00724423738433907,0.0504046454057744,0.0377261670488545,-0.0448610241627179,-0.0316876779995588,0.00832728571779845,-0.0681515754879644,0.00810196945678688,0.0143981857707633,-0.0564862786166467,-0.0874093113830161,-0.10473117057532,0.0662730872725016,-0.00130469670283037,0.0611079938550079,0.0789767309233104,-0.16420044803131,-0.0115560051662002,-0.0064529965472476,-0.0594333361599907,0.0866124061452279,0.0705290693622321,-0.163000217994884,-0.106389641243656,-0.106640588687671,0.0601100896483894,0.0259680697643744,-0.0040988117237773,-0.0145366522064514,-0.0774520454536159,0.0552335978717489,-0.0471214540719446,-0.0906284137977993,-0.0429623041268741,0.0815656585410336,-0.0455957387694012,-0.0500943897825972,-0.0470358345212013,0.0646817529121366,0.0147682938058866,0.00392337929511131,0.030578537570811,0.00319617948479616,-0.0634647505924915,-0.11176667265909,-0.114406100971539,-0.0578878851246823,0.00556173635688098,0.0435496636417013,-0.0284947494423676,-0.0412237167165285,0.0694039363744418,0.0507285629305896,0.00572978877680386,0.0103617047486085,0.0192085917637731,-0.0969228801576753,-0.015252329366347,-0.075326454686905,-0.067892765858957,0.0489964616690099,-0.0667941880600873,-0.0187087765711107,-0.0332400291752078,0.0405961384922247,0.0686967828566171,0.0123065914049155,-0.0250253693419721,0.00172099986261732,0.00567907956744409,-0.00556455870769923,-0.0137177779094842,-0.0503685591061288,0.00908234988093105,-0.0449857491009187,-0.121420604197529,-0.0731654909191943,-0.0304331118610842,0.0887328778069837,0.179360627507233,-0.0217685426499466,-0.142799376497722,-0.0240984755707428,0.0213554004429255,0.0380540570466379,-0.0266342522181652,0.0979278804664066,-0.00560862994396947,-0.0456402053434129,-0.0258156369056502,-0.0469175655144208,0.10920509217186,0.0917774770473507,-0.0163319982988842,0.0266625634958153,0.0572371203880402,0.0208752022299287,0.00619511111405189,-0.0320171606553045,-0.022195247334497,-0.00589152881053245,-0.0133298574055023,-0.0509127543170331,-0.0610300205629357,0.0484554092927424,0.0355520089925279,-0.0255243887890158,0.0427177738757214,0.0601902776193912,-0.0221409620196366,0.0805424194495395,0.0243190726362355,0.0691571388798455,0.037652048301784,0.00175587505172484,0.00338852746194713,-0.0425492842619892,0.026491218276054,-0.0633817449220265,-0.0167289224515173,0.0289014550712154,-0.0381702350271042,0.0639867706154701,0.103995638005036,0.0149755035277226,0.0550454006302517,0.0485725464835186,0.0106175389037982,-0.00599590155850795,-0.0459827545878249,-0.00782287939017636,-0.0560759221384963,0.017930999267882,-0.0804854903718824,-0.0498899411782648,0.147013982382457,0.038361334330181,0.0570324152244926,-0.0472393605330183,0.0152486604601214,-0.015304605251398,-0.00840771718330883,-0.0357687011701665,-0.0099693064845175,-0.0820511768118658,-0.11903448483517,-0.136665963032017,0.112142785401945,0.107545848041051,0.0574618312949488,-0.0360505222423467,-0.0134205432964915,-0.132301544234255,-0.0924037970761341,0.0289656872587202,-0.0387703815481769,-0.00718296530631951,0.0146056341060918,0.0422127615272689,0.00592946911035103,-0.0600204104716016,0.00205462820706145,0.0714950365497781,0.0851333032815154,0.0597667358427062,0.0598323470509348,-0.00693535494460875,-0.00178047756000159,-0.00910543105741924,0.00733022748560191,-0.0252970264987219,-0.00457352041273353,0.000182474959222928,0.0162642967164855,0.0207878349092825,0.00653336446954554,-0.095393077220679,0.0344742753136356,0.058559678174386,-0.0415104101493056,0.0112815099912738,-0.0063331606281961,-0.00313221029585865,0.0358179536161026,0.0222614178202716,0.0810942202978324,0.00479028173420171,-0.0571374315014694,-0.0297575203106431,0.0908555572285179,0.185430921434945,0.0130255819558563,0.0388358086135341,0.00298205420311064,-0.0106341595650715,0.00357148749350907,0.0110885124885209,-0.0219051450979224,0.0661345325352011,0.0425867985128549,-0.0588253082117296,-0.083116365983303,0.0689284349354606,0.0027073664539794,0.10651961910931,0.0562817788079099,-0.00940898011623404,0.026491894751946,0.0149214048945558,0.0512262237187877,0.058555434441589,0.0468472301806476,0.101551057437896,-0.115566729718209,0.0959369844389553,0.0965852677500283,-0.00344710395670201,0.0442644272741053,0.125829848980504,0.0505876327006741,0.0656989173504097,0.0301859400624107,0.0693080457254525,0.0735110800262488,0.0372833916789966,0.0740691326102522,-0.00350846267210856,-0.00635925533365962,-0.012006724551271,-0.0242351321334376,-0.0231228218765385,-0.00597132618627641,0.103369563435183,0.0264583799706427,0.0106094968017529,-0.00096106635347832,0.0851531587417671,-0.0294343245576353,0.0807921017247521,-0.0518042966263435,0.00486525512348009,0.0273480439679144,-0.0548836650322258,0.0053038034446355,0.0569972366718438,-0.00973913299703964,0.000447085467521587,0.00339743523714357,-0.0184594146940526,-0.0685639841582895,0.00276530083815411,-0.0765432952533409,-0.0151474426681981,0.0243766377984707,-0.00756862773434936,-0.0340601712730081,0.00881203543367068,-0.0594445831903639,-0.0601435557914569,-0.0533999865025999,0.0300412515265544,0.0138725056809036,-0.029444400716159,0.0226337983498656,-0.0311577964264939,0.036151609321512,0.0854076393367821,0.0399579736137043,-0.0265712330302608,-0.0782055189786277,0.0399448192619994,0.00869960148166908,-0.0297678744660546,0.0215168840347229,0.0188913162798923,0.043767601623484,0.0822549787031363,-0.0679147547378515,-0.0627342877330973,0.0584151455674325,0.079177475304952,-0.0332994767889432,-0.051226053425853,0.00569697224862995,0.0409604040572362,-0.0486233676976605,-0.00412105591225479,-0.059802504033666,0.0045398267099867,0.150505125111565,-0.0243536824508159,-0.0387101010829152,0.0552247667179036,-0.0261128815788151,-0.0151289726976157,0.0228543948734585,-0.166150341943,-0.0313856664344152,-0.0668130979296626,0.00521519632449249,0.0158728152187135,-0.0289626805100704,-0.0699772845657322,-0.0548866325783274,-0.0556438699321541,-0.0922666647158903,-0.1421715994291,-0.052834289609247,-0.0479830224480177,-0.0308555356538252,0.00478377978209308,-0.0164164400155511,0.0168079897784393,0.00499102159035912,0.0270944352791528,-0.136890646888963,-0.1960651112828,-0.0190654004884573,0.118686310903331,0.0296213990703159,-0.0413163143045895,0.0160068035032632,0.072022883743317,0.092361287459773,-0.00385895090719757,0.00855008847262562,0.000633234400177566,0.0398524269251898,0.0560928545686666,-0.0510263947062032,0.012324409870246,0.0887299781853706,0.101841436531292,-0.0587285141534791,-0.0286159317843348,0.00240350871710349,-0.0383961963488391,-0.0136066760745247,0.00758910950052115,-0.00987534124060115,0.0123120970431751,-0.000360469932130429,0.0211695802839616,-0.115568563560302,0.0196504058404127,0.0415433186402436,0.0704526926209017,0.0480350366893618,0.095457211120451,-0.0295161253006191,-0.0628335592457067,0.00155069391346234,-0.00292586016754009,-0.0296959553180548,0.0267814580753489,0.00453475591636934,-0.0502608254304245,0.0144962993854002,0.020755768449181,0.00337537804793391,0.133366998154627,0.0640295987490662,-0.0258304771727392,-0.0806900176213147,-0.00691686091703629,0.00188597750486098,