0.0191486578433979,
0.00425579851253071,
0.00689884162702796,
0.00287396031385573,
-0.0303857451726184,
0.0113955321210667,
-0.0126109174893251,
-0.0201326042187681,
-0.21775589975069,
-0.0129214596143345,
-0.0203456670619021,
0.0185268974119019,
-0.0228254845809836,
0.255749812661091,
0.0271465155932646,
-0.0475093079704269,
0.00480147996794799,
0.135543962604622,
0.0337808357885605,
-0.00390559051931718,
-0.0440189588381645,
0.00463629415065248,
0.0494772388557569,
0.00853597796136254,
-0.00699357834243587,
-0.0122464002387686,
0.0010350034760366,
0.0191574965452151,
-0.00145060714362559,
-0.0129421427064065,
0.00527573031998836,
-0.142855368585181,
-0.00342535618582479,
0.0221782173544868,
-0.0129444549788037,
-0.083440808726313,
-0.00469696452279193,
-0.0376163260965569,
-0.130583352771341,
-0.190355208862315,
-0.128159633586103,
-0.0570674528201544,
-0.019842855379657,
-0.195534638791664,
-0.0511112435971116,
0.0282171769329882,
0.0458657485395443,
0.0405403373991431,
0.00139572261475025,
-0.0119909669530989,
0.0349784280536314,
-0.00574124272635969,
0.0138738342899215,
0.00638913047127899,
-0.0687038345598141,
-0.0153933456742177,
-0.0449252186543872,
-0.0117036037011902,
-0.106433709854712,
0.0388846191215826,
0.0256068505413404,
-0.0615355256562233,
0.101547625084977,
0.0365280233678485,
-0.0292641946887987,
0.00952040215511282,
-0.0695670908091832,
0.140806826409312,
-0.0143680326524423,
0.0300252181360747,
0.0122315682032029,
0.141216567963348,
0.0178503078693827,
0.119599382564983,
0.0111345120034903,
0.037147608663657,
0.014252699885423,
0.00155994452916438,
0.00480465831451888,
0.00249557564616101,
-0.0129466640974581,
0.0101749520546643,
-0.0117263588280678,
-0.0363584939563579,
0.14466448692017,
-0.0239506214346197,
-0.0214105314148741,
-0.131941272773242,
-0.0638506728463778,
-0.0260789497702983,
-0.0531988020553086,
0.0425583473819884,
0.0446848231991354,
-0.0278642936979931,
0.0221172945783615,
0.049714387155163,
0.0453203260122405,
-0.0469536646443152,
-0.0232326844874139,
0.0164451600523399,
-0.021829308190262,
0.0360959178375085,
0.0528424431136114,
-0.0141404844153093,
0.00281911953283619,
0.00303359921189274,
-0.00190374157146257,
0.00167749997567105,
-0.0965299045210009,
0.0195045498444267,
0.100153258944063,
-0.0228664613901209,
-0.031081616464575,
0.166589995582881,
0.245072194293058,
0.00637868066755317,
0.0887199376702536,
-0.0498263215623622,
-0.049206791683349,
0.140497950954725,
-0.0323095661772953,
-0.0284288453468036,
-0.00360561939561725,
-0.0329809859133351,
-0.0509248150218863,
0.115255634839414,
0.0012201896255096,
-0.0487533044881674,
-0.0289486607157886,
0.0524681704398036,
0.00235833933393091,
0.0191420549182866,
-0.000848264772513094,
0.00168089708658215,
-0.0207817317608341,
-0.0161065201898131,
0.141388760470219,
-0.010123584170296,
0.0532601848454244,
-0.0460039466276387,
-0.027804528724481,
0.119356111567015,
0.0285289638862409,
-0.0552208937325027,
0.037737080256133,
-0.00290295473810648,
-0.0207625568871847,
0.0408420295174561,
-0.0539430607937452,
0.0775706304389598,
0.0293549109093896,
-0.0315659989553025,
-0.017049342115746,
0.139526551911577,
0.00519198650542232,
0.00815162240905944,
0.0119292487822994,
0.0018128012479424,
0.00730528988877338,
-0.0159036006767591,
0.0631259800387453,
5.65857294418791e-06,
0.0496201093112964,
0.0173547295117462,
0.127254174057469,
0.042802362556537,
0.0354324471888803,
-0.0225772462795305,
-0.0190866938269167,
0.0180208399637717,
0.0437638415795274,
-0.0471558000272835,
0.0748935709331904,
0.0158118894760463,
-0.115652718606916,
0.0349696947218968,
-0.0263660119824178,
0.0475118297747158,
-0.0669768529603036,
-0.0229632521548315,
-0.0295633596139619,
-0.0207830062320868,
0.0191358646152076,
0.0122330854432054,
-0.0177301400143221,
0.00892684642843108,
0.0143654766741713,
-0.0150986098777128,
0.0142293879483473,
0.00969602255981595,
0.0232664108444144,
-0.0516282659504056,
0.230495993277356,
-0.0305968877170479,
0.154852739936229,
0.0261431453255603,
0.00792537669396313,
-0.0199310619753395,
9.72522564294515e-05,
0.0358220570560451,
0.117587353197241,
0.0154465741180158,
-0.0226263622060171,
-0.0211718527341072,
0.00859505704195802,
0.16047027314427,
0.110081801633351,
-0.0207978824386128,
0.0121899197535539,
0.0181592255651972,
-0.00169602296724431,
-0.0233209545987017,
2.50407914117764e-05,
-0.0652525472800633,
0.0286456209672539,
-0.0325081906598204,
-0.0366232719668737,
0.00746175257748521,
-0.018177984225016,
0.0205041351979527,
0.121374766248679,
-0.00827737038424495,
0.242851765383677,
-0.0747676130519577,
-0.138342619332545,
0.0426927094669034,
-0.0420113830810703,
-0.00718227552780067,
0.0239412355421085,
0.0230218885964978,
0.0382283286760157,
-0.0146565278088132,
-0.00756623918173731,
-0.0507250428982522,
-0.0248054542592055,
-0.00965874450397467,
0.00216407640738706,
0.00555349468247441,
3.08594985010197e-05,
7.07181909818575e-05,
-0.00744790003464837,
-0.00328194807849129,
0.0573533934390287,
-0.0302634627892083,
-0.00434292155387433,
0.141021922654508,
-0.0453618167520039,
0.032546590859117,
0.0406337158073656,
-0.0538516148853089,
-0.0588978960136729,
0.15655467268513,
-0.024186912295659,
0.107675208278378,
0.0413697744124741,
0.0529672097195843,
0.101404462378527,
-0.0215809008716672,
0.00827411568434538,
0.184671292619528,
0.00406882621855808,
-0.00321216248218571,
0.0822220572906574,
0.0116823117669366,
0.0248619464069082,
-0.020336395267112,
0.0139423000276329,
0.0131714339957899,
-0.0407582902761715,
0.0124523234420155,
0.0944028194251125,
0.00622869983193574,
0.00111668062340459,
0.149805550334706,
-0.000589169416256772,
0.0426007946160911,
0.0677653122945005,
-0.0272585763455566,
0.187520231107316,
0.0801271411946834,
0.0202462491091427,
-0.00470528216861917,
0.0167768762811345,
0.0129841051540736,
0.036174934346912,
-0.00623816069800369,
0.00654391814284404,
-0.00796538330466744,
0.00105990846736639,
-0.0520017050166739,
-0.0545224128361064,
0.0148155994825682,
-0.0301898012380257,
-0.0290530251839748,
0.185001517107168,
-0.0363209229918978,
0.0294017705531131,
-0.027443213681113,
0.00244309991750037,
0.00262914833261367,
0.00884526987917328,
-0.0138006630335846,
0.000656857673935923,
0.020659490458445,
0.00926677166501082,
-0.0504012028124872,
-0.03062071935626,
0.000490947376388126,
0.10381752821055,
0.0143658664512113,
0.0118090688797393,
0.0439672562798776,
0.0172796551521089,
0.012243111126826,
-0.00496287169174684,
-0.00807563338902834,
0.130697089810982,
-0.0422825242676237,
-0.028339286645826,
0.0197587130835865,
-0.00910823692205816,
0.0208462242503472,
-0.00267261306845464,
0.038182222485176,
0.043840565755772,
-0.0130370128737819,
0.0126393300794066,
-0.0864987025527091,
-0.0973239413186907,
0.0679508857129962,
0.0515007939444742,
-0.0209425017793727,
0.0168588971827631,
0.0204434057485064,
0.10413901388688,
-0.0532638055660575,
-0.00546886454468539,
0.0368524181685684,
0.000464698243278715,
0.0263432458136457,
0.00604414834853489,
0.000287205513807911,
0.017948217630494,
-0.0595365427285356,
0.148821218886401,
-0.0238640797675098,
0.00518282349761468,
0.0227746585637547,
0.00800293044742238,
-0.0292350006793773,
0.0501483043205111,
0.0139453966769117,
0.0439199730031938,
-0.115774821898096,
-0.0568920898443751,
0.0932291229831261,
0.0214136939602478,
0.00102580547831916,
-0.0162462821118056,
0.0255533267724867,
0.0454335376417492,
-0.00509626757810787,
-0.0211418275554915,
0.159318063106147,
0.00581414736683004,
-0.0220793330070522,
0.00719154871735241,
-0.0229884186395161,
-0.0373460792485279,
-0.0378782708013748,
-0.055981564060542,
-0.0218717606192843,
0.0198991131578313,
0.00393397527517745,
0.0138958257705446,
-0.0194827128954674,
0.0380116287698734,
0.0151050534672734,
0.0932802561254949,
-0.0117485436694668,
0.0956434050151418,
0.0270391004017675,
0.0398986607449298,
0.011565812823994,
0.218616486525351,
-0.109628654727543,
0.0281980121359902,
-0.0142763822594143,
0.0523982499448253,
-0.0469067226859903,
0.00581947221009063,
0.0191398802437792,
-0.027551372447593,
0.107521244773699,
-0.0152582037730483,
0.00673747248172915,
-0.00540942612238143,
0.0260094347283726,
-0.0187210672874971,
0.0141861310422476,
0.0893565310337108,
0.0266431288329919,
0.0225869762988344,
-0.0104230810389253,
0.145182705942117,
-0.0401185654125535,
-0.00242751339823447,
-0.0515883012493413,
0.0271372483122796,
-0.0091294365187245,
-0.0246098492797341,
-0.0453817827006099,
-0.00551466976912382,
0.0409481054529798,
0.0424954220362581,
0.0310664623292764,
-0.0141155825807482,
-0.0126683187749443,
-0.0271716777140132,
-0.0336177058293039,
0.0478984374745857,
-0.0177570237765698,
0.0145761122306414,
0.0118576789383062,
-0.0111576309813523,
0.00639889334622382,
-0.0155049835319039,
-0.00500090165284698,
-0.0215470407275844,
-0.0567429724922746,
-0.00201173674118367,
0.0559837343304931,
-0.017957880063064,
-0.00935983850533481,
0.0151665929982005,
-0.0208191698161798,
0.00258910441304986,
-0.00290970384763504,
-0.00828441058859594,
0.0796298283712608,
0.0087556611282868,
-0.00769841109196075,
-0.0140808777086999,
-0.0107893478798464,
0.00204545582367425,
0.016422992567812,
0.00762082118994007,
0.00481571588690972,
0.0145403332456406,
-0.00184095139549457,
-0.0122925581159278,
0.0334959542883,
-0.0155752298970066,
0.0577715085578922,
0.0225928825140029,
0.152468875581356,
0.118884638204412,
-0.0287143972154889,
0.0135140360603988,
0.0455788107690691,
0.0562918429248632,
-0.0547454929976949,
-0.00570926242003155,
-0.0137716983938356,
0.0368938860517464,
-0.0365561522158659,
0.00213743270516756,
0.0348013744477359,
0.0343578063054808,
0.00367610677934436,
-0.0506893720510799,
-0.00518208219526186,
-0.0474521497597273,
-0.0353381772750427,
-0.0530311435124329,
-0.0289587569006027,
0.0652135490476374,
0.0652696199510487,
-0.0143997032873086,
0.0561557234021033,
0.158935825617207,
-0.0170067282090313,
0.0348978701584043,
-0.0129919917217751,
0.00415992160377423,
-0.00356983337460989,
-0.0175528047673,
0.016820496017304,
-0.0187037798736611,
-0.0236629404940216,
-0.0412739540804539,
-0.0241765208202642,
0.0209987751055928,
-0.00837326504180251,
-0.0170356614783601,
-0.0194878889459335,
0.0528458901090882,
0.0292538151296656,
-0.0155776554911359,
0.071217164825473,
0.0474973818457509,
0.0163098677917648,
-0.0353889048553586,
-0.0346215569557217,
0.0308593775580842,
0.0615037899416067,
0.06844124419738,
-0.0226824657786247,
0.159084057175333,
-0.0335775152740562,
0.0744830168049784,
-0.0193898607014008,
-0.0373428880671278,
0.0184609806386942,
0.0157631528360801,
-0.0095173882495199,
0.000688135679434936,
0.121008971234456,
-0.0114327549095599,
-0.0114114640036782,
0.0406181986576709,
-0.00912257298818063,
-0.028440065479922,
0.0658502243306619,
-0.0166921603739873,
-0.0125618887629897,
0.00866146384978161,
0.020560193444457,
-0.0405320544046185,
0.0252454027969147,
0.0408692643435556,
0.0317740162052779,
-0.0435746291123356,
0.198143840432244,
0.0114873650911734,
-0.0134208798846933,
-0.00445597326273213,
0.0172684632037457,
0.127801555314324,
-0.0290518319246403,
0.0156442677912352,
0.0461132489943206,
0.0081545335452795,
0.00972643100013733,
0.046566292152102,
0.00113140958122037,
0.00563173233399776,
-0.0211829015316878,
0.0571880256558399,
-0.0535128233056502,
0.0194462762976314,
0.0532000304514173,
-0.04438624322381,
0.00581001001560369,
0.0787567217857744,
0.00891346508282975,
0.0251048638081562,
0.0053149602330166,
0.0385830622087017,
-0.0240593523250292,
0.0289934296576721,
0.0630125790879435,
0.00191241519037557,
0.0160374623931081,
-0.0685914630667414,
0.0484209162675778,
0.0460840217840709,
-0.0478076017484217,
0.00994652471625609,
0.0548899736574349,
0.0279547050961044,
-0.0357547729260039,
-0.00621741162166576,
-0.00384268720934955,
0.0136947898179527,
-0.0397148058593687,
-0.00644417120099243,
-0.00676502286893842,
0.0313284820511092,
-0.013271869007743,
-0.0266422098519923,
0.00613352796709375,
0.0824522121066916,
0.0157147051646406,
0.0598189525818867,
0.0846605482188261,
0.0170618847554111,
-0.0108949459880123,
0.00464189240602276,
0.00962328212066073,
-0.0374386841156045,
0.0271200354631994,
-0.0089938983587691,
0.00899855496488819,
0.0236245585839036,
0.0489965871992634,
0.0185280509400652,
0.0213240578169318,
0.0111468907841726,
0.00755201310597299,
0.0147565950742544,
0.0170509966032951,
-0.00807183229968784,
-0.00777120705630333,
-0.00703276342460382,
0.0173579523512323,
0.0849811794567105,
0.0385471864801516,
0.0577835096298969,
-0.0245815718540316,
0.0176743636707357,
-0.0178006560652627,
0.174199808722079,
-0.03341429319651,
0.0388716530107109,
-0.00728555875869158,
0.0934317175259914,
-0.00165648920080182,
0.00842884928058965,
0.00848016908414615,
0.077132140155811,
0.0377532807675965,
0.0339507895141411,
-0.0061275733104482,
0.0158995714258471,
-0.0585201284153966,
-0.0182524552057614,
0.0123547718619659,
-0.0107473628263727,
-0.0276294993411789,
0.0120599487809309,
0.045982684047327,
0.143683613125104,
-0.0345803303656304,
0.0163970942609682,
-0.0393759710794613,
0.0650219564501148,
0.00254953129223794,
-0.0351485182728722,
0.0365114312047782,
0.0492803101792917,
0.0882494445727442,
-0.0929857050385504,
0.0277597794618462,
0.00776869208202847,
-0.107471453548768,
0.121448667576284,
-0.084606949554922,
-0.0349490521869473,
-0.0347712375318494,
0.00701789651864621,
0.00524062829891924,
-0.000997422853293836,
0.000425462619353744,
0.0140533138820881,
0.0747304735965913,
-0.0291768472862276,
0.0436048910940411,
-0.0369605001906352,
0.0223217358621669,
-0.0390947832699873,
0.074435782089764,
0.000423739101716197,
0.0790632941878353,
-0.00770458607664818,
0.13312352863019,
0.00792679007239086,
0.120895918422986,
-0.0158558910733103,
0.18706355497477,
0.0452447690389686,
0.0322541630939644,
-0.0188463714937574,
0.10972721162179,
0.0242734492320064,
0.0508022212027645,
-0.00230083563402683,
0.00752750129698694,
0.0232835519625803,
0.0232076951650411,
0.0362129896746277,
0.0730160738626346,
0.0470150784694408,
-0.013467680531328,
-0.187717613864789,
0.1777860455105,
0.218759759673556,
-0.0870348668928686,
0.0760627419211037,
0.0893543578106864,
0.0625325674814154,
0.219714043385398,
0.184015502646647,
-0.0107802213400628,
0.00610103664350136,
0.173916243928487,
-0.0221504496858094,
0.056135618127239,
0.0284324682476509,
-0.00289132242051611,
0.0031109860735159,
0.0330352398963255,
-0.00204510386073647,
0.00752361558166639,
0.00577697133169151,
-0.0868325204765956,
-0.0419378958314448,
-0.0169029891574659,
-0.0588891071005691,
-0.0359307768171149,
-0.038142638086683,
0.0525706523834204,
-0.023112061439479,
-0.0271435354744957,
-0.117065287708987,
0.0147997413482354,
-0.100255940249867,
-0.0798787671712435,
0.0331453951062151,
0.0721705324960834,
-0.0208421901576492,
0.0144924526537979,
-0.0506569193832914,
0.0606088564693361,
0.0373979610692019,
-0.020860423539869,
0.00148198315226181,
0.00462901779616438,
-0.00231181505539955,
-0.00230486727968156,
-0.0211606241906271,
0.0368069225333203,
-0.00781075557207652,
-0.00779548824939988,
0.0772696049244236,
0.0873710692103018,
-0.0904523855454669,
-0.050589366022011,
-0.0335145376654698,
0.00949111624382933,
-0.00818040988993476,
-0.0534414860904409,
-0.0191061047350422,
-0.047115144297555,
0.141021921816544,
0.00227840211299411,
0.0839008502027431,
0.0251190431718614,
0.106041187979137,
-0.124213067417478,
-0.00547622644949807,
-0.0394163056717492,
0.0226406379665606,
0.0421213098062461,
-0.00231073818009948,
-0.00229913472675229,
0.00111585471919777,
-0.0732785929636423,
-0.0212291427930086,
-0.0211324658284945,
0.00356857464065476,
-0.0385259075832806,
0.00826681935033343,
0.12934529654623,
0.0515574005809789,
-0.0283642631091048,
0.00295812406688905,
0.00281593609636636,
-0.00156757008487823,
-0.0306085864764483,
-0.02153426051518,
-0.0611423259270133,
0.0828628373808962,
0.0538740337368566,
0.0935274562283585,
-0.0303235681837003,
-0.00428309023649957,
0.0905544572969692,
0.00133849029967552,
0.000270909954032423,
0.00970972736665462,
-0.00627929643457476,
-0.0141832677415897,
-0.0142243060622246,
-0.0964212158032323,
-0.0250833561020683,
0.00472954725056988,
-0.0112674997156637,
-0.00696567710748171,
0.0403591334835256,
0.0329721007448558,
0.00120850369142796,
0.0631547604411252,
0.0585679033925504,
-0.0311821670921346,
0.226520241743496,
-0.0317822462714293,
0.0337999943377651,
0.00328283950268939,
-0.0633373124827393,
-0.0308680177538832,
-0.0316526673538123,
0.146089764829686,
-0.012423918157743,
0.0418228360733538,
0.000386481492128519,
0.0272494049942557,
-0.0107989047179477,
-0.0142312599468558,
-0.0142462844423456,
-0.0483580460738159,
0.132937710427032,
-0.00403929312218435,
0.0084467539391518,
0.000956495456267723,
-0.00457503348803594,
0.0330079169418043,
0.00902626671950362,
0.0181736184094069,
0.0578781109953683,
-0.0221301279170523,
-0.0468597844495798,
0.261565576936014,
-0.0206713288011543,
0.270246099156021,
-0.0140065953905273,
0.0258962259094089,
0.0072235076866821,
0.0146723704143677,
-0.0156792355844416,
0.0111254644432595,
0.00790115560843621,
0.0115089832433521,
-0.00636635984071904,
-0.0272632201602037,
0.00505699774636767,
-0.0382265286124209,
-0.0304365500239087,
0.0583327505285067,
0.0252272739741341,
0.00726612187472754,
0.0085435894124005,
0.154821688776303,
-0.07063960260246,
-0.02145496538497,
-0.0656532058147122,
0.0212890738532165,
-0.0669934505950041,
0.133680060730522,
0.0239825559625244,
-0.0554977500495063,
0.0212002981652957,
-0.0179322114895903,
0.0607211486190917,
0.106620298482804,
-0.0270980379647817,
-0.0150878026121224,
-0.00708860124351762,
-0.00685789191803426,
0.0136428186330334,
-0.0236878530595946,
0.019567225613899,
-0.0219479838662193,
-0.0220385425489499,
-0.0150361661804458,
-0.0761237340657187,
-0.0113899185631062,
-0.00424871298504932,
-0.0672493652840915,
-0.113696166031415,
0.120508734744439,
-0.0973203935579822,
0.128112075342526,
-0.0127013401051516,
0.141928402794712,
-0.0649157738745843,
-0.0719369115989711,
0.429507612822875,
0.00868185318919184,
-0.0171852208182673,
0.00698897253760864,
0.035661589048372,
0.0709760358765036,
-0.00827847629613273,
-0.00052917482366558,
-0.000532733016442152,
-0.0461537159446615,
0.0928971596782055,
-0.0123732828553239,
-0.0152699914202634,
-0.0292229473557658,
-0.0129161620066681,
-0.0696486712034017,
0.0459488449562607,
0.122739640151,
-0.0792321096563288,
-0.0596974021818114,
0.0543116293161026,
0.0589138349543215,
0.0588620062056186,
0.00150925605017363,
0.00739246640345834,
-0.0693779397607633,
-0.0277386172308103,
-0.00265750189829321,
-0.125943987170989,
-0.0261169023488345,
0.0994535514901143,
-0.0163156089969493,
-0.0015177935335631,
-0.000594551616551685,
-0.000534166926413998,
-0.0184317135039315,
-0.0133541115406449,
-0.0120421488897037,
-0.0120789791379446,
-0.0732642799049884,
0.0171648989083362,
0.0429495579404704,
-0.0402923205288093,
0.0185882421586646,
-0.0332353638327999,
0.0587349302264442,
0.0409759748904868,
-0.0615732290489665,
0.0537007947275929,
-0.00165305919977998,
-0.0299645254353069,
-0.0732995378699327,
0.158526077836241,
0.147155794846374,
-0.0171753766635776,
0.00190804419477344,
-0.00062866312070059,
0.0282303144332284,
0.0090960503861817,
-0.001046907634734,
-0.00799801801089894,
0.0137175966764836,
0.0137264927507022,
0.0269527973507119,
0.00183717642489777,
-0.027326529045722,
0.014875697254274,
0.0277790410385856,
-0.0888877765440551,
0.0589805970157719,
0.146159837056018,
-0.0971180741334842,
0.116637492976295,
0.00256918050036934,
0.0305328675930718,
-0.00717764809432933,
0.0245780647436522,
0.0770162592275146,
-0.0448845478617521,
-0.0302512332951492,
0.0115018190181366,
-0.00768572241116246,
0.136139409482504,
-0.00416296239908299,
0.0107661275113385,
0.00397983593964755,
0.0220789133823523,
0.0132904560714125,
-0.0243745386700967,
-0.00110701640289153,
-0.00638012786745624,
-0.0800594798732621,
-0.0277706659869636,
0.020418631129987,
-0.0746936315238978,
-0.042169683853428,
-0.0191326461966631,
0.118129778881194,
0.0851270690684719,
0.0193171004844763,
0.00834497876729531,
-0.00296609243243472,
0.0220792291640903,
0.0025501166566462,
0.150696668268172,
0.0201699003450617,
0.104620236207565,
0.009660922719657,
0.00746693475043605,
-0.0169698134763149,
0.212339377103998,
-0.00395908504366789,
-0.00868019364912377,
-0.0295290406949179,
-0.00305825350442585,
0.0343072130070427,
0.00378148401358744,
0.0318554258940022,
-0.0426844901200846,
-0.0615537016994177,
-0.0141759534816465,
0.120096773406908,
-0.10674654609927,
0.00682483403366963,
-0.068211427599762,
0.0212271069238407,
-0.0415622849376512,
-0.0201000074442923,
0.100588281326351,
0.0947060684067833,
0.016906157471039,
0.00404902412355467,
0.0902264433261224,
0.0632377045075309,
0.0400075322969792,
0.00736010826296932,
0.0548210070261978,
0.00267989259800993,
0.00566291997175449,
-0.00680299250891556,
0.0121107278672074,
0.0191140775848492,
-0.0316067456523038,
-0.0453616785683946,
0.0125150861676839,
-0.101813926208763,
0.219399044090497,
0.0340722848485614,
-0.0747622529056067,
-0.0492159480727022,
0.101291030838745,
0.18010776845242,
-0.0408227102913699,
-0.0201705355067002,
0.0359585898245882,
-0.0319678986112412,
-0.0272403030628319,
-0.00240442269690482,
0.0156269877305897,
0.00897385848020735,
0.0315533120900064,
0.0317421673711005,
-0.0188558527687539,
0.0026298561620273,
-0.0116066842918344,
0.00390827597242609,
-0.00162369691787629,
-0.0129595165011642,
-0.0129450286226657,
-0.0429429545019382,
0.0999960021446372,
0.0410077099250163,
-0.0939529481018211,
-0.00236011193020042,
0.0702186179109446,
0.0316074292809519,
-0.0588875811421963,
-0.0306079179390724,
0.0697857474390562,
0.0386446582268984,
0.0389702027986062,
-0.0407795291009919,
0.120440463405846,
0.00429189090096485,
-0.0453499923962116,
0.00334660860830438,
-0.065403951039104,
0.0281891037073482,
0.00932489017395099,
0.005333537717692,
-0.0129369657532602,
0.0444970818579422,
0.0196224266160109,
-0.0147508533541621,
-0.0178661592299353,
-0.0744077973715478,
-0.0375376253902714,
0.0487245704244212,
-0.0557212776222843,
0.0483606414536308,
0.0437823801626795,
0.0300112352871305,
0.0233104174656868,
0.0116980339527535,
-0.0196414118075553,
0.0194650600867109,
0.0592517311096344,
-0.0317522926296343,
-0.0142419351293132,
0.0612002586961006,
-0.00638066728622188,
-0.0251783161452195,
0.0578830119132497,
0.00805316468134681,
0.0142793282105883,
0.151317742791252,
0.00793861406256788,
0.0219944103868785,
-0.0139046585588094,
-0.0269231305795109,
-0.0668876346885021,
0.0577350584167004,
-0.0151432677922296,
-0.0826993561350005,
0.180364567380831,
0.0232243487567297,
0.0584017249889873,
0.0316146647496875,
0.0240065637761267,
-0.0519733385952046,
0.158680557404652,
0.0644284769624615,
-0.000188444955773302,
0.0336717908620782,
0.0444975719957106,
-0.0175993728572525,
-0.0096363815013451,
-0.0129382546179204,
0.0261364040600784,
0.00971538671866161,
0.0263990964317203,
0.00435065367499514,
-0.0442044045590322,
0.0361533369864473,
-0.00405919615547555,
0.0544976260956816,
-0.0615625880831528,
-0.0028316527758807,
0.00412739637798542,
-0.0126612110451825,
-0.000645057984908174,
0.0477012577557724,
0.0506524214159219,
-0.0615953780406581,
0.0250153132142329,
0.00225790416174663,
-0.0538713612987771,
-0.0394516744988437,
0.0777937733688072,
-0.00182301357033298,
-0.00143381373835103,
-0.0126027886143597,
0.0099806298060907,
-0.0205953313456899,
-0.00167810851728886,
0.0437245456671023,
-0.00239628235855913,
0.0311938074893091,
0.00773964709852619,
0.0219731328566242,
-0.0177334377805575,
0.00890812335648325,
-0.0418814635557555,
-0.0667760332457739,
0.0564148668218241,
-0.0298813802844114,
0.0566992806623361,
0.15306387275197,
-0.0820103066104742,
0.0592250860950737,
0.0567313542650959,
0.0281229415812759,
0.0358406650182876,
0.0318215655456632,
0.00483065024028672,
-0.072208099383295,
0.0145241195663193,
0.0179545389014243,
0.0203193424325398,
0.0849907201668298,
-0.0397088992814908,
0.049771809024793,
-0.00100346480205747,
-0.0410274925511393,
-0.0313260625361111,
0.0404829944961771,
0.0174583661956435,
0.0089074399215934,
0.00890417375326515,
0.0231409050405185,
-0.103991018684114,
-0.0127847473716331,
-0.0165327856861201,
-0.00732440052960251,
-0.0571239889215128,
0.052698698483524,
0.0585771484633859,
0.019990409264072,
0.0365330413406089,
0.00124416420552225,
-0.0450852223030849,
0.0126868929021433,
0.0135807916195332,
-0.0300539146109221,
-0.0030966256209047,
0.0323571941448624,
-0.0412851027104871,
0.0158235874830404,
-0.0112711457129948,
-0.0226197525015114,
0.00388372686407908,
0.0274644298115901,
-0.00996319526498214,
0.0238334887484391,
-0.0573344665327533,
-0.0141029582428219,
-0.0629193405159901,
0.041508454508696,
-0.0473485483439272,
-0.00429286836016429,
0.02772496254171,
-0.0625282568054525,
0.163333297599792,
0.00176951661984624,
0.0097115281321572,
-0.0740637994777234,
0.0610552231457826,
-0.0214167903086777,
-0.0241695166800391,
0.0254347515526196,
0.0102432592945352,
0.014155433541352,
0.0212412339354491,
0.0459343469951556,
-0.0029266361517576,
-0.00714917925818859,
0.00380862902690374,
0.027511324689823,
-0.00598415544120714,
-0.00552402750632573,
0.00833131623079242,
0.0532712508488146,
0.0198318467073135,
-0.0377294663655768,
-0.0368355550151366,
-0.0337215101601253,
0.0295534657062983,
-0.00691848493178729,
0.00359626221044622,
0.117822051414479,
-0.0111109705352839,
-0.0361174696212708,
-0.0504249943159469,
-0.0239896899993679,
-0.033876605044917,
0.0387706479805978,
-0.0100445708469059,
0.00193570283396674,
0.0292870695557463,
0.036477813202279,
-0.00289156991408397,
-0.0072395036640405,
0.00684140810205661,
-0.0351175245596414,
0.00392102434508137,
-0.0102997646447627,
-0.0136029788415718,
-0.0285687922946064,
-0.00550322795597709,
-0.00917126234303073,
0.123946210239302,
0.0289384651701089,
0.0322803622982448,
-0.0720602306914796,
-0.0908453925463089,
-0.00454791388741516,
0.0543270614008888,
0.00763659776197478,
0.00544115512037224,
-0.00360889296719232,
-0.0305682546268685,
0.0353044581855804,
-0.0129848025147097,
0.0610811558069483,
-0.0541697175352669,
0.0473504187193894,
-0.0120499586712319,
0.0050926268635046,
0.00371997835519426,
0.000286153921788987,
0.00900919346209304,
-0.00353516260768218,
-0.00898409966348608,
-0.00174706139775031,
-0.0354251568545362,
0.134897347150906,
-0.0419387181866887,
-0.0519702884918341,
0.216105010837074,
0.178475790023706,
-0.105352655255865,
0.194011039091443,
-0.0341090795781896,
0.0335431276691812,
0.0595410137688868,
0.0135864416975459,
-0.0043658900300649,
0.0350511261614326,
0.0214818604701545,
-0.0171300691554964,
0.0600688668852066,
0.00179110723230033,
0.0473424611591785,
0.00129630995814669,
0.0118498364634808,
0.0426130295820692,
0.0203503803714282,
-0.0646082991565194,
0.04242733564681,
0.0383210045838854,
-0.0431737251801893,
-0.00380455464628351,
0.0525432915528636,
0.00578744331939179,
0.00579271741498175,
-0.02932360337792,
-0.0359420128011244,
0.0475864053178915,
-0.033449021952078,
0.0203191402959137,
0.0331940799195412,
0.0521449911454212,
-0.0521935251981186,
-0.0614127147772034,
-0.0701668060204954,
0.00158272820230807,
0.0106645105617847,
0.0330449103806426,
-0.0193141195874553,
-0.0130296018912447,
-0.0303032739026742,
-0.0129880585069041,
-0.00392355117951905,
0.0582172326320359,
-0.0368338504282726,
-0.0564152828148884,
0.0402126431987629,
0.0848935327670402,
0.0472260838037581,
-0.0454855947249626,
-0.0462786263927541,
0.048859943035273,
0.0610490764848183,
0.0945798238359572,
-0.0367601290385014,
0.113673516370299,
-0.0329947667414433,
-0.0726062432840945,
0.224718053827718,
-0.0800210360078548,
0.0187519088624082,
0.0631830595482185,
-0.0236915868987735,
-0.0144166591535849,
0.0446370166567421,
0.00958152718230295,
0.00873928169836812,
-0.00560488535182909,
0.0234873832127689,
0.0418248877604129,
0.00599606828671401,
0.0588542223746634,
-0.0987343283790798,
-0.0412148149391357,
-0.0508599594031324,
0.0554475688520386,
0.0455568361456654,
-0.0105742821399868,
-0.0140813204272697,
-0.08096556327345,
-0.156685930627077,
-0.105828825148764,
0.0312576557888914,
-0.0065101833094921,
0.00844960289181391,
0.0727239791836116,
0.0241131059445454,
-0.00532365232815886,
-0.014488141652025,
0.0226841212444767,
0.00138351932689563,
0.0107460128703169,
0.00021599808890292,
-0.0114163501845689,
-0.0192709191269906,
0.0112021005487114,
0.00461159760622679,
-0.0830486614513159,
-0.0210362238591664,
-0.065623229000036,
-0.0686703262188186,
0.160438475203761,
-0.0617678260080054,
-0.0209121371400765,
0.00411655953680598,
0.0708408979448385,
0.0967492193670306,
0.179094753185596,
0.188312849637941,
-0.0526400963568042,
0.00845429114140597,
-0.0598348773100032,
0.00617379915370223,
-0.00599792401398403,
-0.0135196465103496,
-0.00730129056777868,
0.00341845926025909,
0.0095487381689042,
0.00791440465077361,
-0.0262831386530861,
0.0075647000893668,
-0.0472466047338178,
0.000707930527629307,
-0.0525252114659842,
-0.0381158140828909,
-0.061639195252014,
0.0389847081284444,
0.0704621854157284,
0.0557562438153832,
-0.0529794369719085,
-0.000727808776361215,
0.0227079693438863,
-0.0188520350285335,
0.156085225203454,
-0.0407283536155506,
-0.00261301997813259,
-0.0630230784063315,
0.0322461694052224,
0.0652855735103781,
0.0197517537667236,
0.0162377665331622,
-0.0108479388182606,
0.0851772385034347,
0.0097299516996005,
0.00975884095193199,
-0.0141417169606819,
0.00754949584335143,
0.0406093239488605,
0.0345548588019651,
-0.00960535849011087,
-0.0831091691154889,
-0.0253030464939352,
0.0123795533988075,
0.0630832815032757,
-0.0345512845309512,
-0.0484758258964384,
-0.00298421669529755,
0.0213254268071942,
0.0227379529489356,
0.0573371543643961,
0.000180421569572698,
-0.0138838467072609,
-0.0129242706585646,
0.0342975294113782,
-0.0519939291139709,
-0.00769637794570367,
0.00889313603969359,
0.00278946514865536,
0.00489840697388804,
0.00737000715412054,
0.0125331300640885,
0.00104005069067407,
0.00135247638198237,
0.0405889275849649,
0.00687158201905169,
-0.0316065212585199,
-0.0554876144346504,
0.0638470145290609,
0.106589759932763,
0.0968608096562006,
-0.045232396360877,
0.0463532522723894,
0.059944226327888,
0.0287828361243533,
0.0229722181462694,
-0.0388951415140663,
0.141902603132046,
0.144465906023312,
0.00453062970170033,
0.00439939114036875,
-0.0507662972186092,
0.0340788004596468,
0.0167968805143762,
0.0299367962213007,
0.00199465627856392,
0.0125343774296253,
-0.00829357186517342,
0.00103458779446088,
-0.0213461147642146,
-1.55413509734654e-05,
0.0405928653578153,
-0.0264640723359338,
-0.105064865644194,
-0.0719004228091179,
-0.0926970364521534,
0.0787357222082318,
-0.0743623116481307,
0.0610695100088595,
0.0485387710062905,
-0.0762115303593095,
0.0210935680329747,
-0.0405009340835869,
0.0203628170469136,
0.0287525234757701,
-0.0431903445516957,
0.0774697245669224,
-0.00340051724352353,
-0.0115369933199217,
-0.0105659529393108,
0.0299710978635644,
0.00373115771416981,
0.000312862388031122,
-0.00061061320602485,
0.0124752668427516,
0.0124338900661533,
-0.0150569632106872,
-0.0182352821067025,
-0.0116330269700122,
-0.117859249786427,
0.0776383629434818,
-0.0533834423244219,
-0.00783771586664706,
-0.0560829326861799,
0.0329332273840488,
-0.0924985300909343,
0.0790816807152738,
-0.153884132572718,
-0.00324866745775753,
0.0361713511506904,
-0.0882600902476468,
-0.0271070158687669,
-0.000620420628183456,
-0.0133091923219588,
-0.0571203033740057,
0.126297755175788,
0.00590620830979767,
0.00932082501091705,
0.00795612708584439,
0.00956093196262076,
0.0125089420784615,
-0.0848378771758549,
0.00282512170656323,
-0.0259498556586368,
-0.0109895293385566,
-0.0146666126438896,
-0.0221177381010813,
-0.0471653144282969,
0.0560036094466991,
-0.0982658163919065,
0.0958110887690529,
-0.0851064657766969,
0.154067952646236,
-0.182262553726301,
0.0925002860548975,
-0.068800633012353,
0.138337505958976,
0.106141951825733,
0.0351153800791066,
-0.0438729922389549,
0.00711502659910415,
0.00431692416022945,
-0.00504865458596053,
0.0093198464399429,
0.00956779299238805,
0.00553121225518963,
0.00640537511916752,
-0.059400768236521,
-0.0332282528590732,
-0.089990324346015,
0.027280749058528,
-0.00847587266974649,
-0.0547218200714386,
-0.0732449963507659,
-0.047101622918705,
-0.0102266170828801,
-0.0425264975193822,
-0.0478778553371816,
-0.101117965416385,
0.221413059443588,
0.043768843977305,
-0.05785039625605,
-0.0107822133429416,
-0.0292886782456746,
-0.00470191480427507,
-0.0628137723838228,
-0.00725316343899325,
-0.00215489228156688,
0.0702099127678145,
0.023255361291805,
0.00102341101329777,
0.00195212338504971,
0.00641606205231844,
0.00644902517150492,
0.000511642035229544,
-0.00989512108560304,
-0.011187460888485,
-0.0297470412197107,
-0.0595217909405615,
-0.0122593208643089,
0.0250218605276494,
0.118515931643736,
0.150566868371012,
0.141095831404707,
-0.131031911216984,
-0.0501296088767936,
0.0708957809661724,
-0.0752654590114318,
0.0270164709954664,
0.0432195496375212,
-0.00354135966970802,
-0.00576383676175375,
-0.0473166332252116,
-0.000331297543134323,
0.042525755058646,
0.0346436367104197,
0.00672123411924933,
0.00957644754523609,
-0.00837558409166597,
-0.00795908970137342,
-0.000174724526422763,
-0.0204859215448149,
0.0520020429718247,
-0.0263738718704675,
-0.0282660234097795,
-0.045331570124215,
0.091788930296887,
-0.106835453425756,
-0.00990290216874703,
-0.019448623700973,
-0.177645913279736,
0.281847270707097,
-0.0345292631587179,
0.0818993457461722,
0.0186097837994408,
0.022814866733176,
-0.012494620756551,
0.00722766673007746,
-0.0194646881105325,
-0.0511731189376487,
0.0735849043392011,
0.0644303609355082,
0.00932741177391993,
-0.0206970998849913,
-0.00804895917218844,
-0.00795399742013849,
0.00757052957792153,
-0.0267781367840754,
0.0455820288505603,
-0.0483410337282929,
-0.0504133863306113,
0.056579574304443,
0.127522875941627,
-0.0819520166633029,
-0.0102948951432462,
-0.028594080572751,
-0.102551219464215,
0.0802037414592353,
0.00290674624671092,
0.0855556930547325,
-0.0653752234577706,
0.0173349747200084,
0.0297389853767981,
0.0421793866147074,
-0.0181021999603168,
-0.0190793640717114,
0.0742429880875633,
-0.0199561789107289,
0.00746061577707771,
-0.00518367532522012,
-0.0293537809623583,
-0.0648190196310917,
-0.0367776592382394,
-0.0462012779839308,
0.0462676410114888,
-0.0797530656826528,
-0.00494225064486312,
-0.0647316797030655,
0.0356033439201401,
-0.170441256985727,
-0.0142957029466203,
-0.00813186089447588,
0.0220605476082317,
0.00449560105213138,
-0.0292200967033973,
-0.0042112657679346,
0.0119428195370526,
0.0423773112046475,
-0.00576665766447358,
0.107658114014361,
-0.0371875006096931,
0.0076801119505615,
0.0621331146390111,
0.0700944192763331,
-0.00130053618734429,
-0.00515074280751239,
-0.0317547517250053,
-0.0648384451976872,
-0.00403917812151093,
-0.0333091836507445,
-0.00293173981928935,
-0.0968472950659972,
0.00508805906480129,
0.012107071637215,
0.107679643188614,
-0.128218179725353,
-0.00433481664728118,
-0.00360666566052084,
0.0202496503635815,
0.016438124993903,
0.0663509651117496,
-0.0659765067036659,
-0.0135533747060593,
-0.0337431213191779,
-0.0235628089033381,
-0.0754854357228064,
-0.00480034851850352,
0.00764998428904234,
0.02996851672551,
-0.0297030730942792,
-0.0196495155399832,
-0.00327926016896759,
-0.0973810628312493,
-0.0482066864689136,
0.0107413238975985,
-0.0166063885375338,
-0.0278437061470562,
-0.0762863565208259,
-0.0359077283640621,
0.00361518569910846,
-0.0365457904632683,
-0.00834969055001277,
0.000347002403383533,
-0.16181706285198,
-0.0149032626761042,
-0.0190642555824228,
0.0157819618219242,
0.0695094585022625,
-0.0034080083183144,
-0.00469499264716476,
0.0416659993438363,
-0.0320865594864741,
-0.022231486983235,
0.0829437743036486,
0.0314016392566805,
0.0313912782014254,
-0.0407853169480715,
0.0201292836253156,
-0.0985490591976006,
0.0549131308888988,
0.0138439609107994,
0.0383780931872913,
-0.0517736284376557,
-0.0506862516075273,
-0.0787837422114722,
0.00687611864588971,
0.0630999540013498,
-0.0164822963949447,
0.285681051899698,
-0.148480813785861,
-0.0155255301656809,
-0.0162849990227635,
-0.0244730847296008,
0.0730613707332475,
-0.00519276229023228,
-0.00612916104746137,
0.0272663536458649,
-0.0319442279279956,
-0.0218723326187956,
-0.0153802316810094,
0.0232879712478779,
0.00815256995540348,
-0.0634412088157105,
0.00935475809491143,
-0.0544877623600682,
-0.00365833892935302,
0.040554676466431,
-0.0496824332468491,
0.00228638584346592,
-0.0357397198492886,
0.125345710913767,
-0.0333924182393413,
-0.00183027396219842,
0.00789501329060935,
0.0130028788555601,
0.0139133852084912,
-0.0707846981526535,
0.00597197610013734,
-0.0282130197647399,
-0.0473983557288614,
0.0199022507475327,
-0.0556240115679798,
-0.0512404255908236,
0.023695889579099,
0.0606058481538402,
-0.0532566349458778,
0.0868257329832074,
-0.027448297266166,
-0.0386650768674149,
0.0092050140234009,
-0.0557920827492144,
0.0318500539518114,
-0.0223572246626034,
0.0100482371403203,
-0.0401668659366648,
0.00619512045901149,
0.0178542060119917,
-0.050293497075309,
0.00146977481080882,
0.0224377651324359,
0.0139059090985376,
0.0139050474677744,
-0.0647609691290714,
0.301313104159965,
-0.0607159431905523,
0.070047163169585,
0.0280326227061885,
-0.00533877024856637,
0.0584582874105724,
0.104251810285437,
0.0208708625295875,
-0.0195137875859337,
0.0224337181664895,
-0.0274200953813724,
-0.00440705909124407,
-0.021522065927827,
0.0114456151684683,
0.0372068930583966,
0.0252483078178862,
-0.0281772043555866,
-0.0198655623143006,
-0.0352750352830036,
-0.00139664841615143,
-0.00207374420782554,
-0.0213672428658985,
0.216429632063162,
-0.000138999510987293,
-0.000160035506725965,
-0.102318080857446,
0.285802356398549,
-0.00532903872346727,
-0.0491628431575529,
-0.109033046801652,
-0.0581706868802049,
-0.042064945800363,
-0.0291876112458156,
-0.0482993838476671,
0.0230589851777502,
0.128734035884743,
-0.0751921389362007,
-0.00366379105240894,
-0.0309902032609757,
-0.0925359881517761,
-0.0295302664934115,
0.00461928443706547,
-0.0270637287673928,
0.0718740619539289,
0.0572898348571493,
-0.0300959469507242,
0.0305791867104364,
-0.0658347763041099,
-0.0239654368086314,
-0.00444868199555406,
-0.00361702467523326,
-0.0565039648309,
-0.0221827362653228,
-0.044931070342195,
0.0189012161619626,
-0.067567946813835,
-0.088289705006585,
-0.00266318051917996,
0.0574944353135472,
-0.0273592322473191,
0.0627536947535903,
0.0168715285880203,
-0.0233789327437285,
-0.000268371323666486,
-0.0255135380291595,
-0.0176536561645882,
-0.0103974493259423,
0.00472004333633447,
-0.0164405547327837,
-0.000983943294711122,
-0.0118713485920371,
-0.0405783806149443,
-0.011933414291165,
0.0112298247629242,
-0.0128294323094561,
-0.0017438705077518,
-0.00190702442218732,
-0.00812672099944507,
7.4488752368829e-05,
-0.0261017340932939,
-0.0119282552238451,
-0.00547071363188281,
-0.0157141773397602,
-0.011992404599148,
-0.0330607706007353,
-0.00359627594244861,
0.0322048904174079,
-0.0206768255946799,
-0.00365049149751724,
-0.0101325301030322,
-0.0161429670849637,
-0.00310065018451321,
-0.00830733369625015,
-0.00562492855492542,
-0.0227874930398365,
-0.00095994107143929,
-0.000962400697146245,
0.086992095955008,
-0.045246042974793,
0.0171526550544338,
0.12352292672656,
-0.00262867164383304,
-0.00191698648532331,
-0.00662444751421625,
-0.000440989473056349,
-0.0202627661329913,
-0.0167807784604168,
-0.0172511380073103,
-0.0164323961812671,
0.0262477256936149,
0.0521134502490128,
-0.0153484206624559,
0.000418893791474677,
-0.00236990534757081,
0.0207818553932216,
0.00133735451894227,
-0.026692452275189,
-0.0152484408477634,
-0.034852986366225,
-0.0468122105542028,
-0.0100251585403765,
-0.0360263413046025,
0.0348300799232757,
0.0254171130022693,
-0.0015621034998086,
0.0438946782613591,
0.0807943815330352,
0.0138993204352909,
0.0369885708234291,
-0.00310064802879983,
-0.0040321400777594,
-0.0184940520169196,
-0.018523915471023,
0.00370245169869611,
0.0077832420699375,
-0.0402569117825486,
0.0914985110831373,
-0.0614280914082351,
-0.0353301713952955,
0.0542146530146738,
0.0256025096535135,
0.0080451052775437,
0.00509468916561822,
-0.0107701879397457,
0.0249721238608966,
0.0324468286299039,
-0.0310756039197671,
-0.000808476272552853,
0.0270515266491569,
-0.0234908722225242,
-0.00949287981268279,
-0.00533548176222862,
0.0893551452284029,
0.0378427101630574,
0.0351536299488966,
0.00105536305923864,
0.00111262574223134,
-0.0229770238395277,
-0.0230349420999781,
0.0102506757580052,
0.00833785043983446,
0.0667317302134321,
-0.0112341337762415,
0.0578863502870913,
0.0218335806999139,
0.0157705984048819,
-0.00361958286812021,
-0.0169367947992135,
-0.0468994411303255,
0.00292627517676958,
-0.0592750217278039,
-0.00415137071690334,
-0.0199381105425251,
0.019690263284206,
0.0494076885287602,
-0.0972995897228981,
0.0538101598437096,
-0.0108881722522418,
0.0893205303645217,
0.0842819466257649,
0.0777881172005801,
-0.074020582241496,
0.140272140900413,
-0.0222471220472274,
0.0693465020042237,
0.00967538143009477,
0.013772122479271,
0.0345557097356832,
-0.084800439722828,
0.000115162550099601,
-0.0507399588278109,
0.0702608333545198,
-0.00648239161041702,
-0.00134466495162109,
0.0095580021929493,
-0.00569709300780947,
-0.0172272356600419,
-0.047496444354456,
0.0113966724976943,
-0.061663126675026,
-0.0504578766699771,
0.0152270476230679,
0.0326842811824005,
0.0383160889965393,
0.0537187943784421,
0.047873548968522,
0.0446172561283545,
0.0337124908817217,
0.0337118029411678,
0.0805804042798912,
0.0693814122201638,
-0.00942682759141358,
-0.0295571201363461,
-0.0167805389422016,
-0.00657933235921413,
0.00472546605289342,
-0.0472588352372602,
0.00623266434543294,
0.0183873401923995,
-0.0206555422219964,
-0.00306308971634899,
-0.0335939313802099,
0.00678290643626378,
-0.00201709897402766,
-0.00194890608288994,
-0.0291508626922663,
-0.00612147906166051,
-0.00403010546993386,
-0.00402403964908268,
0.0713524959451249,
0.0193768682769682,
0.00788944824660594,
0.00794163340985985,
0.0159953126339611,
0.00708103489816266,
0.0308351422599087,
0.0041206889979545,
0.0108191173293966,
0.00949910943911961,
-0.000550812941278122,
-0.00144849839331919,
0.00186588412568187,
0.0115257029863773,
0.00354617474794522,
-0.00272462802931451,
-0.0126618667934807,
0.0411853844143169,
0.00668798717911067,
-0.00499455604749803,
-0.0141761358871751,
-0.00199105133738105,
-0.00611119447129168,
-0.00608862471103318,
-0.00419787808165211,
-0.0039937898825199,
0.00298620856252938,
-0.0391226192860123,
0.00793848581890246,
-0.000351047595140029,
0.00203623615883669,
0.031303409533882,
-0.00737663497565582,
-0.0170609624702805,
0.00622356991543414,
0.0776203933688331,
-0.00271296811613946,
-0.00237482251193183,
-0.0675373566320046,
0.0340194215155186,
0.00705430158254482,
-0.0109401841997995,
-0.00285810871434346,
0.00880561359758352,
-0.00480479917811094,
-0.00385752639335708,
-0.0751980404995582,
-0.00878962482342443,
-0.0820663468990789,
-0.00944633057536246,
-0.0181834507649937,
-0.0181610418536182,
0.0106304460102167,
0.00162979883258147,
-0.00840345397990245,
0.0252118367378514,
0.0328063966025669,
0.0331625093907204,
-0.0284890863873534,
-0.0130034679240651,
-0.0273883614824934,
-0.0378299464502871,
-0.0140250160715229,
-0.00843621597567027,
-0.0281786139997497,
0.000474608258912499,
0.00533584369282231,
0.0202606492415043,
-0.0022709001430131,
0.00352807400194331,
0.00209156080058595,
0.00303799473032874,
-0.0104582559269648,
0.046230055857362,
-0.0473557985073585,
0.0408029676344291,
-0.0181908890657014,
-0.0181851140684132,
0.0320437516699095,
-0.0069227699632019,
0.0167774393510145,
0.0122170130769413,
0.00605511141494656,
-0.00305156429614246,
0.00318019111744817,
0.0107792742990792,
-0.00018424926216429,
-0.0350677183574166,
-0.0315795603761504,
-0.00998741655899259,
0.0377950217606473,
0.000500400061711616,
0.00811769158289511,
0.0115199437114349,
0.00523795419949505,
0.00932802258536658,
-0.000800618031921334,
-0.0217418280216524,
-0.0219023947633042,
-0.0262875509413619,
-0.00665876204713866,
-0.00562316364686604,
-0.00272815790169372,
0.000169314999040288,
-0.0109358374572588,
-0.01759124945993,
0.00403186467633547,
-0.02021931219439,
0.00157154136303124,
0.0133732940052301,
-0.00761528658317669,
-0.0122606578757006,
-0.0142410606292179,
-0.00484867887417429,
0.0104807943392357,
-0.00443848497617868,
0.00460911224998333,
0.00968227916162257,
0.00537731794732055,
0.00526518382854986,
0.0052389001555344,
8.6356194068287e-05,
0.0740940261106924,
-0.0230104171700692,
-0.0218971580845564,
-0.0219443949855135,
-0.00666076555030939,
-0.0295596302808474,
0.000184426706925126,
0.000185376806676011,
-0.00848689716920125,
-0.00848372794314792,
0.0140759794673056,
-0.00836854868683244,
0.0182025605526301,
0.000377933387779855,
-0.00943307154628118,
-0.00762079560441963,
0.039390846106164,
-0.0255943785081839,
0.0413778394649288,
-0.00683590997820855,
0.00968416029568985,
0.00931141571145708,
-0.0546008341115315,
0.00527856136205686,
0.00921000741078135,
0.00920104160606213,
0.00872312285156364,
0.00919706044022791,
-0.018621909721343,
-0.0186297142044729,
-0.0871112513355338,
0.0475119368925454,
-0.0223999932619126,
-0.0309282744807538,
-0.0118049144914782,
-0.00511535179497466,
0.0830637224288819,
-0.0609280239471636,
-0.0172009370701698,
0.00545692395919406,
-0.00725079110056422,
-0.00372582823073052,
0.0084482663294104,
0.00401530978282181,
0.00289332934021853,
0.0115637891950244,
0.0173935992975857,
-0.00299491149326898,
-0.00864201913031941,
-0.00864919089046944,
0.00735988340524868,
0.00914052420399458,
-0.00272193257251889,
0.0320024438003851,
-0.0186141919108879,
-0.0400950218066666,
-0.0216667049071888,
-0.036110763713594,
-0.0228276155291576,
-0.0151937588737075,
-0.0113304100530043,
-0.00419373583370585,
-0.00745007511143413,
-0.0161484982478744,
-0.00234077154613465,
0.0215080663951083,
-0.0163271006799715,
0.0322199516260343,
-0.00189506801372648,
-0.0149035802934575,
-0.0103305060441062,
-0.0127660075776457,
-0.0259052229183928,
0.00930426261023202,
-0.00860274811453962,
-0.00866294969979308,
-0.00782706712826072,
0.0185534196331867,
-0.00482536101483006,
-0.00674112896449818,
-0.0230438080258483,
-0.0291700651424985,
0.00085687214621124,
-0.0313430146287902,
-0.0226093724008322,
-0.0138558790937866,
-0.0381856072051319,
0.0583806143499031,
0.000428521269792647,
-0.0090849461353445,
-0.0246219460112581,
-0.0160471909873127,
0.00884772442411091,
-0.00577648864577891,
-0.00202972553903387,
0.0026722568253598,
0.0153011968512615,
-0.0211513534168714,
-0.000531611722235494,
0.0383870613149397,
-0.00951801918481873,
-0.00964993182102455,
0.0233920622311868,
0.013047433570187,
-0.00482443236056875,
-0.00682943468699827,
-0.0230312530894533,
-0.0215244107244058,
0.000889734531081648,
-0.0304539646077753,
-0.0110356667274825,
-0.0456453672693907,
-0.0164832854218534,
0.0319980636121698,
0.0179203563545197,
-0.00397608281098396,
-0.0228761553064683,
0.0629125804166209,
-0.00283307004799643,
0.0296468011168968,
-0.0134699762061375,
-0.0133610108414989,
-0.0126455000262408,
-0.0290260603596502,
-0.0236115921284863,
-0.0216450554606826,
-0.00952518820996899,
-0.0095293764438131,
-0.00159012875859538,
-0.0213241744606945,
-0.0104042085337838,
-0.00249083673967861,
-0.0284554576989691,
-0.0332791871801132,
-0.0147709166832735,
-0.0741490379470484,
-0.00860053335791823,
-0.0189958792582095,
-0.0182438468762838,
0.0615997426329757,
0.013733619905315,
-0.0249393762940184,
-0.020888828320995,
-0.0109305834832442,
-0.0137898100048121,
0.0218194970999234,
-0.0202160454970526,
-5.56972208604624e-05,
-0.013722432677891,
-0.0230214159110646,
-0.0137934170477792,
-0.00866967873848598,
-0.00969818805364685,
-0.0096664317663143,
-0.00899292405810641,
-0.0407408975687667,
-0.0192406282895745,
-0.0186386411405073,
-0.033974401703875,
-0.0217767062417098,
-0.0722516241089883,
-0.0176535972932469,
0.00170669841191843,
-0.0345853170359152,
-0.0306700208210318,
0.00728147305945506,
0.00167039778518968,
-0.015513250266339,
-0.026962247218684,
0.100733524950538,
0.00272257479106026,
-0.00806355993032179,
0.0105873357149722,
-0.0179329383972265,
0.057662174326015,
-0.0112189252172499,
-0.00606242177238402,
-0.00451073027732139,
-0.0153354909039763,
-0.00995549662297923,
0.00468567957692295,
0.000979136037484615,
0.0245926666005137,
-0.00299991632794973,
-0.0280110627817145,
-0.0420923013802458,
-0.0547072597572831,
-0.0604584032234168,
-0.0170747505229939,
0.0121168813874747,
0.0281143116618769,
-0.00596848598637896,
0.0629620353605778,
-0.0358732727751975,
-0.0288958049198074,
0.00955014526173639,
0.00945169174067277,
-0.0117458549302528,
-0.0217969508019582,
0.0205409188617636,
-0.00452499959679317,
0.021414806756613,
-0.0267922851509146,
0.0465060012424743,
-0.0971586041117563,
0.089313528969777,
0.013721827213162,
-0.0525539643344623,
-0.00759293387537787,
-0.0510605089499246,
-0.0299911746358453,
-0.0304309964243177,
-0.0325662626529086,
-0.031349706663565,
0.0121599939089705,
0.0121081368680419,
0.021305857339492,
-0.0349103877405536,
0.0773699109595144,
-0.0472664998756406,
-0.0253561657193312,
0.0608626122226532,
0.0029966769220665,
-0.0177698711951407,
0.0174517046537036,
0.00415324999698042,
0.00336588493806902,
0.000350265406480215,
0.00516012275343355,
-0.01197911007729,
0.0048676826940869,
-0.10060545555115,
-0.0224003796860749,
0.0334819058228399,
-0.0177232272682142,
-0.0272805579322034,
-0.0254301974712971,
-0.0215792733435192,
-0.056540178152851,
-0.023030274457857,
-0.0052268401427869,
-0.00382034304585386,
-0.00957452995080767,
0.0451188789405178,
0.00422118908562275,
0.00270193473417967,
-0.0259327480125647,
0.0524277760699755,
-0.0154163009210157,
-0.00675865436002559,
0.0216284890610058,
-0.0100848704021658,
-0.00133273955160361,
0.0337545297694318,
-0.00345256382756344,
-0.00530620055963893,
-0.0740328097703971,
0.104800403078129,
-0.0249816634184433,
0.00973820469056773,
0.0154209808688561,
-0.0518168364708038,
-0.012941032421454,
-0.0629636112290191,
-0.0418155095020119,
0.0181332314211451,
-0.00522715828521141,
-0.053396062921478,
0.00762090995146864,
-0.0195737006749706,
0.00233838492454103,
-0.00172754571271393,
-0.0202893551890061,
-0.00154028085401861,
0.0130260739833466,
-0.00568359184457507,
0.00369188107458775,
0.0317532452559114,
0.00315464627346136,
0.0155195716023929,
-0.00289238496778078,
-0.00370988972149704,
0.019909840628386,
-0.0478484646749583,
-0.0200029637534029,
0.041638824001181,
-0.0048348821518147,
0.0417164867885457,
-0.0231516088388045,
-0.039174499848291,
-0.0595415159821929,
-0.015173927889504,
-0.0386653702983441,
-0.0494124687895413,
-0.00633938600454387,
-0.0357620565119015,
0.00766409138627375,
-0.0157110126402962,
-0.0188979329624258,
-0.002459732772002,
0.00164093706877719,
-0.00816228578377467,
0.0123354085173027,
0.00217086106366732,
-0.006395632463983,
-0.0131754190918664,
0.0236624742587474,
0.0133349693972735,
0.0144505712946832,
-0.0283571136626368,
-0.0200052319070574,
0.0311909659894762,
-0.0154501261607186,
0.0492626203525607,
-0.0217015988876497,
0.0213218223799278,
-0.0474464327634683,
-0.0445119689696709,
-0.038661232972811,
-0.0293327336074807,
0.00735010707977495,
-0.00918429172215845,
0.0141301731071788,
-0.00648232836353764,
-0.00447076204731175,
0.0607730731997418,
-0.0243722550397422,
0.0353255237073614,
0.00520238586448029,
0.00846658960567597,
-0.00639582979146593,
-0.00640442610419383,
0.0179741231592804,
0.0214948455585175,
-0.0478055159950227,
0.0165880172890535,
-0.0206931532352651,
0.0497840854095999,
-0.0231722860682965,
0.0334460267780371,
-0.0267142804095919,
-0.0285699826273321,
-0.0423001337785258,
-0.017709674044265,
-0.0500672689652152,
-0.0511774137222514,
-0.00352184997636862,
-0.0304035973377377,
0.0280895545917945,
-0.0234109144883931,
-0.0170756677406832,
-0.0188104763306143,
-0.00384320808641135,
0.0126158487854771,
0.0306670942127169,
-0.0208356334487526,
0.00793625059560935,
0.00711117323502402,
-0.00135610520421948,
0.00859193601533592,
0.00345028703081391,
0.00451883089199727,
-0.0256526072890122,
0.0369988628181067,
-0.0158469294102169,
0.0374905928487698,
-0.0201706985692833,
0.0574189237325308,
-0.0422827948335863,
0.0537638237363718,
-0.0516977727177663,
0.0255583829701133,
0.0356446523238836,
-0.0116756578187294,
-0.0178824795760735,
0.0010286676112752,
-0.00918140779489254,
0.0705319719767505,
-0.0428065342202532,
0.01463438164755,
0.00169256519707097,
-0.0102433222838166,
0.00115234641488835,
0.00539102174401031,
-0.00371721666740797,
0.00513696110205383,
0.0074678102930101,
-0.00174021585979249,
0.000890206374039143,
-0.0169128040987609,
-0.00344280475510898,
0.00690204264665243,
-0.0124091778024672,
0.0345310056257051,
-0.0038361547572862,
-0.0190686251340155,
-0.0322130701207694,
-0.0131478062322358,
0.0161546198231415,
-0.0247111753398748,
-0.017403713065767,
-0.0146236886470043,
-0.0225526761545359,
-0.0411921145338201,
-0.00494204820012449,
0.0219973388169679,
0.00485510467901298,
-0.0109927568101629,
-0.00843057839853946,
-0.00232520380053213,
-0.00464484664941632,
-0.0030987171600731,
-0.000982573813874721,
0.0276137293989736,
-0.003872262185577,
-0.00252517266739812,
0.0495491651592364,
-0.0648001390900762,
0.00614572684938657,
-0.0177256331658294,
-0.000839003051413658,
0.00846033476502731,
-0.0312917148052339,
0.00258595246420921,
-0.00695798155319722,
-0.00246517291836717,
-0.0237187106161022,
0.00745808830105087,
0.00763409649063911,
-0.0384277759454562,
0.00465424777945709,
-0.000109071789184866,
0.00326728444422256,
0.00722170725297925,
-0.00232214911251391,
-0.00758291341220623,
-0.0106011092980681,
-0.00071477563534283,
-8.74104216543148e-05,
-0.000221148018640539,
0.0048332397535631,
-0.0173565488382168,
-0.0106182971248468,
-0.064233703555505,
-0.0107190885314959,
-0.0349138778886657,
-0.0197852325572658,
-0.00970225618571452,
-0.0437851484907781,
-0.0377402727470482,
-0.0217246312873804,
0.017183484248199,
-0.00506689566703684,
-0.0850510007124187,
-0.00144992436851062,
-0.018762668487554,
-0.021589906437499,
-0.00499957994626364,
0.00871906270401089,
0.00830301933364581,
0.0162626328386179,
-0.00136121935651095,
-0.00278081226908861,
-0.00143206038836346,
-0.00233449811434515,
-0.00232697503543093,
0.00299854534348619,
-0.00975221237027657,
0.0301340920852644,
-0.0110438442498328,
0.073805055904595,
0.0223825711127582,
-0.0197820307475416,
-0.00366410017540239,
-0.0394194373540281,
0.00757712350262966,
0.00454582501929022,
0.00205920825467673,
0.0183855964919224,
-0.0438255673571682,
0.00129110117248855,
-0.0153769939054712,
-0.000254479755187696,
-0.011030341396323,
-0.000216650546850341,
0.00220908785089284,
0.0162293089907598,
-0.00940710812228171,
-0.00261309737842672,
-0.00336557565978761,
-0.0191791907512139,
-0.00237108657007272,
-0.0075956969401532,
0.00302798209900505,
-0.00707174949366874,
-0.0399925103745992,
-0.0169944508370435,
0.00642145954807836,
-0.0262807733537996,
-0.0417080100671575,
-0.04369107587561,
-0.0258650646774427,
0.0148462306447229,
-0.0416347540935983,
0.0102336662461787,
-0.0214459291499883,
0.00294242345857207,
-0.00604103765792191,
0.0100836882638717,
-0.0310833680344083,
-0.0192140116309786,
0.0160181143811061,
-0.0295639231859455,
-0.00759433195360398,
-0.0139893222639302,
-0.00176864905442212,
-0.0301192955483057,
-0.00618293759936242,
-0.0076036051456514,
0.0225025068572765,
-0.00910135022701788,
0.0698270697908264,
-0.00540664414145585,
0.00498818466995078,
-0.0204380990606469,
-0.0203515888615949,
-0.0418812597344044,
-0.0225331597645695,
0.0090702429086476,
-0.0249983100352848,
0.00126961634640102,
0.00876507422696014,
0.00659600506330405,
0.00869182097535719,
-0.00574520155523686,
-0.0372358203759689,
0.00184797115192137,
0.00859886914065748,
0.0383513289749446,
-0.00761845928685539,
0.0019215758589479,
-0.00061673450240145,
-0.0061950738034887,
-0.00613179276247164,
-0.0615063427362791,
0.0453694168675841,
0.0930810154908831,
-0.0256329820343893,
0.0759264198704445,
0.0162174957938131,
-0.0224696131924407,
0.00937968740383775,
-0.013127916941998,
0.0176988119491542,
0.0889647272202754,
0.229077636404954,
0.0312420956623423,
0.105847325873519,
-0.0799143164934114,
0.103979360221766,
-0.0360515264405578,
0.0281670937266681,
-0.0433062412129034,
-0.0196545070209993,
-0.00377322311634036,
-0.000527515615338175,
-0.00558042501133639,
0.00220759908282956,
0.00160689115956494,
0.00166487888805741,
-0.0057959073027246,
0.0122109112684226,
0.0192265900270693,
-0.0215739908860682,
0.00564191291869973,
0.0205166638165601,
0.0640181916121687,
0.0246848590517178,
-0.0131475787256762,
0.0130290948184381,
-0.150411841072486,
-0.215441784429997,
-0.0836527348378143,
-0.114734532563951,
-0.209840672644738,
-0.211967764380337,
-0.116184916207091,
0.0103715690538,
-0.0438289818000069,
-0.0340157418934103,
-0.0992325624888041,
-0.00980527167139244,
-0.0750641383760795,
-0.00556627211853258,
0.00160417019930075,
0.000892467302755721,
-0.0111984660603938,
0.048178449839858,
0.0375775097715411,
-0.0107076637889549,
0.11743029178438,
-0.0168519036109223,
0.017773308716306,
0.153365224310334,
-0.00233814128399869,
-0.00189023563116924,
0.0119375904159633,
0.0444550014994005,
-0.0302928288109196,
-0.0316649802515682,
-0.0767983582859476,
-0.00124730342938902,
-0.0317281140617053,
-0.0743320467023365,
-0.0175086570254105,
-0.00504465655197666,
-0.00767930783003499,
-0.00729627434549767,
-0.0221184878852109,
-0.00972689475393044,
-0.0026857439282898,
0.00885708696511473,
-0.0112030097209235,
0.00758979205198396,
0.00850817235027821,
0.0375630856694081,
-0.011635535860184,
0.0174513350622811,
-0.042617674039483,
-0.032362124565939,
-0.00190821031866786,
-0.016819836660807,
0.0442146633680016,
0.0269821222528824,
-0.0203544594128789,
-0.0329225422714927,
-0.132384431092493,
-0.10899381153115,
-0.0460456372960365,
0.10626797603758,
0.0190785884315064,
0.033493518195862,
0.00469245038572277,
-0.0217665133760578,
-0.00973446677538075,
-0.00972777746398794,
0.00233081910824057,
-0.00109064019735058,
-0.00289787601226459,
0.013744379798678,
0.000859757996254426,
0.0323683944580972,
-0.102776436090193,
0.120600561860982,
-0.0489614973708426,
0.154849446287597,
-0.0478172969700127,
-0.0129828466795139,
-0.0561587948765634,
0.231238980523709,
0.0333469001319755,
0.0331906644660114,
0.0135055088301868,
0.0325759436145058,
-0.0753167038496802,
0.036221154135455,
0.0167078542725204,
-0.0520452901588056,
-0.0221757323567949,
-0.00249616966531261,
-0.00972501743831151,
-0.0100609483782631,
-0.00328097738017441,
-0.00330357097271621,
0.0024262992810588,
0.0241883557148753,
0.00481369540319094,
0.0736956774854927,
-0.0954441307038578,
-0.022179701758968,
0.00935111795324159,
-0.0146354110214203,
0.37124229381856,
0.056649386044262,
0.025914590254648,
-0.106228172164021,
-0.0457000711281964,
0.0331164381769945,
-0.000574872625084042,
0.0133468965709372,
0.00164450817268529,
0.0322070154834494,
-0.00102572147421855,
-0.0255507781168906,
-0.0381208747010532,
-0.0138065961520727,
-0.0097229891740661,
-0.00972305207541787,
-0.0130067949036684,
-0.00327333426791326,
-0.00418156933394883,
0.00178622282946035,
-0.000762073499785954,
0.0281393121529115,
0.0389069680741884,
-0.0741033316863849,
0.0156980704191507,
-0.0343575373892373,
-0.0268378101734628,
0.0103341144294615,
0.0235161610102032,
0.0316863168370828,
-0.00929642702638033,
-0.000680415488249286,
0.0112842205682188,
-0.0536197558985801,
-0.0666051040939037,
-0.0436578845701842,
-0.0165727413894482,
0.0330668860158196,
-0.0355061442700316,
-0.0970543628390737,
-0.0136252319456712,
-0.0529518129610639,
-0.0176484867931122,
-0.0174974720129635,
-0.00417995360299215,
0.0553035655370262,
0.00553775012227579,
0.0175451274835908,
0.042215655286177,
0.00221264259296368,
-0.0944812485227647,
0.107275827960757,
0.0278151567362549,
-0.0234159343053351,
0.0225632435460716,
0.00284220672761438,
-0.0280094323538199,
-0.00542334650599798,
0.058887844264815,
0.0364260692050975,
-0.0424934409584704,
-0.0450001064612369,
0.0247261537748252,
0.0410753135887941,
0.108044450187327,
-0.0767673898545669,
0.0579887192406511,
0.00244023900886857,
-0.0354291772046174,
-0.0175114051257783,
-0.0205098746438084,
-0.0178254806830919,
0.000489734726462846,
0.00163419214219023,
-0.0684465563999933,
0.0913043091717969,
-0.00377536764055903,
0.106031105469985,
0.0369982356491231,
0.0480124498381085,
0.181566528451038,
-0.0588324701668932,
-0.0136394819605079,
0.10438503739454,
0.0402900692159615,
0.00859557518125729,
-0.0202175467295095,
0.0110135765449206,
0.0552513964305387,
0.0854826737888302,
0.0398795336421965,
0.000639054837294552,
-0.0290306462920683,
-0.011375933026505,
-0.00213485529197132,
-0.00215184154805049,
0.0253144672357698,
-0.0180430249052144,
0.0238640706618554,
0.00493990821588305,
0.143506155582393,
-0.0602851762585073,
0.0325038986530009,
0.0170911175258481,
0.0581439971255735,
-0.00667887586422519,
0.0530008204608648,
-0.083616444793334,
0.102812524422467,
0.105766999871652,
0.00357214306478198,
-0.045918188781835,
0.0610151767528079,
-0.0579557038888758,
-0.0373002085124976,
-0.0842976969238117,
0.0237684211411026,
-0.0179869626112772,
-0.0461109144330963,
-0.0110569335439088,
-0.0420754850915288,
-0.00214758140903086,
0.0267947917660336,
-0.0429519242719873,
0.000644097586695693,
0.0045616936483539,
0.000626125846863628,
0.0364407434084711,
-0.0171379665189617,
0.0571449654248946,
0.0465967955741293,
-0.0741197021497876,
0.0308307142300714,
-0.0243336110251019,
0.03349565749731,
0.0389352665445247,
0.0419410621754396,
-0.0355377987105269,
-0.0319585895532242,
0.00960249510004769,
0.0167779421326229,
-0.0272851133685706,
-0.0427951131696301,
0.019598296490908,
-0.0207286055469984,
-0.0383307519991823,
-0.0250906008650421,
-0.0250920214501668,
0.0126059197780488,
-0.028719605064127,
0.0131121745739538,
0.0131087453961269,
0.00903509828482873,
-0.00618386365460121,
0.0543392907442562,
0.0765620156618721,
0.0424366277051758,
-0.0937166155338671,
0.0989668745077934,
0.0924694057227101,
0.0268585181379391,
0.0316703329363884,
-0.00612353810258083,
0.0528449155416987,
-0.0529643666902896,
0.0629076231538876,
0.00122654968714235,
0.166383984207058,
-0.0265354452594616,
-0.0155885811864536,
0.0499873208252815,
-0.0320997008108979,
-0.0250915297455839,
-0.0463008453478719,
0.0629947461829403,
0.0388060697202316,
0.00210105397151861,
0.0116128269085545,
-0.000370302805332421,
-0.0215096738627737,
0.0104424637143972,
-0.0304820767301656,
0.0190743724174408,
-0.0369474948817403,
0.0242272434102427,
-0.134530848040005,
-0.0283833220483804,
-0.0215974655121273,
0.0906499327034553,
-0.0423728929549141,
-0.0641818554048955,
-0.0472665305970919,
-0.0204901037245972,
-0.00659726336509258,
-0.00451050875314441,
0.0303742031984175,
-0.00963827370612947,
-0.0306048712948089,
-0.00886185473973342,
-0.00552280133461458,
0.00316617432949399,
-0.0501422603284529,
-0.00393516595845447,
0.0187391281658807,
0.012058137356218,
0.110107492016621,
0.137410488344174,
0.0398639003487396,
0.0654736404858364,
-0.0316107362705794,
0.0934285586998175,
-0.0760829473093125,
-0.0298038991243554,
-0.0199412390360005,
0.0906577987083283,
-0.0775950146979885,
0.0510198284974832,
-0.0664000469806584,
-0.0215792091042433,
0.00204195876425835,
0.0314497620357904,
-0.002614363388737,
-0.005422184559317,
-0.0426183318730381,
-0.00551944229180285,
-0.00551668624315456,
-0.00493103350571486,
-0.0172149739154602,
-0.011335923541651,
0.0154640815200552,
0.00128172431562211,
0.0034860155516861,
-0.0582629024982525,
0.0665260817650262,
-0.0439961421389662,
-0.0159081908048836,
-0.0324021911225517,
-0.0619382833728902,
-0.0213960134872047,
-0.0107923478508502,
-0.28875693286507,
0.00329906402455007,
-0.0669541441739712,
-0.125405295018199,
0.00475980142048702,
0.0100430089588671,
-0.0550248676836939,
-0.0534094231775317,
0.0690854442048714,
-0.125138376163271,
0.0610242023326947,
-0.00698838766841387,
0.00876437304786021,
0.0496502543765742,
-0.00862415607295973,
0.219579898236454,
0.0775571832393201,
0.145596863622299,
-0.048483812886738,
0.0653689971754505,
0.103119497044306,
0.0288979625785733,
0.163874009393009,
-0.0429913086756529,
-0.0275168761990752,
-0.0106681580122911,
-0.151299353682737,
0.130448940309133,
0.225230828499307,
0.0963336936328338,
-0.0187841302656991,
-0.0139833059514237,
0.0484906624673443,
-0.0596908344337022,
-0.102546671918171,
-0.0627750868526307,
-0.0399629715967239,
0.070820470668454,
0.0141592862276993,
0.0737443099086634,
0.0552081919977768,
-0.036026397808205,
-0.0515571438978499,
-0.00238829406693972,
-0.0411967041248228,
0.11463663854466,
-0.0520395347691955,
0.04091496315094,
0.052224340396095,
-0.0874366532816393,
-0.0731787629242988,
0.197109395861045,
-0.0348520338908372,
0.0220289401340709,
0.0230070855865368,
0.125326988472001,
-0.0100286789907514,
0.1024147707207,
-0.0227419888834397,
0.00121410473479308,
-0.00970729366612107,
-0.0231951241281338,
-0.0333073465158927,
-0.0517101429280366,
0.212686399423447,
0.0102027406430723,
-0.0159094064640254,
-0.0101572495366509,
-0.0713034422703796,
0.0456269181216939,
-0.0478505560794335,
-0.00912363187676839,
-0.0537686913083939,
0.051485707553185,
0.00677437675960344,
-0.0907504174572986,
-0.0360374162582673,
-0.0708782983619069,
-0.00554468521357601,
0.017488021232625,
-0.0567115814437691,
-0.0738097040279601,
0.0314509081633079,
-0.0490488009217559,
0.00247135636692767,
0.00863262927618471,
-0.0110043196691969,
-0.0209658489028042,
-0.0154079575811001,
-0.0100480866316569,
0.0238313176455376,
0.0268543612625173,
-0.0157932603895033,
-0.0252149507379055,
0.0160926053770065,
-0.016973271040145,
0.0421127775954854,
0.14500821929975,
-0.0133146819615069,
-0.0855341642834539,
-0.0488174268746678,
-0.103914890946774,
0.0915908528207094,
0.100846569641204,
0.200395347685371,
-0.101776602479979,
-0.0491512064751447,
0.0632360197368931,
0.0411303326043953,
-0.000712287120824666,
-0.0159961883742725,
0.0290733438121425,
-0.0202571866040061,
-0.00972871602605756,
-0.0381608339900441,
-0.0458403236526067,
0.0270508644303154,
0.0328591219384507,
-0.0158079042913405,
-0.0324713547561983,
0.0722683021599193,
-0.0239779759749305,
0.0267138303143864,
0.0654613574767488,
0.321655370350161,
0.0228834157783064,
0.227460986576205,
-0.084782962280109,
0.0959667858576957,
0.101219932575132,
-0.0442022202102407,
-0.0631955060264611,
-0.0111504972052358,
-0.00746539196380887,
0.00592285074138235,
0.00662532284980862,
-0.0220757166548574,
0.0329612112984108,
-0.0322679707490776,
-0.00967584503368009,
-0.0517094687527773,
-0.0560528278517643,
-0.000964209800707647,
0.0537099620425436,
0.016059145242559,
0.0177091792158653,
-0.0302128587481581,
0.127530846941678,
-0.0815718602551622,
0.123256620823973,
0.0296722299464757,
0.0963804852135649,
-0.0737715889310822,
0.0336939713466713,
0.159614900814928,
-0.299215315216036,
-0.0116638956831773,
-0.00498848606896313,
0.0362068136545792,
-0.0676378455438533,
0.0108657815009425,
-0.0478035746531001,
0.0059026499111437,
-0.0418940543881411,
-0.0200479856009834,
0.00565212406788057,
-0.0426096943068978,
-0.00621832565352809,
-0.00214773811319975,
0.00984763725392899,
0.0167161220812999,
-0.0156105544347126,
-0.0541109959045279,
-0.00422018759961328,
-0.0231583762631729,
0.00857508718627475,
-0.018502046818223,
0.0510880963000721,
-0.0124770622159305,
0.31998959966425,
-0.0754707034275992,
-0.250502509857765,
-0.0115269724457634,
-0.0120840313471334,
0.0246912624461011,
0.0143821873086405,
-0.0156431140025374,
-0.0310763788307065,
0.0262501057486064,
-0.00335917979167172,
-0.0134564879019755,
0.0352898945204768,
-0.0201569250174901,
-0.0558275407881586,
0.0144357321246895,
5.80530429030328e-05,
-0.000582873753939351,
0.0466318981533279,
-0.0321064863986927,
-0.059308292984443,
-0.00363225129107428,
-0.0202149164998083,
0.055528005076249,
-0.0392699963541318,
0.0385005241099996,
0.0169998978496652,
0.0596285405536658,
0.054365556953562,
0.0114235041336464,
-0.0482848619714535,
0.0089968138074846,
0.0624654594938009,
-0.0179497063369725,
-0.0135405612165427,
0.024205598471035,
0.0241518646208904,
-0.00971963962448548,
0.00736190097309194,
-0.0203093548072901,
-0.0497483058896999,
0.0140100013718882,
0.0306512685341301,
0.00309074039763512,
0.0132499493178641,
0.0237725250199227,
0.072831419331374,
-0.00807539879079262,
-0.00475969360379987,
-0.00739991415214128,
0.0340150156808761,
0.0303424161809893,
0.0458063050089108,
0.0666494110630603,
0.0520945156577171,
0.0108659247156321,
0.0112837673551362,
-0.0263310323380819,
-0.0359884610768905,
-0.0347491163983877,
-0.0426639695010133,
-0.00673988024305844,
-0.00820070698720445,
-0.0200539903861912,
0.0210168042140976,
0.00367594395261084,
-0.0141600915384994,
0.0200458604323199,
0.00469743558513009,
0.0190987595308145,
-0.0217176650842953,
-0.0242720720840111,
-0.0704270590958082,
0.00359409317642634,
-0.0395209248307658,
-0.0801815310545287,
-0.00902278224469423,
0.0276457269553349,
-0.0627883303578183,
0.0135579436353487,
0.0348311582732942,
-0.0207737279246136,
-0.0984868546811914,
-0.0245485392369292,
0.0575752842762216,
-0.0624911588449271,
-0.038882117189135,
0.00533483557924727,
-0.0736962208813294,
-0.0121130158636161,
-0.00316891660736393,
-0.0654437445351361,
-0.0195375263141359,
-0.00507860715410437,
0.00600083341321064,
0.00186164900218771,
0.0566687131908504,
0.0393193412474708,
0.0569787172297012,
-0.0101915391864568,
-0.0422575552399603,
0.0133258989248741,
0.141833411802451,
-0.00202720566226294,
0.0283880034098905,
0.0483535558064605,
0.045206731640473,
0.229855977903915,
-0.0521633297130568,
-0.0388403840378544,
0.129620419784954,
-0.038870224630357,
-0.0834078763884699,
-0.0178204656562545,
-0.0531337404308916,
0.000534083791811092,
0.000381687150496801,
-0.0373962766619697,
-0.0178497912659176,
0.00216508929927035,
0.00669963029420371,
0.0115812338968717,
0.00137823131971,
0.058840325910394,
-0.00324654504804842,
0.0149929189181342,
0.3209578328117,
-0.00476244206154217,
0.153492410640184,
0.0220998098033552,
0.133174921601914,
-0.00390790863279842,
0.00462222805683331,
-0.00213455847669517,
0.0862162096422295,
0.154927950501609,
0.100865035625046,
0.200794467926522,
-0.111411055800788,
-0.00685545711664305,
0.0136836743105773,
0.00116946499733052,
0.0515570446533978,
-0.0170199877266625,
-0.0260957553221267,
-0.00139528137888817,
0.00671541196973574,
0.0224797338425166,
0.00197722390322296,
0.000164005077332904,
0.00492885207347404,
-0.112805413470626,
-0.0952929441007863,
0.011228654855006,
0.00919819697815616,
0.0932848352940786,
-0.0729561155231303,
-0.154639606369573,
0.0353841527171692,
-0.0805940611730089,
-0.0733474370295916,
-0.128297172792221,
-0.0778517196283177,
-0.00987215706507188,
0.140988977180578,
0.0440778859530648,
0.069326796384456,
-0.00918524693778058,
0.00787760613412498,
-0.0245189796848796,
-0.0260708317135094,
0.00306967045634166,
0.0137991960940641,
0.00880133483288568,
0.0155158047382429,
-0.00341684918723185,
0.0354802201725425,
-0.0647682615466546,
0.0485180812979303,
0.115288578020071,
-0.100230903869366,
0.0013696041692894,
0.0353575853838842,
0.327137345688902,
-0.0807841662842492,
-0.0430930097835995,
-0.129671662641898,
0.0710094530545897,
-0.0402149879245391,
0.0597712940561926,
-0.0955044396857835,
-0.076848631362621,
-0.0261773426440332,
-0.00714391153567504,
-0.0115035247154466,
0.0019167799998642,
0.0114903980034365,
0.00264765108993384,
0.00982041434424222,
0.0155642701560909,
0.0155572068059071,
0.0416456102244761,
-0.0334493778543122,
0.0222267548385877,
-0.0373744898675219,
-0.0815046919003565,
-0.018055565891744,
-0.0132116524516838,
0.0820097097185315,
0.016182147974525,
-0.0948063073899567,
0.0931232313000881,
0.0921496985081672,
0.0778545059818825,
0.0267075637393181,
0.00699472749242886,
-0.0127204908696779,
-0.0304606171801294,
-0.0374717891582384,
-0.00718777772172474,
-0.0275976536266606,
0.0105073263091222,
0.00531414591179046,
0.0240108462938989,
0.0129079633105345,
0.02463133436371,
0.0219107937982877,
0.0325376241523133,
0.0794479357130256,
0.000205189510632223,
0.0721081547047869,
0.0803951027624715,
0.0414300951676234,
-0.0436737356019709,
0.00776383039637589,
0.09699316661399,
-0.0971144541245009,
0.153211981954636,
-0.0720032337390276,
-0.00865101673929244,
-0.0191611571521179,
-0.00899017587835294,
0.110779335685648,
-0.0146428428797851,
0.133521548858948,
0.0103296944061019,
0.0286274777519634,
0.00664295661750782,
-0.0030288645025488,
-0.00176488468066813,
0.0102712053366737,
0.0205194905366834,
-0.023746013745899,
0.0332417726170656,
-0.0122755098417675,
0.0686914867385619,
0.0722990514915121,
0.0874921535167622,
0.0822914880826981,
-0.025832212221475,
0.186891665919412,
0.0524838803626573,
0.0270050754339031,
0.00902071635905813,
0.0156496189156764,
0.109180016295759,
0.124498240307703,
0.0460243899971943,
-0.00709333951820214,
-0.00663743559759326,
-0.00797139675560439,
0.0110530692811541,
0.0505114954228652,
0.0982055674716206,
-0.00296988487265448,
0.0221111606461996,
-0.00675233826395212,
0.0209931046815968,
0.0118531887129983,
0.0143177080312113,
-0.000815522603781247,
0.0551444176282736,
0.0572970302147726,
0.163181875062041,
0.0571080439941316,
-0.0118051026041503,
-0.0165106196848976,
0.042866869932921,
0.0258574219892332,
-0.0615083545919539,
0.0662716216851843,
-0.0438782097709624,
-0.0294799637071566,
0.0767571618991304,
-0.0257344784113873,
0.0481532264186982,
-0.0421472174689423,
-0.00487285241637223,
-0.0162538929854613,
0.000780925314802718,
0.000778413184584746,
-0.00723998024800473,
0.0501958554491309,
0.036979252701377,
0.00513664849394958,
-0.010131759906819,
-0.0524080666662415,
0.0518845223181874,
-0.0150217760866849,
0.125274176605354,
-0.0140354069949625,
0.0322484311118168,
0.063134034127298,
0.0217384532326494,
0.0427907502373015,
-0.0196728253923449,
0.0708744847404573,
-0.00638498865173848,
0.0099712200678278,
0.0827284017437897,
-0.0477916709188968,
0.0809711478581667,
-0.0298095446072099,
0.0061582540374398,
0.0660874259246625,
-0.0154424467232015,
0.000777267153576223,
0.0178122256931152,
0.00880915983086188,
0.00791786943725664,
0.0137348323928013,
0.0403823164921204,
-0.0961433407003151,
-0.0164389918903866,
-0.0280659928012416,
0.196245229374559,
-0.0836865991631854,
-0.0108861698446454,
-0.00365514123112422,
-0.00788727156868026,
-0.0576707300834393,
-0.0772708031383028,
0.00850598104876937,
-0.00345472409503671,
0.0100133266849087,
0.0372044342150266,
0.0960986200919145,
0.0637058050153363,
0.0638773068601428,
-0.0102047261343058,
-0.0145749240580632,
0.0159846643704031,
0.00185970190391914,
0.0009984552567321,
0.00436340996013607,
0.0132243071898275,
0.013226584622425,
0.170296303959087,
-0.00603226844034985,
-0.0590098986769023,
-0.0549483144073533,
0.000572993313916079,
-0.0195549326354717,
-0.022630034933938,
-0.0284557612586347,
0.0319266332178464,
-0.0171696719511099,
-0.087504173872883,
-0.0332122248945858,
-0.00262682483631804,
0.00537955251644336,
-0.0298676926129836,
-0.0102333987464261,
-0.00630002307371102,
-0.0124001535018467,
-0.00445202360841267,
0.0876006305736539,
0.102320394438413,
0.0208664460818581,
0.0323172582651264,
-0.00154640553928502,
-0.000388402428058581,
0.0473412147595226,
0.0775064202504268,
0.00602742746241482,
0.0387887005323505,
0.0395148014016015,
0.0164905610225588,
0.00204383957946521,
0.00883632811712382,
-0.0251463677397322,
0.0830491775452979,
-0.0194076712556778,
0.0190263949526601,
-0.071898118698062,
-0.0208891317113561,
-0.0390524954507652,
0.00202424554466431,
-0.0318196362338365,
0.0103824427335532,
-0.0384646954834411,
0.0216716099514726,
-0.0339834384417162,
0.123700853080547,
-0.0090053888308994,
-1.60247608801332e-05,
0.0263056434083974,
0.0473339007866218,
0.0333669908348831,
0.0535325992399332,
0.0202885690280781,
0.105535523149829,
-0.0421901562033687,
0.00927695957059527,
0.100750856517514,
-0.0147343769079384,
-0.0217447300825754,
-0.0167113819642959,
0.0218991964022173,
0.192198105686368,
0.00546975900921281,
0.0194355526989684,
-0.00375323838730142,
-0.0488241323960243,
0.303905654425428,
-0.0455930844255411,
0.0206816444955452,
0.0656762285675442,
-0.0288086490807406,
-0.0215340124809677,
-0.00575050111376203,
0.00457642846100347,
-0.00264225574837902,
0.0513871647354472,
-0.00464491232142263,
0.0149251316861907,
0.129252345852178,
-0.0246273950647658,
0.0308312008158308,
0.0199598652808529,
0.0100361848426923,
-0.00334279798435381,
-0.00829604211256191,
0.0723820112473708,
0.130080143227223,
0.0168356353754977,
0.131920825182256,
0.00307595627477815,
-0.018305855361689,
0.0494373725484002,
0.00385643881938052,
0.0364483341655097,
-0.0162776211898901,
-0.0127022329052074,
-0.0051306893711528,
-0.0298302189417734,
0.0083601964118902,
0.00453253522332383,
0.0196157039558826,
-0.0183068408635741,
-0.00703349385532253,
0.0528101816168744,
0.0228637391316684,
-0.00916542903709296,
0.0815692616115014,
0.117274940779822,
0.00172711757790954,
-0.0241163717236033,
0.0910884221121879,
0.0106965777579189,
0.000166045844819074,
-0.0242023919706806,
-0.0217123927348456,
0.0115364388349026,
-0.00186613157068505,
-0.0126970088912668,
-0.0415917667703507,
0.116897544069036,
-0.0336381876499245,
-0.0153117020542636,
0.00591514939669394,
-0.0421432481312443,
0.0874076036908423,
-0.0125492301184747,
-0.0106435243168528,
0.00879934511598215,
-0.00434141780679444,
-0.0518404725786411,
0.159958141077674,
0.0349680169439338,
-0.0309782485526968,
-0.0476325727877498,
-0.019947448306615,
0.0514810529426903,
0.0545906018027899,
-0.00280194736732406,
0.0436737716421957,
0.0299897592191804,
-0.0141160791894845,
-0.0109213336157156,
-0.0690551412638966,
0.118846654699591,
-0.0112129272033375,
0.00243906145216577,
-0.00147529179717124,
0.00492209481170917,
-0.00572827739394163,
0.029246750214603,
-0.0438413930555492,
-0.021581535676654,
0.00203905330529646,
0.00736111679647917,
0.00896307231543925,
-0.0409430243101687,
-0.0291212268587769,
-0.0413883684593268,
0.0308292228189586,
0.125468439601434,
0.0463228282876529,
-0.0523214122386432,
0.00162693177544254,
0.0067808588182152,
0.026195896521259,
0.0167221798013017,
0.00227425359785396,
-0.00329909181921862,
0.160625547562323,
-0.0111129006266398,
0.0819461559053373,
0.00238257558748482,
0.00243094391130862,
0.00158190223121635,
-0.00572560243448712,
-0.00582613782534962,
-0.0438212516178442,
0.043533734164176,
-0.0359303414555536,
0.0523736150846535,
-0.0424161715117718,
-0.00697857949463326,
0.0259274934953163,
0.193133641122441,
-0.0395515385977881,
0.0161824307447164,
0.0211187151180025,
-0.0639477077317465,
0.0124478594956583,
0.0140537576301436,
0.105864757104219,
0.0097667106680609,
-0.0110041569584603,
0.00366006032849671,
0.00739627957853106,
0.0533725436042404,
0.0376089791818822,
0.106176739086738,
0.0166117085367299,
-0.0063907571985536,
0.0286057527345672,
0.0213097703046224,
-0.00104898133556176,
0.0724893250048106,
-0.0198883224586115,
0.0394799964033654,
0.0231945459829981,
0.0634544603636502,
0.0597046372476901,
-0.0207658691145561,
-0.016111377145149,
-0.028409169302158,
0.16521953596961,
-0.0394222494105304,
0.108081942953368,
-0.00741652992725249,
0.0247357901118704,
0.10750765579906,
0.0164129739765361,
0.00657015551735615,
0.0106394283714723,
-0.0136035141324008,
0.0291201565358463,
-0.0848873505919784,
-0.0142997804841907,
0.00785639814832849,
0.011678280795835,
0.0213514060854374,
-0.0284290409120465,
-0.0288045234323345,
-0.0137814093517428,
0.00877456762928778,
0.0265731871991298,
0.0559419713126853,
0.0212968098014355,
0.0653123987154498,
0.0573450917691871,
0.0409730161072332,
0.00238170567104576,
0.0373445672194095,
0.00814425794333467,
-0.00502918542671045,
0.133767670840393,
-0.0222683224195293,
-0.114571009761201,
0.0161854681155595,
0.00259072780850107,
0.0525426174296569,
0.0164654030749141,
0.0132960322638783,
0.013654199066924,
0.0234256873637422,
-0.0102402841604296,
0.011569786205598,
-0.0222867164830245,
0.0822001153937756,
-0.0111963229149607,
0.00879034534197073,
0.0266113808840131,
0.055413268437419,
0.0301829747793468,
0.0352223545016544,
-0.0948276995622589,
0.0586919085353736,
-0.0130748688946855,
0.00555918414146019,
-0.0392479262423551,
0.0294544761054754,
0.144120170239872,
0.0112392813302455,
-0.0837046222967628,
0.0084784256595161,
0.0198250163584993,
0.0408998341125509,
-0.000281003303615427,
0.0152892908330313,
-0.0201561091025199,
0.00424037610517439,
-0.0555027418788048,
0.0658746880921162,
-0.0222826760302614,
0.00172912979982241,
0.00236921268676592,
0.0096502998605591,
0.00831873985463592,
-0.0130380852308321,
0.0860659802072111,
0.0547231443504152,
0.07319359950375,
0.0288476603241544,
0.0786257051199072,
0.0227993440382068,
0.0349653369527533,
-0.0498746895886564,
0.0963184979399038,
0.00961881203104579,
0.0104192112726051,
0.0263918183289631,
-0.017026895154615,
0.0219208790282647,
0.0119242333897487,
-0.00995773293646559,
-0.0393510042828625,
0.00559606504187457,
-0.0171262967392338,
0.071341754563648,
-0.0223906725255829,
0.00132941560229186,
0.0169104360040912,
0.0096486211376081,
0.0126006163853695,
-0.02320978109058,
-0.0332841037883314,
-0.025345145419885,
-0.0908012968032855,
0.0340872796033248,
-0.024635448780135,
-0.0124417983507913,
-0.0224166455341109,
0.134909716126617,
0.0936235670223511,
-0.0105996313882153,
0.0209239069503101,
0.00702977707917411,
-0.0289701482028694,
0.00655790345253927,
0.0165023068922751,
-0.0192562741164601,
-0.00992559838725514,
0.00557884087233963,
-0.0115433217599274,
0.0946101932881141,
-0.02237517844208,
0.00114211985545103,
0.0656868082817348,
-0.00659536304007701,
0.00848664661699273,
-0.00504001973303209,
0.120496317417046,
0.0617257600073855,
-0.0777285548926686,
0.0121322952852608,
-0.00913607964132911,
-0.0116673126773707,
0.0140576469691321,
0.0444694361020956,
-0.0538501928475465,
0.0605213135185235,
0.100898712104933,
0.0144968737587101,
-0.0049019306662966,
0.00810133974062456,
0.0717863093521183,
0.0736770102493013,
-0.079828192922044,
-0.0273097185302407,
0.0445763973727427,
0.0303352576408852,
-0.0583804909071655,
-0.00891779093130687,
-0.0244699903094923,
-0.0171566407626322,
0.00848963361883911,
-0.053890056080957,
-0.0468263881382226,
0.00488412043254777,
-0.00976888122269123,
0.0372999263148335,
0.354896351824113,
0.215748519464938,
-0.00882624422268823,
0.0417126967346943,
-0.0185315305508919,
0.0310941936398089,
-0.0282058670606672,
0.0138997432783771,
-0.0205337712724528,
-0.00506806145623173,
-0.189431894026815,
-0.00264257497390943,
-0.0420443283663668,
-0.0542582845935962,
-0.00525306794054117,
-0.00391020665252529,
-0.0480435665873661,
0.00236760536577186,
-0.0224944110058108,
0.0588870551980656,
-0.0210710848368731,
-0.0320695405019859,
0.0174249778786977,
-0.053236954045866,
0.00921630170526211,
-0.0752337175933804,
-0.0546726149274493,
0.0159262110603866,
-0.0380811514046873,
-0.0913155445762869,
-0.0262428013476667,
-0.0182866663187674,
0.0593116253529987,
-0.0654053456961216,
-0.0323213350177027,
-0.00415528467251293,
-0.0661589789037179,
0.0328074040593981,
-0.0684339086674757,
-0.0483205948754196,
-0.0707700396786183,
0.0304102228914284,
0.0136494577960474,
0.00236142155586532,
0.00704945963045802,
0.0599935439028791,
-0.0749590946691391,
-0.0415156431171337,
0.0134032835699301,
-0.0451010944719792,
0.0225181136617777,
0.0261735406454829,
-0.150214848651618,
-0.0153604497778934,
0.060944845813755,
-0.0818620422240524,
0.149244545659831,
-0.141767973674093,
-0.0998812041168508,
-0.0837443426898865,
-0.0155587353698458,
-0.0523457100862454,
0.0408372959366732,
-0.0642444467144325,
-0.0865011798093785,
0.0652883651734274,
-0.110621686235372,
-0.0314144128951895,
-0.00698718423172329,
0.029270714083528,
0.0122878844336362,
-0.00116620878415877,
-0.0031132147636606,
0.0603519045103128,
0.00309587512660453,
0.233049549675867,
0.0139205833703236,
0.180280186379347,
-0.000723298392651836,
0.00298271853038798,
0.0958270817217396,
0.0123288911411771,
0.212791290993434,
0.207723539561012,
0.00745807972254009,
0.0113886366777981,
0.11355699987701,
-0.000646194872876256,
0.367424737387767,
-0.00212062068461357,
0.148971263326511,
-4.96700907926949e-05,
0.0336565693563596,
-0.000797544441751666,
0.0181025422077718,
0.00407570196705073,
0.00110097478680287,
-0.00117402886728207,
-0.00840277994239377,
-0.00603725056087893,
0.187295178770204,
-0.055430598436417,
-0.00621129204659886,
-0.0421849567467334,
-0.0190611950009901,
0.00287109381143787,
0.0822227836619024,
-0.113751922225228,
-0.00322899733743021,
0.0493145899772711,
-0.0588201264615635,
0.0756439505662963,
0.00296291857125543,
-0.0143165986118206,
-0.00321109498355263,
-0.00892033865315618,
-0.00602274514843596,
-0.00234202156335715,
0.0914480295513581,
0.0560716777145382,
0.00199329047396228,
0.000289615659068957,
0.00912529547099223,
0.0494366183525092,
0.113529467987272,
-0.0196833417727835,
-0.00740700216040045,
0.128641121523983,
-0.0408230203440153,
0.0940689304872887,
-0.0312629546319018,
0.148267288786443,
0.00539693919313101,
-0.0294094308586734,
0.15589683659971,
-0.00610537089882001,
0.0750660162703092,
-0.0190623074181633,
0.132487521074563,
-0.0221368705065051,
0.258640550110206,
0.128630355565569,
0.0328664582815431,
-0.0201311476856098,
0.0479717149573363,
0.0103437820933362,
0.128498771536993,
0.0060965301751213,
0.0103954912834361,
-0.00377969629748154,
0.0110163509194523,
0.0182143230222852,
-0.00391460554741473,
-0.00257283029785255,
0.000469998286250143,
0.0531131048321776,
0.024080607362552,
0.0233012022340698,
-0.00198866542938827,
-0.038717048391123,
0.0290444137352566,
0.090673337049108,
0.0087009376245057,
0.0379320596928508,
-0.00293311404601304,
-0.0152834087231052,
0.0169984267027994,
0.0259654130704418,
-0.0120396140682427,
0.000914876822746428,
0.195145770754251,
0.0110112928760295,
0.0049474342522243,
0.00128159417729408,
0.00469214355616571,
0.00137458486796507,
0.0211874953731927,
0.0664580631366665,
-0.00690528802091577,
-0.010802731681757,
-0.0477796773272247,
-0.00371871760202996,
-0.0147189464523567,
0.0511704513601316,
-0.0329602849609855,
0.0681550696675598,
-0.00476221451568609,
-0.0145210734273721,
-0.0144970240193174,
0.00323538950202584,
0.0489253234009835,
-0.00162121991370942,
0.0275791158483438,
-0.0197689349005932,
0.180855424915414,
0.220603642887435,
0.0144751434044266,
-0.0012884568446542,
0.0277124845740088,
0.0020002490718951,
0.0116331437606417,
0.00252319057010901,
0.00186014202009615,
-0.0337706072677105,
-0.00137978992134157,
0.166317016085692,
0.0263124444851639,
0.157003878132032,
0.00374892777149343,
-0.0284005047970495,
0.110018997057733,
-0.00276341762167342,
0.0804961331640499,
0.0178371449231798,
0.182000102180191,
0.0201267791501843,
0.00913993958910348,
-0.0112876667013543,
0.101066262534841,
0.0113889522401116,
-0.0174954676510347,
-0.00878658038604351,
-0.0264451166573362,
0.352663083520354,
-0.00743630014628461,
0.0103972355456986,
0.000849402682363261,
0.000237858156809193,
0.0554213542291175,
-0.026455939356725,
-0.0152743233990636,
0.0879362268364598,
0.124432056745154,
0.175671541257485,
-0.0235709267303986,
0.144929539121083,
-0.00306863344725143,
0.00890329045509385,
0.187865295540212,
-0.0762862659928631,
0.00125368507073285,
-0.030105140152819,
0.0646260740254202,
-0.0445781586090829,
0.140062476052043,
0.116616063870523,
0.0914495241393254,
0.0299288746875566,
-0.0369211087534259,
-0.0063423125720661,
0.00583437055501025,
-0.000574393834457035,
0.00973272828666239,
-0.00113553207258349,
0.00303341043554519,
0.0986544346284008,
-0.0101101725664142,
-0.0405614599019944,
-0.0169225603079617,
0.00539563008031431,
0.00632678537726043,
0.0106140805346976,
0.00533238780359774,
-0.00100718399320911,
0.00615252512334939,
0.00637305974595159,
0.121417398430652,
0.0498592767890681,
0.061470014432987,
0.00371258789315695,
0.0266668583335959,
0.00133646134135628,
0.00923683526404725,
-0.00548351545291571,
-0.0106392538073513,
0.000984443807241147,
0.0381661590086087,
0.0345381018821146,
9.93757542037903e-06,
-0.00976598346469289,
0.0246115546511806,
-0.0108491457849419,
0.0224882387847651,
-0.0133765107493283,
0.0387129337892365,
0.148129555236667,
0.0639099049566193,
-0.0558069212027615,
-0.00883816791788311,
-0.0138192647750967,
0.192063780707922,
-0.0898938901684044,
0.119721445142468,
0.00396672805704691,
0.0503118300500393,
0.0235963380810884,
0.0581540014252271,
0.0366959662479608,
0.152248472764038,
0.000578143410983152,
-0.0463769108535501,
0.14438897764307,
-0.0165078069506861,
0.00724107846659311,
0.0141806491541409,
-0.00422031478694261,
0.147380818444856,
-0.0543347893110244,
-0.0114223490470928,
0.136825518295899,
-0.000765987130442859,
0.0220794357771395,
0.0114647221898586,
0.15841815344013,
0.0192646533672139,
0.00917191710165845,
-0.000268078484322766,
0.0190224273012666,
-0.000537443161063477,
0.133673363637425,
0.0342252669987577,
-0.0415247556453519,
0.251466366446883,
0.00787313350229786,
-0.0035290891851938,
0.112605179471293,
-0.0238603584260923,
0.00228968932754822,
-0.0165169957729533,
0.00559969159607984,
0.00519894216355857,
0.0242839233489342,
-0.00375524419786755,
0.000223283372644005,
0.0110978913804666,
0.00131950708075955,
-0.0176122924116654,
0.0209356928126275,
-0.00284861347240793,
-0.03308281535741,
0.0304394040796031,
-0.0501632084581799,
0.0396738379933368,
-0.0437265150952224,
0.0498715457406822,
0.0147757537073417,
0.132033588407187,
-0.00250875557920482,
0.0630036597905511,
0.00985530237165682,
0.0108651407855599,
0.00797149020543331,
0.0552202076593297,
0.00163729771788891,
-0.00178618167360509,
0.0115707489465564,
0.011590431824305,
0.0607627553994422,
0.00918543249854539,
-0.00452477733395765,
-0.00525580589110772,
0.282779477918819,
-0.00715794405836468,
0.0291708201896844,
-0.0123464570001583,
0.0810766529266645,
-0.00850280501666326,
0.065773929568361,
0.0807632210096411,
0.019825266206263,
0.0356277195933505,
-0.00486769182270686,
0.00571482955696547,
0.00372841651034715,
-0.0188925008427786,
0.016077509328872,
0.177001221601444,
0.0033889420101386,
0.160037242905322,
0.00150854471492309,
0.0346234294744412,
0.00869340689361815,
0.00684830408699462,
0.00172438591251394,
0.102361038225523,
0.191937828856775,
-0.00692659223419404,
0.0149454975862512,
-0.0070234439543675,
0.0525974786693134,
-0.0283455453124346,
0.00483958869276905,
0.0740212263651865,
0.0491727464599709,
0.024028035139031,
0.0581426956844864,
0.030862873493532,
0.0155642303669686,
0.073152235705696,
0.0327794026793167,
0.12576976308125,
0.0705379135961298,
0.0212923737885607,
0.0134940880883252,
-0.0206358060892847,
0.136588911674956,
-0.037973647417649,
0.00359098584637482,
0.00898701762973595,
0.0338617694790351,
0.0240092167349518,
0.00160237105988378,
0.0199002160530069,
0.0127631963704801,
0.0201858927238728,
0.00872241184376179,
0.011937621429614,
-0.0142578833567388,
-0.0235608602881685,
-0.00544382903243218,
0.0193222567195398,
0.00851581136501134,
0.00128200204217966,
-0.0183476498142971,
0.0314338406945181,
-0.0203484031736311,
0.00497369277758286,
-0.0263517885736154,
0.150886123199742,
0.189999631623681,
-0.0205655539849209,
0.016364613214399,
-0.00810409731794002,
0.00998067357795625,
0.000154699228721762,
0.00927910049530199,
0.00279695020609676,
0.0510080990149191,
0.125647211140733,
0.303628600120858,
-0.0170728973811402,
0.0225827522465987,
0.00844146082129447,
0.038657015377882,
-0.00205302287981478,
0.126957207976597,
0.012338684829813,
-0.0038300098749932,
0.0206477859795205,
0.033838079269057,
0.0222175471478355,
0.0658017464116539,
-0.0273186641548927,
-0.0366847158203111,
0.187123975636298,
-0.00224196367668735,
0.125692860606941,
0.00428788122739449,
0.116465159629367,
0.00429339908185095,
0.000904120791924986,
0.194448005136413,
0.0023976676426933,
0.0116475620046137,
0.00397607446952307,
0.00674300425184459,
0.00806324623583735,
-0.0267165463869436,
0.00927632091118082,
0.0261197031905646,
-0.0077127364520286,
0.00782708687543539,
0.0268078286156637,
0.0192867066797587,
-0.00484934631346205,
-0.00536355642472858,
-0.00918736000521169,
0.00600572282014024,
-0.00916905952709016,
-0.0339359796753743,
0.0459493294603552,
0.00497223093104245,
0.0187375028027431,
-0.00518371279206715,
0.00184205880256919,
0.0117742334435621,
0.0157261580583832,
0.105214998711965,
0.0132704168688005,
0.0541433850185081,
0.17736938207895,
0.14692062308935,
0.0110325027960565,
-0.00622703244417889,
0.0409262775317152,
0.000562225209041323,
-0.0182412404771581,
0.0255752520535774,
0.00212979701182568,
0.00902502511657811,
-0.0140148904767483,
0.0217460575799122,
0.0124428343127951,
0.00544879101025136,
-0.00333257471617317,
0.0034570604275286,
0.0202992661610626,
0.00264028648334615,
0.114820986190488,
0.00811031596152044,
-0.000951966769174765,
-0.000385682143839497,
0.0132566518716054,
0.0171521565626753,
-0.002888215279528,
0.00901793744051709,
-0.00573290048828278,
-0.0185151566199962,
-0.0157965833165385,
-0.0390977681860031,
0.0256538790677852,
0.03708632127509,
-0.0107830316413204,
-0.00151767804513166,
0.129406915671778,
0.0135836348496493,
0.0144045190352321,
0.0367622635250099,
-0.00279153847974076,
-0.0113294223101189,
0.121465130952845,
-0.00750731065230987,
0.0915099710154271,
0.000672290561402833,
-0.0134919073064751,
0.0981772630783694,
0.0016634855279313,
0.00381493314714474,
0.0119059322503813,
0.00956446295749227,
0.0093854678414275,
0.349530236096859,
-0.0140368601990398,
0.0052270642112999,
-0.0292515245140245,
0.0790355227483864,
0.0371899064578765,
0.0605513601959652,
0.0186162458294074,
0.0559440794499188,
0.0328818303149353,
0.174189711392281,
-0.0482849027714823,
-0.0292899440498328,
-0.0315781431550463,
0.0702946984771734,
0.154516958640792,
-0.00835653143700812,
0.0404562772037058,
0.211566344926163,
0.00365144567233308,
0.0093351210420565,
0.00477786855844812,
-0.00120112432142256,
0.00954788358837247,
0.0827434228315296,
-0.00171069947294411,
0.0205003406055648,
-0.0160239137131442,
0.214739903195141,
-0.0236645911267045,
0.0194503725324534,
-0.031855360585056,
0.0075894059978175,
0.0227682155121743,
-0.00756581052721506,
0.0380969295786303,
-0.0221464873186598,
-0.0141738992896021,
0.0488290070513075,
0.0321617934813944,
-0.00507269680679962,
-0.00467782904792564,
0.0502180832836976,
0.117734399902091,
0.0125826893131858,
7.05268709954741e-05,
-0.00115130761587847,
0.0453523884761025,
0.0138775643922355,
-0.00319315644669914,
0.0140810748132393,
0.201658935558046,
0.23736559681095,
-0.0250993100464754,
0.0940152629150113,
0.149910959794937,
-0.0057455661587671,
0.00892831006874788,
0.00399845194912022,
-0.0111090431563371,
0.0501435821162211,
0.0454677546981,
0.0404298014050499,
0.0519970341340603,
0.0980588891977694,
0.0264724245592139,
0.0300840065050338,
0.0300683465711775,
0.0914605092186317,
0.136434602222443,
-0.00148009351758964,
0.0215391987692237,
0.00333799820891427,
-0.0109933443552381,
0.0259907130382287,
-0.00677695390703126,
-0.0204876720444422,
0.0278234480556124,
-0.00432595804825426,
0.00743450203496953,
0.0641286025702129,
-0.0225009755893706,
0.0946163506029053,
0.0133220512806977,
0.130378582733362,
-0.0126479912431293,
0.0367693011888089,
-0.00719158869854158,
-0.0394997993304732,
-0.0180430160342529,
-0.0255588142660149,
-0.0255478936846099,
-0.038692543952913,
-0.0412237777339885,
0.0848600582519634,
-0.0794305748918595,
-0.00390152550773719,
0.220035130341689,
0.00333931936737104,
0.00131344946614634,
0.00293687498773146,
0.0226512725675817,
0.0144637861372886,
0.0017952563528899,
0.108328674384856,
0.00649631538156074,
0.155259270166052,
-0.0263940070181134,
0.115161099367195,
-0.00443872760123093,
0.00911552811084411,
0.0038663936137797,
0.017000869178134,
0.0877589932941924,
0.00800277672444978,
-0.00179708888476442,
0.00942069571900707,
0.021100524650384,
0.0105735459247203,
0.00755834322184821,
0.220148554635419,
-0.0482441934485356,
0.0580005000479659,
0.0485869988835929,
0.0493401730732456,
0.0233953385571852,
0.00997066792694204,
0.00579209998146599,
0.105808644959335,
0.0118159097598155,
-0.00703432651852033,
-0.0192886111834308,
0.0867289510430244,
-0.0564522564573144,
0.021641562346512,
-0.0194616680641309,
0.0236410365528758,
0.0617492835366071,
0.0264249094587712,
-0.00317039516770808,
0.113369220567187,
-0.0273384269811003,
0.0177723043863876,
0.0494173780978987,
-0.000413960573002566,
-0.000363613130111496,
-0.0229403493403689,
-0.055588970136087,
0.0138524149882686,
0.0498205628921218,
0.00884027234599894,
-0.0202658423546675,
0.0129899792780813,
0.0205944127931164,
-0.0254677964489696,
0.0226824232177198,
-0.0157488845878758,
0.00621709303613161,
-0.0727757486424214,
-0.000367822050951151,
0.021394233920925,
-0.0122054599953412,
0.0688715568717221,
-0.0358472420709079,
0.00618653126719562,
-0.0229532449258883,
-0.00579825563868089,
-0.000635184310021127,
-0.0167454143035667,
0.186807108481542,
0.00723769372265274,
-0.0143728965813985,
-0.0495533134525923,
0.00965671733253374,
0.0161901229533726,
0.176158928935378,
0.098264256554411,
-0.0292979131250491,
0.0068669132836879,
0.0103137683504517,
0.000971928145370937,
0.0590680732744452,
-0.0606137986178164,
0.259680284677441,
-0.0950888560752454,
0.311427947987477,
0.213156615352593,
0.0192111416028277,
0.0167901616195622,
0.14572951289794,
0.294433962788853,
0.0704989395049846,
0.265495967184211,
0.0563517015254263,
0.0903889458269491,
-0.0395657312251455,
-0.0292492875539839,
0.00767858350453744,
-0.110045061616339,
0.241578767689783,
0.011661117114601,
-0.0592414790172431,
0.016039822362844,
0.0288667943586975,
0.00466535839666844,
0.0328899108311846,
0.0476601824072736,
0.00188087219868211,
-0.00248262623321231,
-0.0024582645643526,
-0.0342894229452438,
0.0118405896983187,
0.00295226438172349,
0.0146136563268655,
0.00323044394860863,
0.0229775326542921,
0.014578557779881,
0.0555356420232502,
0.00607859819640053,
0.0472724154098211,
-0.0173005967609449,
-0.0545701873240635,
-0.0201113891985657,
-0.0722570605727972,
-0.0195951449412542,
-0.0257368616392952,
0.00290108293655169,
0.0349174137827376,
0.00726516074119389,
0.0415903840103156,
0.00389309977703328,
0.00956894999647083,
0.0103357935152789,
-0.0284037407020325,
-0.0136394769965957,
-0.00247104659708331,
0.0216483644794606,
0.0330451245413748,
-0.0119394590102938,
-0.0135497530730007,
-0.0187851153048811,
0.0623797871589282,
-0.0873547519831556,
0.00683298444770027,
-0.107516728893057,
-0.158379158136976,
0.163571537893746,
0.240727512736774,
0.0178724407020055,
-0.068395534446724,
-0.0710355230037239,
-0.0279294367370261,
-0.00447444907716489,
0.00326030966451419,
0.00930527379115084,
0.0194497903859355,
0.00347483147001122,
0.00243974587583963,
-0.00651109218129747,
-0.00376159220502163,
-0.041787131013155,
0.184293280566442,
-0.0442091208505291,
0.067935999549606,
-0.040726807489112,
-0.0821008442479214,
0.0308724448279101,
-0.0815056965191813,
0.0425665753706609,
-0.034396156761235,
-0.00665477287823705,
-0.0328636044751416,
0.100975033678569,
-0.0370342349542842,
-0.0223049513941518,
0.0134834624697601,
-0.0120488791864364,
9.13819417794409e-05,
0.000812429422619939,
0.0134266982190956,
-0.0048830738419542,
0.0179584745293952,
0.0163408224154976,
-0.000652011065502979,
0.00168565073714588,
-0.000493227810834649,
-0.0119653840552997,
-0.0946234859309337,
0.0156159590109167,
-0.0150043101144958,
-0.0346535793306385,
0.0401663205125255,
-0.00638128336085094,
0.041185327667611,
0.00823236554113427,
-0.00106001603942232,
-0.0506822959628111,
0.0676037334563163,
-0.0375263324243353,
0.0733008962343334,
0.025822151217221,
-0.0410527630777322,
-0.0621634709235131,
-0.0260545890284029,
0.0134934421758497,
0.0134914357388983,
0.0215136078321764,
0.00767216453280812,
0.0082985293494618,
0.00827891273480052,
0.00488065001147978,
-0.00577170832730863,
-0.0219963260166094,
0.103466839280965,
0.0147215887131071,
-0.0337756727386625,
-0.0280741533348211,
0.0124054710115092,
0.109021713408079,
0.115357484929013,
0.0307677345932359,
0.0351698245687765,
0.00785558570942863,
0.0183342065309243,
0.0109229131225683,
-0.0194948974371544,
