-0.174759177004626,
-0.152447150041278,
-0.131872662847787,
0.0504948163541733,
0.0313398883667957,
-0.180131663894173,
-0.14436999190202,
0.123056412010527,
0.166266365422679,
0.0789595241047169,
-0.1313144143118,
0.0503027845990133,
0.0649665071743736,
0.055677717936342,
0.0694795207972671,
-0.0376130076360278,
0.00460869685650328,
-0.0554698460625828,
0.0736832831777838,
-0.133797775135874,
0.0738473499150979,
0.0666866835966041,
-0.136679559088819,
-0.10780488424714,
-0.0624624965340884,
-0.210632832397742,
-0.0471028552724406,
0.00746043077980944,
-0.156864262203076,
0.0661519426492533,
0.112109925276266,
0.12842874912243,
-0.0864375543118085,
-0.0445125529883719,
0.0418061434009228,
-0.2010506033566,
-0.137811912046357,
-0.106463038066967,
-0.0512952149339464,
0.0954174719594446,
-0.184426825279636,
-0.209169118180411,
0.0971999775494318,
0.174224379351191,
-0.055293175085965,
0.0840723531772859,
0.182804833034936,
0.0992608899921514,
-0.0668325279207635,
-0.145860599047473,
-0.144185040975985,
-0.166945543314968,
0.13901536944109,
-0.0428553369128746,
-0.199028645769713,
-0.0754879573645746,
-0.0702761121031205,
0.0892729730891489,
0.18731170242967,
0.02062295443212,
0.0425064631179688,
0.0574610572358557,
0.0759011911951588,
0.0990166049515419