-0.0810958188960424,0.1794104355147,0.0247179787322332,0.00805639155538803,-0.14401347621493,-0.100748960380316,-0.164590546155707,-0.117577725145546,0.0870928560722929,0.0530991092707372,0.1327049814584,0.0505335162691665,-0.0237229829555304,-0.0689414020123672,-0.0463403811359349,-0.164496319455113,0.15082319949161,0.116052230358606,-0.068739487153289,-0.050993125328924,0.01321748828943,-0.17003563966299,-0.0563760308564344,0.055278892264444,-0.11946645778405,-0.0102515207107835,-0.0844753422995618,0.137634637809,-0.162631815945838,-0.0106766271311535,0.00661105410342556,-0.18738634060115,0.128388049173628,0.125291121342864,-0.0381922205498724,0.0650718169033694,-0.0470200188848042,0.0977978988130264,-0.117141299167617,0.0157014720594235,0.023712062864318,0.0692852043314756,0.0932884119396053,0.169757577221861,-0.00734362002481081,-0.219630565716206,0.0594600603803874,0.198958261690928,-0.0767457392202956,-0.0479310736648631,-0.102647670421832,0.0190800953982278,-0.15703126405033,0.0436877547434964,0.00185588290510166,0.00223989836252907,0.0724569478303268,-0.0181902076389076,-0.0216981527334964,-0.019718676606898,0.0539143930213773,0.0939270585063069,-0.198278263014807,-0.160599337210784,0.0775458696265893,0.156417090590758,-0.0298361061883798,-0.146748229688746,0.0515927084539162,-0.0915086546640335,0.0660924857275045,-0.113516623082121,-0.0126712692162794,0.134231241306424,-0.103296697034406,0.0500159823506955,-0.108257794715375,-0.0633530411677517,-0.195346385624203,0.0153949830960655,0.166769137000576,0.00307370966572443,0.0037110012287323,-0.0762674445892214,-0.110192369293447,0.0151580657960714,-0.0504561006910046,-0.0608650482814993,-0.0293076586427519,-0.136848102690422,0.0214455247660687,-0.140462216191772,-0.119035214127338,0.183990742432329,0.0582798796970343,-0.171549828390868,-0.0908738226633247,0.0282650017622323,0.121181599391064,-0.101459386723025,0.018512351850699,0.196001232230567,-0.164486411253846,-0.020875051331941,0.0210158073827935,-0.137185715400759,0.0531070092024811,-0.116218218288287,-0.0400455026779271,-0.123349835153497,-0.137497687876198,0.125374667877855,-0.13416334000245,0.148774689015302,-0.00269108106242556,-0.0512427223087925,-0.0363506791475927,-0.157508461950211,0.00215801244922478,-0.0965277819369531,-0.0635893193022849,-0.17047988934532,-0.136059361648424,-0.193542027991116,0.0395044066146374,0.158583840145651,0.158751656276502,-0.173424212552039,
0.13166182422978,-0.00351002285083436,0.141054304536096,-0.0558552917915758,-0.256641459139182,0.0174207011256074,0.0823535288356065,-0.0899326830263467,0.178165773452161,0.201873171493278,-0.0596903014199343,0.184596833444767,-0.0495812975749233,-0.135866672900634,-0.173876558310896,0.00614328745903887,0.126363882066231,0.170741146439245,0.0753199848951563,-0.088773388744659,-0.154986735447183,0.169712613493166,-0.10011084218666,0.262721434592296,0.0367854146052273,0.0167461329250203,0.277030728453287,0.024526842138013,-0.163121237555206,-0.131362232845327,-0.0852309719848708,0.016881519467489,0.220165915311495,-0.109387478045899,-0.123095017529626,0.118899749208557,-0.0687999626852682,0.174364429280761,0.186281022270435,-0.106445374526694,-0.102273599286833,0.160100119189118,-0.148957685621122,0.167255550647704,-0.192299962412141,-0.0768275031635889,0.165085850531598,0.0222176800914785,0.092550821098929,-0.195812384555824,-0.0100458869999452,0.149089946535591,-0.13246770298242,0.184962568238033,-0.135339915138241,0.0318166342192965,-0.035442258004704,0.00617229821266517,0.0223566426176858,-0.183263683930469,0.174423434354911,0.0941697137502753,-0.118295747780024,0.00287931854820416,-0.108416543769919,0.0266456997158032,-0.107836380211632,-0.16214413029406,0.102728479672551,0.0486876650055989,0.184777647391227,0.111125774181123,0.140850366048721,-0.0306394673706837,-0.105949048062234,-0.153469028051482,-0.115571085874729,-0.188378679044865,-0.0247116371590207,-0.169215020491902,-0.0644003617619639,0.0350212115927802,-0.0864053797343031,0.0422118891391828,-0.121980538052654,0.162226141434882,0.0100782191628793,-0.0974568186258733,0.172607181466537,0.120949340712258,-0.14237364325231,-0.0505774832121308,0.19840922640331,-0.0365927562762113,0.0653051611543529,-0.0562668009218699,-0.0558504817774593,-0.0453968195703741,0.174547976722933,-0.073485252118651,-0.113500808067836,0.136851892066819,-0.187297541039288,-0.118119553590901,-0.168591314541715,0.0220244943627117,-0.151808685363777,0.0508741330629694,0.0676596130183477,0.000745951260246832,-0.0970065580757718,0.123787485326398,0.125891196614542,-0.101362830710859,0.0734261070024067,-0.218657074149615,0.00689671552334728,-0.206275800250617,-0.167270506651088,-0.0770531379586857,-0.103970357078098,0.144866682157853,0.000339686292626496,0.169483589250136,-0.105966477742587,-0.0967659574513027,0.0135207735205069,0.131039607217473,
-0.0470951973034868,-0.146330401579897,-0.0567232758493439,-0.0829953303760349,-0.114015391773265,-0.0893856272231438,-0.058796520352128,0.171150162383278,-0.175244158321144,-0.069326691207677,0.047334102338753,0.0549271444944417,-0.177449860663236,-0.0256191328513261,0.171811315603014,0.0340460906405238,0.0832840230626311,-0.0987548278517777,-0.0176310191902532,0.133020904897065,0.162896567577018,-0.000404021426991946,-0.185606732134704,-0.0460637368377601,0.0713384570420233,0.0896440036016505,0.0997031094472664,0.0725858890026099,-0.159482667670005,0.0378396306951259,0.0314677986847934,-0.0560826982738228,0.0107699569610651,-0.124064067386104,0.0480950447430833,-0.0142578921732617,-0.0763572978011948,-0.207737238140072,-0.0525097941992621,-0.00566249859520841,0.000854433377071125,-0.172750124819998,0.159667200737686,0.13494184441535,0.106395288433172,-0.130073964814214,0.0157127702260174,-0.0350771124756551,-0.0361504158208999,-0.0730791065721402,-0.00177324734767852,0.0280007633336578,0.0781935995937491,0.0313163601179348,-0.183619326796797,0.157268846431751,-0.111777686277586,0.0808719367173182,-0.203098778532993,-0.0710307324717267,0.195868572710338,0.0946966769977124,0.087191713225924,-0.0678875647262476,0.0273197529255146,-0.0910917000862877,-0.0902635611837536,0.097620321350373,-0.0874991441381169,-0.137959838448846,-0.167465288886966,-0.0519723196706271,-0.121955334113193,0.0272194886268156,-0.104906474042933,-0.155600568556416,-0.0190302124913072,-0.0625409272017592,0.187163637707578,0.120959581037656,0.134203761102009,0.071024303020274,0.0970451994380462,-0.10937988441613,0.046214824291226,0.00631014688171566,0.0901789021796694,-0.183205875822545,-0.0340059054656389,0.0685386875180886,-0.0212608293034289,-0.0677620913350925,-0.176171061438371,0.0353956467226236,0.112105308161267,0.154653475312282,-0.142710074764783,-0.0762084197336374,-0.197867596959697,-0.101182593827692,0.0192107814540501,0.0343884281651657,-0.133545566488261,-0.0825977937806165,-0.0554056168067573,0.0139921951258981,-0.14732002069863,-0.07351001797331,-0.182697396467661,-0.146542520910457,0.137968905898626,0.105930932672713,-0.166045505339295,0.132610987500834,0.0162211101574391,0.100077455054755,-0.0120338301762668,-0.139919146039409,-0.000229838914807768,0.0491428930845117,-0.161544489220216,0.0246737525956352,0.0869401251754429,-0.0870397253076861,0.114697677332429,0.0667080732800912,0.166318824914436,-0.0306232495737473,
0.0740015352060508,-0.0650128830926831,-0.206737542745256,-0.0161650767384292,-0.209749326550061,-0.0479096125208963,-0.204478188732492,-0.196642474131734,0.232841097931439,0.0543805078652736,0.223113786336672,-0.169038647061835,-0.0763571318390348,0.0798988927266905,-0.021950402178007,0.0271631652005381,-0.0803880491146208,-0.0387878560896867,0.0447103250535332,-0.131054247863252,-0.276842723754512,0.223876097412866,-0.154336096743046,0.105839993528282,-0.200499347426681,0.0809498387252336,-0.103106933520697,0.161673126857161,0.186770876923704,0.0432395677969674,0.18104726405743,-0.0629669335238538,0.0236981697946429,0.134378842846923,0.281860719511053,-0.0737806705924653,0.080985808637288,-0.0238221771770087,0.160336634238607,0.0986710585086548,-0.148950801325198,-0.0137930495829656,-0.0654112337171455,0.0252180716596526,-0.127931577719597,-0.0476674777937637,0.251500959685812,0.0753874164250404,-0.145703104233581,0.137917846333976,0.0930077259543533,0.0243262889994903,-0.19705801119198,0.179319958694271,-0.117748165283896,0.0543402348158535,-0.132006161660652,-0.159763563361641,0.0171028146120813,0.111620011863286,0.167422040747529,-0.0440254960379966,0.189935115411959,0.103115701543781,0.0985421522318087,-0.0115051378343049,-0.00240664693076392,-0.125340115590793,-0.123514206488136,-0.102758440733182,-0.161161929928877,-0.008327135828877,0.0327729786684338,0.0176484471506634,-0.111061579991407,0.224163527353079,0.178947160175188,-0.00264111394695151,0.0706712125134789,0.199336283211725,0.273886327787262,-0.0701198584654821,-0.273115840961987,-0.147594930383156,0.125737704338556,0.197383602881702,-0.16855878687653,0.140594238987173,-0.146310150906846,0.0884568412348049,-0.218651488366568,-0.00829502762465662,-0.177306641718328,0.0481118518828454,-0.125624625004571,0.118194950015964,0.0970179862449296,0.139053626914937,-0.213971489420041,-0.0820003158010443,0.203485935052942,-0.201795850238566,0.0377108971436021,-0.240167990643632,-0.101285511774979,0.0496602364573331,-0.0500803853388098,-0.218372435185912,-0.048196542963352,-0.325628202195763,-0.0725458770336187,0.0608772510424474,-0.0192144991610792,0.0571471307564487,-0.226376845749717,-0.173007172231738,0.0482480236503632,0.0611757293159164,-0.0655198296742453,0.118285806547283,0.0367221891404127,-0.207480643425673,-0.120430331731658,0.184446627245104,0.154769173386993,-0.267215881557828,-0.134927190728706,0.0890890393559161,
-0.257692911221339,0.218519811138911,0.0553930113202695,0.22015882339098,0.0781417567184268,0.0278870290092641,0.122568714108886,0.152591101677421,-0.149212247875584,0.12181381177416,-0.194818466265694,-0.0968737489707642,0.113152110665126,0.169030770567906,0.120412174816772,0.209649946658807,-0.0447124834880303,0.140748652199038,0.115236406127666,0.283772620475164,-0.269600994679401,0.0151321978442951,0.0892344931513244,-0.219015278040107,-0.0508369836471824,-0.132254920344644,0.0966597467232659,0.0716624594844987,0.129155172762718,-0.119180161837535,-0.0515646275106112,-0.106734846280127,0.0188035933442813,0.0247566199298416,-0.0717840634961904,0.183263747197791,-0.0587549788006851,-0.0478227373795396,-0.0837672442050858,-0.0142985077835234,0.122784089739333,-0.173826676021357,0.0836962238152064,-0.107056651775064,0.0339688619781583,0.0960796872150255,0.100331247126858,-0.0606055938287031,-0.177702192225652,0.211766264903996,-0.00776543562320962,0.0823361624144594,-0.0564491068575175,0.187131020424041,-0.0513471751304925,-0.0142749404781851,-0.157568212572297,-0.0902997491110576,-0.0758301253609747,0.0224798129433877,0.077210207169449,-0.0578441837644538,0.00579276737413693,0.241668172318998,-0.0138571597609939,0.0843332192906508,-0.182782031995924,-0.0622325220342493,-0.0301008916080798,0.0192906873895265,0.150138946494634,-0.0983011034307076,0.0836908018247383,-0.137761689133331,0.109799124979947,0.0548433563780283,0.019395562608769,-0.0265143729177838,0.00760157454247572,-0.199965327927539,0.0395413517487543,-0.1840382601287,-0.128545031166894,0.0133067798787302,0.207186592695368,0.133102394004365,0.0703325406606415,0.182737855894316,0.129928661722899,-0.115915415217035,0.0576708476435417,0.140549452064394,0.0888692273830856,-0.110708588418192,0.202924210656848,-0.190845312641667,0.119674461010478,-0.190895646763291,-0.213342776300462,-0.111754284905516,0.0692568413523328,-0.183644395701705,0.336354110902847,0.242432378826919,-0.0422316191881076,-0.1230462980363,0.0875363945132452,0.0900359141790837,0.235744780553458,-0.201983105400194,-0.104994327336699,-0.13336889157366,-0.000653400895757804,0.0131792304185131,-0.0275247323325371,-0.181273062808877,-0.00221925480191651,-0.160802392229263,-0.0448145240816208,0.24362544319026,-0.0626743938760835,0.0545780788966845,0.215757012059578,-0.0406863709729128,-0.196780715890011,-0.211332229927008,-0.222991005475912,0.130685028236959,
-0.0659306934518002,0.0973868239930655,0.181939430981193,-0.140414650441929,-0.0974026226922794,0.235205440907859,-0.217796297030431,0.0953694692934006,0.103744043667229,-0.260065467721369,-0.0194874452767894,0.18141177908896,0.289598831339964,-0.193625907678471,0.23230797512882,-0.013384186675989,0.190293603166237,0.110098963357515,-0.300678507865594,-0.176126686954558,-0.448935775485766,-0.281864019106206,0.234078425593046,0.0145935350968832,-0.157775329123134,-0.195202262489256,0.174489197198053,-0.198760492096218,-0.0487550467578561,0.106712350650577,0.0284840011367945,-0.175328126348141,0.271691737233587,0.0196882130636501,0.17175588625648,0.13166929783376,-0.0967326277025907,-0.157393095629415,-0.113703075280761,0.0679187458238055,0.200829787365646,-0.0949114614503951,0.0887986242375562,0.104235721138499,-0.0805229467601303,0.211573648600593,0.0875193099938289,-0.158147271658654,0.0725704850825044,0.106556529422459,0.11310823549904,-0.228850238885945,0.122687431029365,-0.0845406462011615,0.201904502546549,-0.111878790851255,0.0403689548459734,-0.0510583062156771,-0.0922813195177359,-0.100959071074726,-0.122180118195977,0.124543043703306,0.200630507400087,-0.0897544348371868,0.0900935714289154,-0.182123525771871,0.190925359936971,-0.116227557046807,-0.177124742476078,0.0662972168793596,0.0737483304466975,-0.0643519543995802,-0.178026050519217,0.024939547750843,-0.140470908241303,-0.236312589886366,-0.37510801269302,-0.13884385472822,-0.161335622417063,0.014338938355708,0.352309553982733,0.213623309667428,0.143907368367454,-0.0643347113697542,0.105994626933509,-0.0538539974434709,-0.105593133834553,-0.156226340746104,0.221750663779167,-0.117140363516788,0.161303829534024,-0.0408489445486252,0.298941924467078,-0.132192549801793,-0.128739363943832,-0.125109732595367,0.0943614801813587,-0.0185701999834342,0.156107228317055,0.174842451585776,-0.083886310432047,-0.0880007334892651,0.104018070946663,0.0714975836805329,-0.269423741359724,-0.323244160026202,-0.017565425336264,0.113739253898241,0.0644739190589338,0.151228392992006,-0.0987669936464693,0.156154153244656,-0.0333889989098374,-0.209427071552836,-0.0154068197246751,-0.0698384167154068,0.121016869986631,-0.11306945383348,0.0408974018808164,0.0617609696449727,-0.138635895082809,-0.112011077146826,0.344472554304721,0.119245648439301,-0.0683008936729009,-0.112900725591644,0.114227385512272,0.20462979684692,
0.153865658861875,0.226979173320367,-0.181665267694443,-0.167539238718352,0.213937537934956,0.0344929874955618,-0.0974593621664404,-0.0880802673985568,-0.17172020901966,0.0704288719090079,0.0130986363726229,-0.126762260087253,0.0644179226293329,-0.173326387299278,-0.0217976279666902,0.170200986324697,-0.103469632755335,-0.214413447360981,-0.194734856833296,0.0940030790519215,-0.113711639171472,-0.0127448606492898,-0.125076331473352,0.0672561523411827,0.306805618176083,-0.197124353666712,0.0191753877988296,0.122783428116597,-0.0278930663939518,0.187835364908673,-0.239959441684354,0.225670489029358,-0.107045378572678,0.228063160791454,0.154848904136485,0.185963200362535,0.179383975353102,0.0977360638812316,0.0858595307217925,0.172707405595947,0.299894742250948,-0.00222340015347879,0.198948435553119,0.100104477983725,-0.18020643657154,-0.191689057651038,-0.253615955280101,-0.00959239950283428,0.109699412087406,0.109531393661017,-0.0795039398410334,0.234051985668173,-0.187508177447246,-0.00685799305807489,-0.0440937367431825,0.112133791997254,-0.0931035087474963,-0.0941104366315266,-0.113327380197074,0.062274491199538,-0.0510630011584603,0.124978280472275,0.116393725607222,-0.0806908491796126,0.138684581518351,0.138043413120674,-0.176594981182162,-0.241422457615655,-0.0230698624918682,0.172679689488823,0.0129683312246088,0.0834679328675469,-0.0842347572094323,-0.223526012323823,-0.0785648857889696,0.100399576563102,0.213989603325741,0.0881484893096673,-0.161899284678307,0.148770953850831,-0.204678462622187,0.132815750940409,0.0316778607315371,0.0233847629773385,0.153095675361358,0.0803000955935647,0.132470372126806,-0.0613701118861352,0.0989434962511536,0.078477957227735,-0.346752011213983,-0.165934763519667,-0.264273827379025,0.221789118383777,-0.0309091625532621,0.0683696296536599,0.0576693996960609,0.137869527106236,-0.179441140691319,-0.212444552627677,0.129918917891461,0.00588257791897968,0.134662532606232,0.0405185027031159,0.0285206377924087,-0.17456563220606,0.0861851107648561,-0.229911334210333,0.0481210213815958,-0.0189124107702459,0.257506205501371,-0.20536255421588,-0.17506057538581,0.168048920391383,-0.153941006523018,0.0472432227781582,0.118777776491366,0.0525883983014484,-0.137085147021074,0.18620837596302,-0.145460106033643,0.0751120370484482,-0.0713328514348189,0.164969428387492,-0.0791423113791418,0.0101695994543652,0.0350567832920397,-0.154348278393903,
0.166137063397206,0.213094736087467,-0.184295871358663,0.302528045366084,0.221098056304502,0.0779226523944412,-0.0197996691900305,0.0832850960464891,0.255178665582612,0.0278374322420335,0.0579328484666814,-0.0243478172694719,0.163354003323509,0.109246245012821,0.00387186361874244,0.0962982156406395,0.12661727695948,-0.0360635887847775,-0.182362240261977,0.20812211301497,0.0807009357039292,0.236598898784123,0.117062905551064,0.118377075209906,0.264916047437452,0.0666393789622072,0.0106097494707433,0.0765425755813211,0.112001943335649,-0.0242226329952642,-0.263276907745682,-0.15360450336955,-0.11147705133616,-0.0282281974889152,-0.0764839990752282,-0.0675062389490071,0.0856607391284541,-0.0167336604312912,0.0688369574269143,0.21196326363875,0.231418550041852,-0.0977464477952042,0.0675176157721389,0.0376052103658418,0.0647719601168805,0.270070735615821,0.0871096078496474,-0.0904229573967419,-0.139588664054295,0.161435505029196,0.0756582152377714,-0.0591147922777496,0.0465255447217638,-0.110635226078895,0.136724655511759,-0.0784074632463279,0.0811211465679855,0.418525355249123,0.0478505074693616,0.14416496508455,-0.124472047583985,-0.0594526335526886,-0.0178822380856924,0.22302430880481,-0.0254702566177535,0.205850855673229,0.0429122813758592,-0.0886716619955077,0.0465198751050294,-0.152646867396986,0.0110018436841798,-0.179135236328554,-0.146628878962107,-0.104419889191319,-0.0777939214744264,-0.0129533238026999,-0.207862147120447,-0.156404218124119,0.0740658155034704,-0.175865220908611,0.133711953331886,-0.171256875360055,0.0622324197189386,-0.0269255974181063,0.12700247034675,-0.102341380856671,0.0834515185091914,0.165879681461638,-0.0740128487374148,0.148393161731331,0.279775958979517,0.112075419064016,-0.405504539119162,0.0888788800280769,0.25876888114511,0.0303743121230009,-0.0958961650687877,0.0348592878905658,-0.113184431881263,0.16128336228228,0.142589859886493,-0.137440345745586,-0.238392783583897,-0.105678478014375,0.176875550335726,0.264970864268956,0.202030117054561,0.102452975435297,0.00674882947605419,0.0705678904412861,0.0443579790344063,-0.16854562881774,-0.229659636762744,0.0399146321838599,-0.217671940210655,-0.173620635149287,0.163400690110418,-0.171337647452302,-0.134412936398118,0.121457528925314,0.0690693316445584,-0.226505094298271,-0.0633704997880985,-0.258797014890099,0.101091204489377,-0.122028149886814,-0.182451458285402,-0.187001870670091,
-0.0627698008081233,-0.281440004408626,0.0231035890017069,0.0133386729631719,-0.218287340211444,0.236351892689511,-0.214007787740449,-0.0533431416433901,0.0319294569222484,-0.0819036465081606,-0.0485330604279901,-0.00278691484875636,-0.0518305180649303,-0.045304655600459,-0.151812733689488,0.0889911736764052,0.0518660937543404,0.112288170821188,-0.188236195744151,0.0852437699291211,-0.00672975752318516,0.0667411962053094,0.167394906182595,-0.180376851331977,0.0269771287535972,-0.00512456650965034,-0.193339606856982,-0.129374315427808,0.205318694522249,-0.0390223379348797,-0.152651273628986,0.210134972063366,-0.177823796578981,0.119058274070546,-0.148808779073531,0.0858730834977625,0.123332641198003,-0.144896678249143,0.188034627382156,0.281190336960826,-0.0682548226710932,0.125360669500786,0.0725621768656741,0.186534725852405,0.18985005610843,-0.0588820909930523,0.166464412646592,-0.195091677730399,-0.0544697027818676,0.0407443291230779,-0.169107495856531,0.0293758486112138,-0.174292016470406,-0.14018397211442,-0.0895976025115177,0.0645616159908936,-0.227440431591392,0.22228417520328,0.00387615282660426,-0.0382768101544415,-0.0036492682425113,-0.219584879933729,0.0267375986397281,-0.17580893235616,0.0432030929862027,0.00258436187542948,-0.139408143276124,0.23061388324003,-0.0697381758827592,0.165072230402245,-0.103226842416845,-0.00305969121862994,-0.0979492296123892,-0.157542482222515,0.0375232110186569,0.140353032134346,-0.0928656865472154,0.110817674927816,0.166466543990762,0.137711192698399,-0.0421334862442301,-0.0676979201319537,-0.129788572755909,-0.152342009983727,0.0185622100153178,-0.107716184939272,-0.19309364747853,-0.178198377044161,-0.128528671629804,-0.146820759765359,-0.112469540359016,-0.0913147466048713,0.0462675454938787,-0.213083368634879,-0.161713735882721,-0.165544330311345,0.0575747356706165,-0.116023060184515,0.12475304723311,-0.00707731992391713,-0.290221153699811,0.0644436390509137,0.0665114483637096,-0.186057052477804,0.193804870626823,0.0139984688302658,0.0124749141279146,0.0264125150398346,-0.0295587064118779,0.126387915718978,-0.152877617772995,0.162937788902652,0.0722524340514006,0.0947683536479196,0.114830555040592,0.0269575393145779,-0.180245378607195,-0.11390939969393,0.0234680796384748,0.0477246458952596,0.0186224752804673,0.125856296463203,-0.299334645792823,-0.214579035251031,0.0492914636054907,0.0814442618483471,-0.151091561476288,-0.039783249253354,
-0.127020539831465,-0.310195889991526,0.228899141325112,-0.176740696186243,0.100568893806402,-0.226567670996369,-0.0152955633164838,0.188268423315988,-0.307774760475895,-0.00277125238994844,0.284673034693236,-0.111043476923037,0.214814663812654,-0.123533673533317,-0.155288209551893,0.138519812332396,-0.108686394637743,0.135757411766074,-0.0533931482956777,0.0227538110139018,0.0738161319089225,0.0404590166010192,0.0807038232844151,0.0413095876734311,0.230586226037605,0.112479444170448,0.218444449694756,0.0225449842571306,0.190051488957925,0.100849040956145,-0.294156987831411,0.128055674747088,-0.263467231492694,0.0379628228753921,-0.288342232530516,0.257686165495914,0.0861063250657243,-0.11268824465183,-0.0561558674406506,-0.260111925597208,0.0224012227099335,0.218643500142706,-0.0234378055389337,0.143093395824321,0.0383485657581452,-0.027446287149785,-0.18207980267947,-0.0836232501991602,-0.120317137605254,0.0592945911525555,-0.0583868764044643,-0.203848879868694,-0.0460261547911501,-0.187150284980122,0.154770521976392,-0.20213103815426,0.457079014759108,-0.217384994017873,0.0312903725018806,0.0804034886822882,-0.122270136347086,-0.0859757636716841,-0.0413856275825819,-0.00887375059196169,-0.00155711976155061,-0.161586512721134,0.314528811182892,0.11628378819764,-0.168586337311377,-0.230072825659964,-0.0236400344145116,0.0579703410874107,-0.0859732866867892,0.129238624771474,-0.103210561712996,-0.0746557908415582,0.187146955794117,0.225841388232362,0.134364983957683,0.22285252487811,0.0186719670167711,0.0877836686184803,-0.107332642347178,-0.10696657113833,-0.0863471766988364,-0.189227184083077,-0.118000063937512,0.106776413373493,-0.132218326904033,0.0426487598122701,0.0225918979366356,-0.0918675183707878,0.0788059017874288,-0.239523774569746,-0.220359710431551,-0.132360312547133,-0.0805546219396734,0.0924258240730245,0.169156458533571,-0.210210371273722,-0.0139450173918165,0.0577333855771572,0.0757655722380463,0.0293636083528834,0.101558495939881,-0.0714138909220274,-0.171126987256148,-0.10600424050179,0.126071204362995,0.0561761181902635,0.115953519329914,0.00368198375904762,0.0600705025357025,0.285785553671113,0.173364834650555,-0.0540278198373594,0.0598003356381818,-0.0108359709721109,0.0146017126267625,0.102072866924453,0.158478971380911,-0.183365096705268,-0.0148292841564151,-0.256192141687424,0.0851408773319665,-0.101648640572218,0.0468797652126965,-0.0570490307001536,
0.0943488991606419,-0.0679683987362757,0.190681429397057,-0.124738088427015,0.00983071798034374,0.0615221349263861,0.00917338657418644,0.193913857691072,-0.233532697397153,0.0485912767707244,-0.107493710507971,0.105743458384637,0.0036109736262609,-0.0211019642889076,0.0386336300509846,-0.0842552092643023,0.117814159043269,0.0988295670614012,-0.0803103739808742,-0.205997769191926,-0.331516688533723,-0.0689408674089652,0.127505808906239,-0.207878676409045,-0.0699841620864929,0.0485249528347527,0.252026493954425,0.20113507936691,-0.0771914383456912,0.121445152996922,-0.192895931959121,0.00777411600251483,-0.240314107922039,0.124520515437718,-0.170815437486719,0.22619532013518,0.0738063041483023,0.0477633819840553,-0.171700244968173,-0.131526607904473,0.169489779461621,-0.0096997030599686,-0.192330681114534,-0.187259838761582,0.0936480153011137,-0.019925219291018,0.0913886891345664,-0.131407775396406,0.0353657730836322,0.214508290076645,-0.165021121242601,0.0866587588981537,0.0976179471053742,-0.175961204617052,-0.184850414075391,-0.142586922699446,0.0773786884665148,0.0279852972094284,-0.16133615869525,-0.170242529701187,-0.0669223212428559,0.29471153786144,-0.216838682423923,0.157809401429298,0.166540390923188,0.0158607766689808,-0.0877042715071522,0.149639669258644,-0.0350449793666725,0.195288552882043,0.13487435684263,0.131127331284688,-0.167877280621144,-0.0935052542987619,0.155843271646341,-0.0927888618154823,0.127953974009878,0.0940243699590032,-0.0604629290923835,0.0482640950193706,0.0445815359895605,0.150824741339614,-0.0516923059321849,-0.181125142862587,-0.173153303850464,0.00646264317387427,-0.0146189094272712,-0.195028167055742,-0.0445840449777959,-0.166282848449612,-0.0235083597240333,0.149719949111235,0.208188205818216,-0.130772902163506,-0.172134103157503,-0.105244663892672,-0.24358345458601,-0.173117154252354,-0.173048429599102,-0.247781250263417,0.00384667574642242,0.0550587589316691,-0.231182110499438,-0.0961785578264992,0.250511013563319,0.159283669188466,-0.0590648676187503,-0.046108406828001,0.14082337596393,-0.258736940809523,0.149474240487462,-0.0239885745508416,-0.0939178284064308,-0.0768454348412862,-0.0607400791256323,0.0132452512735894,0.0058210934450044,-0.187192228074209,-0.17711521431609,-0.0830485621999034,0.285036092414292,0.195280685325489,-0.119297521210737,-0.0776422295525016,-0.0811079599252739,-0.180064541765676,0.117903447355427,-0.145393739536771,
-0.11566283503345,-0.067110190615637,0.164111742965308,0.00194857262507819,-0.22742056468147,0.0523537890875553,-0.193018881385098,-0.168345283050757,-0.135902292460451,-0.13837299976157,0.00189982054601245,-0.113698035572837,0.128136619208071,0.0431337093050069,-0.131426580151338,-0.0695144878099324,0.241746224271026,-0.0115648328184903,0.0401174283114192,-0.0758651478949465,-0.16000469108494,0.10430781856384,-0.179137758924762,-0.10353735824309,-0.0914225176956572,-0.181484818990377,-0.173090130784986,0.123200347383249,-0.0481754651231796,-0.127614001695359,0.112526561782523,0.11508817051109,-0.168740175757618,-0.183398952398056,0.257597299453936,0.174044349653806,0.162083893780876,-0.216623819956757,-0.128508555363716,0.112577631276033,-0.193102369979185,-0.137737508493382,-0.133631583911205,0.125855947285807,-0.0794458274783158,0.0420776572312196,0.108556612366642,-0.132831236995589,-7.83865244668586e-05,0.0972181474411722,-0.00564669177966076,-0.167404454313283,-0.0744342861438613,0.0404638591762103,-0.13026538876368,0.178894788166375,-0.0444336842675297,-0.0441929284182113,-0.050627287266914,0.0720627059471578,-0.258019103530928,-0.161801909224049,0.0131873017150107,0.166594334723537,-0.0429903464712773,0.0191623652582196,-0.0422850859171733,0.260662093314009,-0.114961385366716,0.0780915041133577,0.0411845318200821,0.225180250745083,0.28029064561404,0.123222106276596,-0.211872912132224,0.0215135504074854,0.103828065580346,0.106140510419493,-0.183305670696196,-0.100771632274383,-0.0412882111709194,-0.177939636376185,-0.0263652881370846,0.141616952529141,-0.164495219511452,-0.0416925725020588,0.0428216611491231,0.173925216019067,-0.109577154344764,0.0934288975461679,0.121283506954587,-0.0139578691139454,0.0811190174174238,-0.104577768123755,0.0450782412739603,0.17548172078878,-0.0180905912209971,-0.210813992636811,0.289739354202153,0.100749867313107,-0.129363775260409,0.127934074907041,-0.371726725251691,0.33520097534384,0.0423870851472339,0.178863821152408,0.129897467486407,-0.0939190815843592,0.161780331131858,-0.0592433707808952,0.055097102788566,0.21684671652686,-0.175650250077082,0.150004451799693,0.146878790214868,0.1509805742009,-0.0314606410286148,-0.0544013954989495,0.104070612046077,0.0974211550446576,0.052419458426944,-0.252812200958227,-0.00140834585582538,0.191689186909297,-0.0969680327159233,-0.0255316218869417,0.211401761080421,-0.145642355699985,
-0.258922156623946,0.168291535803196,-0.00822293021121973,-0.162415677747862,-0.144696908763207,0.00110046236731906,-0.0807390084050274,-0.086684036360361,-0.146368730685674,0.0421217088802645,0.0666684295101061,0.0683989653964762,0.1883123326219,0.177399783458177,-0.0220419051357458,0.044274299635531,-0.165912138697552,-0.0640241036321166,-0.0333284245498012,-0.211785454613131,-0.0642779349682441,-0.0889259254484649,0.100185538856027,-0.192944913861313,0.0960531776586095,-0.0915104984301063,-0.00188487731299434,0.14991826705606,0.0940595780486375,-0.105725379419776,0.0214353420491852,-0.0937385069481366,0.138399770214841,0.030155905291153,0.111930501169696,-0.0988954630097786,-0.0442684291455388,0.0160093537676256,-0.0602142360413169,0.0128871303541551,0.134269981359963,0.0587350125942756,-0.16141479181905,0.0221361339718818,-0.0414816150434214,0.172506758681895,0.231147420433408,0.13505929833957,0.0999627648900374,-0.132802536850013,-0.168460596547404,-0.0738991049463269,-0.00865907580422635,-0.047161162025538,-0.0137802381043988,0.154578801661463,-0.146584140461255,-0.29767677866395,-0.161361798166244,-0.175435144266541,0.0671056818006835,0.082358203259431,0.0817899079566815,0.0740357042722575,0.0550886879631913,-0.183859296121039,-0.160968406684007,0.161080331757306,0.0242817849978358,-0.168091803803768,0.216662365839,0.129273769047674,-0.0297461098458923,-0.0591271995372206,-0.153863278197132,0.0781527975568638,-0.0907507720041286,0.0576666375536173,-0.0480501609403034,-0.00865614958761162,0.126225268488919,0.121626818197858,0.0864905370172448,-0.110107564628789,-0.180295574840908,-0.21047725007446,-0.0174713680699378,0.138477180530271,0.185063335703606,0.072976920492383,0.0594675547492294,-0.0938195847107504,0.183727018161238,-0.0672800275571598,-0.0683394359497838,-0.124730833085501,0.165726450682951,-0.143506541664159,-0.159288302091473,0.0673927437456181,-0.0608681950747239,0.0350970184903169,0.100321970715807,0.180336971954603,-0.13838649700835,-0.186608126001127,0.15006211946005,0.0483653813647576,0.167690637856355,0.143242842937703,0.0692939584711525,-0.197659911093131,-0.174796462227953,0.0353914986835946,0.0968052067633572,-0.143887262362637,-0.0874026623034644,0.158520423454679,0.152853164478635,0.0328354897023648,0.0542401847657307,-0.199602098759156,-0.23792683370858,-0.00985626880553145,-0.203485384995899,0.116268312615457,-0.217199686554454,0.077947579838759,
-0.160086595038455,0.127943423034551,-0.0734106724298827,0.0790148279750141,0.16042172910133,0.0318741519937229,0.0344498524913661,-0.162726570998026,0.104266485768712,-0.22378169953876,0.166867142803228,0.125083656447727,-0.0725777602872157,0.192116263809445,-0.114024094625146,0.124979837849867,-0.106700804724887,-0.0676068682889778,-0.170965777602582,-0.0338262620356248,-0.139852605448511,0.00690469259336034,-0.183515123106307,0.00647952297599838,-0.0257451277966455,-0.0737040905172022,0.0372714239787342,-0.0461909450741689,0.178562140386562,-0.0543194667848772,0.204403982219335,0.106491546402565,-0.115571467105654,-0.0203096006434049,-0.08579569609681,0.00963973682052977,0.0701855136289787,-0.218747938292202,-0.0339396722690378,0.0221030416359088,0.1547674293624,0.156517379237531,0.156568940599147,-0.0676071886978704,-0.143422408241885,0.0896516243861071,0.112182361540676,0.0289820418668956,-0.0760181124512812,-0.249034887901534,0.200376312547836,-0.0803776124481918,0.148910274000481,-0.171955622458761,0.108900799709475,0.0208599417495056,-0.16518618454566,0.0580886542731381,-0.112983792948817,-0.122261652015236,0.0907882825750067,-0.158072870846808,-0.183152819111636,0.0119208479748368,0.118843206599423,0.0539511736786874,-0.0267122318756782,-0.0330334230053713,0.200696248447735,-0.193237937730182,-0.0190344030303319,-0.140115976864586,0.203350535367895,-0.182854024624749,-0.12381661320619,0.147102637948308,-0.0957604511999062,0.188539781259689,0.133568544148039,0.0108750402219548,0.0764507088305414,0.0389613658708593,0.0790422310210285,-0.130704163604586,0.0194331272932394,0.0573909231431953,-0.139033715783142,-0.173974995383812,-0.176421981030071,-0.143456633878145,-0.100591842936125,-0.0885055228324632,0.0662836293660154,-0.215854000083239,0.133013945457948,-0.0308282365898731,-0.112478675489778,0.111250952924962,-0.0195732230339336,-0.177599881421245,0.000910562711267346,0.183393192214532,-0.0184382113439078,-0.106440975132859,0.00216421962224833,-0.0146587326759217,-0.143767494556763,0.02876265477178,0.0108779338740727,0.0427444867965364,0.115475243917115,0.212909269341517,0.138811356493033,-0.123532393511382,0.0077547710731149,0.120441162669482,-0.0620481874308442,0.155886525784808,-0.149569314978147,-0.131963990942874,-0.129847644133816,0.0247397860644611,0.0268138595743208,0.168921836149655,0.000895621732066152,-0.033212476428091,-0.189728979057236,-0.045991475651857,
0.184243350228542,0.0762024710977012,-0.0454058116200943,-0.172769365829673,0.116226093564614,-0.211943617153268,-0.245779061272383,-0.107649691707874,-0.165603988557627,-0.0289464035148256,-0.0747098001646061,-0.104986305422976,0.0917634769398354,-0.0542154641624082,-0.101797641020426,0.122200284282951,0.0813285901548545,0.26020815638587,0.0526407140126564,0.0680962523386483,-0.333737662827831,-0.180511527071441,-0.201823464040066,-0.254741182468447,-0.23922234517878,-0.140783649953107,-0.221453259030025,0.0818563305203583,0.0820833575050407,-0.146736436292615,0.172906014484793,-0.0423420906177138,-0.07925661145078,0.1763889525183,-0.0916396891380625,0.0838904668041084,0.0611622126127586,0.0986989549957771,-0.00901505848094502,0.184177446865951,-0.0898804144633785,0.133180600258044,-0.233048681980781,-0.125538111067794,0.115343473895695,0.0378698191236637,0.0607582514111236,-0.223457115939297,0.0703593513469533,0.021442742370029,-0.165862317926866,0.0298820225863693,0.0914389057684703,0.0975834170357239,0.0857562445409828,-0.0332294268716764,0.206310813538903,-0.139672534608638,0.186881444003584,0.0945654842785973,0.131444294286981,-0.251919882354437,-0.239043080019627,0.00158717576591331,0.264241706707855,-0.155408659552975,0.257137132280382,0.0103017674058463,0.0424442582664568,0.0179064457632375,-0.0825086037780638,0.109518184879769,0.212443027713525,-0.0953476729073082,0.208589414690419,0.00470596331188846,-0.0591139746900139,0.16795422063717,-0.161269698267838,0.186114092189504,0.0583424789695476,-0.0595042522197796,0.0944648792788686,-0.15400062189336,0.20614234066346,-0.0332306140100924,-0.183046091528196,-0.137165834325152,0.180643553382394,-0.0716807784737928,0.140048119168423,-0.136923522546756,-0.124901567631109,0.248848997633932,-0.17438358587525,-0.0960185184026676,0.0199117288995738,0.00319362506309976,0.112237976791282,0.0325346335929501,0.139202028772897,-0.00837865396246295,-0.080706556863993,0.137292882079329,0.0870062543366082,-0.107008002681183,0.120464502236371,-0.0975449637855199,-0.056978293769248,-0.151517213169224,0.10692612421128,-0.112456721934068,-0.135553840921825,0.171630134290609,-0.140386192759791,0.147886544519522,0.0699075402215916,0.218096473794066,0.206451276171868,0.00742635923554028,-0.1158687099585,0.0791790624729955,0.0712764600834134,0.214910031705774,0.260049919058049,0.105717193351687,0.168975682262202,-0.131081987310675,
0.0743928974121872,-0.198728086761164,0.187960305292591,0.188693609570758,-0.108985173471918,-0.114948875233067,0.0262962749997577,-0.00715733592764385,-0.108726863961002,-0.00236327729817607,0.0840591340242958,0.146277394806357,-0.00727097801656192,-0.00250713595860086,0.189211570562961,0.0918928291619968,0.152286513869894,0.162479341586701,0.100125075174398,0.00958187223611219,0.0184939735691328,-0.10784187934329,-0.0385621955302623,0.0432918145774403,-0.0491938613623311,0.122934000829075,0.146808474370312,-0.137385069456902,-0.0861462255291451,-0.18859110170075,-0.122823913959634,-0.177014711867227,-0.013013605788931,-0.0315659018996669,0.142773189075175,0.043901134971677,-0.0382899540923139,0.0494986311961686,-0.0738285687799313,0.104592672109334,-0.136078572663478,-0.0459904988839137,-0.0148800285402881,0.16025000189535,0.179729511467273,0.068096623543548,-0.0302226030059124,-0.147370113081655,0.0166863461501985,0.144127828061843,0.0206299001073629,0.15606736814161,-0.0206282129846725,0.0172642708252211,-0.136752170321142,-0.127980055963705,-0.153302257251038,-0.182146595724957,0.0467185601070747,0.155297792430888,-0.0457774998108525,0.0940513676021307,-0.0165589675894878,0.0577701526294579,-0.0635695121186683,0.00308657670554357,0.00317179472757747,-0.035192244989098,-0.171257215330543,-0.0119353421945251,-0.00540689862090595,0.0159387149860748,-0.0682753363963678,0.0884713731576683,-0.0172006393871731,-0.227534998885886,-0.202533236525317,0.133377429567308,-0.0984669048413425,0.0214069128582706,-0.13178747722381,-0.195343777971093,0.109245533427489,0.0979966183184341,0.180405530586499,-0.127075229433781,0.122181610106251,0.179432800204069,-0.167514096883481,-0.163187479051581,-0.0972209275983797,0.109534751242372,0.00334340165721967,0.139927163919957,-0.154047846927797,-0.0720294477762631,-0.211358217798114,-0.162347280974025,0.0833187579317431,-0.125590789731648,-0.0755172853072649,0.168432003699433,-0.0450476073713314,-0.197939849649003,-0.17018653072399,-0.220260410899656,-0.1520789998073,-0.196888406318175,-0.09478793954185,-0.141918788110118,-0.0810684901165785,-0.145946758350828,0.000758212377427362,0.00600102562496906,-0.0640998315505453,0.0747172378212318,-0.127445384934288,0.0926189548481691,-0.195254427033347,-0.15974840714781,0.0271254194026453,0.0975381189917452,0.0279425047715669,-0.17809043917777,-0.0988938288470464,0.0484352859812981,0.0118832366607576,-0.0406708288735566,
-0.111007650583421,0.0883460702274833,0.153020078320485,0.0163335280743823,0.0167892749880554,0.0704431462527367,0.227794590116639,-0.150180190542597,-0.043377549119776,-0.301522360204131,0.0281535585311033,-0.0012664833073431,0.163843556214407,-0.196206223101082,-0.0388680142235838,0.182343704027647,-0.124454689073256,0.0313667275262561,0.205372180508221,0.0534566652534195,0.148166411949417,-0.0399726935578351,0.0925976935845821,0.0715090298481117,-0.179524927070946,0.00641400894552933,0.187648545488146,-0.215620050952631,-0.0497414119103181,0.101731625099706,0.18744185026255,-0.214841873610296,0.213876664326068,0.0435341363532686,-0.108385116796541,-0.333318072203994,0.0944230427655198,-0.0868864541977922,-0.0513045608495695,0.0990404199804728,-0.0298245773201845,0.245548438970827,-0.0346676965551414,-0.00980553984083566,0.108810516447723,-0.135913889389158,0.0220712795978891,0.194919489564598,-0.150288496181819,0.0739632468632301,-0.14060409434364,-0.206821737022693,0.126635068823394,0.0589020759572563,-0.000200827125221762,0.17384994108019,0.144823458556199,-0.142629017782042,-0.0549947422949902,0.136657226031851,0.134016735564573,-0.135805849672309,0.249974473323502,0.167750100503184,-0.192467010832362,-0.0477254551821313,0.0899524414761514,-0.238327970047497,0.193635496670817,0.0575410496907649,-0.258812922277263,0.174187174200849,0.0183831863049238,0.251018019635353,-0.151494966483525,-0.125966938000933,0.150745119657019,-0.166360001722279,-0.155131446186286,-0.108427082312871,0.0742893480364587,-0.0583923618583424,-0.0310151311695402,-0.172216603407915,0.0385192429280972,-0.197299030810337,0.141327084256963,-0.143716054025402,-0.0208240763063302,0.0888012406097419,0.171089526667956,0.117086503897933,0.221505181036302,0.333004063349284,0.207871185484543,0.227943543135521,-0.184986708011787,-0.202735477710536,-0.258781574938036,-0.145066231792576,0.116525674681519,0.0194244117984061,0.213926980489014,0.0863189323571186,-0.0537749441468998,-0.101119003252921,-0.0727831496512238,0.0294035072473377,0.0438836571054254,0.155175462505609,-0.191435775784529,-0.149386386678757,0.214592421351541,0.117824478094207,0.0232047224464468,0.141827614762547,0.156860600848388,-0.0931288404603989,0.241238350784967,-0.00934213623799327,-0.0371506390181364,-0.106525275860633,-0.124136212075421,-0.0450406814661063,-0.144430841608108,-0.126844551407561,-0.0637361010340327,-0.0778487125008452,
-0.0575315487442487,-0.133567643444,0.0593551189922428,0.0580096852958768,-0.154886717931663,-0.100080919661561,0.0749981689663911,0.113620539425444,-0.146380360130272,-0.236100270121174,-0.0191377013154848,0.095992307780419,-0.0386166332276818,0.0467421511506425,0.186310010175737,-0.17730354760725,0.123456287349785,0.0814022886717106,-0.165531949559689,-0.0743848042297089,0.167783910321048,-0.0700123028967041,0.0365659905680576,-0.0428408263587293,0.051072697183143,-0.0160612350661486,-0.0200266358461227,-0.00652970948413409,-0.0709809444455563,-0.0347260033462714,0.0894147007702204,0.118634441856471,0.0383177975076333,0.211439894456696,-0.0574805381434743,0.0178315527397412,-0.0518023553231015,-0.0764168572377786,-0.134318464073076,-0.198537013384806,-0.0972860733981266,0.0467809797400121,0.0509099392149475,-0.0493874459736746,-0.176967034819732,0.0885608431884035,-0.0334070178171257,0.15300371225263,-0.172871471455895,-0.094152047688634,-0.0785880866104981,0.115176510732625,0.102248212592421,-0.176834974266924,0.0088361375866155,0.0442084662464905,-0.174243207091229,-0.101450126778766,0.143017860390029,0.135585103244659,0.0877845748981654,-0.119927838387188,-0.022974753864073,0.0400775890931239,0.0933277276269115,-0.086801096762138,-0.113610044524842,-0.0393943978599968,-0.12809530163239,-0.141792667450732,0.0412361950642758,0.197226784211264,-0.145370927537176,0.102901477579489,-0.168291402634623,-0.0727090055939462,0.070203568100561,-0.179651633383316,0.188732603903535,-0.14398420141218,-0.0357589694030116,-0.0561969175350786,-0.146869199359617,0.0609552901233444,-0.0790109041539124,-0.0283653083644449,0.254881602138579,0.0243310816285785,0.0764359467772106,-0.147790698376001,-0.0906101230907131,0.0775289550565478,0.0861420073981971,0.128017279088474,-0.116386960951925,0.213841644994906,-0.0599677672858983,-0.0315180549207284,0.0224044563518238,-0.0582170627149906,-0.22872316553987,-0.118536185014074,-0.0934105648563995,-0.102364247210545,-0.155672269390328,-0.108194130875518,0.158908899810824,0.0716514897653314,0.0124693087226199,-0.204854912797189,-0.0337749445159169,-0.126655658116652,-0.0957072996522033,0.115584497821697,0.0167365115139196,-0.10468822786971,0.157182199827715,-0.0126559952515454,-0.0550259663847995,0.134781380018949,-0.0587697635952254,0.00117796139354308,0.162891716880058,0.0972267682207637,0.114554957522954,-0.143128519752182,0.0817481264775375,0.165954446170217,
-0.0170329597130158,-0.0595466467039014,-0.0147995761400962,-0.1791332424273,-0.187773485039312,0.00607599396415487,0.0262240997202931,-0.0235808818103228,-0.0646323654334862,0.000289210847070918,-0.203732251821333,-0.160321661719684,0.196781786843653,-0.0970173565307855,-0.0327191852516657,0.132057336856359,-0.0369143098898169,0.186322888716141,-0.273914774341606,-0.209162521576451,-0.19426013914055,0.121133590082085,-0.08476539873558,-0.0915731349092592,0.273769581494729,0.085559892668792,0.0655515168745478,-0.172168392558634,-0.105621676266129,-0.0586410449578857,-0.188440273322201,0.0926001420919601,-0.180990214405022,0.222574355045128,0.212643779752856,-0.078531783441836,-0.0410060865286522,0.0224533511115755,-0.00571641474989467,-0.160654109005166,0.278689242701598,-0.195322866632207,0.17999279885004,0.0108017945083035,0.114463540106702,0.0625047746110679,0.206122271406073,0.176187807067557,0.116768357240958,0.204001618457142,-0.0808290865115322,-0.0141413134390911,0.0168817793549773,0.112545699483228,0.0770912172448428,-0.0756685258349392,-0.038310148725524,-0.195896415074765,0.099104813367561,0.0106225711874871,0.147128599968893,0.0939524826724106,-0.232275366788961,-0.0389019812206219,0.118116144702736,0.266517583807342,0.0423142325292741,-0.171127122720003,-0.190222719631877,0.0892722603062192,0.137497929474512,0.108437831217371,0.0401587026576392,0.183065955557139,-0.0292191793044586,-0.199812420575096,0.0200267367722402,0.0260511261152837,-0.102214860881874,-0.272251157504979,-0.0300544966676341,0.0185270950526941,-0.0581758573538724,-0.14302176690113,0.173097705276228,0.140962023119235,-0.101771405062959,-0.208474922036093,0.175803666440838,-0.178277667239805,-0.171898028656115,-0.0254721545658333,-0.084565783055837,-0.216157193368298,-0.109057860375765,0.148987448567312,0.188667574907505,0.0164203994228387,0.0174445310867237,0.323333992754111,-0.171649702697641,0.171921520525847,-0.0301632681871277,0.160867500808436,0.114831318013576,-0.100139265892018,0.0740080518273404,-0.083736181527548,-0.235850103832057,0.0381792781744273,-0.0267237611645071,-0.187481150787436,0.0754538687782533,0.00105977421830622,-0.154538985054967,-0.10304614964603,0.20523600019225,-0.0658429833864337,0.217671912428557,0.18683093369769,-0.0603592510745356,-0.22164409133314,-0.140028904346551,0.127608187110967,-0.0332145306191277,0.26928205129684,0.184240153103773,-0.190409849722704,
-0.093729166873747,0.191401126663431,0.0252572556466745,0.0184527101982372,0.223833917540254,0.092587256336178,-0.245452043023119,0.0695215178924573,0.15070857342622,0.195768982096338,-0.099427714033949,0.0748236104289948,-0.0792868755169839,-0.101596589267532,-0.00956794737667698,0.0446300905726185,0.0457546591900094,-0.18044971456833,-0.0482599028590604,-0.153486993368568,0.0828406172778869,0.208989829991619,0.0341606192865742,-0.178478973947828,0.103215228586568,-0.0598860620209874,-0.0699619768184749,-0.0284232431819278,-0.181625915212312,0.0378290031235369,-0.000410294557138985,0.0454138034991171,-0.211634349622538,-0.134114929247437,-0.179254036626451,-0.0114684189685632,-0.00374037637420611,-0.157994748778418,-0.0217690854243759,-0.134655411305822,0.101521620147996,0.0578396902347867,-0.0993087617068688,-0.023484333052833,0.132714959052675,-0.0721223739603406,-0.207468283773358,0.0128487706755166,-0.0694950777995484,0.057879264702285,0.10040789836778,0.0016732433802121,-0.119942684565976,0.0910015681888659,-0.279758160187737,-0.0282007015909736,0.0330127208741382,0.20571260625906,-0.0758415800995322,0.137406859041105,-0.0209533895130553,-0.109697775137151,0.0179602549147981,0.140844924276038,0.16243047383094,-0.141869285570688,0.202611326371761,-0.0780210369075771,-0.127065279852838,0.208543866123857,-0.00574952721586724,-0.222175444066316,0.0748603897998637,0.140818366660217,0.0933820306377995,-0.0316799947445232,0.251137515104354,0.0680471992956826,0.112793712306596,0.096926798015118,0.174945363053563,0.0777112603733506,-0.156442863011904,0.0374644642532039,0.135199962698421,-0.0066413915992108,-0.283832783132244,-0.177198552973286,0.118984391237167,0.0621138627259856,-0.0753095653491018,0.0470361488639996,-0.242579241556324,-0.153329750729741,-0.0442974200503314,0.222657986200696,-0.0524238523700567,-0.0446205988490423,0.0598807660475096,-0.271703239711031,0.226058302920811,-0.0991249947472651,-0.0158825562359633,0.0498496107231568,-0.0211986253440264,-0.0741353574901846,0.00488113110282142,-0.251908649673258,0.122913748088441,-0.0325715279953164,0.0583445151442303,0.247044557455163,0.118865812442363,-0.250885622731973,0.256177923106788,0.237567616752178,-0.15075513084592,0.0281251256055299,-0.00452735363586911,-0.0816298875826075,-0.0821489059154979,0.119715889354341,-0.108140531879402,-0.140510219281947,-0.0671634757325238,0.245003330106001,-0.150081113951974,0.094603594023955,
-0.21792295901339,0.0875331429918559,-0.128857307738409,0.119545597540449,0.211668740921765,0.152405901212563,-0.176925414572829,-0.181250597348685,-0.0719007325003739,-0.0533077126431267,-0.218054500978278,-0.0969632534512396,0.225740860847858,-0.105794461520809,-0.199529696492375,-0.0904058722149278,0.16281784012241,0.268188022773545,-0.0400069549624783,0.129571045406199,-0.0292917221237794,0.195807899146483,-0.214305741470059,-0.147069099570828,0.052086073259427,-0.17062998653559,-0.237550614737541,0.0930530891758939,-0.240094825068186,-0.137281576156905,-0.0235743840645994,-0.0768376088356527,-0.19002652348887,-0.00365775035665362,0.122167918770671,-0.000748210673088176,-0.0895447082393174,0.065662970814953,-0.151649490127678,-0.183785340774581,-0.179724954122706,0.10521860449263,-0.0142263794408284,0.105879807006265,0.162264249196684,0.0588477903825763,0.0101052918017549,-0.0956925161427923,-0.0217448745171336,-0.149103501482692,-0.168166947658873,0.150441951951317,0.0518197928804186,0.176017136108681,0.163712048323357,0.114626946580324,-0.0925994014401837,0.252287136248517,0.0665788474166363,-0.100709900185913,-0.0795371160298253,0.223942372803855,0.166588257757149,-0.321663953102306,-0.0145593740355186,0.246784673318698,-0.14454609179256,0.00042367249620738,-0.271856687280201,-0.00394313907403123,0.174811128183467,-0.0182435511651571,-0.0176389077611314,0.117228824920228,-0.168217773898249,0.189019252580325,0.193534407176318,0.217234545069757,0.0621545590903148,0.0626240811972658,-0.189578277011418,0.0270638425081038,0.0998947947945631,0.347721022139644,-0.134911786549182,0.218641852417301,-0.0257600573208562,0.0436778526097483,0.175218985508037,0.154706363080148,-0.18301832439245,0.0911078548045992,-0.0695810241298096,0.0682431651759798,-0.15744275628192,-0.0297882446041423,-0.0920976047539869,0.241636226475497,0.133058205370731,0.152828490643412,-0.133708062754179,0.148822324805297,0.0298929442124994,0.0182290129342183,0.146929514359378,0.0461448504253405,0.149617764401977,-0.156676469490709,0.22336888427003,0.0979494411592352,-0.106426661168333,0.0617760461984903,0.170193374927098,0.172116280855695,0.114466823181023,0.0356614469173138,0.154245245561092,-0.067821593313439,0.13664099523396,-0.101332500053688,0.108567956428788,0.132164502811086,0.028429576933225,0.0597110063910464,0.0166531041911682,0.239730956273365,0.0185324325692751,0.0986879153686734,
-0.0254077215731155,0.110395568544626,0.104769538854074,-0.179145185188942,-0.156616548590331,-0.184995037395848,0.0217150065853369,-0.0172308982157501,-0.138564562150961,0.0139067421433906,0.0481505130089845,-0.0423081568401027,0.031952033020614,0.167629621048666,-0.0989140350953398,-0.00448649554985146,-0.00944519927874666,-0.190361043811432,0.0958733891984007,0.134240701575044,0.106359618939407,-0.0433401590332633,0.0481229982968326,-0.0689399736151515,0.203451261833765,0.0287266463642338,-0.0283247759340688,0.0509490555236726,-0.141859457505265,-0.156401353234444,0.133190102901474,0.0700722083835573,0.136287224300532,0.0331786931206712,-0.299115035075583,-0.210511368601286,-0.0903652903702952,0.0712604414493307,-0.180716306770761,0.0294641585733913,-0.0456428716632821,0.0508599394765038,0.161037061811696,-0.198782020361499,-0.15768546107624,-0.0397219431147697,-0.0169525071894821,0.0954044205222035,-0.00129587879555663,-0.125868659139061,0.0841976371188456,-0.0052122436647132,0.157844610196937,0.0812331809092305,-0.136188038427058,-0.0585658750114095,-0.113328440065363,0.119378608275168,-0.0357110945131614,-0.158641053901204,-0.0506141115234409,-0.0964007014865976,0.0881065634590632,0.093169135371055,0.127298197301736,0.107383422844698,-0.101820133917532,-0.114419090827617,-0.0600201210056258,0.0069325646799024,-0.0215233545369975,-0.114159991046344,-0.175832768362404,0.163043416253129,-0.0386157985783477,-0.160867568424258,-0.186111697880193,0.18816353856846,-0.00534515987474624,0.0588197956730323,-0.0162908696992202,0.0113612176034773,0.153558067382945,-0.0769360987098991,-0.156054023733494,0.12117727555241,0.135223835614003,-0.0629265804789099,-0.139048806652684,-0.0571131693454761,-0.157041980177643,-0.08392062600185,-0.0614092570171647,0.11559526800761,-0.196925378005982,0.0204969469157698,-0.278195645366698,-0.0516114889425128,-0.0144277114815007,0.160093676907664,0.0635367385357961,-0.0406114120148668,0.191190420656651,-0.175973639497622,0.0961264362121183,-0.147451440350732,-0.0490540841923737,0.0226618745578492,0.132640674244249,-0.0795213061588155,0.0747795816010846,0.0355847621186268,-0.140402644584285,0.0785121813376882,0.167124198798867,0.177352982776775,-0.109605599810122,-0.110495529878161,0.094929350136082,0.066084528117309,-0.0547334731830997,-0.112018858111775,-0.0282762639051742,0.0833031288787619,-0.168383594083212,-0.196183173893332,0.0486090117552819,-0.131062433321587,
-0.169037850898024,0.0383795635587522,-0.0922974290287438,-0.0485648525925129,-0.249227214636391,0.192103060455513,-0.0504841450287247,0.0875955245737503,-0.152358776258691,-0.0735163420914369,0.086178535825863,-0.00031658762412716,0.0691670435915589,0.0156858953525592,0.166691498605249,-0.139339594311222,-0.0671938410067971,-0.00434098747194305,-0.144663811420401,-0.16980716503545,-0.138456623927821,-0.0275762221399536,0.103284205510636,-0.122771748166361,0.181195866784945,0.0170130847120786,0.167803345282659,-0.107386265313253,0.0812312999277486,0.206395544260664,0.175114116050719,0.0214472239811106,-0.166375384753802,0.00923548095723426,-0.160238603019306,0.131905042086827,0.0654684999631043,0.236943565230079,-0.0310966103239353,0.182837869406657,0.0150672189852681,0.124418749745368,0.0681481209024577,0.200698854981857,0.163456770948047,0.0883622558679539,0.134695356480436,-0.127925816416024,-0.144476670763528,0.0250511606957012,0.163945491254697,-0.0559987649631423,-0.113784086074933,-0.144206991282111,-0.149943997208655,-0.0826259183349442,-0.0911781365404745,-0.0786259816741902,-0.252264617121234,-0.0395122880434515,-0.104086270775034,-0.115177809871475,-0.140277210440372,-0.125981925897295,-0.0258085005346858,0.163502393304382,0.00506556788723081,-0.120583049850377,0.20741183125814,-0.0491628928883631,-0.0361257706982114,-0.0423076265346705,0.058860934769066,0.155272546321299,-0.035902501306595,0.0686172674322806,0.0263847370892562,0.13739817048976,-0.0567576189673155,-0.056911223890018,0.194465580677754,0.0405899337502814,-0.0143695732955959,0.156520709308553,-0.0842615762925733,-0.000345790378627005,-0.164262486222663,-0.0704214468165108,0.140881193856169,0.0577731958805337,-0.00179709744169071,0.0431406684838401,-0.2352823836381,-0.0588221931829034,0.230048149710924,0.0552457272539711,0.107833471597989,-0.178701976243855,0.0770526822348365,0.199223005813053,-0.265156957243422,0.106579895262769,-0.0979108283473083,-0.0563894735637861,-0.226628802196413,0.125950374014256,0.124067909710206,0.068212564952002,-0.0959687633451591,0.166897983089948,0.0990952907712732,-0.0303856877929159,-0.144904646889541,-0.139140487253316,-0.08649101252856,0.0830975596353077,-0.110661824682211,-0.20270263929596,-0.0678867905823069,0.134857721246416,-0.187160361936732,0.113539427004094,-0.113641349149989,-0.140320723238084,0.00433838269083899,0.0171744103317784,-0.0533781356308658,0.122705324012138,
-0.19742273069913,0.247475724193834,0.000242042745609643,0.108882016894181,-0.229560282360822,0.172796726000029,-0.0648119096505381,0.0690056015400049,-0.069484801982844,0.10480724427903,-0.194264645540834,0.152038211699494,-0.0148668928678672,-0.140102703520431,0.175281328330484,0.11581044966555,0.0715858689710903,0.160609384917041,0.146169423733288,0.127168934375308,0.00702343649305922,-0.216010615658435,0.224263937660699,0.0609832924236637,0.111836436076011,0.132430756481331,0.170789372793697,-0.0138476987571948,-0.20069556634944,-0.0938327473481394,0.0664226347676474,-0.022167173119061,0.252181115012513,-0.358089248569228,0.197592853800244,0.16020007391788,0.167786224813225,0.137006508364568,0.0325210892586715,0.0346200041595385,-0.0252205013783272,-0.167244528261119,0.104055063265544,-0.209835667018992,0.000327072421756167,-0.107351137945449,-0.00797065402427219,-0.126624135116669,-0.0626255980011688,0.0167589651002891,0.148226717211786,0.184309470516177,-0.000282599123599426,0.0404756120383285,-0.0304819743119079,0.037937890214323,0.170087187542362,-0.0632165809211499,0.0467382895912537,0.125689045717046,0.12774422641619,0.238485484983238,0.134636049899404,-0.129687351603859,0.0870106090089892,0.0939602126617245,-0.0933460810056349,-0.0946452288165648,-0.068718145244349,-0.478783548471212,0.0147649893437623,0.0333649153130469,-0.0660114885763896,-0.188234339590617,0.166508883295799,-0.314214710683556,-0.0111224522500434,0.118840640110311,0.17961408049141,0.00825475513156264,0.122115901264572,0.112239251171077,0.0950232595179355,-0.0708155012015718,-0.05889070850308,-0.0613954824497286,-0.118052092631986,-0.0675063551604623,0.106179104846158,0.0447827120993923,-0.0898357143236871,0.0760539667023124,-0.100408138333764,0.0280810905599018,0.0138786428568702,-0.130753928799217,-0.287014966660873,0.0336386459900466,-0.23453772871394,0.117585845422379,-0.105296265641028,0.0282745983002294,0.11136784467717,0.214991701105952,-0.15499922029731,-0.00720548615824885,-0.176279288596602,-0.174747420974484,-0.126589187299863,0.179018999328857,-0.102989998652204,-0.141394281687498,-0.0808057228451433,0.199274874070833,-0.0131235206077995,0.17880647799984,0.126270465360613,0.13640289913943,0.265744857111174,0.193019753905561,0.100421230510405,0.034386649557677,-0.0857959116598065,-0.159411317342316,-0.0663682020280891,-0.140437591048857,0.100526021675493,-0.142442481083618,
0.293316402479125,-0.0487839069605703,0.0354050406608543,-0.188948937116304,-0.083091603719277,-0.149474052289978,-0.0755700815985722,-0.157685600251571,0.254944437854416,-0.0367292184129413,0.106938309921389,-0.0746220362689809,-0.14965887813164,0.0798474904909461,-0.189942307121613,-0.183203992893889,0.0805237732425554,0.206301612537896,0.123960452320777,0.226119189416991,0.0725804061120291,0.0923693789269216,-0.212396530082478,-0.0848680323605602,0.0600295661446084,0.0576884993863379,0.168045244016692,0.152951735965517,0.10060010720162,-0.102772303931521,0.119716651625108,-0.0422591049456405,0.0718643371970917,0.0429997364468554,-0.078651250047751,0.133078379743094,0.0490802356343954,0.0711237567207627,-0.127682524341569,-0.316030778298556,0.101507210621993,0.00286124219393223,-0.290346596946732,0.0952264462167649,-0.17325327313823,-0.25349618962282,-0.146142239064444,0.0490789959449793,-0.0946242251368662,0.329688425301031,-0.188616656651581,-0.0910635695737449,0.128445654140227,-0.125212460185857,-0.292683705256703,0.209662712937869,0.0498209389451687,0.0648026184432556,-0.164823765779396,0.100475481234408,-0.0634478938446769,0.141352674032229,0.0883104508644724,0.189157795917166,-0.00222787333256717,-0.234577333289101,0.0524773420797853,0.0588802139023076,-0.214944586229488,0.093386616482929,0.12961578336626,-0.111094180846957,0.211885376301172,0.325617184587876,-0.0256080553741756,0.0995994832948132,0.231693399258523,-0.296407504079511,-0.230292997544501,0.0324161800829586,0.0697613321525584,-0.108042827930906,-0.026817639078062,-0.1281645068716,0.0600947319040493,-0.150290510726799,0.125533996589764,0.00916135522028294,-0.102670557813281,0.132590667954045,0.17063703102891,-0.114290874653668,-0.216566113954437,-0.137420926106121,-0.279409447475139,0.240939637246007,-0.0708477667771203,-0.0329281088728085,-0.304042748988981,-0.0108052603261374,-0.195803522118381,-0.169627045970382,-0.0383307295478494,-0.00486539086179254,0.179606346459595,-0.290340036433631,0.170732202453073,-0.229500643167289,0.265053376119047,0.0686259173520844,-0.0661884615656808,-0.0509672400167879,0.232347149053103,0.0741954749596177,0.19561658907414,0.0575136557411252,-0.00219471676721277,0.209897808340838,-0.0410338601454333,-0.17233882943904,0.258469999632355,-0.079694261095892,0.000536476114654682,-0.00731796353889779,-0.200297164150315,0.108953266853433,0.127790241438357,0.168158135567229,
-0.0943906757028874,-0.0184519701456352,-0.0840548526761199,-0.0728429725123888,-0.0143904094911808,0.097013593979191,0.0334945556528912,0.0414809880153929,-0.0770909258215564,0.146602779330678,-0.141433426463087,-0.137514929182512,-0.202889490643021,-0.00798448546420079,-0.0587708170549534,-0.0546057558910174,-0.124613953053817,-0.0573378835989216,-0.133883091418238,0.133062725366077,-0.0581556851162885,0.0399928673513542,0.124186956107012,0.0370438616858791,-0.229617633589759,-0.178375316324139,-0.0595588143097353,0.112322114939487,0.0573951666101963,0.0756442981376699,-0.0810685995884385,-0.0790547782886872,-0.115176539598298,-0.0502007155561912,0.0938197975834935,-0.210946336897879,0.114016198100629,0.0512612721735444,-0.155077862072579,-0.0754128541855461,0.0934515278874646,-0.200869840468577,-0.0754030328979084,-0.0124888195754,0.148798955237525,-0.344543782904692,0.119502260360635,-0.0438252928048589,-0.0341619750380491,-0.182824483869584,-0.0125281252104983,-0.00384942043451329,0.0214943160827653,-0.00652924632616556,0.13249414714745,0.0552295835750838,0.063077058075236,0.260903645131921,-0.179590584223159,0.112757906575543,-0.193667437248339,0.112671754295301,-0.122488788308388,0.0676956233413081,-0.0223722021389492,-0.0063177540485565,0.101889455984937,-0.203785245204563,-0.0543755868768811,-0.0115587793259227,-0.114359435654917,0.150045880204309,0.0435919246334106,-0.0230211553450813,0.182757665659796,0.0348369835727582,-0.331298678950427,0.0275914209040355,-0.0829575473435185,0.0802752546510731,0.161663298367689,-0.0438079205666271,0.236296485601108,0.110403828683638,-0.136472856642804,0.0843254233403067,0.285344604440483,0.0208689640303404,-0.0862561897664742,0.0165010256359096,-0.108826167057126,-0.0258771206844856,0.180849532166895,-0.120758187164519,0.0500098487585076,-0.048271150191916,0.0427819297537067,0.0885606062767897,0.000245615896676265,0.167893023007589,0.267147685513379,0.117048492867615,0.164156556348889,-0.11649436051151,0.201006129140112,-0.157547079464709,0.0879579184106746,0.0324361368472559,-0.28502248398647,0.0202259932465091,0.255582022490782,-0.107921134797964,-0.106464945127228,-0.0249085322434114,0.148611166253067,-0.114728513170466,0.0270009778626545,-0.0265054874866476,0.134120506409826,0.157814837563248,-0.166116444577159,0.143742885557209,-0.0394779681949853,-0.0833118129301006,0.154595680168836,-0.196904640065142,-0.0395892543714964,2.80138963631601e-06,
0.125116062239992,0.0838170715822022,0.179341249384779,0.0179579803373907,0.124985981601726,0.065306579059112,0.147747794688524,0.0244438285692016,-0.146617370891674,-0.0168987191286337,-0.0702546707208908,-0.129655718883502,-0.0938922442373561,0.0218852743586845,-0.0626331049090033,0.120122393642142,0.00450080443019337,-0.26598016549722,-0.119713724725105,-0.10399625081169,-0.134424172080078,0.00586160971451637,-0.20233625790223,0.053479745429579,-0.0751217404517994,-0.125352726322888,-0.123031126772792,0.168733483035785,-0.110741968409711,-0.157078591078667,-0.213523001172937,0.126233165204555,0.164183806767149,0.216267395798859,0.186139364996923,-0.169065946424596,-0.0556043040194893,-0.107742097170251,0.109352245234079,-0.011155282444793,0.123884057385513,0.161805928507394,-0.0407601849708297,0.141641222995823,0.181352387004271,-0.201401667207201,-0.103641120378256,0.147573341627685,0.0508352670331482,0.0101960966669192,0.0170133821226441,-0.0288818142646849,0.11293067988871,-0.130578079832155,-0.022510243753913,0.00927502861005649,0.0144276392698754,-0.0868566770680319,-0.335018117098961,-0.0553143659315817,0.0778798123002884,0.106438982859158,-0.120493664342291,0.151988425850553,0.261978972706702,0.0693283550014639,-0.0204983628421815,-0.0922392503877849,-0.163631916447153,-0.131487422664583,-0.138697636360796,0.0442973398290744,0.138387414147275,-0.0640717979835008,-0.10300435769034,-0.218742332466736,-0.0668977223323542,0.15017943096627,-0.0553601449149742,0.0745693439285154,-0.217836837322674,0.0725756284993581,-0.135309445118268,0.0184482547188317,0.135273347395491,0.207120084622765,0.161298262282943,-0.151196861358253,-0.173379537754766,-0.157336364508246,0.124950104884351,-0.105322754253098,0.127229965064442,0.00918324198299711,0.153634945676788,0.186876203065537,0.117868288353144,0.0815488553997845,0.130729276452523,-0.173008974706899,0.126173466280553,-0.0528622215274145,-0.0488573065013749,0.107944639417647,0.037325402774966,-0.0914745799881045,0.135233882410556,-0.0344992751605905,-0.23309592846929,0.119809968262353,0.24871858553134,0.12439211654155,0.0990831987029645,-0.0797071433752263,0.099373701308341,0.141226427959822,-0.0285543456140988,0.281217965203623,-0.0216579780780316,0.089408435127396,0.220399486917918,-0.11821991516226,-0.169538712812011,0.0823288680638137,0.268335769954445,-0.0962844097098935,-0.127955009367356,-0.195292046901104,
0.0840191926359683,0.159199364591125,-0.0122343219880577,-0.206640420255736,-0.0102342568922659,-0.189926132457571,-0.0401835557256726,-0.188663155802586,0.119110427336671,-0.093538377273933,0.0879435028347806,0.132523464683126,-0.146801556973946,0.137596568078485,0.169945978878124,-0.0714276852084441,-0.123402854493771,-0.083997340197457,-0.0644259357332527,-0.176085669156012,-0.218312384693997,-0.133610048799199,-0.191778592174381,-0.176689071314771,0.0213407833160925,0.0561415609055515,0.128906931623505,-0.0566969362588554,-0.186230799665788,-0.0895612637566445,-0.183624407612542,-0.165327900537764,0.0875718298043422,-0.206721374924715,-0.0169465626283611,0.0485953347721789,0.0238503012135645,0.159708093246611,-0.117006459995615,0.0585067453088286,-0.0608496437815285,0.121211624863586,-0.162992195621465,-0.0131113996475405,0.018648110561123,0.0662016707114091,0.0318465861318764,0.0900127345832922,-0.0513825856700215,-0.0625542728514363,-0.154403266238981,0.0327819699219345,-0.146044862385583,0.0422195528855435,0.0358711863370875,-0.112762789789069,-0.0417279011841362,-0.131230670429416,-0.102491255539323,0.0591670086135785,-0.195798011598486,-0.0761683408477887,0.0970355049404589,-0.0768187719019962,0.189158956190358,0.0392688417810303,-0.210320070873356,-0.120685026733663,-0.200269322651796,-0.173167535726329,-0.0413468892506274,0.119140745349193,0.140366034136508,0.0686926340384475,0.132836347860974,-0.00348279353942069,0.247669546897687,0.163274951300583,0.0934878736432467,-0.0948676737285908,-0.0404854895763559,0.00677743590536217,-0.0361742631990169,-0.0793678517629183,0.070015696257708,0.0575111251295916,-0.0115414238167874,0.0664286598684263,0.0944099611076364,0.0604116087307619,-0.164486869564835,0.100948232229661,0.152641167389033,-0.171603790787369,0.215984573301837,-0.0568446950099053,-0.251682001577995,0.142010785080127,-0.00509972160764641,-0.0249626102264306,-0.0913531805401976,0.0470909326091389,-0.0793429976216201,0.15149062514412,0.1131685267214,-0.0614709570763682,-0.0286453254530891,-0.106101147259234,0.103568347181333,0.123585307564025,0.242324133612484,0.0760295483502835,-0.126952369696864,-0.1520614879566,-0.106804089963938,0.00669563679414202,-0.0872392283183741,0.153398491749541,0.0653435456221476,-0.105066516389956,-0.117111327560702,0.0391994233437993,-0.038785288223559,0.0218261514049877,-0.00422115951515638,0.0848216063243506,0.0451625440011504,-0.162636455177787,
0.18482126220184,-0.0527424467684283,0.0735817082026736,-0.0406773663701976,0.270151603778101,-0.000709831833100728,0.261528964473002,-0.109650520718761,0.128617346593013,-0.00197855074445373,0.0834880141681469,0.0332705915967534,-0.270932578998454,0.14354059653672,0.0218197314842223,-0.0675080022182255,-0.128135226441199,-0.304975928120729,-0.0055370166002525,-0.0275413374808524,-0.0648740926048869,-0.0879805695156845,0.159579232040419,0.138841751139039,0.0125122973820492,-0.114731273815296,-0.0532026890079577,-0.197915675714454,-0.205908894019069,-0.052322057990422,-0.0909505337290823,-0.184920342649184,0.180340694520408,-0.0829921783813476,0.069542702033127,-0.0360551730291055,-0.135137558986656,0.244684958555112,0.17418744829233,0.246887909881428,-0.1303470823831,-0.0444584732298875,0.00785274019633394,0.0446662504278619,0.0093453592559842,0.0991740826886062,-0.205677917251059,-0.0760906224096947,-0.0580338230147631,0.0357885552644362,0.113085546956129,0.142973003186061,-0.223156049175955,0.147636842122258,0.0516199233977076,-0.0757494201847869,0.200087528608626,0.237279177532949,0.102126749623177,0.112700823246319,-0.0440811956625572,0.0704830581308694,-0.174083724984518,0.134392678321979,-0.125734373546168,0.301691523736241,-0.0912622445844411,0.239386383012314,0.250959478513376,0.108238453499414,0.042985224407028,0.211915306653699,-0.0256190731494043,0.0549404920319001,-0.184595955602241,0.127388661619408,0.0238384188703481,0.12210090335189,-0.0172476700017323,0.0669168827366458,-0.257909568282141,-0.00700234674868089,-0.0728589380428012,-0.182254199549607,-0.16862439465795,-0.0199302129437067,0.163986162975657,-0.0946302089117502,-0.0839967114752681,-0.0105751583097581,-0.0476238491280012,-0.0128810740302247,-0.148641071819834,-0.123554971329255,0.02691679076704,-0.185617898460453,-0.00757159964209078,0.168100718259739,-0.184387142209699,-0.124004870994513,0.215783635211657,-0.0366376602305665,0.0125885394727781,0.0386146784820139,-0.00681747283747719,0.0376441451367683,0.173366605778007,0.126669391262533,-0.153127615532926,-0.168384802755118,-0.11172359334494,0.149610291241379,0.0626686512931809,0.0227388204612334,0.0591866189859344,-0.196778621269247,-0.168373265334655,0.0733902593051209,0.04710540729397,0.0769605329115861,-0.289860949841882,0.129825065472444,-0.0949963619833182,0.151182641081472,-0.104101960503898,-0.161078929754971,-0.306387003098266,-0.140152462806751,
-0.00549341442181623,0.0782207358197232,0.140374592460857,0.118429712527325,0.0851627028380995,0.0514170530394573,0.0970389907712562,-0.042429326621253,0.00139291451592691,-0.0383176083360984,-0.269068996401216,0.0295097338713714,0.0393656878583738,-0.229426643096934,-0.0847442440755322,-0.129085600686852,-0.0989700037671858,-0.131181780644893,0.0813228172553717,0.15728728228575,0.229516084207785,0.124570020899218,-0.065787551242314,0.170295441195236,-0.236879997941387,0.117192782384298,-0.0437013740269537,-0.166659433565166,0.200823569911195,0.0850106702910466,-0.12612049043514,0.0689657741893913,0.19321527021965,0.104469241065083,0.164021220792553,-0.155901254443389,0.154624648731968,0.1758550985774,0.167540638846722,-0.156516079191991,-0.0794508162882119,-0.26086419778237,-0.102043970930539,0.0543561736729344,-0.0181556242853481,0.162701434993737,-0.0473798580491736,0.271344013499082,0.117957199204435,0.241787343661354,-0.0021345016936164,-0.182444730456507,0.226259228874418,0.167949857417903,0.134809406201311,0.185124807462694,0.0239472019527937,-0.0436185335986212,0.096548511913742,0.0526876262082257,0.109338013997922,-0.084037628093836,0.20470073859306,0.0306767861404617,0.0559386992270194,0.150095955782298,-0.154711719235934,-0.218687452487341,-0.230171825560636,0.135478113123619,-0.101520478695472,0.102939120363441,0.167183234091227,-0.041439139596744,-0.0347767285697695,-0.24918296293218,-0.135084890172263,0.143801547353974,-0.0325710632951738,0.127844396649457,0.138055597347485,0.101177746653909,-0.00614613093373887,0.106824113538297,0.145517457877587,0.112056812321632,0.0378218771376763,0.0823851868524709,0.119943400504947,0.0785005141375065,-0.184927268047885,-0.209620402747457,0.0539004371703767,-0.0841838370544668,-0.124197645523356,0.16495331883348,0.229419291770521,0.083860583260056,-0.162502022156546,0.157795187404123,0.0840031430091824,-0.0707272628170035,-0.153225827826772,-0.20708407046303,0.0200543648013038,0.030374433268207,0.140785933691137,-0.122912692812782,0.00256571880331708,0.0502105846713294,-0.159209621365727,-0.225780080003374,-0.063703230463357,-0.00387147981765608,0.0276674178445224,0.0263370514490356,-0.201790740626215,-0.160947941909997,-0.186169629056501,-0.281638186332414,0.0341352470739667,0.0532193409141273,0.0759330526674871,-0.0878211197987293,-0.227742207741426,-0.0404289953392521,0.16892314732846,-0.165121259660778,
-0.14135166284946,0.235583765522587,-0.141153976089734,0.165461501777425,-0.29746371187967,-0.132589611126863,0.122001950814521,-0.154859626508717,-0.125667851903644,-0.159653698549782,0.239088323004287,0.174325409110421,0.0446473628524868,0.144719158885611,-0.141000707150433,-0.116064512543246,0.107074076472592,0.0511854095163977,-0.0201998467187346,-0.190941224478672,-0.00699052155544154,-0.194812644650528,-0.101983098016467,-0.0402575073549928,-0.00515491188630419,-0.0841649073866008,0.0945663343587706,-0.164776534706404,0.0771031102982388,0.0568417483287579,-0.143772146606165,-0.133695483700765,0.168801606591805,0.130104627467415,0.0752077397854935,0.20994853343024,-0.0108850768418921,-0.159829325183337,-0.129093188158253,0.204381303140374,-0.0814373179991253,0.17954071175679,0.0989426461326811,0.0325802300029983,-0.0264134957257722,-0.223634170061669,0.192952269585659,-0.128699101330063,-0.0276052155327427,0.027770624823377,-0.0938425784042178,-0.0476112452817238,-0.16854612035124,0.0816182028781433,0.208833018712194,0.0202058592481223,0.206175963444953,0.177402808405908,0.0235186207274726,-0.114105232474431,-0.169921710924557,-0.101172681358365,-0.0880870662371583,-0.0651259528005756,-0.159985602750477,0.148249190414335,0.273620042005174,-0.0352026150622683,0.0734181642847201,-0.138359955730612,-0.0441051697346784,-0.0350734114780561,-0.0284092863945343,-0.191013458021512,-0.0987653667115403,-0.116547214213637,0.0324959450289017,-0.161905658554112,-0.109560732392087,-0.124472419094275,-0.133529149865045,0.00230794511670134,-0.212567556937165,-0.117836092869598,0.149799287749975,-0.110612536351808,-0.100417675237723,0.112335480957011,-0.0434747607602513,0.0801705250609998,-0.122157572207438,0.125831732497662,-0.158946977344761,0.221092635369949,-0.0270195573250889,-0.133155097957621,-0.111469333527459,-0.175071897789215,0.0616712736551799,0.123834729482093,-0.0524467614299005,0.129707925812327,0.0586808149151117,0.00908856648585363,-0.188397812603657,-0.119448138141129,0.0674636189337918,0.0364433946167539,-0.0106322720653332,-0.149781497262089,0.300509687258677,0.150817440088762,-0.122176890807344,0.111195753531772,0.126982749506773,0.20173281780918,-0.0596352447622817,0.122293452917347,0.0465742949778101,-0.0449254695281215,0.0291284346357711,0.246409306611479,-0.101183022872779,-0.0969590608547533,0.133459601446701,-0.146585532731606,-0.188397121077911,0.0575741865834749,
-0.0915519409665868,-0.120528502408783,0.155143026380661,0.0870369278164794,-0.186961656435246,-0.168367000996238,0.132356141211594,0.112688231931008,-0.112455671988245,0.0275449490282293,0.00238971636741957,-0.0581678727006479,-0.0796589433464396,-0.0873620423113195,-0.0501357822958584,0.168394415477756,-0.0307013025982761,0.143492242644508,-0.0292296073391857,-0.177551956845965,-0.0418276900616009,0.131879000491219,-0.180718912122614,0.0317187779627751,-0.163027285785542,0.131487325738552,-0.161571205962626,0.0164738465611988,-0.0584044485605673,0.00185894597435326,0.0885948066890716,0.117654451712872,0.145282882661348,-0.142668459411536,-0.14408094176904,0.108724270058609,0.0352268934522176,0.0462358327637572,-0.0223369694241359,0.0258801328693859,0.0427081368221665,0.0350650376729556,0.0682129906020509,-0.122609017523115,-0.0992117257948983,0.104883509182208,-0.0448708173204019,0.170757901793361,0.106164858183625,0.0193259447245983,0.167469979459756,0.217967664917102,0.0916670856109404,0.072788795377085,-0.0509809926214397,0.128933181934158,0.098883205722877,-0.117133855576183,-0.105561908380418,-0.0691896222893787,-0.118516790940564,-0.0545465843062833,-0.0299117817029524,-0.169218896070681,-0.104486270318655,0.179882421919226,-0.107441160732839,-0.148998329381652,0.00685723694160023,-0.149791761059832,-0.160575587884179,-0.0216463702343311,-0.17082456376136,0.152539843682657,-0.0495777220467922,-0.22137351252021,-0.105112324838382,0.0961767729361078,-0.0612168673451278,0.169553067254982,0.0535761643516132,-0.00736345992821462,-0.0607007139903416,-0.0216443809859053,0.0247175610951751,0.100594027211252,0.00105551350571194,0.131173563248714,0.166175376976817,-0.140484787365381,-0.0367900302391605,0.160075252792898,0.0947305391996023,0.075436807974228,0.119027578694774,-0.121711865805877,-0.124556645193702,-0.122753678731038,-0.186911229006248,0.0791358460213975,0.111026436770404,0.119703798088938,0.128643659278128,-0.148721775579743,-0.147709499826835,0.0761498180453588,-0.0239484552211881,0.078812100885149,-0.0577141634106419,-0.178958978280626,0.039589728142922,-0.183652522118241,-0.0636394685092615,-0.176035173057801,0.0633105360063629,-0.12239168618857,-0.126922978849077,0.0531291917333821,-0.0524440438605381,-0.105362025301089,0.170697981739898,-0.12045596440213,-0.0023217071327818,0.0150760625606173,0.14638114760483,0.205546343866485,-0.206554147707321,-0.0533238243214146,
-0.181088391704591,-0.0348996659283031,0.0727359821072522,0.0984600408164296,-0.120981335784901,0.228899308683858,-0.014658031320211,0.115438209813828,-0.172085727740087,0.0429882215744402,0.0422749146781541,-0.0917092646192005,-0.15424794462794,0.204546962999786,-0.0761193560559891,0.0111187057177185,0.154813650390731,-0.188311113487977,-0.0252341621522826,0.233272050376908,0.13492878018271,-0.22965039872257,0.277508648815687,0.119319604092512,-0.0100469968315945,0.175114556102524,0.182116021974567,-0.0500445772951515,-0.267029356004701,0.185213900517695,0.0771108262601548,0.0610853840180415,-0.14291145892582,0.16402109249215,0.186866518798113,0.038285932179521,-0.0917956999018055,-0.147192969948956,0.0186043700629826,0.169864693297112,0.012057780942534,-0.187127668270167,0.192245560372664,0.0695432400937624,0.0506821471152038,-0.0686414888474332,0.15659077380533,-0.0928585955679044,-0.0503496437984303,-0.18990750293543,0.0536853975607641,-0.158245387910855,-0.0019571188449064,-0.144862330935913,-0.108931818836069,-0.0947495572024003,-0.113069565308719,0.184998083201668,-0.126126409041047,0.0609244304200009,0.150707316910359,0.098321421725683,0.117347057067419,0.188004412753099,-0.0809211499936516,-0.119503563907044,-0.1888721218125,0.0567085465525252,0.21074189100569,-0.076051956049362,-0.141781072983531,-0.137874599016655,-0.212002042950384,-0.0623076578207423,-0.0191721833815302,0.0332814804006568,0.165030124798738,0.0851743463813841,-0.00642752530219407,0.203354154763882,-0.0198448306650061,-0.0425547346057005,-0.24360181904301,0.0606567827650372,0.0463478628204559,0.177364969213014,0.15772656229995,-0.0536339517467842,0.0180322947874352,0.0918905031245386,0.0484895493569864,0.0227830056248503,-0.135224021542055,-0.0509145976125743,-0.285680615096235,-0.0830921221074281,-0.118560894995466,-0.168120819580733,0.061904309616053,-0.0458328243535449,0.0292061750459141,0.128961261202745,-0.0558023070288255,0.110535001466253,-0.120453333113571,-0.03791316859715,0.196827780693242,0.00235401809934955,0.0852128346556159,0.0290963105880835,-0.0725612690996793,0.198405616502625,-0.0356466884878398,-0.0332983469928012,-0.0113953361013652,-0.0997664417619363,-0.167557018768255,-0.11127057010898,0.0564764027183723,0.00101383110580158,-0.0935264235316661,-0.109088533096085,0.0198430207113461,0.166471544115891,-0.150965321827312,-0.0794655152624331,0.219254059548603,0.019952977176217,
-0.220781897274222,-0.0898503448192746,-0.173116718564341,0.0389255716894414,-0.372571820965661,0.122198313071309,-0.0220007013960453,0.0950063707849475,-0.155880417800942,-0.192519684252951,-0.0288978797472323,0.0242650209351153,0.0188949376902649,0.161840351906282,-0.110511046723047,-0.206878374568267,-0.0382267978521075,-0.190165806202926,-0.11748769105351,-0.0475538236299903,0.103786698969941,0.121255165771383,0.0214448585982055,-0.0126693012017193,0.234814697087072,-0.136621028974628,-0.0669429379369862,0.16391505826297,0.118754753183447,0.162174847040336,-0.183196947607477,0.180958314449988,-0.149713743021775,0.168763165598044,0.236552828383457,-0.0278896675774438,-0.16233303015087,-0.143090143675691,-0.0723436685839202,-0.0857517807445724,-0.0868353526796485,0.136097745762157,0.0583775971769305,-0.101689377584173,0.1751099105118,0.145360797903956,0.148142847368067,-0.279077404543235,-0.0866089787003868,-0.185023281096793,0.215340106909096,-0.115115143591747,0.255725270898372,-0.193976317423141,-0.314544401346226,-0.029169113045548,-0.0399784060370287,-0.013314624446545,-0.24133162250578,0.148955013972866,-0.189790575634276,-0.241045133691724,-0.0129604939956138,-0.0851885692915303,0.153701823148615,0.0351729528493686,0.1316991869484,0.0194757950341026,0.0293931030599846,0.120998106580228,0.00480231863428616,-0.185442321713228,0.206460093584858,0.0721251875016204,-0.0505275825184234,0.0648815740276062,0.03000104598423,0.169679779324762,-0.135644086771684,0.127625894615033,-0.0716130255494177,-0.00551260402159326,0.140516495860121,-0.124606389813705,0.000761626380825937,-0.0147820118007992,0.175855907870154,0.133255829496205,0.00367105557946089,0.053596750562687,-0.166327075853808,0.182474947507782,-0.0460964162590756,0.177427886024089,0.0205374797285832,0.21858061397766,-0.237127632081456,-0.0388696242422032,0.106898358259622,0.138265316482836,0.0531409467560444,-0.184396349117079,0.128188255974144,-0.243881247055786,-0.211434647823137,0.0584074208158654,0.0815690867653949,0.0311918303428507,0.201383621850552,0.149620945410373,0.00526962719376617,-0.00969703600593312,-0.178023516428056,0.141199080796141,-0.183884381947692,0.235247110187852,-0.082663838957387,0.216126492989316,-0.0646907343507827,0.0186666469624908,0.219718640589161,0.00850310499768258,-0.265021478445671,0.0153422904781839,0.0166429719905469,-0.0545052951895774,-0.216936840887747,-0.0338312544108106,
0.0293407772477969,0.154803128653889,0.0839641527979363,0.0212776986804017,-0.0277881207043426,0.175751504269245,-0.133877895749984,0.132647561174201,-0.0484980607627077,-0.0532261743611417,-0.19061766524051,0.0613174595617912,-0.19036680859143,0.0630930965548738,0.172784218447604,0.200128776133725,-0.219411844712252,-0.254423850329241,0.0768828735828274,-0.0630329924968515,-0.192401251729657,0.0855348648506852,0.163308960529743,0.106157798436045,0.0401147760099498,-0.153331032569708,0.205660284802255,0.115092844335621,-0.191850636579991,0.194039931866408,-0.034627236309315,0.0675747677307971,-0.0152177989839914,0.0507085935666785,-0.224088554261329,-0.182924136481663,-0.191007140114501,-0.0785711080617011,-0.0337993704088157,0.11150578414489,0.110772256036533,-0.157598309551738,-0.107473334102594,-0.0957006804340282,0.0818473157066006,-0.190236362337231,-0.0149139233883392,-0.193535797979868,-0.0868558162247439,0.00145850999210009,-0.0844464756585925,0.119355732066343,-0.0595635161524836,0.121367868068914,-0.0991350972028259,-0.116525016735399,-0.0870289253587459,0.0683314254474779,0.156167971232722,-0.0295812732494877,-0.171590202788799,-0.180841370082744,0.0498755991654047,0.0846390692289827,-0.153787510257406,0.178778526228771,0.0747624213538499,-0.274102193351925,0.181134067649937,0.082074811071532,0.0548161635686262,0.0254154931741979,-0.0633129119010191,-0.161589615954251,0.212188462163528,0.13645419591582,-0.016188114708737,0.0644256710598951,-0.130077263920383,0.212583788992092,0.159502709629316,-0.16078287081068,-0.03631778320097,0.0619948288655455,0.101672120161781,0.215248861559742,0.103616761872905,-0.0272411484519792,-0.0433658683332142,-0.195845404533192,-0.152868347766922,-0.0563046689084328,-0.186380701028642,0.292619281620507,0.0279827625187293,-0.130468145019811,0.175308295381923,0.142627800571701,-0.177058115149507,0.00264192791335221,-0.156599952419699,-0.180147198733394,-0.144259114667944,0.197721746251613,-0.0249409460825563,0.112528858446533,-0.158083466270959,-0.0283353070526561,-0.04931118154481,-0.185516670708789,-0.0720384033057123,-0.231871238197966,-0.0426414165011916,0.181960829289335,-0.197416274932269,-0.218676761718748,-0.166772193333861,-0.135135019276204,-0.0654454817994657,0.155916205207444,-0.0125788863564188,0.0182403342080614,0.019457105928562,-0.182821816701333,0.126516190909019,-0.256753575197923,-0.143270206690267,0.0914099050612011,
0.0631861972476389,-0.116103141090254,-0.0908422204259333,-0.180817808116868,0.0107601524813573,-0.154106222861113,-0.192773136787726,0.0404806267874942,-0.197683550228347,-0.0771919335778143,-0.0498623264328176,-0.13351827815892,-0.0675594459590197,0.0112190060675531,0.181330531657349,0.113655916558363,0.0220770311200248,0.152432524166136,0.00267608422656267,0.165667405732428,-0.0221779500911198,0.155569572400129,-0.038423819502873,-0.110271705059544,-0.123092027420971,-0.0393838229766367,0.126534673908404,-0.117814483848434,-0.121948890087527,0.18087629077302,0.153543568958621,-0.118675271945094,-0.0236356129974678,-0.149282469547671,0.077676871151122,0.131765141048378,-0.0245089606071716,-0.119559223388319,-0.0590095292755302,-0.0191800272861278,-0.113459845133406,-0.155202751145133,-0.0241350076515794,0.149940018443125,-0.0282107525932444,-0.0866337444033175,0.0765665912275988,-0.113445133491343,0.111831478433431,-0.142892496720073,-0.032396029695773,0.108470336703654,0.0941462584688628,0.0128157672626948,-0.140007557214068,0.0455865842007585,-0.032111822713387,0.0471081704607774,0.111826116091745,0.0925169584561082,-0.18145718147874,-0.0293052414904921,0.00263198823661918,0.0402747823036445,0.129372819530602,-0.0430331093406912,-0.158242359602405,0.0706417609730157,-0.148744603642649,-0.144390109386222,0.0304309622837572,-0.000191644796875735,0.045824472613233,0.0793284759862876,0.128035912079565,0.12050099001838,0.0228789344077029,-0.0982301032921444,-0.0422158012914992,0.0326984891321839,-0.00993490808184506,0.132825915738602,-0.143253073449631,0.145994385540044,0.100715456219248,0.113842797944771,-0.167548125448488,-0.0276480679991165,0.186931428738379,-0.149548272365278,0.133161992552234,-0.0262567615618464,-0.0334836742644649,-0.052197908867802,-0.157344590506547,-0.146835692832084,-0.0925486775328506,0.050918866537005,0.0855391919555252,-0.158241899282082,-0.208215450403962,0.115415356118119,-0.0749885280430156,-0.109403623594238,-0.216468211572739,-0.158058238195784,-0.151501298423566,0.11703821362253,0.0318161007927171,0.0189392419795284,-0.189948841926604,0.0855845128759297,-0.00552781621687211,-0.104453746265578,-0.152347713951632,0.0986317977600844,0.163580970362141,0.056629109295991,-0.142165207176637,0.137753814393292,-0.123227058747679,0.0444075623830066,0.0856253813501665,-0.163618290814744,-0.147125665503896,0.0760513842066226,-0.00904714485619027,0.0870282685191446,
0.124504315062197,-0.188746510800407,-0.016567964270603,-0.193813102048995,0.111447495945349,-0.154711808400725,-0.00880899644667934,-0.189900620499307,0.202982870958695,0.112981786844422,-0.0435446779956641,-0.140493845152064,-0.184523598165611,0.143635276568683,0.145192583536685,-0.210217060990915,-0.0783570619833146,0.107873865726946,0.0625298542478842,-0.238663797664115,0.110315862394141,-0.0786760421055948,0.0252845558030869,0.32291878405019,0.040597897773344,0.00777051615331617,-0.202911026256484,-0.233273831129269,-0.0922319704281168,0.103188967308018,0.108742960048232,0.157015134784542,-0.297069576758041,0.110977915192135,0.131370969413256,-0.0102538973401163,0.0623099382463209,-0.0439773331001733,-0.20524322916425,-0.0447168642426176,-0.052908038275389,-0.206688290862933,0.0382623983171945,-0.0832099441958256,-0.141488523649786,0.222973235054179,0.074714312846037,-0.0336415153159679,-0.0564203185131087,-0.0629918164459869,0.133140047560404,0.121828189773737,0.0798382481119224,0.00678646004103213,0.0275707671556689,0.0181193505603016,0.0956409159093456,0.115780422578424,0.133193605235357,-0.0238890934814435,-0.0646974767956465,-0.100759069133492,0.151286853002607,0.167617819085457,-0.274659733447063,-0.0517229637293816,-0.136227059660985,-0.0243077135751869,0.192193809684491,-0.102910105155448,0.137276453708857,-0.0318544256844316,-0.331013029300512,-0.271557507562501,0.0697141875578697,-0.283256201113249,0.0641053000715073,-0.109678175473199,0.121037358005684,0.176328711141863,-0.319981028462175,-0.200396972176171,0.0762888592029109,-0.164043996584847,-0.0495293779271372,-0.195499533907126,0.0910662256287076,-0.102119368887397,-0.173646026850927,-0.0268514608563467,-0.0409106159574501,0.0728746441577958,0.0460836302560555,-0.253012921603176,0.119251684226885,-0.244982324842304,0.076994309793626,0.0696225513410899,0.0706205090094014,0.0162748500668934,0.0145495936542173,0.143243177147711,0.189970389527465,0.107378768126283,0.193029996563996,-0.0534376514406074,-0.171608124863218,-0.261041711181156,-0.158346686745934,0.0990233704073316,-0.302730307059156,-0.369538340535991,-0.0755269380883871,-0.161213571350724,-0.159438015590701,0.0156313082356041,-0.220315752284021,0.0339711357051477,0.031470779747525,-0.0392331851360196,0.0728991218821965,0.00397986142544801,0.144041093554972,0.145317044500911,-0.0722900867372226,-0.0119451902334625,0.0544682022901027,-0.191004264538317,
-0.198380529272053,-0.114107995743354,-0.173570469685073,-0.138109242620897,0.0167631461630939,-0.0723010584408623,0.0459274815265131,0.0382925959499167,-0.090690217330448,0.0953544095807972,0.215819374163458,-0.187875001951848,0.144746984737951,-0.00208374315196647,0.0440056377748602,0.137138691540842,0.0969246238125667,0.100122475393295,-0.0305351603106276,-0.172295275427228,-0.112036005510109,-0.0798765999336274,0.0200220491299818,0.0545805961372399,0.00360295268689743,-0.166205241772485,-0.0608326318224327,0.130139939020565,0.0800937558455561,0.0459451581487667,-0.0426550689626087,0.0534141597363928,-0.00199653176463007,-0.0291323817729488,0.033458484469579,0.102547079197692,0.0446553557029336,0.117396177162662,-0.031013649500971,-0.0962894039481787,-0.00778293482010758,0.0689277310512628,-0.0596654334008423,-0.0938650591317881,0.099689850942754,0.0113884462298397,-0.0899550096380085,-0.198699739764603,-0.151148257781199,0.107740523247285,0.0350416175338731,-0.190270259085148,0.0524439309292047,-0.192757233335735,-0.146821103176361,0.152892449255245,-0.105156922951784,0.265403011885291,-0.168594724265649,-0.172360696606793,0.0681041504439258,-0.120301499833332,-0.0241140038888276,-0.103834819046536,-0.2125502665141,-0.0655207553921612,0.109891038026569,0.0406417475440331,0.12454216452398,-0.0358131961580451,-0.0745719868765332,-0.129596528966085,0.0541624021461999,0.181085092200712,-0.210464742552103,-0.00529273498550811,-0.0158003553073099,0.115815712107256,-0.0585372622234372,-0.0981494956894259,0.204562722547459,0.0770863636451132,0.0312522461947653,-0.0800968508549576,0.0771687740549839,0.156829238607286,0.0834077624424994,0.15341295250993,-0.0107841094580368,0.0297705843386965,-0.176984754701512,0.183269659293886,0.0437415563505467,0.0400655436744055,0.147098439868935,0.029573133405519,-0.166490012790184,0.028981813443214,-0.257989887337575,-0.183783665545806,-0.168742260406376,0.0365298182125509,0.0689349557033977,-0.0132779546721225,-0.0776860827942557,-0.030326328444321,0.121419506337519,0.0544080892077968,0.0391334030724527,-0.0375834275564562,0.155677556573502,-0.196207879466199,-0.106249900291131,0.024245918669822,0.103379800684622,0.16331291519727,-0.0948950520873284,0.172224000964609,0.169416810631746,0.11948031592364,-0.00991390370409384,-0.130743677726396,0.022182436321681,0.155260761094095,0.0497628610836798,0.0543230084903243,0.12144174088663,0.13101110470003,
0.200414439159678,0.0582420039463417,-0.117090560979875,0.0272840516417879,-0.137672745431835,0.0296072215142694,0.00322692305669426,0.185396296498409,-0.247428101602511,0.0150188095960411,0.0280179630642351,0.129831880890104,0.179426738780057,-0.117183721207521,-0.131004399843386,-0.192347028260286,0.0237139499282449,0.0518774032748838,0.0489586626488369,0.062216472513478,0.090191263487393,0.162527328364711,0.0517139710585715,-0.132053918584206,-0.00971222747307461,0.156369895314368,0.127122143184222,0.00707236009991941,-0.0745733450670727,-0.0502915549747895,-0.143184584951662,0.152026863581377,0.0757778383141807,0.134086058364134,-0.169857648463558,-0.08309263797351,-0.0282484217625716,0.0454441615013775,-0.171469608203695,-0.140697252775464,-0.00129653109928769,0.135289128417405,0.165897270355349,-0.113618062519787,-0.124954901158552,-0.079541931755404,0.156002172181483,-0.0660559745839181,-0.050377861416684,0.0919223004352307,-0.134934824911111,0.0748764187046872,-0.0717508767961745,-0.00757343040020571,-0.194374355703981,-0.0915882436651048,-0.197782037169934,-0.131262209490582,0.0522544214972622,-0.180343371335158,0.0137275536947392,0.101337869267109,0.161321773677694,-0.111822620235971,0.225212144193669,-0.125208461611823,0.203247952333444,-0.152706913973034,0.286832847906821,-0.2090415090083,-0.0841690653554072,-0.194887043251578,0.0139887394335365,-0.242775383777598,0.15211703264175,0.0485585989673921,0.0533191601713392,-0.146294122468514,0.245271511267592,0.185805451052506,-0.103814101885693,-0.0659192967187982,0.0244776419648723,-0.0474406806502313,0.116668852983658,-0.0633048411112214,0.0826652413572583,0.164571512857273,0.175570785116312,-0.064309613699185,0.119238394732384,0.245051420639762,0.0282853666793912,0.0638150471889038,0.0132002157403752,-0.0745192739933401,0.108240864783587,0.0271788313471468,0.043308401324157,-0.170323416324475,0.195461331572254,0.0385597988669111,-0.219933461712734,-0.110678558714298,-0.21696824322458,-0.0720897218073222,-0.190997876287129,0.174896640444345,0.036448359131949,-0.101079002932542,0.0794278539934758,-0.128122392507655,-0.168052893207126,0.0585755538789348,-0.0462896316130195,-0.0828072257241717,0.146337741072524,0.0252364136054369,0.218174764824822,0.160774473625996,0.189668528082518,0.206108806002935,-0.00146063051633868,-0.0796119963468825,0.119848294982691,-0.236857352442685,0.171956142097634,0.121926174242368,
-0.152899673406482,-0.223120563744823,-0.178983569841737,0.111269713144543,-0.031835267812919,0.0942861251517442,-0.043424303553581,0.137427444539987,-0.0528763634285936,0.0903788512560465,0.123053499880201,0.148192614432513,0.146135206825982,-0.12851641664906,-0.0692489438710471,0.170398515142318,0.0392739813089234,-0.00634484555794357,0.0711121532957026,0.143615745595539,-0.231101640048288,0.116885019889754,0.058008911868949,0.0939033850261473,-0.0168396117047995,0.130250803551401,-0.106037340320425,0.0863109900400867,0.0114516438126067,0.103530682344194,-0.175210936850781,0.265463527964004,0.102796382342106,0.0984392626448378,-0.197411732856098,0.108545732914828,-0.0903076948333651,-0.140030902337325,-0.16810282960527,0.247643790690348,0.0180404512939475,0.0826378538200653,0.172591771058094,-0.191364133721465,-0.0028730847110132,-0.136977936766321,0.0453951744083122,0.0271248726508503,0.0891263400220692,0.0908929652281831,0.00678367725589339,0.201748511407531,0.0783315051137994,0.0841740804297591,-0.0255603901652258,0.178791528189853,-0.0287157823168706,-0.112598720284319,0.0756655793845388,-0.13404239818484,-0.13525670668555,0.108610580131033,-0.155083412935772,-0.14594429533197,-0.118471196679651,0.1526442460179,-0.195309179133487,-0.0319795357739374,0.158514073402613,0.183931616016612,-0.183694792955845,-0.110903288916758,-0.199743703958604,-0.0852410839610046,0.0382273803369741,-0.221442759780649,0.219623699957363,0.175566784924322,-0.0442308973797493,-0.0709704917211642,0.125454026912834,0.075623658741997,-0.0953163650411067,-0.0782722617260795,-0.0410481685878818,0.129870592735868,0.244294867214692,0.0910940913020721,-0.0799061751372187,0.0246311161712763,0.162140870278772,0.141440439489447,-0.0157136955458664,0.0717144817501785,0.220535879461982,-0.187851298893011,-0.127873532901592,-0.191631590464934,-0.0978957302567409,-0.217537018558914,-0.236409489574646,0.0711976129586867,0.0942428697345346,-0.270993942220499,-0.247387693472948,0.149413988778043,-0.142032200607259,0.141487566000776,-0.0398898086351606,0.159372700013337,0.032871122462349,0.110483238692289,-0.0441184675377195,-0.0880203691177459,-0.0964894234328965,-0.135656662456005,-0.0166971609582904,0.0822154686751695,0.149464719434373,0.205637557714974,0.0264955014700239,-0.199618578939183,-0.0301857207736791,0.00436837890174531,-0.0119074326959331,-0.0938668622688112,-0.0194641701332419,-0.0384349952337397,
-0.174335613523893,0.061334240982497,0.0488916656383275,-0.173263333244023,0.06014797229314,-0.0530202386923824,0.150567852582798,0.148801265228111,0.200330627269702,-0.207268005149419,-0.0894916305528242,-0.152646747595926,-0.0446054609204305,-0.0738545562178267,0.050749980307293,-0.0499749187991034,-0.0125334499618234,-0.107855013197334,-0.0603608360120609,0.0870613870126414,0.0954078833880055,-0.0867079444229376,0.22314640674323,-0.2952867046279,-0.299270361859158,-0.215699413940414,0.174079402370635,0.0914443601942367,0.125862191398709,0.0810509692890723,-0.10688986371205,-0.178035253448768,-0.0357686965069823,-0.0537575737375416,-0.167597887954507,-0.0900204070139345,0.145213346721151,-0.125560892506734,-0.163111304154084,0.191543833305979,-0.135687993019801,-0.100560960516323,-0.134538970454796,0.175418329155607,0.184816759772957,0.105153137988853,-0.280431251972604,0.206393951543061,0.108915221431473,0.0742716252650742,0.0691621599006664,0.0418678520556389,-0.11007213550574,0.133802668992654,0.00441224722553241,-0.189396874021614,0.234982428165112,-0.170051252491443,-0.0648814863403694,-0.101037720486187,0.0145277710002732,0.0640591815710182,-0.179206209961733,0.0468645194260809,0.185601907869993,0.0199991382018654,0.0585711885932509,-0.0547020524259383,0.024667298194702,0.240452119252648,0.0403078352451561,-0.0240227131382834,-0.204244683396881,-0.0739662529238705,-0.0863313549457562,-0.0159810994548168,-0.263401971402421,0.065071025600167,0.0373291801084806,-0.0607274213744134,-0.169194442077606,-0.116248492520236,0.118704758392256,-0.0991953381766146,-0.0898114415571609,-0.10322963110716,-0.167991203467381,-0.122856425280937,-0.00515340151782488,-0.15242357162735,0.159989401035358,0.1465147018261,0.107006850968442,-0.235237341099536,-0.00887164670597126,-0.143684564490202,0.173709312665288,0.17235101016512,-0.0820240739158996,0.102214185931624,0.046331623828137,-0.0231929483887056,-0.145590137003835,-0.148068105651217,-0.0617988950038295,0.136829654995217,0.0821488230866409,-0.225499248804292,-0.0580955301733637,-0.109316424805343,0.135891226248496,-0.0916975931980877,-0.0907948557188527,-0.174448284731628,0.171491247783006,0.0427546742983691,-0.0126628634176125,-0.0266279833025108,0.0384661472658481,-0.123649059885017,-0.186980399252411,-0.217544044702532,0.0883374698522913,-0.143834708775268,-0.0652390136041344,-0.010306442295154,-0.101636504730812,-0.0140905584369557,
