-0.126343226765757,
-0.11276502579487,
0.0338557299490163,
0.0920552775392682,
0.0741034765906993,
-0.184790092206159,
0.0983672056139278,
0.089853743191023,
0.114469727723957,
0.0403162333128537,
0.117993433851218,
-0.184955212990616,
-0.0230994846319959,
-0.171001428271255,
-0.145092323716299,
-0.155125333136557,
0.158813410013425,
-0.152475101367546,
0.109186337423365,
-0.0478718385305311,
-0.168772238947705,
-0.19125342074234,
0.130931304633091,
-0.0286187040954166,
-0.14771644206927,
-0.100682901422532,
-0.127083889852735,
0.192182662866509,
-0.122547765130914,
-0.0803761008791599,
0.17873469581545,
-0.183739359384062,
-0.0768456589176345,
-0.25930964319047,
0.153866035386535,
0.212939834921239,
-0.0131325845886055,
0.059552700393581,
0.0155847900343342,
0.193790393075651,
0.0174951697510614,
0.11642340734599,
-0.160516951284929,
-0.0945277852112826,
0.00110146573353917,
-0.0612833943668773,
0.0557228991233725,
0.0341071584441228,
-0.131425943316269,
-0.193853268018945,
0.0797874491036503,
-0.0469928226133109,
0.131601611590434,
-0.118984552879225,
-0.0696336427856969,
-0.0212652887046864,
-0.168962584788871,
0.153483553792106,
0.0957702739643245,
-0.00530246576695753,
0.0896056946106027,
-0.0435243412125828,
0.119684474923653,
0.187038267288708,
-0.0973809146073993,
0.0393938391424229,
-0.0350618026176293,
0.132239295721069,
0.0897610568900594,
0.146341244638388,
0.167922555996919,
0.156223840494972,
0.0988746508709645,
0.0919222619774339,
0.0138404583526456,
0.10117569592521,
-0.162880867159198,
0.108057279432515,
0.176986470479468,
-0.000296754639786906,
0.195849987711163,
-0.0282540929601235,
0.21688807088947,
-0.171998795726189,
-0.184999175834111,
0.00972083966037898,
-0.0492777523876653,
-0.0806867532314674,
-0.082698203652945,
0.00108323480774894,
-0.0157256254010547,
-0.131154404285224,
-0.0333725224167185,
-0.0107522186824732,
-0.0665640974111847,
0.0599534937012243,
-0.0497484982050535,
-0.0488626894397168,
0.0522135904016886,
-0.100691838841147,
0.114549912625999,
-0.184579722739497,
-0.164532241977322,
-0.164922623270601,
-0.21051014381737,
-0.194770111583233,
-0.0184564544291426,
0.103624680845925,
0.0839200568106261,
-0.141672043428961,
-0.159123773654812,
-0.0839150154786092,
-0.165231603552957,
0.187927032748923,
-0.190460574429294,
-0.197489275478236,
-2.7300064055075e-05,
-0.0783746284270419,
-0.106161522875294,
0.176085488782191,
0.0452184200546292,
0.0691054261534984,
-0.192942791740654,
0.0211437041900881,
-0.145973124656407,
0.11990512569308,
-0.0366579958093786,
0.126378563871746